/* Organism #1 Fitness: -4250.380000 Time: 0 */
genomestart 1
trait 1 0.000000 0.000000 0.114972 1.000000 0.000000 0.000000 0.222319 0.000000 
node 1 1 1 1
node 2 1 1 1
node 3 1 1 1
node 4 1 1 1
node 5 1 1 1
node 6 1 1 1
node 7 1 1 1
node 8 1 1 1
node 9 1 1 1
node 10 1 1 1
node 11 1 1 1
node 12 1 1 1
node 13 1 1 1
node 14 1 1 1
node 15 1 1 1
node 16 1 1 1
node 17 1 1 1
node 18 1 1 1
node 19 1 1 1
node 20 1 1 1
node 21 1 1 1
node 22 1 1 1
node 23 1 1 1
node 24 1 1 1
node 25 1 1 1
node 26 1 1 1
node 27 1 1 1
node 28 1 1 1
node 29 1 1 1
node 30 1 1 1
node 31 1 1 1
node 32 1 1 1
node 33 1 1 1
node 34 1 1 1
node 35 1 1 1
node 36 1 1 1
node 37 1 1 1
node 38 1 1 1
node 39 1 1 1
node 40 1 1 1
node 41 1 1 3
node 42 1 0 2
node 43 1 0 2
node 44 1 0 2
node 45 1 0 2
node 46 1 0 2
node 47 1 0 2
node 48 1 0 2
node 49 1 0 2
gene 1 1 42 1.18904 0 1 1.18904 1
gene 1 1 43 0.359003 0 2 0.359003 1
gene 1 1 44 0.579982 0 3 0.579982 1
gene 1 1 45 -1.24911 0 4 -1.24911 1
gene 1 1 46 -4.48295 0 5 -4.48295 1
gene 1 1 47 -0.443736 0 6 -0.443736 1
gene 1 1 48 3.94523 0 7 3.94523 1
gene 1 1 49 1.88886 0 8 1.88886 1
gene 1 2 42 0.112616 0 9 0.112616 1
gene 1 2 43 0.416954 0 10 0.416954 1
gene 1 2 44 3.9404 0 11 3.9404 1
gene 1 2 45 -1.57081 0 12 -1.57081 1
gene 1 2 46 1.77377 0 13 1.77377 1
gene 1 2 47 0.632396 0 14 0.632396 1
gene 1 2 48 -1.3682 0 15 -1.3682 1
gene 1 2 49 1.97473 0 16 1.97473 1
gene 1 3 42 0.570924 0 17 0.570924 1
gene 1 3 43 -5 0 18 -5 1
gene 1 3 44 -0.0930342 0 19 -0.0930342 1
gene 1 3 45 3.70007 0 20 3.70007 1
gene 1 3 46 0.176242 0 21 0.176242 1
gene 1 3 47 2.84367 0 22 2.84367 1
gene 1 3 48 0.20171 0 23 0.20171 1
gene 1 3 49 -1.87935 0 24 -1.87935 1
gene 1 4 42 -2.35992 0 25 -2.35992 1
gene 1 4 43 -0.953762 0 26 -0.953762 1
gene 1 4 44 5 0 27 5 1
gene 1 4 45 0.60679 0 28 0.60679 1
gene 1 4 46 4.3832 0 29 4.3832 1
gene 1 4 47 -0.982957 0 30 -0.982957 1
gene 1 4 48 -1.85415 0 31 -1.85415 1
gene 1 4 49 -1.05925 0 32 -1.05925 1
gene 1 5 42 -5 0 33 -5 1
gene 1 5 43 -2.56737 0 34 -2.56737 1
gene 1 5 44 2.22755 0 35 2.22755 1
gene 1 5 45 0.552711 0 36 0.552711 1
gene 1 5 46 0.594563 0 37 0.594563 1
gene 1 5 47 -1.42446 0 38 -1.42446 1
gene 1 5 48 0.0739119 0 39 0.0739119 1
gene 1 5 49 -2.71047 0 40 -2.71047 1
gene 1 6 42 0.816362 0 41 0.816362 1
gene 1 6 43 2.24018 0 42 2.24018 1
gene 1 6 44 1.84444 0 43 1.84444 1
gene 1 6 45 -1.42003 0 44 -1.42003 1
gene 1 6 46 2.88117 0 45 2.88117 1
gene 1 6 47 -2.3496 0 46 -2.3496 1
gene 1 6 48 -0.847489 0 47 -0.847489 1
gene 1 6 49 -1.79708 0 48 -1.79708 1
gene 1 7 42 -1.64264 0 49 -1.64264 1
gene 1 7 43 -0.00941376 0 50 -0.00941376 1
gene 1 7 44 -0.528911 0 51 -0.528911 1
gene 1 7 45 5 0 52 5 1
gene 1 7 46 -0.336649 0 53 -0.336649 1
gene 1 7 47 -0.88531 0 54 -0.88531 1
gene 1 7 48 -0.234498 0 55 -0.234498 1
gene 1 7 49 4.06178 0 56 4.06178 1
gene 1 8 42 -0.746816 0 57 -0.746816 1
gene 1 8 43 -1.71995 0 58 -1.71995 1
gene 1 8 44 1.8542 0 59 1.8542 1
gene 1 8 45 -2.75153 0 60 -2.75153 1
gene 1 8 46 -3.07148 0 61 -3.07148 1
gene 1 8 47 0.319216 0 62 0.319216 1
gene 1 8 48 3.11982 0 63 3.11982 1
gene 1 8 49 -0.263203 0 64 -0.263203 1
gene 1 9 42 1.2609 0 65 1.2609 1
gene 1 9 43 -1.61358 0 66 -1.61358 1
gene 1 9 44 0.0822842 0 67 0.0822842 1
gene 1 9 45 0.453752 0 68 0.453752 1
gene 1 9 46 2.40123 0 69 2.40123 1
gene 1 9 47 -1.25743 0 70 -1.25743 1
gene 1 9 48 0.416255 0 71 0.416255 1
gene 1 9 49 0.260665 0 72 0.260665 1
gene 1 10 42 -3.26681 0 73 -3.26681 1
gene 1 10 43 0.662784 0 74 0.662784 1
gene 1 10 44 -3.34925 0 75 -3.34925 1
gene 1 10 45 4.30048 0 76 4.30048 1
gene 1 10 46 0.919569 0 77 0.919569 1
gene 1 10 47 -4.62302 0 78 -4.62302 1
gene 1 10 48 -2.22249 0 79 -2.22249 1
gene 1 10 49 0.50434 0 80 0.50434 1
gene 1 11 42 -2.36615 0 81 -2.36615 1
gene 1 11 43 -0.115807 0 82 -0.115807 1
gene 1 11 44 1.33102 0 83 1.33102 1
gene 1 11 45 1.74565 0 84 1.74565 1
gene 1 11 46 -0.35741 0 85 -0.35741 1
gene 1 11 47 1.00328 0 86 1.00328 1
gene 1 11 48 2.74793 0 87 2.74793 1
gene 1 11 49 -1.73161 0 88 -1.73161 1
gene 1 12 42 1.55532 0 89 1.55532 1
gene 1 12 43 -0.788552 0 90 -0.788552 1
gene 1 12 44 -0.93351 0 91 -0.93351 1
gene 1 12 45 -2.74287 0 92 -2.74287 1
gene 1 12 46 -3.86834 0 93 -3.86834 1
gene 1 12 47 -2.45877 0 94 -2.45877 1
gene 1 12 48 0.401359 0 95 0.401359 1
gene 1 12 49 0.73308 0 96 0.73308 1
gene 1 13 42 -1.46673 0 97 -1.46673 1
gene 1 13 43 -2.58146 0 98 -2.58146 1
gene 1 13 44 -0.460238 0 99 -0.460238 1
gene 1 13 45 1.09644 0 100 1.09644 1
gene 1 13 46 -1.14655 0 101 -1.14655 1
gene 1 13 47 0.823765 0 102 0.823765 1
gene 1 13 48 1.52281 0 103 1.52281 1
gene 1 13 49 0.879068 0 104 0.879068 1
gene 1 14 42 -1.81181 0 105 -1.81181 1
gene 1 14 43 4.84164 0 106 4.84164 1
gene 1 14 44 0.407418 0 107 0.407418 1
gene 1 14 45 1.14777 0 108 1.14777 1
gene 1 14 46 -4.83427 0 109 -4.83427 1
gene 1 14 47 1.79031 0 110 1.79031 1
gene 1 14 48 2.03314 0 111 2.03314 1
gene 1 14 49 0.442971 0 112 0.442971 1
gene 1 15 42 -2.02402 0 113 -2.02402 1
gene 1 15 43 -1.81117 0 114 -1.81117 1
gene 1 15 44 4.25489 0 115 4.25489 1
gene 1 15 45 -0.0416203 0 116 -0.0416203 1
gene 1 15 46 0.89955 0 117 0.89955 1
gene 1 15 47 -3.07419 0 118 -3.07419 1
gene 1 15 48 0.826091 0 119 0.826091 1
gene 1 15 49 0.166179 0 120 0.166179 1
gene 1 16 42 -0.232134 0 121 -0.232134 1
gene 1 16 43 -4.82653 0 122 -4.82653 1
gene 1 16 44 -0.536871 0 123 -0.536871 1
gene 1 16 45 0.754543 0 124 0.754543 1
gene 1 16 46 -3.33762 0 125 -3.33762 1
gene 1 16 47 -1.85395 0 126 -1.85395 1
gene 1 16 48 -4.40747 0 127 -4.40747 1
gene 1 16 49 -1.1046 0 128 -1.1046 1
gene 1 17 42 0.463595 0 129 0.463595 1
gene 1 17 43 1.11713 0 130 1.11713 1
gene 1 17 44 -1.68325 0 131 -1.68325 1
gene 1 17 45 -3.96798 0 132 -3.96798 1
gene 1 17 46 -5 0 133 -5 1
gene 1 17 47 1.14557 0 134 1.14557 1
gene 1 17 48 -0.684955 0 135 -0.684955 1
gene 1 17 49 0.997773 0 136 0.997773 1
gene 1 18 42 3.95419 0 137 3.95419 1
gene 1 18 43 0.24653 0 138 0.24653 1
gene 1 18 44 -0.0903356 0 139 -0.0903356 1
gene 1 18 45 -3.23297 0 140 -3.23297 1
gene 1 18 46 -0.279167 0 141 -0.279167 1
gene 1 18 47 -2.0678 0 142 -2.0678 1
gene 1 18 48 1.52047 0 143 1.52047 1
gene 1 18 49 1.61159 0 144 1.61159 1
gene 1 19 42 -1.78166 0 145 -1.78166 1
gene 1 19 43 1.19463 0 146 1.19463 1
gene 1 19 44 1.29626 0 147 1.29626 1
gene 1 19 45 0.0684533 0 148 0.0684533 1
gene 1 19 46 1.44587 0 149 1.44587 1
gene 1 19 47 -0.922277 0 150 -0.922277 1
gene 1 19 48 2.30698 0 151 2.30698 1
gene 1 19 49 3.01474 0 152 3.01474 1
gene 1 20 42 0.745681 0 153 0.745681 1
gene 1 20 43 1.70176 0 154 1.70176 1
gene 1 20 44 -0.658295 0 155 -0.658295 1
gene 1 20 45 -3.5841 0 156 -3.5841 1
gene 1 20 46 -0.56918 0 157 -0.56918 1
gene 1 20 47 2.10354 0 158 2.10354 1
gene 1 20 48 2.38618 0 159 2.38618 1
gene 1 20 49 -0.192892 0 160 -0.192892 1
gene 1 21 42 4.15018 0 161 4.15018 1
gene 1 21 43 -3.20277 0 162 -3.20277 1
gene 1 21 44 -0.11088 0 163 -0.11088 1
gene 1 21 45 1.38272 0 164 1.38272 1
gene 1 21 46 -1.22291 0 165 -1.22291 1
gene 1 21 47 -1.57995 0 166 -1.57995 1
gene 1 21 48 0.111079 0 167 0.111079 1
gene 1 21 49 -5 0 168 -5 1
gene 1 22 42 -0.821094 0 169 -0.821094 1
gene 1 22 43 0.557492 0 170 0.557492 1
gene 1 22 44 2.45534 0 171 2.45534 1
gene 1 22 45 1.19615 0 172 1.19615 1
gene 1 22 46 0.48935 0 173 0.48935 1
gene 1 22 47 -1.11245 0 174 -1.11245 1
gene 1 22 48 -0.675949 0 175 -0.675949 1
gene 1 22 49 -0.860004 0 176 -0.860004 1
gene 1 23 42 -4.1433 0 177 -4.1433 1
gene 1 23 43 -1.61334 0 178 -1.61334 1
gene 1 23 44 1.74219 0 179 1.74219 1
gene 1 23 45 -2.21243 0 180 -2.21243 1
gene 1 23 46 0.735718 0 181 0.735718 1
gene 1 23 47 1.98523 0 182 1.98523 1
gene 1 23 48 2.1349 0 183 2.1349 1
gene 1 23 49 -4.7207 0 184 -4.7207 1
gene 1 24 42 -2.32699 0 185 -2.32699 1
gene 1 24 43 0.0869793 0 186 0.0869793 1
gene 1 24 44 0.402121 0 187 0.402121 1
gene 1 24 45 -1.18721 0 188 -1.18721 1
gene 1 24 46 1.28499 0 189 1.28499 1
gene 1 24 47 -1.53602 0 190 -1.53602 1
gene 1 24 48 -2.60175 0 191 -2.60175 1
gene 1 24 49 -0.753855 0 192 -0.753855 1
gene 1 25 42 0.792733 0 193 0.792733 1
gene 1 25 43 -1.65969 0 194 -1.65969 1
gene 1 25 44 -2.00272 0 195 -2.00272 1
gene 1 25 45 -0.0886812 0 196 -0.0886812 1
gene 1 25 46 -1.36907 0 197 -1.36907 1
gene 1 25 47 1.41165 0 198 1.41165 1
gene 1 25 48 -0.704009 0 199 -0.704009 1
gene 1 25 49 -1.76807 0 200 -1.76807 1
gene 1 26 42 -1.82915 0 201 -1.82915 1
gene 1 26 43 -0.830921 0 202 -0.830921 1
gene 1 26 44 -2.69708 0 203 -2.69708 1
gene 1 26 45 0.0841966 0 204 0.0841966 1
gene 1 26 46 0.692216 0 205 0.692216 1
gene 1 26 47 -1.60283 0 206 -1.60283 1
gene 1 26 48 -3.02937 0 207 -3.02937 1
gene 1 26 49 1.20869 0 208 1.20869 1
gene 1 27 42 -1.08214 0 209 -1.08214 1
gene 1 27 43 -0.346755 0 210 -0.346755 1
gene 1 27 44 -1.23488 0 211 -1.23488 1
gene 1 27 45 -2.04108 0 212 -2.04108 1
gene 1 27 46 1.39392 0 213 1.39392 1
gene 1 27 47 0.999872 0 214 0.999872 1
gene 1 27 48 -1.83185 0 215 -1.83185 1
gene 1 27 49 -0.257317 0 216 -0.257317 1
gene 1 28 42 0.867875 0 217 0.867875 1
gene 1 28 43 0.576961 0 218 0.576961 1
gene 1 28 44 -0.800079 0 219 -0.800079 1
gene 1 28 45 0.109663 0 220 0.109663 1
gene 1 28 46 -0.420546 0 221 -0.420546 1
gene 1 28 47 0.802241 0 222 0.802241 1
gene 1 28 48 0.227135 0 223 0.227135 1
gene 1 28 49 1.56071 0 224 1.56071 1
gene 1 29 42 0.661509 0 225 0.661509 1
gene 1 29 43 1.67332 0 226 1.67332 1
gene 1 29 44 -1.35401 0 227 -1.35401 1
gene 1 29 45 -2.28676 0 228 -2.28676 1
gene 1 29 46 1.63743 0 229 1.63743 1
gene 1 29 47 1.43205 0 230 1.43205 1
gene 1 29 48 0.179678 0 231 0.179678 1
gene 1 29 49 0.906004 0 232 0.906004 1
gene 1 30 42 0.744695 0 233 0.744695 1
gene 1 30 43 0.54523 0 234 0.54523 1
gene 1 30 44 -0.173296 0 235 -0.173296 1
gene 1 30 45 0.35029 0 236 0.35029 1
gene 1 30 46 -0.678697 0 237 -0.678697 1
gene 1 30 47 -5 0 238 -5 1
gene 1 30 48 2.91332 0 239 2.91332 1
gene 1 30 49 0.269852 0 240 0.269852 1
gene 1 31 42 2.02604 0 241 2.02604 1
gene 1 31 43 0.576954 0 242 0.576954 1
gene 1 31 44 -0.859045 0 243 -0.859045 1
gene 1 31 45 4.6493 0 244 4.6493 1
gene 1 31 46 3.02106 0 245 3.02106 1
gene 1 31 47 2.05363 0 246 2.05363 1
gene 1 31 48 -4.98757 0 247 -4.98757 1
gene 1 31 49 -2.44209 0 248 -2.44209 1
gene 1 32 42 -1.27084 0 249 -1.27084 1
gene 1 32 43 0.657653 0 250 0.657653 1
gene 1 32 44 -2.8549 0 251 -2.8549 1
gene 1 32 45 -3.2804 0 252 -3.2804 1
gene 1 32 46 -0.00778203 0 253 -0.00778203 1
gene 1 32 47 -0.217069 0 254 -0.217069 1
gene 1 32 48 -0.650149 0 255 -0.650149 1
gene 1 32 49 1.80641 0 256 1.80641 1
gene 1 33 42 -1.65465 0 257 -1.65465 1
gene 1 33 43 -2.47668 0 258 -2.47668 1
gene 1 33 44 -1.14278 0 259 -1.14278 1
gene 1 33 45 -0.402098 0 260 -0.402098 1
gene 1 33 46 -1.37435 0 261 -1.37435 1
gene 1 33 47 0.250715 0 262 0.250715 1
gene 1 33 48 0.934283 0 263 0.934283 1
gene 1 33 49 -0.877858 0 264 -0.877858 1
gene 1 34 42 -2.81637 0 265 -2.81637 1
gene 1 34 43 -0.446727 0 266 -0.446727 1
gene 1 34 44 1.13151 0 267 1.13151 1
gene 1 34 45 0.234187 0 268 0.234187 1
gene 1 34 46 -0.51617 0 269 -0.51617 1
gene 1 34 47 -1.40992 0 270 -1.40992 1
gene 1 34 48 0.555814 0 271 0.555814 1
gene 1 34 49 -1.12124 0 272 -1.12124 1
gene 1 35 42 1.96036 0 273 1.96036 1
gene 1 35 43 0.348145 0 274 0.348145 1
gene 1 35 44 -0.456571 0 275 -0.456571 1
gene 1 35 45 1.57922 0 276 1.57922 1
gene 1 35 46 -1.06965 0 277 -1.06965 1
gene 1 35 47 1.62159 0 278 1.62159 1
gene 1 35 48 1.66908 0 279 1.66908 1
gene 1 35 49 0.933926 0 280 0.933926 1
gene 1 36 42 1.31498 0 281 1.31498 1
gene 1 36 43 -0.478494 0 282 -0.478494 1
gene 1 36 44 -0.440636 0 283 -0.440636 1
gene 1 36 45 -0.112089 0 284 -0.112089 1
gene 1 36 46 -0.538316 0 285 -0.538316 1
gene 1 36 47 -0.201463 0 286 -0.201463 1
gene 1 36 48 0.93328 0 287 0.93328 1
gene 1 36 49 0.20104 0 288 0.20104 1
gene 1 37 42 -0.762628 0 289 -0.762628 1
gene 1 37 43 -0.21264 0 290 -0.21264 1
gene 1 37 44 1.00546 0 291 1.00546 1
gene 1 37 45 -1.39256 0 292 -1.39256 1
gene 1 37 46 2.73847 0 293 2.73847 1
gene 1 37 47 -0.227457 0 294 -0.227457 1
gene 1 37 48 -0.812351 0 295 -0.812351 1
gene 1 37 49 -1.22363 0 296 -1.22363 1
gene 1 38 42 0.174398 0 297 0.174398 1
gene 1 38 43 0.422738 0 298 0.422738 1
gene 1 38 44 0.171599 0 299 0.171599 1
gene 1 38 45 -0.0625432 0 300 -0.0625432 1
gene 1 38 46 0.247984 0 301 0.247984 1
gene 1 38 47 1.22894 0 302 1.22894 1
gene 1 38 48 -0.833113 0 303 -0.833113 1
gene 1 38 49 0.532242 0 304 0.532242 1
gene 1 39 42 3.20779 0 305 3.20779 1
gene 1 39 43 -0.327596 0 306 -0.327596 1
gene 1 39 44 0.677834 0 307 0.677834 1
gene 1 39 45 -1.53664 0 308 -1.53664 1
gene 1 39 46 -0.902733 0 309 -0.902733 1
gene 1 39 47 0.503483 0 310 0.503483 1
gene 1 39 48 0.752807 0 311 0.752807 1
gene 1 39 49 -0.0714112 0 312 -0.0714112 1
gene 1 40 42 0.285224 0 313 0.285224 1
gene 1 40 43 0.968546 0 314 0.968546 1
gene 1 40 44 -0.144076 0 315 -0.144076 1
gene 1 40 45 -1.91141 0 316 -1.91141 1
gene 1 40 46 -1.97027 0 317 -1.97027 1
gene 1 40 47 -0.357567 0 318 -0.357567 1
gene 1 40 48 -0.755011 0 319 -0.755011 1
gene 1 40 49 -0.446235 0 320 -0.446235 1
gene 1 41 42 -1.01578 0 321 -1.01578 1
gene 1 41 43 1.42578 0 322 1.42578 1
gene 1 41 44 -3.85314 0 323 -3.85314 1
gene 1 41 45 -0.219519 0 324 -0.219519 1
gene 1 41 46 0.105626 0 325 0.105626 1
gene 1 41 47 0.740265 0 326 0.740265 1
gene 1 41 48 0.387056 0 327 0.387056 1
gene 1 41 49 0.234484 0 328 0.234484 1
genomeend 1


