/* Organism #0 Fitness: -4813.610000 Time: 0 */
genomestart 0
trait 1 0.960158 0.385722 0.000000 0.000000 0.000000 0.440926 0.000000 0.000000 
node 1 1 1 1
node 2 1 1 1
node 3 1 1 1
node 4 1 1 1
node 5 1 1 1
node 6 1 1 1
node 7 1 1 1
node 8 1 1 1
node 9 1 1 1
node 10 1 1 1
node 11 1 1 1
node 12 1 1 1
node 13 1 1 1
node 14 1 1 1
node 15 1 1 1
node 16 1 1 1
node 17 1 1 1
node 18 1 1 1
node 19 1 1 1
node 20 1 1 1
node 21 1 1 1
node 22 1 1 1
node 23 1 1 1
node 24 1 1 1
node 25 1 1 1
node 26 1 1 1
node 27 1 1 1
node 28 1 1 1
node 29 1 1 1
node 30 1 1 1
node 31 1 1 1
node 32 1 1 1
node 33 1 1 1
node 34 1 1 1
node 35 1 1 1
node 36 1 1 1
node 37 1 1 1
node 38 1 1 1
node 39 1 1 1
node 40 1 1 1
node 41 1 1 3
node 42 1 0 2
node 43 1 0 2
node 44 1 0 2
node 45 1 0 2
node 46 1 0 2
node 47 1 0 2
node 48 1 0 2
node 49 1 0 2
gene 1 1 42 -1.53395 0 1 -1.53395 1
gene 1 1 43 -2.48534 0 2 -2.48534 1
gene 1 1 44 -0.38281 0 3 -0.38281 1
gene 1 1 45 -0.251559 0 4 -0.251559 1
gene 1 1 46 4.43068 0 5 4.43068 1
gene 1 1 47 -3.12188 0 6 -3.12188 1
gene 1 1 48 -1.07103 0 7 -1.07103 1
gene 1 1 49 -1.16602 0 8 -1.16602 1
gene 1 2 42 3.17272 0 9 3.17272 1
gene 1 2 43 -1.73033 0 10 -1.73033 1
gene 1 2 44 0.300633 0 11 0.300633 1
gene 1 2 45 -0.946506 0 12 -0.946506 1
gene 1 2 46 -0.579935 0 13 -0.579935 1
gene 1 2 47 -2.19343 0 14 -2.19343 1
gene 1 2 48 -2.37611 0 15 -2.37611 1
gene 1 2 49 1.52075 0 16 1.52075 1
gene 1 3 42 -1.55563 0 17 -1.55563 1
gene 1 3 43 0.683037 0 18 0.683037 1
gene 1 3 44 -0.518843 0 19 -0.518843 1
gene 1 3 45 1.43855 0 20 1.43855 1
gene 1 3 46 0.0773068 0 21 0.0773068 1
gene 1 3 47 0.294755 0 22 0.294755 1
gene 1 3 48 3.99991 0 23 3.99991 1
gene 1 3 49 -0.0242248 0 24 -0.0242248 1
gene 1 4 42 -5 0 25 -5 1
gene 1 4 43 -0.113062 0 26 -0.113062 1
gene 1 4 44 1.05023 0 27 1.05023 1
gene 1 4 45 3.63339 0 28 3.63339 1
gene 1 4 46 -2.48294 0 29 -2.48294 1
gene 1 4 47 -2.13765 0 30 -2.13765 1
gene 1 4 48 3.38353 0 31 3.38353 1
gene 1 4 49 -1.1904 0 32 -1.1904 1
gene 1 5 42 -1.43539 0 33 -1.43539 1
gene 1 5 43 3.70528 0 34 3.70528 1
gene 1 5 44 0.115086 0 35 0.115086 1
gene 1 5 45 0.0675063 0 36 0.0675063 1
gene 1 5 46 2.05826 0 37 2.05826 1
gene 1 5 47 0.172651 0 38 0.172651 1
gene 1 5 48 2.20044 0 39 2.20044 1
gene 1 5 49 -2.56456 0 40 -2.56456 1
gene 1 6 42 -2.17967 0 41 -2.17967 1
gene 1 6 43 -4.3379 0 42 -4.3379 1
gene 1 6 44 -1.30204 0 43 -1.30204 1
gene 1 6 45 0.747394 0 44 0.747394 1
gene 1 6 46 -1.73369 0 45 -1.73369 1
gene 1 6 47 -1.08132 0 46 -1.08132 1
gene 1 6 48 3.67638 0 47 3.67638 1
gene 1 6 49 0.80605 0 48 0.80605 1
gene 1 7 42 3.22938 0 49 3.22938 1
gene 1 7 43 3.42269 0 50 3.42269 1
gene 1 7 44 -1.0003 0 51 -1.0003 1
gene 1 7 45 1.31954 0 52 1.31954 1
gene 1 7 46 1.5691 0 53 1.5691 1
gene 1 7 47 -0.921625 0 54 -0.921625 1
gene 1 7 48 0.863822 0 55 0.863822 1
gene 1 7 49 0.897166 0 56 0.897166 1
gene 1 8 42 -1.03822 0 57 -1.03822 1
gene 1 8 43 1.64893 0 58 1.64893 1
gene 1 8 44 -2.85529 0 59 -2.85529 1
gene 1 8 45 3.13224 0 60 3.13224 1
gene 1 8 46 -0.410279 0 61 -0.410279 1
gene 1 8 47 -0.419645 0 62 -0.419645 1
gene 1 8 48 -1.20423 0 63 -1.20423 1
gene 1 8 49 -3.57554 0 64 -3.57554 1
gene 1 9 42 3.45232 0 65 3.45232 1
gene 1 9 43 -2.40717 0 66 -2.40717 1
gene 1 9 44 3.52628 0 67 3.52628 1
gene 1 9 45 0.328474 0 68 0.328474 1
gene 1 9 46 -0.0054352 0 69 -0.0054352 1
gene 1 9 47 0.707862 0 70 0.707862 1
gene 1 9 48 -0.300462 0 71 -0.300462 1
gene 1 9 49 -0.403026 0 72 -0.403026 1
gene 1 10 42 -2.23351 0 73 -2.23351 1
gene 1 10 43 -2.66777 0 74 -2.66777 1
gene 1 10 44 -1.20241 0 75 -1.20241 1
gene 1 10 45 1.05978 0 76 1.05978 1
gene 1 10 46 3.06046 0 77 3.06046 1
gene 1 10 47 1.49202 0 78 1.49202 1
gene 1 10 48 0.0724817 0 79 0.0724817 1
gene 1 10 49 -0.0721607 0 80 -0.0721607 1
gene 1 11 42 1.42025 0 81 1.42025 1
gene 1 11 43 -1.77287 0 82 -1.77287 1
gene 1 11 44 -2.88811 0 83 -2.88811 1
gene 1 11 45 1.84115 0 84 1.84115 1
gene 1 11 46 -0.0999129 0 85 -0.0999129 1
gene 1 11 47 0.922465 0 86 0.922465 1
gene 1 11 48 5 0 87 5 1
gene 1 11 49 -3.34952 0 88 -3.34952 1
gene 1 12 42 -2.24091 0 89 -2.24091 1
gene 1 12 43 0.078082 0 90 0.078082 1
gene 1 12 44 -0.262806 0 91 -0.262806 1
gene 1 12 45 -0.0396331 0 92 -0.0396331 1
gene 1 12 46 -2.40526 0 93 -2.40526 1
gene 1 12 47 0.358399 0 94 0.358399 1
gene 1 12 48 1.20262 0 95 1.20262 1
gene 1 12 49 3.5784 0 96 3.5784 1
gene 1 13 42 -1.54238 0 97 -1.54238 1
gene 1 13 43 1.54789 0 98 1.54789 1
gene 1 13 44 -1.11363 0 99 -1.11363 1
gene 1 13 45 4.92974 0 100 4.92974 1
gene 1 13 46 2.97419 0 101 2.97419 1
gene 1 13 47 4.11253 0 102 4.11253 1
gene 1 13 48 -1.27355 0 103 -1.27355 1
gene 1 13 49 1.50986 0 104 1.50986 1
gene 1 14 42 1.63116 0 105 1.63116 1
gene 1 14 43 -0.583248 0 106 -0.583248 1
gene 1 14 44 -1.14728 0 107 -1.14728 1
gene 1 14 45 -2.38076 0 108 -2.38076 1
gene 1 14 46 0.363386 0 109 0.363386 1
gene 1 14 47 0.912036 0 110 0.912036 1
gene 1 14 48 -0.425745 0 111 -0.425745 1
gene 1 14 49 3.3687 0 112 3.3687 1
gene 1 15 42 0.168219 0 113 0.168219 1
gene 1 15 43 -1.75651 0 114 -1.75651 1
gene 1 15 44 3.78723 0 115 3.78723 1
gene 1 15 45 1.48252 0 116 1.48252 1
gene 1 15 46 0.328075 0 117 0.328075 1
gene 1 15 47 0.241753 0 118 0.241753 1
gene 1 15 48 1.13412 0 119 1.13412 1
gene 1 15 49 -0.29836 0 120 -0.29836 1
gene 1 16 42 0.164478 0 121 0.164478 1
gene 1 16 43 -0.598294 0 122 -0.598294 1
gene 1 16 44 -2.60923 0 123 -2.60923 1
gene 1 16 45 0.531684 0 124 0.531684 1
gene 1 16 46 2.04538 0 125 2.04538 1
gene 1 16 47 0.287256 0 126 0.287256 1
gene 1 16 48 -1.58479 0 127 -1.58479 1
gene 1 16 49 -0.394861 0 128 -0.394861 1
gene 1 17 42 -0.174374 0 129 -0.174374 1
gene 1 17 43 2.25828 0 130 2.25828 1
gene 1 17 44 -2.259 0 131 -2.259 1
gene 1 17 45 -1.18696 0 132 -1.18696 1
gene 1 17 46 2.03823 0 133 2.03823 1
gene 1 17 47 -3.25033 0 134 -3.25033 1
gene 1 17 48 0.20596 0 135 0.20596 1
gene 1 17 49 -2.33465 0 136 -2.33465 1
gene 1 18 42 -0.369296 0 137 -0.369296 1
gene 1 18 43 0.615268 0 138 0.615268 1
gene 1 18 44 -1.68327 0 139 -1.68327 1
gene 1 18 45 2.21473 0 140 2.21473 1
gene 1 18 46 -0.0040779 0 141 -0.0040779 1
gene 1 18 47 -2.73754 0 142 -2.73754 1
gene 1 18 48 -2.6621 0 143 -2.6621 1
gene 1 18 49 4.38833 0 144 4.38833 1
gene 1 19 42 -0.738199 0 145 -0.738199 1
gene 1 19 43 0.27224 0 146 0.27224 1
gene 1 19 44 -1.86864 0 147 -1.86864 1
gene 1 19 45 -4.14893 0 148 -4.14893 1
gene 1 19 46 -0.415865 0 149 -0.415865 1
gene 1 19 47 -0.539925 0 150 -0.539925 1
gene 1 19 48 1.11602 0 151 1.11602 1
gene 1 19 49 1.24599 0 152 1.24599 1
gene 1 20 42 0.321161 0 153 0.321161 1
gene 1 20 43 -1.08751 0 154 -1.08751 1
gene 1 20 44 2.7566 0 155 2.7566 1
gene 1 20 45 0.752333 0 156 0.752333 1
gene 1 20 46 0.0637327 0 157 0.0637327 1
gene 1 20 47 -3.26089 0 158 -3.26089 1
gene 1 20 48 1.74947 0 159 1.74947 1
gene 1 20 49 -0.690393 0 160 -0.690393 1
gene 1 21 42 1.33455 0 161 1.33455 1
gene 1 21 43 -2.30898 0 162 -2.30898 1
gene 1 21 44 -0.404127 0 163 -0.404127 1
gene 1 21 45 -2.78674 0 164 -2.78674 1
gene 1 21 46 -0.407992 0 165 -0.407992 1
gene 1 21 47 -2.09965 0 166 -2.09965 1
gene 1 21 48 0.195477 0 167 0.195477 1
gene 1 21 49 -0.605751 0 168 -0.605751 1
gene 1 22 42 0.468241 0 169 0.468241 1
gene 1 22 43 0.0713957 0 170 0.0713957 1
gene 1 22 44 -0.926771 0 171 -0.926771 1
gene 1 22 45 0.741087 0 172 0.741087 1
gene 1 22 46 -1.9453 0 173 -1.9453 1
gene 1 22 47 -5 0 174 -5 1
gene 1 22 48 -3.40959 0 175 -3.40959 1
gene 1 22 49 -3.54096 0 176 -3.54096 1
gene 1 23 42 -1.44687 0 177 -1.44687 1
gene 1 23 43 1.66124 0 178 1.66124 1
gene 1 23 44 4.22149 0 179 4.22149 1
gene 1 23 45 -0.695197 0 180 -0.695197 1
gene 1 23 46 1.57936 0 181 1.57936 1
gene 1 23 47 0.548843 0 182 0.548843 1
gene 1 23 48 -4.17371 0 183 -4.17371 1
gene 1 23 49 2.09043 0 184 2.09043 1
gene 1 24 42 1.27006 0 185 1.27006 1
gene 1 24 43 1.28146 0 186 1.28146 1
gene 1 24 44 -1.66281 0 187 -1.66281 1
gene 1 24 45 -0.0879408 0 188 -0.0879408 1
gene 1 24 46 -1.14153 0 189 -1.14153 1
gene 1 24 47 -3.27651 0 190 -3.27651 1
gene 1 24 48 -0.56849 0 191 -0.56849 1
gene 1 24 49 -1.814 0 192 -1.814 1
gene 1 25 42 -2.41555 0 193 -2.41555 1
gene 1 25 43 3.4152 0 194 3.4152 1
gene 1 25 44 0.652527 0 195 0.652527 1
gene 1 25 45 -1.57812 0 196 -1.57812 1
gene 1 25 46 1.14677 0 197 1.14677 1
gene 1 25 47 -1.49217 0 198 -1.49217 1
gene 1 25 48 2.45956 0 199 2.45956 1
gene 1 25 49 1.24874 0 200 1.24874 1
gene 1 26 42 -0.469056 0 201 -0.469056 1
gene 1 26 43 1.51126 0 202 1.51126 1
gene 1 26 44 1.81837 0 203 1.81837 1
gene 1 26 45 0.189175 0 204 0.189175 1
gene 1 26 46 -0.524303 0 205 -0.524303 1
gene 1 26 47 3.6606 0 206 3.6606 1
gene 1 26 48 0.736288 0 207 0.736288 1
gene 1 26 49 2.15574 0 208 2.15574 1
gene 1 27 42 0.471475 0 209 0.471475 1
gene 1 27 43 -0.289844 0 210 -0.289844 1
gene 1 27 44 3.23302 0 211 3.23302 1
gene 1 27 45 1.39372 0 212 1.39372 1
gene 1 27 46 -0.600453 0 213 -0.600453 1
gene 1 27 47 0.699149 0 214 0.699149 1
gene 1 27 48 -2.83159 0 215 -2.83159 1
gene 1 27 49 1.47199 0 216 1.47199 1
gene 1 28 42 -0.990426 0 217 -0.990426 1
gene 1 28 43 0.928827 0 218 0.928827 1
gene 1 28 44 -1.3138 0 219 -1.3138 1
gene 1 28 45 1.72381 0 220 1.72381 1
gene 1 28 46 1.11942 0 221 1.11942 1
gene 1 28 47 2.83115 0 222 2.83115 1
gene 1 28 48 0.986284 0 223 0.986284 1
gene 1 28 49 -1.12518 0 224 -1.12518 1
gene 1 29 42 -2.00747 0 225 -2.00747 1
gene 1 29 43 0.257361 0 226 0.257361 1
gene 1 29 44 4.28374 0 227 4.28374 1
gene 1 29 45 -0.644244 0 228 -0.644244 1
gene 1 29 46 0.278184 0 229 0.278184 1
gene 1 29 47 3.46763 0 230 3.46763 1
gene 1 29 48 0.616415 0 231 0.616415 1
gene 1 29 49 -2.4944 0 232 -2.4944 1
gene 1 30 42 -0.939702 0 233 -0.939702 1
gene 1 30 43 0.851158 0 234 0.851158 1
gene 1 30 44 -0.0812916 0 235 -0.0812916 1
gene 1 30 45 -1.89658 0 236 -1.89658 1
gene 1 30 46 -1.23559 0 237 -1.23559 1
gene 1 30 47 1.58785 0 238 1.58785 1
gene 1 30 48 1.83039 0 239 1.83039 1
gene 1 30 49 0.310981 0 240 0.310981 1
gene 1 31 42 -0.306192 0 241 -0.306192 1
gene 1 31 43 -0.00889628 0 242 -0.00889628 1
gene 1 31 44 2.83517 0 243 2.83517 1
gene 1 31 45 -1.98796 0 244 -1.98796 1
gene 1 31 46 -1.5733 0 245 -1.5733 1
gene 1 31 47 0.05084 0 246 0.05084 1
gene 1 31 48 -3.03432 0 247 -3.03432 1
gene 1 31 49 -1.5334 0 248 -1.5334 1
gene 1 32 42 -0.312907 0 249 -0.312907 1
gene 1 32 43 -1.00294 0 250 -1.00294 1
gene 1 32 44 -1.10338 0 251 -1.10338 1
gene 1 32 45 -0.704994 0 252 -0.704994 1
gene 1 32 46 0.0317512 0 253 0.0317512 1
gene 1 32 47 -1.43901 0 254 -1.43901 1
gene 1 32 48 -4.31417 0 255 -4.31417 1
gene 1 32 49 -2.19666 0 256 -2.19666 1
gene 1 33 42 0.447547 0 257 0.447547 1
gene 1 33 43 1.28148 0 258 1.28148 1
gene 1 33 44 0.153541 0 259 0.153541 1
gene 1 33 45 -2.80819 0 260 -2.80819 1
gene 1 33 46 3.01021 0 261 3.01021 1
gene 1 33 47 4.50793 0 262 4.50793 1
gene 1 33 48 -1.12508 0 263 -1.12508 1
gene 1 33 49 -0.120411 0 264 -0.120411 1
gene 1 34 42 0.31284 0 265 0.31284 1
gene 1 34 43 -0.080475 0 266 -0.080475 1
gene 1 34 44 2.8901 0 267 2.8901 1
gene 1 34 45 -2.41567 0 268 -2.41567 1
gene 1 34 46 -0.751814 0 269 -0.751814 1
gene 1 34 47 -0.530988 0 270 -0.530988 1
gene 1 34 48 -1.21642 0 271 -1.21642 1
gene 1 34 49 -0.377284 0 272 -0.377284 1
gene 1 35 42 -0.264308 0 273 -0.264308 1
gene 1 35 43 -1.47823 0 274 -1.47823 1
gene 1 35 44 -0.610482 0 275 -0.610482 1
gene 1 35 45 -1.04131 0 276 -1.04131 1
gene 1 35 46 0.1454 0 277 0.1454 1
gene 1 35 47 1.96126 0 278 1.96126 1
gene 1 35 48 -0.202026 0 279 -0.202026 1
gene 1 35 49 -0.54693 0 280 -0.54693 1
gene 1 36 42 1.40945 0 281 1.40945 1
gene 1 36 43 -0.343874 0 282 -0.343874 1
gene 1 36 44 -1.1992 0 283 -1.1992 1
gene 1 36 45 -0.00911148 0 284 -0.00911148 1
gene 1 36 46 0.758048 0 285 0.758048 1
gene 1 36 47 -0.37755 0 286 -0.37755 1
gene 1 36 48 0.753863 0 287 0.753863 1
gene 1 36 49 0.262658 0 288 0.262658 1
gene 1 37 42 0.801196 0 289 0.801196 1
gene 1 37 43 -1.07446 0 290 -1.07446 1
gene 1 37 44 1.35279 0 291 1.35279 1
gene 1 37 45 -1.24269 0 292 -1.24269 1
gene 1 37 46 -0.620068 0 293 -0.620068 1
gene 1 37 47 -0.713767 0 294 -0.713767 1
gene 1 37 48 -0.478877 0 295 -0.478877 1
gene 1 37 49 -1.32093 0 296 -1.32093 1
gene 1 38 42 -0.407557 0 297 -0.407557 1
gene 1 38 43 -0.513899 0 298 -0.513899 1
gene 1 38 44 -0.316604 0 299 -0.316604 1
gene 1 38 45 -1.41299 0 300 -1.41299 1
gene 1 38 46 -0.064141 0 301 -0.064141 1
gene 1 38 47 1.06084 0 302 1.06084 1
gene 1 38 48 0.669848 0 303 0.669848 1
gene 1 38 49 -0.478416 0 304 -0.478416 1
gene 1 39 42 -0.234664 0 305 -0.234664 1
gene 1 39 43 -0.819295 0 306 -0.819295 1
gene 1 39 44 -0.753511 0 307 -0.753511 1
gene 1 39 45 -0.63366 0 308 -0.63366 1
gene 1 39 46 1.76966 0 309 1.76966 1
gene 1 39 47 -0.932093 0 310 -0.932093 1
gene 1 39 48 0.0281462 0 311 0.0281462 1
gene 1 39 49 -0.711666 0 312 -0.711666 1
gene 1 40 42 -0.8878 0 313 -0.8878 1
gene 1 40 43 0.454638 0 314 0.454638 1
gene 1 40 44 0.813263 0 315 0.813263 1
gene 1 40 45 -0.375577 0 316 -0.375577 1
gene 1 40 46 -0.587243 0 317 -0.587243 1
gene 1 40 47 0.554499 0 318 0.554499 1
gene 1 40 48 0.943774 0 319 0.943774 1
gene 1 40 49 1.85442 0 320 1.85442 1
gene 1 41 42 0.187998 0 321 0.187998 1
gene 1 41 43 0.206461 0 322 0.206461 1
gene 1 41 44 2.39079 0 323 2.39079 1
gene 1 41 45 -2.17261 0 324 -2.17261 1
gene 1 41 46 -1.90777 0 325 -1.90777 1
gene 1 41 47 -0.148163 0 326 -0.148163 1
gene 1 41 48 0.868293 0 327 0.868293 1
gene 1 41 49 0.268428 0 328 0.268428 1
genomeend 0


