/* Organism #1 Fitness: -4790.470000 Time: 0 */
genomestart 1
trait 1 0.963815 0.000000 0.000000 0.000000 0.832689 0.000000 0.000000 0.000000 
node 1 1 1 1
node 2 1 1 1
node 3 1 1 1
node 4 1 1 1
node 5 1 1 1
node 6 1 1 1
node 7 1 1 1
node 8 1 1 1
node 9 1 1 1
node 10 1 1 1
node 11 1 1 1
node 12 1 1 1
node 13 1 1 1
node 14 1 1 1
node 15 1 1 1
node 16 1 1 1
node 17 1 1 1
node 18 1 1 1
node 19 1 1 1
node 20 1 1 1
node 21 1 1 1
node 22 1 1 1
node 23 1 1 1
node 24 1 1 1
node 25 1 1 1
node 26 1 1 1
node 27 1 1 1
node 28 1 1 1
node 29 1 1 1
node 30 1 1 1
node 31 1 1 1
node 32 1 1 1
node 33 1 1 1
node 34 1 1 1
node 35 1 1 1
node 36 1 1 1
node 37 1 1 1
node 38 1 1 1
node 39 1 1 1
node 40 1 1 1
node 41 1 1 3
node 42 1 0 2
node 43 1 0 2
node 44 1 0 2
node 45 1 0 2
node 46 1 0 2
node 47 1 0 2
node 48 1 0 2
node 49 1 0 2
gene 1 1 42 2.96369 0 1 2.96369 1
gene 1 1 43 2.41285 0 2 2.41285 1
gene 1 1 44 1.3278 0 3 1.3278 1
gene 1 1 45 -2.5089 0 4 -2.5089 1
gene 1 1 46 2.18752 0 5 2.18752 1
gene 1 1 47 -1.59628 0 6 -1.59628 1
gene 1 1 48 -4.19475 0 7 -4.19475 1
gene 1 1 49 1.73047 0 8 1.73047 1
gene 1 2 42 -1.95818 0 9 -1.95818 1
gene 1 2 43 -0.183182 0 10 -0.183182 1
gene 1 2 44 -0.134409 0 11 -0.134409 1
gene 1 2 45 0.476556 0 12 0.476556 1
gene 1 2 46 -2.18662 0 13 -2.18662 1
gene 1 2 47 -0.260522 0 14 -0.260522 1
gene 1 2 48 -0.109848 0 15 -0.109848 1
gene 1 2 49 -0.943287 0 16 -0.943287 1
gene 1 3 42 -1.48784 0 17 -1.48784 1
gene 1 3 43 1.87835 0 18 1.87835 1
gene 1 3 44 0.0629131 0 19 0.0629131 1
gene 1 3 45 -0.178041 0 20 -0.178041 1
gene 1 3 46 -0.791171 0 21 -0.791171 1
gene 1 3 47 1.89921 0 22 1.89921 1
gene 1 3 48 1.59456 0 23 1.59456 1
gene 1 3 49 -0.0394197 0 24 -0.0394197 1
gene 1 4 42 -0.601301 0 25 -0.601301 1
gene 1 4 43 -5 0 26 -5 1
gene 1 4 44 2.81037 0 27 2.81037 1
gene 1 4 45 -1.22204 0 28 -1.22204 1
gene 1 4 46 1.12654 0 29 1.12654 1
gene 1 4 47 -0.330562 0 30 -0.330562 1
gene 1 4 48 -3.35507 0 31 -3.35507 1
gene 1 4 49 -0.640593 0 32 -0.640593 1
gene 1 5 42 0.607034 0 33 0.607034 1
gene 1 5 43 0.0805109 0 34 0.0805109 1
gene 1 5 44 0.0826414 0 35 0.0826414 1
gene 1 5 45 1.99256 0 36 1.99256 1
gene 1 5 46 0.840717 0 37 0.840717 1
gene 1 5 47 3.31314 0 38 3.31314 1
gene 1 5 48 0.4394 0 39 0.4394 1
gene 1 5 49 1.63484 0 40 1.63484 1
gene 1 6 42 0.373048 0 41 0.373048 1
gene 1 6 43 1.17023 0 42 1.17023 1
gene 1 6 44 5 0 43 5 1
gene 1 6 45 -1.23997 0 44 -1.23997 1
gene 1 6 46 1.22876 0 45 1.22876 1
gene 1 6 47 -1.46627 0 46 -1.46627 1
gene 1 6 48 0.841834 0 47 0.841834 1
gene 1 6 49 0.551302 0 48 0.551302 1
gene 1 7 42 -0.123743 0 49 -0.123743 1
gene 1 7 43 -0.543663 0 50 -0.543663 1
gene 1 7 44 1.49294 0 51 1.49294 1
gene 1 7 45 -1.86304 0 52 -1.86304 1
gene 1 7 46 -0.976375 0 53 -0.976375 1
gene 1 7 47 -0.555944 0 54 -0.555944 1
gene 1 7 48 -0.721422 0 55 -0.721422 1
gene 1 7 49 1.49471 0 56 1.49471 1
gene 1 8 42 1.94093 0 57 1.94093 1
gene 1 8 43 0.472424 0 58 0.472424 1
gene 1 8 44 2.07061 0 59 2.07061 1
gene 1 8 45 1.3151 0 60 1.3151 1
gene 1 8 46 2.3502 0 61 2.3502 1
gene 1 8 47 -2.87919 0 62 -2.87919 1
gene 1 8 48 -3.29527 0 63 -3.29527 1
gene 1 8 49 -4.2076 0 64 -4.2076 1
gene 1 9 42 -0.249471 0 65 -0.249471 1
gene 1 9 43 0.433359 0 66 0.433359 1
gene 1 9 44 0.605838 0 67 0.605838 1
gene 1 9 45 -0.206658 0 68 -0.206658 1
gene 1 9 46 -3.05975 0 69 -3.05975 1
gene 1 9 47 -0.491144 0 70 -0.491144 1
gene 1 9 48 1.13365 0 71 1.13365 1
gene 1 9 49 -0.826749 0 72 -0.826749 1
gene 1 10 42 -0.196254 0 73 -0.196254 1
gene 1 10 43 -2.07593 0 74 -2.07593 1
gene 1 10 44 -0.136108 0 75 -0.136108 1
gene 1 10 45 0.532714 0 76 0.532714 1
gene 1 10 46 -1.66355 0 77 -1.66355 1
gene 1 10 47 1.55305 0 78 1.55305 1
gene 1 10 48 -0.507007 0 79 -0.507007 1
gene 1 10 49 4.4871 0 80 4.4871 1
gene 1 11 42 0.529069 0 81 0.529069 1
gene 1 11 43 -1.73305 0 82 -1.73305 1
gene 1 11 44 -0.169711 0 83 -0.169711 1
gene 1 11 45 0.350748 0 84 0.350748 1
gene 1 11 46 0.6254 0 85 0.6254 1
gene 1 11 47 -2.46021 0 86 -2.46021 1
gene 1 11 48 -0.968827 0 87 -0.968827 1
gene 1 11 49 -0.654393 0 88 -0.654393 1
gene 1 12 42 -0.732315 0 89 -0.732315 1
gene 1 12 43 -0.0739084 0 90 -0.0739084 1
gene 1 12 44 -0.0638588 0 91 -0.0638588 1
gene 1 12 45 -3.02211 0 92 -3.02211 1
gene 1 12 46 -1.17444 0 93 -1.17444 1
gene 1 12 47 -0.258797 0 94 -0.258797 1
gene 1 12 48 -1.45447 0 95 -1.45447 1
gene 1 12 49 -0.328718 0 96 -0.328718 1
gene 1 13 42 1.66374 0 97 1.66374 1
gene 1 13 43 -0.337294 0 98 -0.337294 1
gene 1 13 44 3.30614 0 99 3.30614 1
gene 1 13 45 0.897395 0 100 0.897395 1
gene 1 13 46 0.948033 0 101 0.948033 1
gene 1 13 47 1.18438 0 102 1.18438 1
gene 1 13 48 0.41323 0 103 0.41323 1
gene 1 13 49 0.670714 0 104 0.670714 1
gene 1 14 42 0.614581 0 105 0.614581 1
gene 1 14 43 -4.63129 0 106 -4.63129 1
gene 1 14 44 -2.20645 0 107 -2.20645 1
gene 1 14 45 1.59222 0 108 1.59222 1
gene 1 14 46 0.157184 0 109 0.157184 1
gene 1 14 47 3.02501 0 110 3.02501 1
gene 1 14 48 1.54172 0 111 1.54172 1
gene 1 14 49 -0.606611 0 112 -0.606611 1
gene 1 15 42 2.19693 0 113 2.19693 1
gene 1 15 43 0.753425 0 114 0.753425 1
gene 1 15 44 -3.43007 0 115 -3.43007 1
gene 1 15 45 0.554934 0 116 0.554934 1
gene 1 15 46 0.36018 0 117 0.36018 1
gene 1 15 47 0.585465 0 118 0.585465 1
gene 1 15 48 0.497076 0 119 0.497076 1
gene 1 15 49 0.279104 0 120 0.279104 1
gene 1 16 42 1.75435 0 121 1.75435 1
gene 1 16 43 1.63362 0 122 1.63362 1
gene 1 16 44 1.23603 0 123 1.23603 1
gene 1 16 45 -0.696523 0 124 -0.696523 1
gene 1 16 46 0.387512 0 125 0.387512 1
gene 1 16 47 -1.07758 0 126 -1.07758 1
gene 1 16 48 0.491883 0 127 0.491883 1
gene 1 16 49 1.05231 0 128 1.05231 1
gene 1 17 42 -2.28232 0 129 -2.28232 1
gene 1 17 43 -2.95433 0 130 -2.95433 1
gene 1 17 44 0.495623 0 131 0.495623 1
gene 1 17 45 -0.912039 0 132 -0.912039 1
gene 1 17 46 2.0539 0 133 2.0539 1
gene 1 17 47 0.982888 0 134 0.982888 1
gene 1 17 48 -2.2327 0 135 -2.2327 1
gene 1 17 49 1.22493 0 136 1.22493 1
gene 1 18 42 0.340501 0 137 0.340501 1
gene 1 18 43 -0.186636 0 138 -0.186636 1
gene 1 18 44 0.821715 0 139 0.821715 1
gene 1 18 45 0.648791 0 140 0.648791 1
gene 1 18 46 0.320016 0 141 0.320016 1
gene 1 18 47 -1.25619 0 142 -1.25619 1
gene 1 18 48 1.77978 0 143 1.77978 1
gene 1 18 49 -0.912833 0 144 -0.912833 1
gene 1 19 42 -0.621769 0 145 -0.621769 1
gene 1 19 43 -0.401868 0 146 -0.401868 1
gene 1 19 44 -2.05085 0 147 -2.05085 1
gene 1 19 45 -1.82897 0 148 -1.82897 1
gene 1 19 46 -0.863088 0 149 -0.863088 1
gene 1 19 47 -0.616372 0 150 -0.616372 1
gene 1 19 48 2.33774 0 151 2.33774 1
gene 1 19 49 0.364077 0 152 0.364077 1
gene 1 20 42 -5 0 153 -5 1
gene 1 20 43 -0.305 0 154 -0.305 1
gene 1 20 44 1.39341 0 155 1.39341 1
gene 1 20 45 2.15392 0 156 2.15392 1
gene 1 20 46 1.89769 0 157 1.89769 1
gene 1 20 47 -2.62581 0 158 -2.62581 1
gene 1 20 48 -4.74572 0 159 -4.74572 1
gene 1 20 49 -0.783721 0 160 -0.783721 1
gene 1 21 42 -2.5061 0 161 -2.5061 1
gene 1 21 43 -1.16964 0 162 -1.16964 1
gene 1 21 44 1.82308 0 163 1.82308 1
gene 1 21 45 0.815207 0 164 0.815207 1
gene 1 21 46 3.2864 0 165 3.2864 1
gene 1 21 47 2.19295 0 166 2.19295 1
gene 1 21 48 -1.13166 0 167 -1.13166 1
gene 1 21 49 -0.767467 0 168 -0.767467 1
gene 1 22 42 0.346455 0 169 0.346455 1
gene 1 22 43 -0.817064 0 170 -0.817064 1
gene 1 22 44 0.166319 0 171 0.166319 1
gene 1 22 45 0.313301 0 172 0.313301 1
gene 1 22 46 -0.178022 0 173 -0.178022 1
gene 1 22 47 1.3517 0 174 1.3517 1
gene 1 22 48 0.410705 0 175 0.410705 1
gene 1 22 49 -2.06867 0 176 -2.06867 1
gene 1 23 42 4.29027 0 177 4.29027 1
gene 1 23 43 -0.987028 0 178 -0.987028 1
gene 1 23 44 0.0798942 0 179 0.0798942 1
gene 1 23 45 -4.87505 0 180 -4.87505 1
gene 1 23 46 -0.632143 0 181 -0.632143 1
gene 1 23 47 -1.24267 0 182 -1.24267 1
gene 1 23 48 -1.78087 0 183 -1.78087 1
gene 1 23 49 3.01773 0 184 3.01773 1
gene 1 24 42 0.318265 0 185 0.318265 1
gene 1 24 43 -0.0221147 0 186 -0.0221147 1
gene 1 24 44 -0.348749 0 187 -0.348749 1
gene 1 24 45 -0.744062 0 188 -0.744062 1
gene 1 24 46 -0.410687 0 189 -0.410687 1
gene 1 24 47 2.58024 0 190 2.58024 1
gene 1 24 48 -1.05444 0 191 -1.05444 1
gene 1 24 49 3.56071 0 192 3.56071 1
gene 1 25 42 3.58557 0 193 3.58557 1
gene 1 25 43 0.554901 0 194 0.554901 1
gene 1 25 44 2.51754 0 195 2.51754 1
gene 1 25 45 1.55997 0 196 1.55997 1
gene 1 25 46 -0.282194 0 197 -0.282194 1
gene 1 25 47 -0.727441 0 198 -0.727441 1
gene 1 25 48 -1.20382 0 199 -1.20382 1
gene 1 25 49 -0.872101 0 200 -0.872101 1
gene 1 26 42 -3.67085 0 201 -3.67085 1
gene 1 26 43 0.0588696 0 202 0.0588696 1
gene 1 26 44 -0.963308 0 203 -0.963308 1
gene 1 26 45 3.38673 0 204 3.38673 1
gene 1 26 46 -0.715435 0 205 -0.715435 1
gene 1 26 47 -1.49165 0 206 -1.49165 1
gene 1 26 48 1.04593 0 207 1.04593 1
gene 1 26 49 -0.716216 0 208 -0.716216 1
gene 1 27 42 0.514894 0 209 0.514894 1
gene 1 27 43 -4.21878 0 210 -4.21878 1
gene 1 27 44 0.358095 0 211 0.358095 1
gene 1 27 45 3.40754 0 212 3.40754 1
gene 1 27 46 -2.94509 0 213 -2.94509 1
gene 1 27 47 1.20296 0 214 1.20296 1
gene 1 27 48 -0.843221 0 215 -0.843221 1
gene 1 27 49 3.90465 0 216 3.90465 1
gene 1 28 42 -5 0 217 -5 1
gene 1 28 43 0.384731 0 218 0.384731 1
gene 1 28 44 -1.16532 0 219 -1.16532 1
gene 1 28 45 -0.113095 0 220 -0.113095 1
gene 1 28 46 3.54615 0 221 3.54615 1
gene 1 28 47 1.48333 0 222 1.48333 1
gene 1 28 48 1.80263 0 223 1.80263 1
gene 1 28 49 1.58241 0 224 1.58241 1
gene 1 29 42 0.773206 0 225 0.773206 1
gene 1 29 43 -1.7923 0 226 -1.7923 1
gene 1 29 44 -1.32254 0 227 -1.32254 1
gene 1 29 45 -0.56765 0 228 -0.56765 1
gene 1 29 46 2.01399 0 229 2.01399 1
gene 1 29 47 2.20529 0 230 2.20529 1
gene 1 29 48 3.05207 0 231 3.05207 1
gene 1 29 49 1.17155 0 232 1.17155 1
gene 1 30 42 4.4617 0 233 4.4617 1
gene 1 30 43 0.292857 0 234 0.292857 1
gene 1 30 44 0.400735 0 235 0.400735 1
gene 1 30 45 -3.12831 0 236 -3.12831 1
gene 1 30 46 0.670016 0 237 0.670016 1
gene 1 30 47 0.151005 0 238 0.151005 1
gene 1 30 48 0.11078 0 239 0.11078 1
gene 1 30 49 0.550653 0 240 0.550653 1
gene 1 31 42 1.79588 0 241 1.79588 1
gene 1 31 43 -0.436085 0 242 -0.436085 1
gene 1 31 44 0.301229 0 243 0.301229 1
gene 1 31 45 -1.15169 0 244 -1.15169 1
gene 1 31 46 -1.22644 0 245 -1.22644 1
gene 1 31 47 0.604136 0 246 0.604136 1
gene 1 31 48 -1.52331 0 247 -1.52331 1
gene 1 31 49 1.40771 0 248 1.40771 1
gene 1 32 42 0.372815 0 249 0.372815 1
gene 1 32 43 0.5582 0 250 0.5582 1
gene 1 32 44 1.94706 0 251 1.94706 1
gene 1 32 45 0.268547 0 252 0.268547 1
gene 1 32 46 -0.825886 0 253 -0.825886 1
gene 1 32 47 -0.49274 0 254 -0.49274 1
gene 1 32 48 -0.242041 0 255 -0.242041 1
gene 1 32 49 -0.127946 0 256 -0.127946 1
gene 1 33 42 1.53537 0 257 1.53537 1
gene 1 33 43 -0.165621 0 258 -0.165621 1
gene 1 33 44 -0.85734 0 259 -0.85734 1
gene 1 33 45 1.35143 0 260 1.35143 1
gene 1 33 46 1.33544 0 261 1.33544 1
gene 1 33 47 -1.16257 0 262 -1.16257 1
gene 1 33 48 -0.903662 0 263 -0.903662 1
gene 1 33 49 -1.07163 0 264 -1.07163 1
gene 1 34 42 0.149231 0 265 0.149231 1
gene 1 34 43 -1.08214 0 266 -1.08214 1
gene 1 34 44 -0.25925 0 267 -0.25925 1
gene 1 34 45 -0.511295 0 268 -0.511295 1
gene 1 34 46 -1.04734 0 269 -1.04734 1
gene 1 34 47 -2.42169 0 270 -2.42169 1
gene 1 34 48 1.76848 0 271 1.76848 1
gene 1 34 49 -0.0414121 0 272 -0.0414121 1
gene 1 35 42 -3.69711 0 273 -3.69711 1
gene 1 35 43 0.0159425 0 274 0.0159425 1
gene 1 35 44 -0.701782 0 275 -0.701782 1
gene 1 35 45 0.952986 0 276 0.952986 1
gene 1 35 46 -0.167486 0 277 -0.167486 1
gene 1 35 47 1.89102 0 278 1.89102 1
gene 1 35 48 -1.27604 0 279 -1.27604 1
gene 1 35 49 -1.793 0 280 -1.793 1
gene 1 36 42 -0.447371 0 281 -0.447371 1
gene 1 36 43 0.199588 0 282 0.199588 1
gene 1 36 44 -1.39147 0 283 -1.39147 1
gene 1 36 45 0.0742728 0 284 0.0742728 1
gene 1 36 46 -0.05843 0 285 -0.05843 1
gene 1 36 47 0.118238 0 286 0.118238 1
gene 1 36 48 -0.891527 0 287 -0.891527 1
gene 1 36 49 1.17808 0 288 1.17808 1
gene 1 37 42 -0.673606 0 289 -0.673606 1
gene 1 37 43 -2.15758 0 290 -2.15758 1
gene 1 37 44 -0.973315 0 291 -0.973315 1
gene 1 37 45 -2.00406 0 292 -2.00406 1
gene 1 37 46 -0.322063 0 293 -0.322063 1
gene 1 37 47 -0.575085 0 294 -0.575085 1
gene 1 37 48 1.05078 0 295 1.05078 1
gene 1 37 49 -0.695352 0 296 -0.695352 1
gene 1 38 42 -1.95122 0 297 -1.95122 1
gene 1 38 43 0.436388 0 298 0.436388 1
gene 1 38 44 0.638916 0 299 0.638916 1
gene 1 38 45 -0.251982 0 300 -0.251982 1
gene 1 38 46 -2.25372 0 301 -2.25372 1
gene 1 38 47 -0.824958 0 302 -0.824958 1
gene 1 38 48 -0.786619 0 303 -0.786619 1
gene 1 38 49 0.747566 0 304 0.747566 1
gene 1 39 42 -0.419815 0 305 -0.419815 1
gene 1 39 43 1.26432 0 306 1.26432 1
gene 1 39 44 0.371604 0 307 0.371604 1
gene 1 39 45 -0.369403 0 308 -0.369403 1
gene 1 39 46 0.388102 0 309 0.388102 1
gene 1 39 47 0.70435 0 310 0.70435 1
gene 1 39 48 0.118153 0 311 0.118153 1
gene 1 39 49 0.507548 0 312 0.507548 1
gene 1 40 42 0.348541 0 313 0.348541 1
gene 1 40 43 -0.524673 0 314 -0.524673 1
gene 1 40 44 0.013475 0 315 0.013475 1
gene 1 40 45 0.509224 0 316 0.509224 1
gene 1 40 46 0.12489 0 317 0.12489 1
gene 1 40 47 -0.0362272 0 318 -0.0362272 1
gene 1 40 48 -0.11559 0 319 -0.11559 1
gene 1 40 49 0.827963 0 320 0.827963 1
gene 1 41 42 -5 0 321 -5 1
gene 1 41 43 1.62481 0 322 1.62481 1
gene 1 41 44 -0.470663 0 323 -0.470663 1
gene 1 41 45 4.34702 0 324 4.34702 1
gene 1 41 46 0.398658 0 325 0.398658 1
gene 1 41 47 0.578204 0 326 0.578204 1
gene 1 41 48 0.928476 0 327 0.928476 1
gene 1 41 49 -1.72442 0 328 -1.72442 1
genomeend 1


