/* Organism #4 Fitness: -5002.930000 Time: 0 */
genomestart 4
trait 1 0.517270 0.240347 1.000000 0.544796 0.429326 0.162818 0.000000 0.000000 
node 1 1 1 1
node 2 1 1 1
node 3 1 1 1
node 4 1 1 1
node 5 1 1 1
node 6 1 1 1
node 7 1 1 1
node 8 1 1 1
node 9 1 1 1
node 10 1 1 1
node 11 1 1 1
node 12 1 1 1
node 13 1 1 1
node 14 1 1 1
node 15 1 1 1
node 16 1 1 1
node 17 1 1 1
node 18 1 1 1
node 19 1 1 1
node 20 1 1 1
node 21 1 1 1
node 22 1 1 1
node 23 1 1 1
node 24 1 1 1
node 25 1 1 1
node 26 1 1 1
node 27 1 1 1
node 28 1 1 1
node 29 1 1 1
node 30 1 1 1
node 31 1 1 1
node 32 1 1 1
node 33 1 1 1
node 34 1 1 1
node 35 1 1 1
node 36 1 1 1
node 37 1 1 1
node 38 1 1 1
node 39 1 1 1
node 40 1 1 1
node 41 1 1 3
node 42 1 0 2
node 43 1 0 2
node 44 1 0 2
node 45 1 0 2
node 46 1 0 2
node 47 1 0 2
node 48 1 0 2
node 49 1 0 2
gene 1 1 42 0.780905 0 1 0.780905 1
gene 1 1 43 -0.264338 0 2 -0.264338 1
gene 1 1 44 5 0 3 5 1
gene 1 1 45 3.58526 0 4 3.58526 1
gene 1 1 46 -0.157278 0 5 -0.157278 1
gene 1 1 47 0.365118 0 6 0.365118 1
gene 1 1 48 -0.481117 0 7 -0.481117 1
gene 1 1 49 -3.09142 0 8 -3.09142 1
gene 1 2 42 -0.821406 0 9 -0.821406 1
gene 1 2 43 -3.06383 0 10 -3.06383 1
gene 1 2 44 -0.303058 0 11 -0.303058 1
gene 1 2 45 -0.385566 0 12 -0.385566 1
gene 1 2 46 -0.620132 0 13 -0.620132 1
gene 1 2 47 0.0768451 0 14 0.0768451 1
gene 1 2 48 0.193963 0 15 0.193963 1
gene 1 2 49 5 0 16 5 1
gene 1 3 42 -4.35931 0 17 -4.35931 1
gene 1 3 43 1.00923 0 18 1.00923 1
gene 1 3 44 3.76253 0 19 3.76253 1
gene 1 3 45 -2.76207 0 20 -2.76207 1
gene 1 3 46 -1.03112 0 21 -1.03112 1
gene 1 3 47 -0.354994 0 22 -0.354994 1
gene 1 3 48 0.61331 0 23 0.61331 1
gene 1 3 49 -0.450896 0 24 -0.450896 1
gene 1 4 42 -4.38846 0 25 -4.38846 1
gene 1 4 43 -3.009 0 26 -3.009 1
gene 1 4 44 -0.663008 0 27 -0.663008 1
gene 1 4 45 3.25796 0 28 3.25796 1
gene 1 4 46 0.874571 0 29 0.874571 1
gene 1 4 47 1.703 0 30 1.703 1
gene 1 4 48 3.15679 0 31 3.15679 1
gene 1 4 49 -2.5347 0 32 -2.5347 1
gene 1 5 42 -2.46634 0 33 -2.46634 1
gene 1 5 43 -4.09386 0 34 -4.09386 1
gene 1 5 44 0.843447 0 35 0.843447 1
gene 1 5 45 -4.55758 0 36 -4.55758 1
gene 1 5 46 -3.04357 0 37 -3.04357 1
gene 1 5 47 -4.15466 0 38 -4.15466 1
gene 1 5 48 -1.52088 0 39 -1.52088 1
gene 1 5 49 0.293486 0 40 0.293486 1
gene 1 6 42 -0.566042 0 41 -0.566042 1
gene 1 6 43 -0.866356 0 42 -0.866356 1
gene 1 6 44 3.37939 0 43 3.37939 1
gene 1 6 45 -0.566578 0 44 -0.566578 1
gene 1 6 46 0.0585291 0 45 0.0585291 1
gene 1 6 47 4.50312 0 46 4.50312 1
gene 1 6 48 -3.39222 0 47 -3.39222 1
gene 1 6 49 -0.873946 0 48 -0.873946 1
gene 1 7 42 1.02527 0 49 1.02527 1
gene 1 7 43 3.56684 0 50 3.56684 1
gene 1 7 44 -0.979812 0 51 -0.979812 1
gene 1 7 45 3.25906 0 52 3.25906 1
gene 1 7 46 -2.96358 0 53 -2.96358 1
gene 1 7 47 0.494797 0 54 0.494797 1
gene 1 7 48 -0.593421 0 55 -0.593421 1
gene 1 7 49 -1.83747 0 56 -1.83747 1
gene 1 8 42 1.21668 0 57 1.21668 1
gene 1 8 43 -2.08099 0 58 -2.08099 1
gene 1 8 44 -1.60307 0 59 -1.60307 1
gene 1 8 45 2.94004 0 60 2.94004 1
gene 1 8 46 -3.16143 0 61 -3.16143 1
gene 1 8 47 4.99997 0 62 4.99997 1
gene 1 8 48 3.86607 0 63 3.86607 1
gene 1 8 49 1.37789 0 64 1.37789 1
gene 1 9 42 0.475182 0 65 0.475182 1
gene 1 9 43 -5 0 66 -5 1
gene 1 9 44 1.8687 0 67 1.8687 1
gene 1 9 45 -3.79463 0 68 -3.79463 1
gene 1 9 46 3.77627 0 69 3.77627 1
gene 1 9 47 -1.08607 0 70 -1.08607 1
gene 1 9 48 -2.72619 0 71 -2.72619 1
gene 1 9 49 4.62174 0 72 4.62174 1
gene 1 10 42 -1.18428 0 73 -1.18428 1
gene 1 10 43 5 0 74 5 1
gene 1 10 44 2.54671 0 75 2.54671 1
gene 1 10 45 3.10703 0 76 3.10703 1
gene 1 10 46 -0.198793 0 77 -0.198793 1
gene 1 10 47 4.68256 0 78 4.68256 1
gene 1 10 48 0.755381 0 79 0.755381 1
gene 1 10 49 -0.294031 0 80 -0.294031 1
gene 1 11 42 -0.126953 0 81 -0.126953 1
gene 1 11 43 0.36549 0 82 0.36549 1
gene 1 11 44 4.26513 0 83 4.26513 1
gene 1 11 45 -0.639814 0 84 -0.639814 1
gene 1 11 46 -0.982608 0 85 -0.982608 1
gene 1 11 47 -1.65199 0 86 -1.65199 1
gene 1 11 48 -0.135272 0 87 -0.135272 1
gene 1 11 49 -2.83928 0 88 -2.83928 1
gene 1 12 42 -2.51309 0 89 -2.51309 1
gene 1 12 43 -2.14784 0 90 -2.14784 1
gene 1 12 44 5 0 91 5 1
gene 1 12 45 0.0520113 0 92 0.0520113 1
gene 1 12 46 0.0506124 0 93 0.0506124 1
gene 1 12 47 -0.172211 0 94 -0.172211 1
gene 1 12 48 1.11847 0 95 1.11847 1
gene 1 12 49 1.37499 0 96 1.37499 1
gene 1 13 42 -4.75168 0 97 -4.75168 1
gene 1 13 43 -0.34356 0 98 -0.34356 1
gene 1 13 44 1.5349 0 99 1.5349 1
gene 1 13 45 -1.20364 0 100 -1.20364 1
gene 1 13 46 0.400871 0 101 0.400871 1
gene 1 13 47 -0.149204 0 102 -0.149204 1
gene 1 13 48 -2.82389 0 103 -2.82389 1
gene 1 13 49 1.86356 0 104 1.86356 1
gene 1 14 42 -2.47949 0 105 -2.47949 1
gene 1 14 43 -4.48883 0 106 -4.48883 1
gene 1 14 44 -1.16663 0 107 -1.16663 1
gene 1 14 45 5 0 108 5 1
gene 1 14 46 -0.17507 0 109 -0.17507 1
gene 1 14 47 -2.51323 0 110 -2.51323 1
gene 1 14 48 -0.957168 0 111 -0.957168 1
gene 1 14 49 0.722543 0 112 0.722543 1
gene 1 15 42 0.163602 0 113 0.163602 1
gene 1 15 43 -0.654618 0 114 -0.654618 1
gene 1 15 44 1.25612 0 115 1.25612 1
gene 1 15 45 2.11553 0 116 2.11553 1
gene 1 15 46 -3.02293 0 117 -3.02293 1
gene 1 15 47 -0.50875 0 118 -0.50875 1
gene 1 15 48 1.26027 0 119 1.26027 1
gene 1 15 49 -0.331642 0 120 -0.331642 1
gene 1 16 42 0.464547 0 121 0.464547 1
gene 1 16 43 0.610808 0 122 0.610808 1
gene 1 16 44 0.360409 0 123 0.360409 1
gene 1 16 45 -1.39459 0 124 -1.39459 1
gene 1 16 46 0.824456 0 125 0.824456 1
gene 1 16 47 0.602463 0 126 0.602463 1
gene 1 16 48 2.68934 0 127 2.68934 1
gene 1 16 49 -0.811063 0 128 -0.811063 1
gene 1 17 42 -0.915933 0 129 -0.915933 1
gene 1 17 43 1.43395 0 130 1.43395 1
gene 1 17 44 -5 0 131 -5 1
gene 1 17 45 -1.22828 0 132 -1.22828 1
gene 1 17 46 -2.26176 0 133 -2.26176 1
gene 1 17 47 -0.362961 0 134 -0.362961 1
gene 1 17 48 -1.11386 0 135 -1.11386 1
gene 1 17 49 5 0 136 5 1
gene 1 18 42 -2.10564 0 137 -2.10564 1
gene 1 18 43 0.696474 0 138 0.696474 1
gene 1 18 44 0.26747 0 139 0.26747 1
gene 1 18 45 -5 0 140 -5 1
gene 1 18 46 3.00902 0 141 3.00902 1
gene 1 18 47 -0.900599 0 142 -0.900599 1
gene 1 18 48 -3.83421 0 143 -3.83421 1
gene 1 18 49 -0.410837 0 144 -0.410837 1
gene 1 19 42 0.0174946 0 145 0.0174946 1
gene 1 19 43 0.880037 0 146 0.880037 1
gene 1 19 44 0.551921 0 147 0.551921 1
gene 1 19 45 0.554803 0 148 0.554803 1
gene 1 19 46 0.597074 0 149 0.597074 1
gene 1 19 47 -2.61049 0 150 -2.61049 1
gene 1 19 48 -3.97077 0 151 -3.97077 1
gene 1 19 49 3.17123 0 152 3.17123 1
gene 1 20 42 1.35174 0 153 1.35174 1
gene 1 20 43 -0.68694 0 154 -0.68694 1
gene 1 20 44 1.57858 0 155 1.57858 1
gene 1 20 45 -0.887602 0 156 -0.887602 1
gene 1 20 46 1.15515 0 157 1.15515 1
gene 1 20 47 -5 0 158 -5 1
gene 1 20 48 0.984075 0 159 0.984075 1
gene 1 20 49 1.12659 0 160 1.12659 1
gene 1 21 42 -3.59107 0 161 -3.59107 1
gene 1 21 43 -0.366741 0 162 -0.366741 1
gene 1 21 44 0.13081 0 163 0.13081 1
gene 1 21 45 -3.35963 0 164 -3.35963 1
gene 1 21 46 0.404028 0 165 0.404028 1
gene 1 21 47 0.264766 0 166 0.264766 1
gene 1 21 48 -3.59363 0 167 -3.59363 1
gene 1 21 49 -1.04037 0 168 -1.04037 1
gene 1 22 42 0.0825142 0 169 0.0825142 1
gene 1 22 43 0.373805 0 170 0.373805 1
gene 1 22 44 -0.299504 0 171 -0.299504 1
gene 1 22 45 -3.49335 0 172 -3.49335 1
gene 1 22 46 -1.60641 0 173 -1.60641 1
gene 1 22 47 4.35268 0 174 4.35268 1
gene 1 22 48 -3.3883 0 175 -3.3883 1
gene 1 22 49 -0.630564 0 176 -0.630564 1
gene 1 23 42 -1.47806 0 177 -1.47806 1
gene 1 23 43 2.02026 0 178 2.02026 1
gene 1 23 44 0.66027 0 179 0.66027 1
gene 1 23 45 -3.36969 0 180 -3.36969 1
gene 1 23 46 0.196942 0 181 0.196942 1
gene 1 23 47 2.40111 0 182 2.40111 1
gene 1 23 48 2.54269 0 183 2.54269 1
gene 1 23 49 3.72697 0 184 3.72697 1
gene 1 24 42 0.778981 0 185 0.778981 1
gene 1 24 43 2.19118 0 186 2.19118 1
gene 1 24 44 0.307704 0 187 0.307704 1
gene 1 24 45 0.185515 0 188 0.185515 1
gene 1 24 46 4.21066 0 189 4.21066 1
gene 1 24 47 0.234935 0 190 0.234935 1
gene 1 24 48 3.22639 0 191 3.22639 1
gene 1 24 49 -3.41933 0 192 -3.41933 1
gene 1 25 42 1.93342 0 193 1.93342 1
gene 1 25 43 2.53372 0 194 2.53372 1
gene 1 25 44 1.87567 0 195 1.87567 1
gene 1 25 45 -1.79143 0 196 -1.79143 1
gene 1 25 46 -1.56863 0 197 -1.56863 1
gene 1 25 47 3.11167 0 198 3.11167 1
gene 1 25 48 3.62386 0 199 3.62386 1
gene 1 25 49 -0.0719772 0 200 -0.0719772 1
gene 1 26 42 2.51183 0 201 2.51183 1
gene 1 26 43 4.73999 0 202 4.73999 1
gene 1 26 44 3.20231 0 203 3.20231 1
gene 1 26 45 5 0 204 5 1
gene 1 26 46 0.952884 0 205 0.952884 1
gene 1 26 47 -0.196388 0 206 -0.196388 1
gene 1 26 48 0.727052 0 207 0.727052 1
gene 1 26 49 0.349716 0 208 0.349716 1
gene 1 27 42 0.988367 0 209 0.988367 1
gene 1 27 43 0.174392 0 210 0.174392 1
gene 1 27 44 4.4623 0 211 4.4623 1
gene 1 27 45 0.902073 0 212 0.902073 1
gene 1 27 46 0.370209 0 213 0.370209 1
gene 1 27 47 4.50286 0 214 4.50286 1
gene 1 27 48 0.918252 0 215 0.918252 1
gene 1 27 49 0.407859 0 216 0.407859 1
gene 1 28 42 -0.00334876 0 217 -0.00334876 1
gene 1 28 43 0.466835 0 218 0.466835 1
gene 1 28 44 0.586853 0 219 0.586853 1
gene 1 28 45 2.97237 0 220 2.97237 1
gene 1 28 46 0.81183 0 221 0.81183 1
gene 1 28 47 0.412015 0 222 0.412015 1
gene 1 28 48 -0.0494403 0 223 -0.0494403 1
gene 1 28 49 -2.83418 0 224 -2.83418 1
gene 1 29 42 -5 0 225 -5 1
gene 1 29 43 -0.0276972 0 226 -0.0276972 1
gene 1 29 44 3.61988 0 227 3.61988 1
gene 1 29 45 0.325377 0 228 0.325377 1
gene 1 29 46 -2.39834 0 229 -2.39834 1
gene 1 29 47 -0.662672 0 230 -0.662672 1
gene 1 29 48 4.10686 0 231 4.10686 1
gene 1 29 49 -0.176259 0 232 -0.176259 1
gene 1 30 42 -2.16501 0 233 -2.16501 1
gene 1 30 43 1.25669 0 234 1.25669 1
gene 1 30 44 3.32438 0 235 3.32438 1
gene 1 30 45 0.689186 0 236 0.689186 1
gene 1 30 46 0.706187 0 237 0.706187 1
gene 1 30 47 3.36667 0 238 3.36667 1
gene 1 30 48 -3.62387 0 239 -3.62387 1
gene 1 30 49 -4.52117 0 240 -4.52117 1
gene 1 31 42 -3.261 0 241 -3.261 1
gene 1 31 43 -0.121374 0 242 -0.121374 1
gene 1 31 44 -1.37733 0 243 -1.37733 1
gene 1 31 45 0.841357 0 244 0.841357 1
gene 1 31 46 0.498036 0 245 0.498036 1
gene 1 31 47 0.828005 0 246 0.828005 1
gene 1 31 48 -1.93732 0 247 -1.93732 1
gene 1 31 49 1.79961 0 248 1.79961 1
gene 1 32 42 0.169358 0 249 0.169358 1
gene 1 32 43 2.84913 0 250 2.84913 1
gene 1 32 44 -3.54069 0 251 -3.54069 1
gene 1 32 45 -0.679528 0 252 -0.679528 1
gene 1 32 46 -4.01692 0 253 -4.01692 1
gene 1 32 47 3.67137 0 254 3.67137 1
gene 1 32 48 -2.34536 0 255 -2.34536 1
gene 1 32 49 -0.479456 0 256 -0.479456 1
gene 1 33 42 0.653328 0 257 0.653328 1
gene 1 33 43 -0.851197 0 258 -0.851197 1
gene 1 33 44 -0.132327 0 259 -0.132327 1
gene 1 33 45 0.881833 0 260 0.881833 1
gene 1 33 46 0.864908 0 261 0.864908 1
gene 1 33 47 -0.628846 0 262 -0.628846 1
gene 1 33 48 4.12895 0 263 4.12895 1
gene 1 33 49 -1.4371 0 264 -1.4371 1
gene 1 34 42 0.430356 0 265 0.430356 1
gene 1 34 43 0.564755 0 266 0.564755 1
gene 1 34 44 -1.1377 0 267 -1.1377 1
gene 1 34 45 0.092061 0 268 0.092061 1
gene 1 34 46 -0.530389 0 269 -0.530389 1
gene 1 34 47 0.600036 0 270 0.600036 1
gene 1 34 48 0.925595 0 271 0.925595 1
gene 1 34 49 -0.679086 0 272 -0.679086 1
gene 1 35 42 1.78719 0 273 1.78719 1
gene 1 35 43 2.26943 0 274 2.26943 1
gene 1 35 44 0.474637 0 275 0.474637 1
gene 1 35 45 0.784242 0 276 0.784242 1
gene 1 35 46 0.68275 0 277 0.68275 1
gene 1 35 47 -0.79141 0 278 -0.79141 1
gene 1 35 48 1.65326 0 279 1.65326 1
gene 1 35 49 -1.25277 0 280 -1.25277 1
gene 1 36 42 0.597624 0 281 0.597624 1
gene 1 36 43 -0.95095 0 282 -0.95095 1
gene 1 36 44 0.208921 0 283 0.208921 1
gene 1 36 45 1.88823 0 284 1.88823 1
gene 1 36 46 -0.314911 0 285 -0.314911 1
gene 1 36 47 1.51587 0 286 1.51587 1
gene 1 36 48 -0.464969 0 287 -0.464969 1
gene 1 36 49 0.482782 0 288 0.482782 1
gene 1 37 42 -1.91066 0 289 -1.91066 1
gene 1 37 43 0.541602 0 290 0.541602 1
gene 1 37 44 1.55978 0 291 1.55978 1
gene 1 37 45 -0.756817 0 292 -0.756817 1
gene 1 37 46 0.457775 0 293 0.457775 1
gene 1 37 47 -1.0813 0 294 -1.0813 1
gene 1 37 48 -2.11101 0 295 -2.11101 1
gene 1 37 49 -0.302425 0 296 -0.302425 1
gene 1 38 42 0.541615 0 297 0.541615 1
gene 1 38 43 -1.44919 0 298 -1.44919 1
gene 1 38 44 1.07778 0 299 1.07778 1
gene 1 38 45 -2.24045 0 300 -2.24045 1
gene 1 38 46 1.26085 0 301 1.26085 1
gene 1 38 47 -0.0586428 0 302 -0.0586428 1
gene 1 38 48 0.382009 0 303 0.382009 1
gene 1 38 49 0.434297 0 304 0.434297 1
gene 1 39 42 0.480951 0 305 0.480951 1
gene 1 39 43 0.152111 0 306 0.152111 1
gene 1 39 44 -0.275825 0 307 -0.275825 1
gene 1 39 45 0.462166 0 308 0.462166 1
gene 1 39 46 0.100441 0 309 0.100441 1
gene 1 39 47 1.27325 0 310 1.27325 1
gene 1 39 48 1.08831 0 311 1.08831 1
gene 1 39 49 -3.31502 0 312 -3.31502 1
gene 1 40 42 -0.58558 0 313 -0.58558 1
gene 1 40 43 -0.515485 0 314 -0.515485 1
gene 1 40 44 0.478928 0 315 0.478928 1
gene 1 40 45 -0.340773 0 316 -0.340773 1
gene 1 40 46 -0.225998 0 317 -0.225998 1
gene 1 40 47 -1.13109 0 318 -1.13109 1
gene 1 40 48 0.0970629 0 319 0.0970629 1
gene 1 40 49 0.173807 0 320 0.173807 1
gene 1 41 42 3.35183 0 321 3.35183 1
gene 1 41 43 -0.860313 0 322 -0.860313 1
gene 1 41 44 3.88486 0 323 3.88486 1
gene 1 41 45 -0.826923 0 324 -0.826923 1
gene 1 41 46 -0.779571 0 325 -0.779571 1
gene 1 41 47 -0.597874 0 326 -0.597874 1
gene 1 41 48 0.246414 0 327 0.246414 1
gene 1 41 49 1.02945 0 328 1.02945 1
genomeend 4


