/* Organism #44 Fitness: -5197.980000 Time: 0 */
genomestart 44
trait 1 0.000000 0.655097 0.215942 0.000000 0.373735 0.000000 0.000000 0.178297 
node 1 1 1 1
node 2 1 1 1
node 3 1 1 1
node 4 1 1 1
node 5 1 1 1
node 6 1 1 1
node 7 1 1 1
node 8 1 1 1
node 9 1 1 1
node 10 1 1 1
node 11 1 1 1
node 12 1 1 1
node 13 1 1 1
node 14 1 1 1
node 15 1 1 1
node 16 1 1 1
node 17 1 1 1
node 18 1 1 1
node 19 1 1 1
node 20 1 1 1
node 21 1 1 1
node 22 1 1 1
node 23 1 1 1
node 24 1 1 1
node 25 1 1 1
node 26 1 1 1
node 27 1 1 1
node 28 1 1 1
node 29 1 1 1
node 30 1 1 1
node 31 1 1 1
node 32 1 1 1
node 33 1 1 1
node 34 1 1 1
node 35 1 1 1
node 36 1 1 1
node 37 1 1 1
node 38 1 1 1
node 39 1 1 1
node 40 1 1 1
node 41 1 1 3
node 42 1 0 2
node 43 1 0 2
node 44 1 0 2
node 45 1 0 2
node 46 1 0 2
node 47 1 0 2
node 48 1 0 2
node 49 1 0 2
gene 1 1 42 0.9139 0 1 0.9139 1
gene 1 1 43 -1.20903 0 2 -1.20903 1
gene 1 1 44 1.07981 0 3 1.07981 1
gene 1 1 45 -0.0109058 0 4 -0.0109058 1
gene 1 1 46 1.78283 0 5 1.78283 1
gene 1 1 47 -0.278189 0 6 -0.278189 1
gene 1 1 48 4.05662 0 7 4.05662 1
gene 1 1 49 -3.08839 0 8 -3.08839 1
gene 1 2 42 -2.42703 0 9 -2.42703 1
gene 1 2 43 3.53363 0 10 3.53363 1
gene 1 2 44 -4.70831 0 11 -4.70831 1
gene 1 2 45 1.02865 0 12 1.02865 1
gene 1 2 46 -0.76427 0 13 -0.76427 1
gene 1 2 47 2.09398 0 14 2.09398 1
gene 1 2 48 0.574106 0 15 0.574106 1
gene 1 2 49 -0.590135 0 16 -0.590135 1
gene 1 3 42 0.559018 0 17 0.559018 1
gene 1 3 43 5 0 18 5 1
gene 1 3 44 -2.68814 0 19 -2.68814 1
gene 1 3 45 1.59035 0 20 1.59035 1
gene 1 3 46 -1.69392 0 21 -1.69392 1
gene 1 3 47 1.59966 0 22 1.59966 1
gene 1 3 48 -1.40638 0 23 -1.40638 1
gene 1 3 49 0.0472897 0 24 0.0472897 1
gene 1 4 42 4.8498 0 25 4.8498 1
gene 1 4 43 -3.75784 0 26 -3.75784 1
gene 1 4 44 0.869214 0 27 0.869214 1
gene 1 4 45 -3.17531 0 28 -3.17531 1
gene 1 4 46 3.05871 0 29 3.05871 1
gene 1 4 47 1.22251 0 30 1.22251 1
gene 1 4 48 -1.76963 0 31 -1.76963 1
gene 1 4 49 -1.38941 0 32 -1.38941 1
gene 1 5 42 3.73115 0 33 3.73115 1
gene 1 5 43 2.64641 0 34 2.64641 1
gene 1 5 44 -2.11699 0 35 -2.11699 1
gene 1 5 45 -0.324485 0 36 -0.324485 1
gene 1 5 46 2.11805 0 37 2.11805 1
gene 1 5 47 -1.34331 0 38 -1.34331 1
gene 1 5 48 0.355273 0 39 0.355273 1
gene 1 5 49 0.303207 0 40 0.303207 1
gene 1 6 42 1.70807 0 41 1.70807 1
gene 1 6 43 2.02857 0 42 2.02857 1
gene 1 6 44 -2.3674 0 43 -2.3674 1
gene 1 6 45 -2.40623 0 44 -2.40623 1
gene 1 6 46 2.60804 0 45 2.60804 1
gene 1 6 47 3.61576 0 46 3.61576 1
gene 1 6 48 1.1803 0 47 1.1803 1
gene 1 6 49 1.14815 0 48 1.14815 1
gene 1 7 42 -0.313824 0 49 -0.313824 1
gene 1 7 43 4.72248 0 50 4.72248 1
gene 1 7 44 -2.70738 0 51 -2.70738 1
gene 1 7 45 -1.60307 0 52 -1.60307 1
gene 1 7 46 1.26786 0 53 1.26786 1
gene 1 7 47 -3.48564 0 54 -3.48564 1
gene 1 7 48 0.997186 0 55 0.997186 1
gene 1 7 49 0.952581 0 56 0.952581 1
gene 1 8 42 -2.95025 0 57 -2.95025 1
gene 1 8 43 0.0740645 0 58 0.0740645 1
gene 1 8 44 2.40007 0 59 2.40007 1
gene 1 8 45 -2.74637 0 60 -2.74637 1
gene 1 8 46 0.744978 0 61 0.744978 1
gene 1 8 47 -1.0238 0 62 -1.0238 1
gene 1 8 48 3.85391 0 63 3.85391 1
gene 1 8 49 2.69347 0 64 2.69347 1
gene 1 9 42 -0.75101 0 65 -0.75101 1
gene 1 9 43 -1.94195 0 66 -1.94195 1
gene 1 9 44 -3.07523 0 67 -3.07523 1
gene 1 9 45 2.36456 0 68 2.36456 1
gene 1 9 46 -0.270285 0 69 -0.270285 1
gene 1 9 47 -2.1356 0 70 -2.1356 1
gene 1 9 48 -1.12609 0 71 -1.12609 1
gene 1 9 49 3.39378 0 72 3.39378 1
gene 1 10 42 -0.1944 0 73 -0.1944 1
gene 1 10 43 2.94908 0 74 2.94908 1
gene 1 10 44 0.0938351 0 75 0.0938351 1
gene 1 10 45 3.04486 0 76 3.04486 1
gene 1 10 46 -3.47298 0 77 -3.47298 1
gene 1 10 47 3.14374 0 78 3.14374 1
gene 1 10 48 1.02571 0 79 1.02571 1
gene 1 10 49 3.06173 0 80 3.06173 1
gene 1 11 42 -3.49768 0 81 -3.49768 1
gene 1 11 43 -0.0265382 0 82 -0.0265382 1
gene 1 11 44 -3.94899 0 83 -3.94899 1
gene 1 11 45 0.805253 0 84 0.805253 1
gene 1 11 46 0.90642 0 85 0.90642 1
gene 1 11 47 0.24226 0 86 0.24226 1
gene 1 11 48 -3.59063 0 87 -3.59063 1
gene 1 11 49 -1.02029 0 88 -1.02029 1
gene 1 12 42 -2.31562 0 89 -2.31562 1
gene 1 12 43 1.69044 0 90 1.69044 1
gene 1 12 44 -0.586584 0 91 -0.586584 1
gene 1 12 45 -5 0 92 -5 1
gene 1 12 46 3.3289 0 93 3.3289 1
gene 1 12 47 0.0528176 0 94 0.0528176 1
gene 1 12 48 -2.8041 0 95 -2.8041 1
gene 1 12 49 -2.18746 0 96 -2.18746 1
gene 1 13 42 1.77769 0 97 1.77769 1
gene 1 13 43 4.21803 0 98 4.21803 1
gene 1 13 44 -0.776529 0 99 -0.776529 1
gene 1 13 45 0.449715 0 100 0.449715 1
gene 1 13 46 -3.18527 0 101 -3.18527 1
gene 1 13 47 -0.0474577 0 102 -0.0474577 1
gene 1 13 48 -1.06343 0 103 -1.06343 1
gene 1 13 49 3.28418 0 104 3.28418 1
gene 1 14 42 -0.193598 0 105 -0.193598 1
gene 1 14 43 -0.984862 0 106 -0.984862 1
gene 1 14 44 0.608323 0 107 0.608323 1
gene 1 14 45 -3.44839 0 108 -3.44839 1
gene 1 14 46 2.75259 0 109 2.75259 1
gene 1 14 47 0.4631 0 110 0.4631 1
gene 1 14 48 4.85099 0 111 4.85099 1
gene 1 14 49 -1.09333 0 112 -1.09333 1
gene 1 15 42 -2.67985 0 113 -2.67985 1
gene 1 15 43 -2.30813 0 114 -2.30813 1
gene 1 15 44 1.40517 0 115 1.40517 1
gene 1 15 45 -3.72793 0 116 -3.72793 1
gene 1 15 46 -0.0862658 0 117 -0.0862658 1
gene 1 15 47 2.84233 0 118 2.84233 1
gene 1 15 48 0.282442 0 119 0.282442 1
gene 1 15 49 -2.52484 0 120 -2.52484 1
gene 1 16 42 1.61195 0 121 1.61195 1
gene 1 16 43 -0.823953 0 122 -0.823953 1
gene 1 16 44 -0.628383 0 123 -0.628383 1
gene 1 16 45 -5 0 124 -5 1
gene 1 16 46 2.10988 0 125 2.10988 1
gene 1 16 47 -4.23959 0 126 -4.23959 1
gene 1 16 48 -2.59473 0 127 -2.59473 1
gene 1 16 49 1.08737 0 128 1.08737 1
gene 1 17 42 2.80003 0 129 2.80003 1
gene 1 17 43 1.67086 0 130 1.67086 1
gene 1 17 44 3.62678 0 131 3.62678 1
gene 1 17 45 1.11681 0 132 1.11681 1
gene 1 17 46 1.94 0 133 1.94 1
gene 1 17 47 0.686487 0 134 0.686487 1
gene 1 17 48 -2.83226 0 135 -2.83226 1
gene 1 17 49 -0.187669 0 136 -0.187669 1
gene 1 18 42 0.484923 0 137 0.484923 1
gene 1 18 43 1.46632 0 138 1.46632 1
gene 1 18 44 -3.21315 0 139 -3.21315 1
gene 1 18 45 0.646511 0 140 0.646511 1
gene 1 18 46 -0.365869 0 141 -0.365869 1
gene 1 18 47 -2.02495 0 142 -2.02495 1
gene 1 18 48 -5 0 143 -5 1
gene 1 18 49 2.985 0 144 2.985 1
gene 1 19 42 -0.222806 0 145 -0.222806 1
gene 1 19 43 0.825368 0 146 0.825368 1
gene 1 19 44 -5 0 147 -5 1
gene 1 19 45 -4.15708 0 148 -4.15708 1
gene 1 19 46 2.1958 0 149 2.1958 1
gene 1 19 47 -1.26193 0 150 -1.26193 1
gene 1 19 48 2.28111 0 151 2.28111 1
gene 1 19 49 2.36659 0 152 2.36659 1
gene 1 20 42 -1.02645 0 153 -1.02645 1
gene 1 20 43 4.89066 0 154 4.89066 1
gene 1 20 44 -1.01553 0 155 -1.01553 1
gene 1 20 45 2.28442 0 156 2.28442 1
gene 1 20 46 0.577753 0 157 0.577753 1
gene 1 20 47 0.996455 0 158 0.996455 1
gene 1 20 48 -2.98033 0 159 -2.98033 1
gene 1 20 49 -1.83758 0 160 -1.83758 1
gene 1 21 42 3.60704 0 161 3.60704 1
gene 1 21 43 1.1809 0 162 1.1809 1
gene 1 21 44 5 0 163 5 1
gene 1 21 45 -3.25228 0 164 -3.25228 1
gene 1 21 46 4.41263 0 165 4.41263 1
gene 1 21 47 -2.38356 0 166 -2.38356 1
gene 1 21 48 3.48068 0 167 3.48068 1
gene 1 21 49 -2.41336 0 168 -2.41336 1
gene 1 22 42 1.72818 0 169 1.72818 1
gene 1 22 43 5 0 170 5 1
gene 1 22 44 0.606273 0 171 0.606273 1
gene 1 22 45 2.06603 0 172 2.06603 1
gene 1 22 46 2.16803 0 173 2.16803 1
gene 1 22 47 0.0516697 0 174 0.0516697 1
gene 1 22 48 0.0585086 0 175 0.0585086 1
gene 1 22 49 0.28753 0 176 0.28753 1
gene 1 23 42 1.8068 0 177 1.8068 1
gene 1 23 43 0.832775 0 178 0.832775 1
gene 1 23 44 -1.27362 0 179 -1.27362 1
gene 1 23 45 -3.94445 0 180 -3.94445 1
gene 1 23 46 3.59086 0 181 3.59086 1
gene 1 23 47 -2.33673 0 182 -2.33673 1
gene 1 23 48 3.70321 0 183 3.70321 1
gene 1 23 49 -0.720038 0 184 -0.720038 1
gene 1 24 42 -4.25838 0 185 -4.25838 1
gene 1 24 43 -0.952065 0 186 -0.952065 1
gene 1 24 44 4.98151 0 187 4.98151 1
gene 1 24 45 4.11812 0 188 4.11812 1
gene 1 24 46 1.18684 0 189 1.18684 1
gene 1 24 47 0.815854 0 190 0.815854 1
gene 1 24 48 -1.07592 0 191 -1.07592 1
gene 1 24 49 0.352662 0 192 0.352662 1
gene 1 25 42 0.468852 0 193 0.468852 1
gene 1 25 43 -4.42851 0 194 -4.42851 1
gene 1 25 44 1.69896 0 195 1.69896 1
gene 1 25 45 4.75911 0 196 4.75911 1
gene 1 25 46 -1.08273 0 197 -1.08273 1
gene 1 25 47 1.67315 0 198 1.67315 1
gene 1 25 48 -1.15086 0 199 -1.15086 1
gene 1 25 49 1.06104 0 200 1.06104 1
gene 1 26 42 -3.93137 0 201 -3.93137 1
gene 1 26 43 -0.574481 0 202 -0.574481 1
gene 1 26 44 3.27049 0 203 3.27049 1
gene 1 26 45 -0.144405 0 204 -0.144405 1
gene 1 26 46 -4.36156 0 205 -4.36156 1
gene 1 26 47 5 0 206 5 1
gene 1 26 48 4.20096 0 207 4.20096 1
gene 1 26 49 2.14447 0 208 2.14447 1
gene 1 27 42 -3.56077 0 209 -3.56077 1
gene 1 27 43 -3.54441 0 210 -3.54441 1
gene 1 27 44 0.19398 0 211 0.19398 1
gene 1 27 45 2.23042 0 212 2.23042 1
gene 1 27 46 3.3704 0 213 3.3704 1
gene 1 27 47 1.61604 0 214 1.61604 1
gene 1 27 48 -4.40679 0 215 -4.40679 1
gene 1 27 49 -4.6636 0 216 -4.6636 1
gene 1 28 42 -1.95066 0 217 -1.95066 1
gene 1 28 43 -1.55336 0 218 -1.55336 1
gene 1 28 44 -2.41886 0 219 -2.41886 1
gene 1 28 45 -1.68309 0 220 -1.68309 1
gene 1 28 46 -3.8846 0 221 -3.8846 1
gene 1 28 47 -2.05286 0 222 -2.05286 1
gene 1 28 48 1.52299 0 223 1.52299 1
gene 1 28 49 2.79882 0 224 2.79882 1
gene 1 29 42 -0.300909 0 225 -0.300909 1
gene 1 29 43 -3.44412 0 226 -3.44412 1
gene 1 29 44 0.513755 0 227 0.513755 1
gene 1 29 45 2.98908 0 228 2.98908 1
gene 1 29 46 1.20685 0 229 1.20685 1
gene 1 29 47 0.526216 0 230 0.526216 1
gene 1 29 48 -2.4207 0 231 -2.4207 1
gene 1 29 49 0.15152 0 232 0.15152 1
gene 1 30 42 1.29745 0 233 1.29745 1
gene 1 30 43 0.94235 0 234 0.94235 1
gene 1 30 44 0.572084 0 235 0.572084 1
gene 1 30 45 -0.599865 0 236 -0.599865 1
gene 1 30 46 -1.68599 0 237 -1.68599 1
gene 1 30 47 -2.15487 0 238 -2.15487 1
gene 1 30 48 -1.00012 0 239 -1.00012 1
gene 1 30 49 -4.2655 0 240 -4.2655 1
gene 1 31 42 -2.06944 0 241 -2.06944 1
gene 1 31 43 -2.87773 0 242 -2.87773 1
gene 1 31 44 1.85076 0 243 1.85076 1
gene 1 31 45 -3.12178 0 244 -3.12178 1
gene 1 31 46 -1.56975 0 245 -1.56975 1
gene 1 31 47 3.09017 0 246 3.09017 1
gene 1 31 48 0.0977271 0 247 0.0977271 1
gene 1 31 49 0.480669 0 248 0.480669 1
gene 1 32 42 -1.09604 0 249 -1.09604 1
gene 1 32 43 -1.25219 0 250 -1.25219 1
gene 1 32 44 0.478057 0 251 0.478057 1
gene 1 32 45 -1.64083 0 252 -1.64083 1
gene 1 32 46 -3.87666 0 253 -3.87666 1
gene 1 32 47 -3.10948 0 254 -3.10948 1
gene 1 32 48 0.707313 0 255 0.707313 1
gene 1 32 49 -2.55936 0 256 -2.55936 1
gene 1 33 42 -0.1527 0 257 -0.1527 1
gene 1 33 43 3.50436 0 258 3.50436 1
gene 1 33 44 1.60707 0 259 1.60707 1
gene 1 33 45 -0.0201247 0 260 -0.0201247 1
gene 1 33 46 -0.53515 0 261 -0.53515 1
gene 1 33 47 0.628752 0 262 0.628752 1
gene 1 33 48 2.50353 0 263 2.50353 1
gene 1 33 49 0.392691 0 264 0.392691 1
gene 1 34 42 0.218945 0 265 0.218945 1
gene 1 34 43 -0.987152 0 266 -0.987152 1
gene 1 34 44 -1.09352 0 267 -1.09352 1
gene 1 34 45 -0.550586 0 268 -0.550586 1
gene 1 34 46 0.359718 0 269 0.359718 1
gene 1 34 47 -0.400153 0 270 -0.400153 1
gene 1 34 48 0.726209 0 271 0.726209 1
gene 1 34 49 -0.229457 0 272 -0.229457 1
gene 1 35 42 -0.57743 0 273 -0.57743 1
gene 1 35 43 -0.205531 0 274 -0.205531 1
gene 1 35 44 -0.217673 0 275 -0.217673 1
gene 1 35 45 1.08602 0 276 1.08602 1
gene 1 35 46 -0.0226764 0 277 -0.0226764 1
gene 1 35 47 -0.941896 0 278 -0.941896 1
gene 1 35 48 -0.782401 0 279 -0.782401 1
gene 1 35 49 0.609079 0 280 0.609079 1
gene 1 36 42 1.5182 0 281 1.5182 1
gene 1 36 43 0.310205 0 282 0.310205 1
gene 1 36 44 0.0736037 0 283 0.0736037 1
gene 1 36 45 -0.791945 0 284 -0.791945 1
gene 1 36 46 -1.78242 0 285 -1.78242 1
gene 1 36 47 -2.40173 0 286 -2.40173 1
gene 1 36 48 0.302159 0 287 0.302159 1
gene 1 36 49 -0.0585727 0 288 -0.0585727 1
gene 1 37 42 0.921654 0 289 0.921654 1
gene 1 37 43 -0.12179 0 290 -0.12179 1
gene 1 37 44 -2.00934 0 291 -2.00934 1
gene 1 37 45 -0.168347 0 292 -0.168347 1
gene 1 37 46 -0.976953 0 293 -0.976953 1
gene 1 37 47 0.218499 0 294 0.218499 1
gene 1 37 48 0.785297 0 295 0.785297 1
gene 1 37 49 -1.79151 0 296 -1.79151 1
gene 1 38 42 -0.0194823 0 297 -0.0194823 1
gene 1 38 43 -0.510131 0 298 -0.510131 1
gene 1 38 44 0.90838 0 299 0.90838 1
gene 1 38 45 0.218378 0 300 0.218378 1
gene 1 38 46 0.345073 0 301 0.345073 1
gene 1 38 47 -1.98762 0 302 -1.98762 1
gene 1 38 48 -0.0177127 0 303 -0.0177127 1
gene 1 38 49 0.179251 0 304 0.179251 1
gene 1 39 42 -0.58826 0 305 -0.58826 1
gene 1 39 43 -0.0837355 0 306 -0.0837355 1
gene 1 39 44 -0.905121 0 307 -0.905121 1
gene 1 39 45 0.625555 0 308 0.625555 1
gene 1 39 46 -0.00394038 0 309 -0.00394038 1
gene 1 39 47 1.76798 0 310 1.76798 1
gene 1 39 48 1.30383 0 311 1.30383 1
gene 1 39 49 1.10523 0 312 1.10523 1
gene 1 40 42 2.66688 0 313 2.66688 1
gene 1 40 43 0.650797 0 314 0.650797 1
gene 1 40 44 -2.25361 0 315 -2.25361 1
gene 1 40 45 0.192806 0 316 0.192806 1
gene 1 40 46 -0.790105 0 317 -0.790105 1
gene 1 40 47 -0.919484 0 318 -0.919484 1
gene 1 40 48 1.10777 0 319 1.10777 1
gene 1 40 49 -0.0810958 0 320 -0.0810958 1
gene 1 41 42 -0.0829046 0 321 -0.0829046 1
gene 1 41 43 4.36964 0 322 4.36964 1
gene 1 41 44 1.2741 0 323 1.2741 1
gene 1 41 45 0.999118 0 324 0.999118 1
gene 1 41 46 -0.284132 0 325 -0.284132 1
gene 1 41 47 0.694814 0 326 0.694814 1
gene 1 41 48 0.67678 0 327 0.67678 1
gene 1 41 49 -0.541445 0 328 -0.541445 1
genomeend 44


