/* Organism #0 Fitness: -5096.510000 Time: 0 */
genomestart 0
trait 1 0.000000 0.790653 0.000000 0.000000 0.000000 0.335396 0.260103 0.347473 
node 1 1 1 1
node 2 1 1 1
node 3 1 1 1
node 4 1 1 1
node 5 1 1 1
node 6 1 1 1
node 7 1 1 1
node 8 1 1 1
node 9 1 1 1
node 10 1 1 1
node 11 1 1 1
node 12 1 1 1
node 13 1 1 1
node 14 1 1 1
node 15 1 1 1
node 16 1 1 1
node 17 1 1 1
node 18 1 1 1
node 19 1 1 1
node 20 1 1 1
node 21 1 1 1
node 22 1 1 1
node 23 1 1 1
node 24 1 1 1
node 25 1 1 1
node 26 1 1 1
node 27 1 1 1
node 28 1 1 1
node 29 1 1 1
node 30 1 1 1
node 31 1 1 1
node 32 1 1 1
node 33 1 1 1
node 34 1 1 1
node 35 1 1 1
node 36 1 1 1
node 37 1 1 1
node 38 1 1 1
node 39 1 1 1
node 40 1 1 1
node 41 1 1 3
node 42 1 0 2
node 43 1 0 2
node 44 1 0 2
node 45 1 0 2
node 46 1 0 2
node 47 1 0 2
node 48 1 0 2
node 49 1 0 2
gene 1 1 42 -0.960043 0 1 -0.960043 1
gene 1 1 43 -4.13354 0 2 -4.13354 1
gene 1 1 44 -3.4363 0 3 -3.4363 1
gene 1 1 45 0.39939 0 4 0.39939 1
gene 1 1 46 4.14337 0 5 4.14337 1
gene 1 1 47 1.17688 0 6 1.17688 1
gene 1 1 48 -0.862279 0 7 -0.862279 1
gene 1 1 49 1.76427 0 8 1.76427 1
gene 1 2 42 -0.129509 0 9 -0.129509 1
gene 1 2 43 1.33687 0 10 1.33687 1
gene 1 2 44 1.04758 0 11 1.04758 1
gene 1 2 45 -1.03168 0 12 -1.03168 1
gene 1 2 46 0.373502 0 13 0.373502 1
gene 1 2 47 -3.79748 0 14 -3.79748 1
gene 1 2 48 -0.357397 0 15 -0.357397 1
gene 1 2 49 2.95577 0 16 2.95577 1
gene 1 3 42 1.48689 0 17 1.48689 1
gene 1 3 43 2.8353 0 18 2.8353 1
gene 1 3 44 0.491804 0 19 0.491804 1
gene 1 3 45 -0.271276 0 20 -0.271276 1
gene 1 3 46 -0.863642 0 21 -0.863642 1
gene 1 3 47 0.153077 0 22 0.153077 1
gene 1 3 48 0.287894 0 23 0.287894 1
gene 1 3 49 1.51001 0 24 1.51001 1
gene 1 4 42 3.01818 0 25 3.01818 1
gene 1 4 43 0.192262 0 26 0.192262 1
gene 1 4 44 0.573411 0 27 0.573411 1
gene 1 4 45 -0.124745 0 28 -0.124745 1
gene 1 4 46 -0.299421 0 29 -0.299421 1
gene 1 4 47 2.44307 0 30 2.44307 1
gene 1 4 48 1.84871 0 31 1.84871 1
gene 1 4 49 -0.990091 0 32 -0.990091 1
gene 1 5 42 -1.51015 0 33 -1.51015 1
gene 1 5 43 -3.99104 0 34 -3.99104 1
gene 1 5 44 -1.2382 0 35 -1.2382 1
gene 1 5 45 1.14101 0 36 1.14101 1
gene 1 5 46 -0.789847 0 37 -0.789847 1
gene 1 5 47 -1.54377 0 38 -1.54377 1
gene 1 5 48 -0.126437 0 39 -0.126437 1
gene 1 5 49 1.00344 0 40 1.00344 1
gene 1 6 42 1.25216 0 41 1.25216 1
gene 1 6 43 -4.20793 0 42 -4.20793 1
gene 1 6 44 3.05434 0 43 3.05434 1
gene 1 6 45 1.69715 0 44 1.69715 1
gene 1 6 46 -1.95197 0 45 -1.95197 1
gene 1 6 47 0.600162 0 46 0.600162 1
gene 1 6 48 -1.17887 0 47 -1.17887 1
gene 1 6 49 -1.22429 0 48 -1.22429 1
gene 1 7 42 -4.67576 0 49 -4.67576 1
gene 1 7 43 -3.02181 0 50 -3.02181 1
gene 1 7 44 2.39805 0 51 2.39805 1
gene 1 7 45 0.603847 0 52 0.603847 1
gene 1 7 46 -4.00509 0 53 -4.00509 1
gene 1 7 47 1.37634 0 54 1.37634 1
gene 1 7 48 -1.33446 0 55 -1.33446 1
gene 1 7 49 4.01909 0 56 4.01909 1
gene 1 8 42 2.67191 0 57 2.67191 1
gene 1 8 43 0.275623 0 58 0.275623 1
gene 1 8 44 4.54422 0 59 4.54422 1
gene 1 8 45 -0.876464 0 60 -0.876464 1
gene 1 8 46 -0.823409 0 61 -0.823409 1
gene 1 8 47 0.0983527 0 62 0.0983527 1
gene 1 8 48 0.677495 0 63 0.677495 1
gene 1 8 49 3.66935 0 64 3.66935 1
gene 1 9 42 -0.82515 0 65 -0.82515 1
gene 1 9 43 -1.66206 0 66 -1.66206 1
gene 1 9 44 3.2894 0 67 3.2894 1
gene 1 9 45 0.850761 0 68 0.850761 1
gene 1 9 46 1.69894 0 69 1.69894 1
gene 1 9 47 1.2156 0 70 1.2156 1
gene 1 9 48 -1.16243 0 71 -1.16243 1
gene 1 9 49 -1.06031 0 72 -1.06031 1
gene 1 10 42 -1.57861 0 73 -1.57861 1
gene 1 10 43 -2.26223 0 74 -2.26223 1
gene 1 10 44 -1.41534 0 75 -1.41534 1
gene 1 10 45 -2.15585 0 76 -2.15585 1
gene 1 10 46 0.531864 0 77 0.531864 1
gene 1 10 47 -1.22069 0 78 -1.22069 1
gene 1 10 48 -0.370997 0 79 -0.370997 1
gene 1 10 49 1.36872 0 80 1.36872 1
gene 1 11 42 0.35604 0 81 0.35604 1
gene 1 11 43 4.78411 0 82 4.78411 1
gene 1 11 44 -2.55433 0 83 -2.55433 1
gene 1 11 45 5 0 84 5 1
gene 1 11 46 -1.26944 0 85 -1.26944 1
gene 1 11 47 3.1717 0 86 3.1717 1
gene 1 11 48 -3.39625 0 87 -3.39625 1
gene 1 11 49 3.14119 0 88 3.14119 1
gene 1 12 42 -1.32692 0 89 -1.32692 1
gene 1 12 43 1.19347 0 90 1.19347 1
gene 1 12 44 0.751073 0 91 0.751073 1
gene 1 12 45 -1.10069 0 92 -1.10069 1
gene 1 12 46 -0.771781 0 93 -0.771781 1
gene 1 12 47 -0.981226 0 94 -0.981226 1
gene 1 12 48 -0.835464 0 95 -0.835464 1
gene 1 12 49 1.38476 0 96 1.38476 1
gene 1 13 42 -0.123755 0 97 -0.123755 1
gene 1 13 43 -2.30776 0 98 -2.30776 1
gene 1 13 44 -2.2218 0 99 -2.2218 1
gene 1 13 45 2.64841 0 100 2.64841 1
gene 1 13 46 -1.59567 0 101 -1.59567 1
gene 1 13 47 -0.771541 0 102 -0.771541 1
gene 1 13 48 2.42117 0 103 2.42117 1
gene 1 13 49 0.836017 0 104 0.836017 1
gene 1 14 42 -3.34367 0 105 -3.34367 1
gene 1 14 43 -0.441828 0 106 -0.441828 1
gene 1 14 44 2.05936 0 107 2.05936 1
gene 1 14 45 -0.793574 0 108 -0.793574 1
gene 1 14 46 -0.572455 0 109 -0.572455 1
gene 1 14 47 -0.750954 0 110 -0.750954 1
gene 1 14 48 0.459827 0 111 0.459827 1
gene 1 14 49 -4.42029 0 112 -4.42029 1
gene 1 15 42 0.935243 0 113 0.935243 1
gene 1 15 43 0.859343 0 114 0.859343 1
gene 1 15 44 2.17886 0 115 2.17886 1
gene 1 15 45 -2.46948 0 116 -2.46948 1
gene 1 15 46 -2.31257 0 117 -2.31257 1
gene 1 15 47 0.729086 0 118 0.729086 1
gene 1 15 48 -1.00926 0 119 -1.00926 1
gene 1 15 49 -3.79639 0 120 -3.79639 1
gene 1 16 42 1.60389 0 121 1.60389 1
gene 1 16 43 -5 0 122 -5 1
gene 1 16 44 2.84074 0 123 2.84074 1
gene 1 16 45 -2.02523 0 124 -2.02523 1
gene 1 16 46 0.556798 0 125 0.556798 1
gene 1 16 47 -2.17443 0 126 -2.17443 1
gene 1 16 48 -0.259987 0 127 -0.259987 1
gene 1 16 49 0.00913559 0 128 0.00913559 1
gene 1 17 42 -0.099483 0 129 -0.099483 1
gene 1 17 43 -1.23095 0 130 -1.23095 1
gene 1 17 44 -1.87447 0 131 -1.87447 1
gene 1 17 45 -0.482593 0 132 -0.482593 1
gene 1 17 46 0.440868 0 133 0.440868 1
gene 1 17 47 -5 0 134 -5 1
gene 1 17 48 0.990766 0 135 0.990766 1
gene 1 17 49 -0.349663 0 136 -0.349663 1
gene 1 18 42 0.530844 0 137 0.530844 1
gene 1 18 43 -1.06172 0 138 -1.06172 1
gene 1 18 44 0.315453 0 139 0.315453 1
gene 1 18 45 2.40283 0 140 2.40283 1
gene 1 18 46 1.05807 0 141 1.05807 1
gene 1 18 47 -3.67252 0 142 -3.67252 1
gene 1 18 48 0.602478 0 143 0.602478 1
gene 1 18 49 -0.405361 0 144 -0.405361 1
gene 1 19 42 2.4247 0 145 2.4247 1
gene 1 19 43 -0.446769 0 146 -0.446769 1
gene 1 19 44 3.63114 0 147 3.63114 1
gene 1 19 45 -2.89051 0 148 -2.89051 1
gene 1 19 46 -2.93822 0 149 -2.93822 1
gene 1 19 47 -1.62502 0 150 -1.62502 1
gene 1 19 48 4.55673 0 151 4.55673 1
gene 1 19 49 -1.2354 0 152 -1.2354 1
gene 1 20 42 -1.83572 0 153 -1.83572 1
gene 1 20 43 -1.47933 0 154 -1.47933 1
gene 1 20 44 -3.85994 0 155 -3.85994 1
gene 1 20 45 0.709831 0 156 0.709831 1
gene 1 20 46 -0.595664 0 157 -0.595664 1
gene 1 20 47 -1.45457 0 158 -1.45457 1
gene 1 20 48 1.5197 0 159 1.5197 1
gene 1 20 49 -2.11008 0 160 -2.11008 1
gene 1 21 42 4.27804 0 161 4.27804 1
gene 1 21 43 0.508342 0 162 0.508342 1
gene 1 21 44 -2.3369 0 163 -2.3369 1
gene 1 21 45 1.15998 0 164 1.15998 1
gene 1 21 46 1.26758 0 165 1.26758 1
gene 1 21 47 -0.423669 0 166 -0.423669 1
gene 1 21 48 -2.8901 0 167 -2.8901 1
gene 1 21 49 0.87297 0 168 0.87297 1
gene 1 22 42 -1.2239 0 169 -1.2239 1
gene 1 22 43 -0.657844 0 170 -0.657844 1
gene 1 22 44 2.51045 0 171 2.51045 1
gene 1 22 45 3.23266 0 172 3.23266 1
gene 1 22 46 -0.995394 0 173 -0.995394 1
gene 1 22 47 -4.71114 0 174 -4.71114 1
gene 1 22 48 -2.39331 0 175 -2.39331 1
gene 1 22 49 3.4841 0 176 3.4841 1
gene 1 23 42 -0.584375 0 177 -0.584375 1
gene 1 23 43 -0.0538051 0 178 -0.0538051 1
gene 1 23 44 4.20836 0 179 4.20836 1
gene 1 23 45 -2.48122 0 180 -2.48122 1
gene 1 23 46 -5 0 181 -5 1
gene 1 23 47 0.828633 0 182 0.828633 1
gene 1 23 48 0.755359 0 183 0.755359 1
gene 1 23 49 -0.0825831 0 184 -0.0825831 1
gene 1 24 42 1.77993 0 185 1.77993 1
gene 1 24 43 -0.342331 0 186 -0.342331 1
gene 1 24 44 -1.26714 0 187 -1.26714 1
gene 1 24 45 -0.165097 0 188 -0.165097 1
gene 1 24 46 -1.61467 0 189 -1.61467 1
gene 1 24 47 -0.399647 0 190 -0.399647 1
gene 1 24 48 2.89003 0 191 2.89003 1
gene 1 24 49 -0.108455 0 192 -0.108455 1
gene 1 25 42 -0.193201 0 193 -0.193201 1
gene 1 25 43 0.21487 0 194 0.21487 1
gene 1 25 44 -0.756082 0 195 -0.756082 1
gene 1 25 45 0.707661 0 196 0.707661 1
gene 1 25 46 -2.72478 0 197 -2.72478 1
gene 1 25 47 -0.893213 0 198 -0.893213 1
gene 1 25 48 -2.67631 0 199 -2.67631 1
gene 1 25 49 5 0 200 5 1
gene 1 26 42 0.988869 0 201 0.988869 1
gene 1 26 43 1.8884 0 202 1.8884 1
gene 1 26 44 -2.06991 0 203 -2.06991 1
gene 1 26 45 -2.35352 0 204 -2.35352 1
gene 1 26 46 0.175619 0 205 0.175619 1
gene 1 26 47 -0.0165584 0 206 -0.0165584 1
gene 1 26 48 -0.100732 0 207 -0.100732 1
gene 1 26 49 -3.64441 0 208 -3.64441 1
gene 1 27 42 -1.26018 0 209 -1.26018 1
gene 1 27 43 0.707319 0 210 0.707319 1
gene 1 27 44 3.63499 0 211 3.63499 1
gene 1 27 45 -1.42156 0 212 -1.42156 1
gene 1 27 46 3.33301 0 213 3.33301 1
gene 1 27 47 -5 0 214 -5 1
gene 1 27 48 2.48898 0 215 2.48898 1
gene 1 27 49 0.26807 0 216 0.26807 1
gene 1 28 42 2.12123 0 217 2.12123 1
gene 1 28 43 -5 0 218 -5 1
gene 1 28 44 0.590011 0 219 0.590011 1
gene 1 28 45 2.31594 0 220 2.31594 1
gene 1 28 46 1.23192 0 221 1.23192 1
gene 1 28 47 1.92999 0 222 1.92999 1
gene 1 28 48 1.74883 0 223 1.74883 1
gene 1 28 49 -0.211545 0 224 -0.211545 1
gene 1 29 42 1.08842 0 225 1.08842 1
gene 1 29 43 -2.04855 0 226 -2.04855 1
gene 1 29 44 -0.604845 0 227 -0.604845 1
gene 1 29 45 0.343357 0 228 0.343357 1
gene 1 29 46 -2.2307 0 229 -2.2307 1
gene 1 29 47 2.89084 0 230 2.89084 1
gene 1 29 48 -2.87531 0 231 -2.87531 1
gene 1 29 49 0.465029 0 232 0.465029 1
gene 1 30 42 1.5433 0 233 1.5433 1
gene 1 30 43 -1.20392 0 234 -1.20392 1
gene 1 30 44 1.58744 0 235 1.58744 1
gene 1 30 45 0.237601 0 236 0.237601 1
gene 1 30 46 0.453175 0 237 0.453175 1
gene 1 30 47 -5 0 238 -5 1
gene 1 30 48 0.569833 0 239 0.569833 1
gene 1 30 49 1.71534 0 240 1.71534 1
gene 1 31 42 -0.499583 0 241 -0.499583 1
gene 1 31 43 3.0862 0 242 3.0862 1
gene 1 31 44 -1.34159 0 243 -1.34159 1
gene 1 31 45 3.23408 0 244 3.23408 1
gene 1 31 46 -0.260802 0 245 -0.260802 1
gene 1 31 47 -3.58238 0 246 -3.58238 1
gene 1 31 48 2.59114 0 247 2.59114 1
gene 1 31 49 -2.33917 0 248 -2.33917 1
gene 1 32 42 2.13587 0 249 2.13587 1
gene 1 32 43 1.57557 0 250 1.57557 1
gene 1 32 44 -5 0 251 -5 1
gene 1 32 45 1.91294 0 252 1.91294 1
gene 1 32 46 3.10419 0 253 3.10419 1
gene 1 32 47 4.65964 0 254 4.65964 1
gene 1 32 48 0.136212 0 255 0.136212 1
gene 1 32 49 -4.12729 0 256 -4.12729 1
gene 1 33 42 0.938207 0 257 0.938207 1
gene 1 33 43 -1.62571 0 258 -1.62571 1
gene 1 33 44 0.852834 0 259 0.852834 1
gene 1 33 45 2.67677 0 260 2.67677 1
gene 1 33 46 1.41918 0 261 1.41918 1
gene 1 33 47 4.90608 0 262 4.90608 1
gene 1 33 48 1.93811 0 263 1.93811 1
gene 1 33 49 0.230189 0 264 0.230189 1
gene 1 34 42 -2.68142 0 265 -2.68142 1
gene 1 34 43 -1.32764 0 266 -1.32764 1
gene 1 34 44 0.178857 0 267 0.178857 1
gene 1 34 45 0.855007 0 268 0.855007 1
gene 1 34 46 2.5527 0 269 2.5527 1
gene 1 34 47 -0.0856523 0 270 -0.0856523 1
gene 1 34 48 0.00551407 0 271 0.00551407 1
gene 1 34 49 -1.50415 0 272 -1.50415 1
gene 1 35 42 0.316264 0 273 0.316264 1
gene 1 35 43 0.377368 0 274 0.377368 1
gene 1 35 44 0.278649 0 275 0.278649 1
gene 1 35 45 0.721336 0 276 0.721336 1
gene 1 35 46 0.239209 0 277 0.239209 1
gene 1 35 47 0.247249 0 278 0.247249 1
gene 1 35 48 -0.0101323 0 279 -0.0101323 1
gene 1 35 49 0.0085595 0 280 0.0085595 1
gene 1 36 42 -0.390048 0 281 -0.390048 1
gene 1 36 43 -0.279829 0 282 -0.279829 1
gene 1 36 44 0.884562 0 283 0.884562 1
gene 1 36 45 0.577678 0 284 0.577678 1
gene 1 36 46 0.0856365 0 285 0.0856365 1
gene 1 36 47 -1.29321 0 286 -1.29321 1
gene 1 36 48 0.742943 0 287 0.742943 1
gene 1 36 49 1.76494 0 288 1.76494 1
gene 1 37 42 0.415487 0 289 0.415487 1
gene 1 37 43 -0.0561646 0 290 -0.0561646 1
gene 1 37 44 0.554669 0 291 0.554669 1
gene 1 37 45 1.31584 0 292 1.31584 1
gene 1 37 46 0.357093 0 293 0.357093 1
gene 1 37 47 0.50455 0 294 0.50455 1
gene 1 37 48 -0.421741 0 295 -0.421741 1
gene 1 37 49 1.31407 0 296 1.31407 1
gene 1 38 42 0.299317 0 297 0.299317 1
gene 1 38 43 0.533976 0 298 0.533976 1
gene 1 38 44 0.181022 0 299 0.181022 1
gene 1 38 45 0.714701 0 300 0.714701 1
gene 1 38 46 -2.21694 0 301 -2.21694 1
gene 1 38 47 0.364499 0 302 0.364499 1
gene 1 38 48 -0.171742 0 303 -0.171742 1
gene 1 38 49 0.674574 0 304 0.674574 1
gene 1 39 42 -1.28663 0 305 -1.28663 1
gene 1 39 43 -0.0257748 0 306 -0.0257748 1
gene 1 39 44 -0.126266 0 307 -0.126266 1
gene 1 39 45 -0.344359 0 308 -0.344359 1
gene 1 39 46 1.18543 0 309 1.18543 1
gene 1 39 47 1.10875 0 310 1.10875 1
gene 1 39 48 -1.32268 0 311 -1.32268 1
gene 1 39 49 -0.458159 0 312 -0.458159 1
gene 1 40 42 -0.0489979 0 313 -0.0489979 1
gene 1 40 43 -0.723563 0 314 -0.723563 1
gene 1 40 44 0.659761 0 315 0.659761 1
gene 1 40 45 -0.878538 0 316 -0.878538 1
gene 1 40 46 -0.893729 0 317 -0.893729 1
gene 1 40 47 -0.199459 0 318 -0.199459 1
gene 1 40 48 -0.449791 0 319 -0.449791 1
gene 1 40 49 -0.148336 0 320 -0.148336 1
gene 1 41 42 -0.262017 0 321 -0.262017 1
gene 1 41 43 0.480266 0 322 0.480266 1
gene 1 41 44 -1.20391 0 323 -1.20391 1
gene 1 41 45 -0.290035 0 324 -0.290035 1
gene 1 41 46 1.41236 0 325 1.41236 1
gene 1 41 47 -2.1161 0 326 -2.1161 1
gene 1 41 48 -0.863711 0 327 -0.863711 1
gene 1 41 49 -0.2957 0 328 -0.2957 1
genomeend 0


