/* Organism #0 Fitness: -4459.770000 Time: 0 */
genomestart 0
trait 1 0.000000 0.000000 0.000000 0.000000 0.965061 0.318316 0.544621 0.000000 
node 1 1 1 1
node 2 1 1 1
node 3 1 1 1
node 4 1 1 1
node 5 1 1 1
node 6 1 1 1
node 7 1 1 1
node 8 1 1 1
node 9 1 1 1
node 10 1 1 1
node 11 1 1 1
node 12 1 1 1
node 13 1 1 1
node 14 1 1 1
node 15 1 1 1
node 16 1 1 1
node 17 1 1 1
node 18 1 1 1
node 19 1 1 1
node 20 1 1 1
node 21 1 1 1
node 22 1 1 1
node 23 1 1 1
node 24 1 1 1
node 25 1 1 1
node 26 1 1 1
node 27 1 1 1
node 28 1 1 1
node 29 1 1 1
node 30 1 1 1
node 31 1 1 1
node 32 1 1 1
node 33 1 1 1
node 34 1 1 1
node 35 1 1 1
node 36 1 1 1
node 37 1 1 1
node 38 1 1 1
node 39 1 1 1
node 40 1 1 1
node 41 1 1 3
node 42 1 0 2
node 43 1 0 2
node 44 1 0 2
node 45 1 0 2
node 46 1 0 2
node 47 1 0 2
node 48 1 0 2
node 49 1 0 2
gene 1 1 42 -1.27849 0 1 -1.27849 1
gene 1 1 43 -2.51563 0 2 -2.51563 1
gene 1 1 44 4.18489 0 3 4.18489 1
gene 1 1 45 1.06235 0 4 1.06235 1
gene 1 1 46 -1.24489 0 5 -1.24489 1
gene 1 1 47 -2.71441 0 6 -2.71441 1
gene 1 1 48 0.80489 0 7 0.80489 1
gene 1 1 49 -5 0 8 -5 1
gene 1 2 42 -0.346692 0 9 -0.346692 1
gene 1 2 43 -4.24486 0 10 -4.24486 1
gene 1 2 44 -0.575642 0 11 -0.575642 1
gene 1 2 45 -0.562836 0 12 -0.562836 1
gene 1 2 46 1.59018 0 13 1.59018 1
gene 1 2 47 -4.93377 0 14 -4.93377 1
gene 1 2 48 -3.45274 0 15 -3.45274 1
gene 1 2 49 -1.97658 0 16 -1.97658 1
gene 1 3 42 -2.12013 0 17 -2.12013 1
gene 1 3 43 -4.38108 0 18 -4.38108 1
gene 1 3 44 -2.65144 0 19 -2.65144 1
gene 1 3 45 0.939771 0 20 0.939771 1
gene 1 3 46 -0.235575 0 21 -0.235575 1
gene 1 3 47 2.36806 0 22 2.36806 1
gene 1 3 48 -3.65313 0 23 -3.65313 1
gene 1 3 49 -3.26046 0 24 -3.26046 1
gene 1 4 42 3.30915 0 25 3.30915 1
gene 1 4 43 1.77061 0 26 1.77061 1
gene 1 4 44 0.0634839 0 27 0.0634839 1
gene 1 4 45 -2.65254 0 28 -2.65254 1
gene 1 4 46 0.240612 0 29 0.240612 1
gene 1 4 47 -1.88704 0 30 -1.88704 1
gene 1 4 48 4.31079 0 31 4.31079 1
gene 1 4 49 -3.46202 0 32 -3.46202 1
gene 1 5 42 -4.10317 0 33 -4.10317 1
gene 1 5 43 -1.09132 0 34 -1.09132 1
gene 1 5 44 -0.0454738 0 35 -0.0454738 1
gene 1 5 45 -0.919396 0 36 -0.919396 1
gene 1 5 46 1.58275 0 37 1.58275 1
gene 1 5 47 5 0 38 5 1
gene 1 5 48 -1.18145 0 39 -1.18145 1
gene 1 5 49 0.84902 0 40 0.84902 1
gene 1 6 42 -0.369151 0 41 -0.369151 1
gene 1 6 43 0.598875 0 42 0.598875 1
gene 1 6 44 0.110942 0 43 0.110942 1
gene 1 6 45 -4.51275 0 44 -4.51275 1
gene 1 6 46 -1.07539 0 45 -1.07539 1
gene 1 6 47 -1.80737 0 46 -1.80737 1
gene 1 6 48 -4.4 0 47 -4.4 1
gene 1 6 49 0.652867 0 48 0.652867 1
gene 1 7 42 -0.748406 0 49 -0.748406 1
gene 1 7 43 -1.88087 0 50 -1.88087 1
gene 1 7 44 -2.92164 0 51 -2.92164 1
gene 1 7 45 1.06512 0 52 1.06512 1
gene 1 7 46 -0.677835 0 53 -0.677835 1
gene 1 7 47 -2.27372 0 54 -2.27372 1
gene 1 7 48 0.891756 0 55 0.891756 1
gene 1 7 49 0.359441 0 56 0.359441 1
gene 1 8 42 4.47752 0 57 4.47752 1
gene 1 8 43 4.04797 0 58 4.04797 1
gene 1 8 44 3.96191 0 59 3.96191 1
gene 1 8 45 -0.901855 0 60 -0.901855 1
gene 1 8 46 0.898271 0 61 0.898271 1
gene 1 8 47 1.41711 0 62 1.41711 1
gene 1 8 48 1.00987 0 63 1.00987 1
gene 1 8 49 0.411457 0 64 0.411457 1
gene 1 9 42 -1.12276 0 65 -1.12276 1
gene 1 9 43 -0.673018 0 66 -0.673018 1
gene 1 9 44 0.224343 0 67 0.224343 1
gene 1 9 45 1.04596 0 68 1.04596 1
gene 1 9 46 -1.46811 0 69 -1.46811 1
gene 1 9 47 0.524227 0 70 0.524227 1
gene 1 9 48 -2.72355 0 71 -2.72355 1
gene 1 9 49 -3.58119 0 72 -3.58119 1
gene 1 10 42 -0.506317 0 73 -0.506317 1
gene 1 10 43 0.184659 0 74 0.184659 1
gene 1 10 44 -1.6379 0 75 -1.6379 1
gene 1 10 45 0.180806 0 76 0.180806 1
gene 1 10 46 2.90849 0 77 2.90849 1
gene 1 10 47 0.269592 0 78 0.269592 1
gene 1 10 48 -1.81698 0 79 -1.81698 1
gene 1 10 49 -3.22729 0 80 -3.22729 1
gene 1 11 42 -0.0420791 0 81 -0.0420791 1
gene 1 11 43 -0.544435 0 82 -0.544435 1
gene 1 11 44 -0.901545 0 83 -0.901545 1
gene 1 11 45 3.96751 0 84 3.96751 1
gene 1 11 46 0.19146 0 85 0.19146 1
gene 1 11 47 0.443936 0 86 0.443936 1
gene 1 11 48 0.618578 0 87 0.618578 1
gene 1 11 49 -0.0866434 0 88 -0.0866434 1
gene 1 12 42 1.3482 0 89 1.3482 1
gene 1 12 43 -1.19721 0 90 -1.19721 1
gene 1 12 44 -3.32598 0 91 -3.32598 1
gene 1 12 45 1.00338 0 92 1.00338 1
gene 1 12 46 2.88824 0 93 2.88824 1
gene 1 12 47 1.07921 0 94 1.07921 1
gene 1 12 48 0.858866 0 95 0.858866 1
gene 1 12 49 1.32087 0 96 1.32087 1
gene 1 13 42 -4.69616 0 97 -4.69616 1
gene 1 13 43 0.377562 0 98 0.377562 1
gene 1 13 44 -1.51668 0 99 -1.51668 1
gene 1 13 45 0.0166673 0 100 0.0166673 1
gene 1 13 46 -2.46699 0 101 -2.46699 1
gene 1 13 47 3.06356 0 102 3.06356 1
gene 1 13 48 -0.112437 0 103 -0.112437 1
gene 1 13 49 4.65331 0 104 4.65331 1
gene 1 14 42 1.59448 0 105 1.59448 1
gene 1 14 43 -3.00141 0 106 -3.00141 1
gene 1 14 44 0.568957 0 107 0.568957 1
gene 1 14 45 0.119127 0 108 0.119127 1
gene 1 14 46 1.07416 0 109 1.07416 1
gene 1 14 47 0.558712 0 110 0.558712 1
gene 1 14 48 -3.52071 0 111 -3.52071 1
gene 1 14 49 -2.56328 0 112 -2.56328 1
gene 1 15 42 -0.697113 0 113 -0.697113 1
gene 1 15 43 -0.401784 0 114 -0.401784 1
gene 1 15 44 -2.72687 0 115 -2.72687 1
gene 1 15 45 2.94215 0 116 2.94215 1
gene 1 15 46 -0.399695 0 117 -0.399695 1
gene 1 15 47 -1.06605 0 118 -1.06605 1
gene 1 15 48 1.58637 0 119 1.58637 1
gene 1 15 49 -2.26189 0 120 -2.26189 1
gene 1 16 42 0.667285 0 121 0.667285 1
gene 1 16 43 1.75132 0 122 1.75132 1
gene 1 16 44 0.960032 0 123 0.960032 1
gene 1 16 45 -4.51163 0 124 -4.51163 1
gene 1 16 46 -0.394444 0 125 -0.394444 1
gene 1 16 47 0.88 0 126 0.88 1
gene 1 16 48 1.32286 0 127 1.32286 1
gene 1 16 49 -3.27916 0 128 -3.27916 1
gene 1 17 42 -4.74029 0 129 -4.74029 1
gene 1 17 43 -4.72431 0 130 -4.72431 1
gene 1 17 44 -0.32461 0 131 -0.32461 1
gene 1 17 45 -3.15834 0 132 -3.15834 1
gene 1 17 46 -0.378355 0 133 -0.378355 1
gene 1 17 47 -1.84095 0 134 -1.84095 1
gene 1 17 48 -0.102509 0 135 -0.102509 1
gene 1 17 49 1.1452 0 136 1.1452 1
gene 1 18 42 3.25229 0 137 3.25229 1
gene 1 18 43 -0.298689 0 138 -0.298689 1
gene 1 18 44 3.26662 0 139 3.26662 1
gene 1 18 45 -0.487723 0 140 -0.487723 1
gene 1 18 46 -0.50754 0 141 -0.50754 1
gene 1 18 47 -0.172114 0 142 -0.172114 1
gene 1 18 48 -2.26513 0 143 -2.26513 1
gene 1 18 49 -0.493872 0 144 -0.493872 1
gene 1 19 42 -0.484135 0 145 -0.484135 1
gene 1 19 43 1.94561 0 146 1.94561 1
gene 1 19 44 -0.075919 0 147 -0.075919 1
gene 1 19 45 1.00462 0 148 1.00462 1
gene 1 19 46 2.25876 0 149 2.25876 1
gene 1 19 47 2.02647 0 150 2.02647 1
gene 1 19 48 4.23107 0 151 4.23107 1
gene 1 19 49 1.62436 0 152 1.62436 1
gene 1 20 42 -4.46083 0 153 -4.46083 1
gene 1 20 43 -4.81035 0 154 -4.81035 1
gene 1 20 44 -0.743075 0 155 -0.743075 1
gene 1 20 45 -2.09243 0 156 -2.09243 1
gene 1 20 46 -1.91148 0 157 -1.91148 1
gene 1 20 47 -0.0493333 0 158 -0.0493333 1
gene 1 20 48 -0.290715 0 159 -0.290715 1
gene 1 20 49 0.878666 0 160 0.878666 1
gene 1 21 42 0.362507 0 161 0.362507 1
gene 1 21 43 -4.89231 0 162 -4.89231 1
gene 1 21 44 4.02359 0 163 4.02359 1
gene 1 21 45 0.981967 0 164 0.981967 1
gene 1 21 46 2.74965 0 165 2.74965 1
gene 1 21 47 -2.16728 0 166 -2.16728 1
gene 1 21 48 -0.467873 0 167 -0.467873 1
gene 1 21 49 -3.31042 0 168 -3.31042 1
gene 1 22 42 5 0 169 5 1
gene 1 22 43 1.49336 0 170 1.49336 1
gene 1 22 44 -3.02862 0 171 -3.02862 1
gene 1 22 45 -2.79171 0 172 -2.79171 1
gene 1 22 46 1.56501 0 173 1.56501 1
gene 1 22 47 -0.032068 0 174 -0.032068 1
gene 1 22 48 1.15505 0 175 1.15505 1
gene 1 22 49 0.414587 0 176 0.414587 1
gene 1 23 42 4.05541 0 177 4.05541 1
gene 1 23 43 -1.93048 0 178 -1.93048 1
gene 1 23 44 1.21448 0 179 1.21448 1
gene 1 23 45 -4.02469 0 180 -4.02469 1
gene 1 23 46 -0.440913 0 181 -0.440913 1
gene 1 23 47 -3.47977 0 182 -3.47977 1
gene 1 23 48 0.774008 0 183 0.774008 1
gene 1 23 49 0.767415 0 184 0.767415 1
gene 1 24 42 1.85723 0 185 1.85723 1
gene 1 24 43 0.363765 0 186 0.363765 1
gene 1 24 44 1.57203 0 187 1.57203 1
gene 1 24 45 2.89859 0 188 2.89859 1
gene 1 24 46 1.88406 0 189 1.88406 1
gene 1 24 47 0.603488 0 190 0.603488 1
gene 1 24 48 0.835002 0 191 0.835002 1
gene 1 24 49 0.862549 0 192 0.862549 1
gene 1 25 42 3.38055 0 193 3.38055 1
gene 1 25 43 -2.18846 0 194 -2.18846 1
gene 1 25 44 -2.56737 0 195 -2.56737 1
gene 1 25 45 0.717796 0 196 0.717796 1
gene 1 25 46 0.0350799 0 197 0.0350799 1
gene 1 25 47 2.61785 0 198 2.61785 1
gene 1 25 48 0.948053 0 199 0.948053 1
gene 1 25 49 4.25008 0 200 4.25008 1
gene 1 26 42 -4.30481 0 201 -4.30481 1
gene 1 26 43 0.88967 0 202 0.88967 1
gene 1 26 44 0.164433 0 203 0.164433 1
gene 1 26 45 -0.965815 0 204 -0.965815 1
gene 1 26 46 1.26011 0 205 1.26011 1
gene 1 26 47 -2.95521 0 206 -2.95521 1
gene 1 26 48 -0.688731 0 207 -0.688731 1
gene 1 26 49 2.8654 0 208 2.8654 1
gene 1 27 42 -5 0 209 -5 1
gene 1 27 43 -2.31816 0 210 -2.31816 1
gene 1 27 44 -0.431077 0 211 -0.431077 1
gene 1 27 45 -0.654811 0 212 -0.654811 1
gene 1 27 46 -1.17721 0 213 -1.17721 1
gene 1 27 47 -1.52906 0 214 -1.52906 1
gene 1 27 48 -3.08124 0 215 -3.08124 1
gene 1 27 49 0.438686 0 216 0.438686 1
gene 1 28 42 1.51669 0 217 1.51669 1
gene 1 28 43 1.0542 0 218 1.0542 1
gene 1 28 44 0.947449 0 219 0.947449 1
gene 1 28 45 -0.198295 0 220 -0.198295 1
gene 1 28 46 1.18568 0 221 1.18568 1
gene 1 28 47 -1.36581 0 222 -1.36581 1
gene 1 28 48 3.51871 0 223 3.51871 1
gene 1 28 49 -4.51342 0 224 -4.51342 1
gene 1 29 42 -0.449464 0 225 -0.449464 1
gene 1 29 43 -1.93367 0 226 -1.93367 1
gene 1 29 44 -0.845258 0 227 -0.845258 1
gene 1 29 45 -3.00652 0 228 -3.00652 1
gene 1 29 46 -3.52375 0 229 -3.52375 1
gene 1 29 47 2.01562 0 230 2.01562 1
gene 1 29 48 -2.10725 0 231 -2.10725 1
gene 1 29 49 -2.95202 0 232 -2.95202 1
gene 1 30 42 5 0 233 5 1
gene 1 30 43 -1.07115 0 234 -1.07115 1
gene 1 30 44 0.0091698 0 235 0.0091698 1
gene 1 30 45 -0.530806 0 236 -0.530806 1
gene 1 30 46 0.856287 0 237 0.856287 1
gene 1 30 47 0.607414 0 238 0.607414 1
gene 1 30 48 -0.942869 0 239 -0.942869 1
gene 1 30 49 -2.57542 0 240 -2.57542 1
gene 1 31 42 -0.10459 0 241 -0.10459 1
gene 1 31 43 -0.468509 0 242 -0.468509 1
gene 1 31 44 -1.96785 0 243 -1.96785 1
gene 1 31 45 -2.64988 0 244 -2.64988 1
gene 1 31 46 3.52507 0 245 3.52507 1
gene 1 31 47 -1.72446 0 246 -1.72446 1
gene 1 31 48 -2.4951 0 247 -2.4951 1
gene 1 31 49 -4.15317 0 248 -4.15317 1
gene 1 32 42 -0.159855 0 249 -0.159855 1
gene 1 32 43 -1.01598 0 250 -1.01598 1
gene 1 32 44 2.61914 0 251 2.61914 1
gene 1 32 45 0.0516397 0 252 0.0516397 1
gene 1 32 46 -2.29753 0 253 -2.29753 1
gene 1 32 47 2.81208 0 254 2.81208 1
gene 1 32 48 2.5337 0 255 2.5337 1
gene 1 32 49 -0.579412 0 256 -0.579412 1
gene 1 33 42 -0.0520731 0 257 -0.0520731 1
gene 1 33 43 -0.276176 0 258 -0.276176 1
gene 1 33 44 -0.0203052 0 259 -0.0203052 1
gene 1 33 45 -0.578061 0 260 -0.578061 1
gene 1 33 46 3.61441 0 261 3.61441 1
gene 1 33 47 3.07137 0 262 3.07137 1
gene 1 33 48 1.1705 0 263 1.1705 1
gene 1 33 49 0.298474 0 264 0.298474 1
gene 1 34 42 -0.877563 0 265 -0.877563 1
gene 1 34 43 -0.667278 0 266 -0.667278 1
gene 1 34 44 -0.352342 0 267 -0.352342 1
gene 1 34 45 -0.0945654 0 268 -0.0945654 1
gene 1 34 46 0.473356 0 269 0.473356 1
gene 1 34 47 -0.641335 0 270 -0.641335 1
gene 1 34 48 0.175001 0 271 0.175001 1
gene 1 34 49 0.546877 0 272 0.546877 1
gene 1 35 42 -0.963655 0 273 -0.963655 1
gene 1 35 43 -0.811985 0 274 -0.811985 1
gene 1 35 44 -0.809829 0 275 -0.809829 1
gene 1 35 45 -1.00984 0 276 -1.00984 1
gene 1 35 46 -1.09794 0 277 -1.09794 1
gene 1 35 47 0.115437 0 278 0.115437 1
gene 1 35 48 -1.85947 0 279 -1.85947 1
gene 1 35 49 0.83366 0 280 0.83366 1
gene 1 36 42 -0.961823 0 281 -0.961823 1
gene 1 36 43 0.428153 0 282 0.428153 1
gene 1 36 44 1.3262 0 283 1.3262 1
gene 1 36 45 2.25024 0 284 2.25024 1
gene 1 36 46 -0.104477 0 285 -0.104477 1
gene 1 36 47 -0.414611 0 286 -0.414611 1
gene 1 36 48 0.170509 0 287 0.170509 1
gene 1 36 49 1.21276 0 288 1.21276 1
gene 1 37 42 0.960198 0 289 0.960198 1
gene 1 37 43 0.50253 0 290 0.50253 1
gene 1 37 44 -1.93332 0 291 -1.93332 1
gene 1 37 45 -1.35069 0 292 -1.35069 1
gene 1 37 46 0.00840621 0 293 0.00840621 1
gene 1 37 47 -0.509349 0 294 -0.509349 1
gene 1 37 48 1.83942 0 295 1.83942 1
gene 1 37 49 -0.94577 0 296 -0.94577 1
gene 1 38 42 0.00249851 0 297 0.00249851 1
gene 1 38 43 -1.56197 0 298 -1.56197 1
gene 1 38 44 0.739761 0 299 0.739761 1
gene 1 38 45 -2.95942 0 300 -2.95942 1
gene 1 38 46 -1.25669 0 301 -1.25669 1
gene 1 38 47 2.28974 0 302 2.28974 1
gene 1 38 48 0.645244 0 303 0.645244 1
gene 1 38 49 -1.15473 0 304 -1.15473 1
gene 1 39 42 -5 0 305 -5 1
gene 1 39 43 -0.300842 0 306 -0.300842 1
gene 1 39 44 1.44533 0 307 1.44533 1
gene 1 39 45 -0.0468034 0 308 -0.0468034 1
gene 1 39 46 -0.632146 0 309 -0.632146 1
gene 1 39 47 0.419847 0 310 0.419847 1
gene 1 39 48 0.602786 0 311 0.602786 1
gene 1 39 49 -1.3281 0 312 -1.3281 1
gene 1 40 42 0.184643 0 313 0.184643 1
gene 1 40 43 1.12294 0 314 1.12294 1
gene 1 40 44 0.0755626 0 315 0.0755626 1
gene 1 40 45 -0.0995196 0 316 -0.0995196 1
gene 1 40 46 0.92749 0 317 0.92749 1
gene 1 40 47 -0.366766 0 318 -0.366766 1
gene 1 40 48 0.844556 0 319 0.844556 1
gene 1 40 49 -1.34609 0 320 -1.34609 1
gene 1 41 42 -4.01471 0 321 -4.01471 1
gene 1 41 43 1.68946 0 322 1.68946 1
gene 1 41 44 -0.057763 0 323 -0.057763 1
gene 1 41 45 -0.633531 0 324 -0.633531 1
gene 1 41 46 -5 0 325 -5 1
gene 1 41 47 0.520192 0 326 0.520192 1
gene 1 41 48 1.65446 0 327 1.65446 1
gene 1 41 49 -0.477464 0 328 -0.477464 1
genomeend 0


