/* Organism #8 Fitness: -4474.400000 Time: 0 */
genomestart 8
trait 1 0.000000 0.212687 0.000000 0.889527 0.000000 0.000000 0.000000 0.000000 
node 1 1 1 1
node 2 1 1 1
node 3 1 1 1
node 4 1 1 1
node 5 1 1 1
node 6 1 1 1
node 7 1 1 1
node 8 1 1 1
node 9 1 1 1
node 10 1 1 1
node 11 1 1 1
node 12 1 1 1
node 13 1 1 1
node 14 1 1 1
node 15 1 1 1
node 16 1 1 1
node 17 1 1 1
node 18 1 1 1
node 19 1 1 1
node 20 1 1 1
node 21 1 1 1
node 22 1 1 1
node 23 1 1 1
node 24 1 1 1
node 25 1 1 1
node 26 1 1 1
node 27 1 1 1
node 28 1 1 1
node 29 1 1 1
node 30 1 1 1
node 31 1 1 1
node 32 1 1 1
node 33 1 1 1
node 34 1 1 1
node 35 1 1 1
node 36 1 1 1
node 37 1 1 1
node 38 1 1 1
node 39 1 1 1
node 40 1 1 1
node 41 1 1 3
node 42 1 0 2
node 43 1 0 2
node 44 1 0 2
node 45 1 0 2
node 46 1 0 2
node 47 1 0 2
node 48 1 0 2
node 49 1 0 2
gene 1 1 42 -3.08569 0 1 -3.08569 1
gene 1 1 43 1.30164 0 2 1.30164 1
gene 1 1 44 -1.38922 0 3 -1.38922 1
gene 1 1 45 0.312872 0 4 0.312872 1
gene 1 1 46 2.82546 0 5 2.82546 1
gene 1 1 47 5 0 6 5 1
gene 1 1 48 1.30344 0 7 1.30344 1
gene 1 1 49 0.373426 0 8 0.373426 1
gene 1 2 42 2.33628 0 9 2.33628 1
gene 1 2 43 1.42903 0 10 1.42903 1
gene 1 2 44 -1.24612 0 11 -1.24612 1
gene 1 2 45 -2.21921 0 12 -2.21921 1
gene 1 2 46 -2.22159 0 13 -2.22159 1
gene 1 2 47 -1.04318 0 14 -1.04318 1
gene 1 2 48 -2.71876 0 15 -2.71876 1
gene 1 2 49 -3.23193 0 16 -3.23193 1
gene 1 3 42 1.55466 0 17 1.55466 1
gene 1 3 43 0.518772 0 18 0.518772 1
gene 1 3 44 -1.88692 0 19 -1.88692 1
gene 1 3 45 -1.13073 0 20 -1.13073 1
gene 1 3 46 1.52009 0 21 1.52009 1
gene 1 3 47 1.59938 0 22 1.59938 1
gene 1 3 48 0.780506 0 23 0.780506 1
gene 1 3 49 -1.02211 0 24 -1.02211 1
gene 1 4 42 -0.967987 0 25 -0.967987 1
gene 1 4 43 0.814364 0 26 0.814364 1
gene 1 4 44 -2.087 0 27 -2.087 1
gene 1 4 45 0.711326 0 28 0.711326 1
gene 1 4 46 0.373281 0 29 0.373281 1
gene 1 4 47 -1.29787 0 30 -1.29787 1
gene 1 4 48 2.57538 0 31 2.57538 1
gene 1 4 49 1.05625 0 32 1.05625 1
gene 1 5 42 1.86084 0 33 1.86084 1
gene 1 5 43 0.28177 0 34 0.28177 1
gene 1 5 44 -0.0980707 0 35 -0.0980707 1
gene 1 5 45 0.69809 0 36 0.69809 1
gene 1 5 46 0.14729 0 37 0.14729 1
gene 1 5 47 -3.77637 0 38 -3.77637 1
gene 1 5 48 1.71433 0 39 1.71433 1
gene 1 5 49 0.277384 0 40 0.277384 1
gene 1 6 42 -1.47353 0 41 -1.47353 1
gene 1 6 43 4.93751 0 42 4.93751 1
gene 1 6 44 1.69487 0 43 1.69487 1
gene 1 6 45 4.04527 0 44 4.04527 1
gene 1 6 46 -0.125399 0 45 -0.125399 1
gene 1 6 47 0.487261 0 46 0.487261 1
gene 1 6 48 1.03804 0 47 1.03804 1
gene 1 6 49 0.567737 0 48 0.567737 1
gene 1 7 42 4.21922 0 49 4.21922 1
gene 1 7 43 5 0 50 5 1
gene 1 7 44 1.48983 0 51 1.48983 1
gene 1 7 45 2.58404 0 52 2.58404 1
gene 1 7 46 0.22134 0 53 0.22134 1
gene 1 7 47 -2.58137 0 54 -2.58137 1
gene 1 7 48 -0.83646 0 55 -0.83646 1
gene 1 7 49 1.68883 0 56 1.68883 1
gene 1 8 42 1.62842 0 57 1.62842 1
gene 1 8 43 -0.0554234 0 58 -0.0554234 1
gene 1 8 44 -4.18983 0 59 -4.18983 1
gene 1 8 45 -2.8996 0 60 -2.8996 1
gene 1 8 46 -3.77949 0 61 -3.77949 1
gene 1 8 47 1.70135 0 62 1.70135 1
gene 1 8 48 -0.360817 0 63 -0.360817 1
gene 1 8 49 0.887684 0 64 0.887684 1
gene 1 9 42 2.2604 0 65 2.2604 1
gene 1 9 43 0.480579 0 66 0.480579 1
gene 1 9 44 2.6739 0 67 2.6739 1
gene 1 9 45 -0.0207578 0 68 -0.0207578 1
gene 1 9 46 0.525921 0 69 0.525921 1
gene 1 9 47 -0.877331 0 70 -0.877331 1
gene 1 9 48 0.754241 0 71 0.754241 1
gene 1 9 49 -1.84177 0 72 -1.84177 1
gene 1 10 42 -1.51323 0 73 -1.51323 1
gene 1 10 43 0.80535 0 74 0.80535 1
gene 1 10 44 2.91236 0 75 2.91236 1
gene 1 10 45 -3.60598 0 76 -3.60598 1
gene 1 10 46 3.28743 0 77 3.28743 1
gene 1 10 47 -1.85602 0 78 -1.85602 1
gene 1 10 48 -1.48842 0 79 -1.48842 1
gene 1 10 49 -1.64608 0 80 -1.64608 1
gene 1 11 42 0.748473 0 81 0.748473 1
gene 1 11 43 -1.75253 0 82 -1.75253 1
gene 1 11 44 5 0 83 5 1
gene 1 11 45 0.463578 0 84 0.463578 1
gene 1 11 46 3.8284 0 85 3.8284 1
gene 1 11 47 2.02423 0 86 2.02423 1
gene 1 11 48 0.845083 0 87 0.845083 1
gene 1 11 49 -4.60039 0 88 -4.60039 1
gene 1 12 42 2.78191 0 89 2.78191 1
gene 1 12 43 0.137424 0 90 0.137424 1
gene 1 12 44 -2.15438 0 91 -2.15438 1
gene 1 12 45 2.92615 0 92 2.92615 1
gene 1 12 46 -3.31017 0 93 -3.31017 1
gene 1 12 47 0.913037 0 94 0.913037 1
gene 1 12 48 0.926286 0 95 0.926286 1
gene 1 12 49 0.0043962 0 96 0.0043962 1
gene 1 13 42 -0.760331 0 97 -0.760331 1
gene 1 13 43 -0.484605 0 98 -0.484605 1
gene 1 13 44 1.07157 0 99 1.07157 1
gene 1 13 45 1.15423 0 100 1.15423 1
gene 1 13 46 4.98318 0 101 4.98318 1
gene 1 13 47 2.22549 0 102 2.22549 1
gene 1 13 48 -3.80267 0 103 -3.80267 1
gene 1 13 49 -0.415811 0 104 -0.415811 1
gene 1 14 42 2.74121 0 105 2.74121 1
gene 1 14 43 -0.985028 0 106 -0.985028 1
gene 1 14 44 0.749074 0 107 0.749074 1
gene 1 14 45 4.10658 0 108 4.10658 1
gene 1 14 46 0.529782 0 109 0.529782 1
gene 1 14 47 2.68137 0 110 2.68137 1
gene 1 14 48 0.106615 0 111 0.106615 1
gene 1 14 49 -3.27596 0 112 -3.27596 1
gene 1 15 42 -1.42209 0 113 -1.42209 1
gene 1 15 43 -2.09044 0 114 -2.09044 1
gene 1 15 44 -1.12372 0 115 -1.12372 1
gene 1 15 45 -1.74597 0 116 -1.74597 1
gene 1 15 46 0.706268 0 117 0.706268 1
gene 1 15 47 -0.321908 0 118 -0.321908 1
gene 1 15 48 3.18823 0 119 3.18823 1
gene 1 15 49 0.0652394 0 120 0.0652394 1
gene 1 16 42 2.60296 0 121 2.60296 1
gene 1 16 43 0.731987 0 122 0.731987 1
gene 1 16 44 1.16793 0 123 1.16793 1
gene 1 16 45 1.6672 0 124 1.6672 1
gene 1 16 46 -2.68919 0 125 -2.68919 1
gene 1 16 47 1.72466 0 126 1.72466 1
gene 1 16 48 0.342182 0 127 0.342182 1
gene 1 16 49 -0.0856168 0 128 -0.0856168 1
gene 1 17 42 1.24647 0 129 1.24647 1
gene 1 17 43 -0.497343 0 130 -0.497343 1
gene 1 17 44 -0.917467 0 131 -0.917467 1
gene 1 17 45 2.60145 0 132 2.60145 1
gene 1 17 46 -1.64806 0 133 -1.64806 1
gene 1 17 47 -1.25577 0 134 -1.25577 1
gene 1 17 48 -1.45952 0 135 -1.45952 1
gene 1 17 49 -0.938519 0 136 -0.938519 1
gene 1 18 42 0.496031 0 137 0.496031 1
gene 1 18 43 0.22777 0 138 0.22777 1
gene 1 18 44 -1.38405 0 139 -1.38405 1
gene 1 18 45 -1.00542 0 140 -1.00542 1
gene 1 18 46 2.40096 0 141 2.40096 1
gene 1 18 47 0.13914 0 142 0.13914 1
gene 1 18 48 -0.12992 0 143 -0.12992 1
gene 1 18 49 1.08883 0 144 1.08883 1
gene 1 19 42 -0.290717 0 145 -0.290717 1
gene 1 19 43 0.54641 0 146 0.54641 1
gene 1 19 44 -0.0291664 0 147 -0.0291664 1
gene 1 19 45 -4.86582 0 148 -4.86582 1
gene 1 19 46 -1.56466 0 149 -1.56466 1
gene 1 19 47 0.725448 0 150 0.725448 1
gene 1 19 48 -1.30302 0 151 -1.30302 1
gene 1 19 49 -2.358 0 152 -2.358 1
gene 1 20 42 2.56123 0 153 2.56123 1
gene 1 20 43 -1.32664 0 154 -1.32664 1
gene 1 20 44 -1.77539 0 155 -1.77539 1
gene 1 20 45 0.358862 0 156 0.358862 1
gene 1 20 46 -5 0 157 -5 1
gene 1 20 47 0.716039 0 158 0.716039 1
gene 1 20 48 0.899558 0 159 0.899558 1
gene 1 20 49 -1.59628 0 160 -1.59628 1
gene 1 21 42 -2.69832 0 161 -2.69832 1
gene 1 21 43 -0.692147 0 162 -0.692147 1
gene 1 21 44 -1.32577 0 163 -1.32577 1
gene 1 21 45 1.49583 0 164 1.49583 1
gene 1 21 46 4.86356 0 165 4.86356 1
gene 1 21 47 0.469748 0 166 0.469748 1
gene 1 21 48 -0.358241 0 167 -0.358241 1
gene 1 21 49 -0.614727 0 168 -0.614727 1
gene 1 22 42 0.480157 0 169 0.480157 1
gene 1 22 43 1.33139 0 170 1.33139 1
gene 1 22 44 -0.600666 0 171 -0.600666 1
gene 1 22 45 -0.433277 0 172 -0.433277 1
gene 1 22 46 3.91563 0 173 3.91563 1
gene 1 22 47 1.04446 0 174 1.04446 1
gene 1 22 48 -1.72475 0 175 -1.72475 1
gene 1 22 49 -0.175704 0 176 -0.175704 1
gene 1 23 42 0.834038 0 177 0.834038 1
gene 1 23 43 0.358749 0 178 0.358749 1
gene 1 23 44 -1.27264 0 179 -1.27264 1
gene 1 23 45 1.59446 0 180 1.59446 1
gene 1 23 46 2.15884 0 181 2.15884 1
gene 1 23 47 -0.762657 0 182 -0.762657 1
gene 1 23 48 -1.37657 0 183 -1.37657 1
gene 1 23 49 -0.449901 0 184 -0.449901 1
gene 1 24 42 2.56926 0 185 2.56926 1
gene 1 24 43 -0.620182 0 186 -0.620182 1
gene 1 24 44 0.572875 0 187 0.572875 1
gene 1 24 45 -1.69228 0 188 -1.69228 1
gene 1 24 46 2.70151 0 189 2.70151 1
gene 1 24 47 -2.7418 0 190 -2.7418 1
gene 1 24 48 1.49743 0 191 1.49743 1
gene 1 24 49 1.9846 0 192 1.9846 1
gene 1 25 42 0.215796 0 193 0.215796 1
gene 1 25 43 2.11612 0 194 2.11612 1
gene 1 25 44 -3.6667 0 195 -3.6667 1
gene 1 25 45 -2.86809 0 196 -2.86809 1
gene 1 25 46 -0.571295 0 197 -0.571295 1
gene 1 25 47 -0.385352 0 198 -0.385352 1
gene 1 25 48 2.48734 0 199 2.48734 1
gene 1 25 49 -2.19175 0 200 -2.19175 1
gene 1 26 42 -0.794771 0 201 -0.794771 1
gene 1 26 43 -1.15095 0 202 -1.15095 1
gene 1 26 44 -1.82647 0 203 -1.82647 1
gene 1 26 45 1.20022 0 204 1.20022 1
gene 1 26 46 -1.00785 0 205 -1.00785 1
gene 1 26 47 0.35728 0 206 0.35728 1
gene 1 26 48 -2.94631 0 207 -2.94631 1
gene 1 26 49 2.23684 0 208 2.23684 1
gene 1 27 42 -1.71677 0 209 -1.71677 1
gene 1 27 43 0.0452704 0 210 0.0452704 1
gene 1 27 44 -0.0254473 0 211 -0.0254473 1
gene 1 27 45 1.55606 0 212 1.55606 1
gene 1 27 46 2.46877 0 213 2.46877 1
gene 1 27 47 0.549434 0 214 0.549434 1
gene 1 27 48 0.437379 0 215 0.437379 1
gene 1 27 49 3.42743 0 216 3.42743 1
gene 1 28 42 0.981437 0 217 0.981437 1
gene 1 28 43 -0.780941 0 218 -0.780941 1
gene 1 28 44 -0.412638 0 219 -0.412638 1
gene 1 28 45 1.37946 0 220 1.37946 1
gene 1 28 46 4.731 0 221 4.731 1
gene 1 28 47 1.35344 0 222 1.35344 1
gene 1 28 48 5 0 223 5 1
gene 1 28 49 0.23036 0 224 0.23036 1
gene 1 29 42 -0.730035 0 225 -0.730035 1
gene 1 29 43 -2.40187 0 226 -2.40187 1
gene 1 29 44 0.128066 0 227 0.128066 1
gene 1 29 45 1.46178 0 228 1.46178 1
gene 1 29 46 1.44591 0 229 1.44591 1
gene 1 29 47 -2.05881 0 230 -2.05881 1
gene 1 29 48 4.78821 0 231 4.78821 1
gene 1 29 49 0.316234 0 232 0.316234 1
gene 1 30 42 -0.559065 0 233 -0.559065 1
gene 1 30 43 1.34947 0 234 1.34947 1
gene 1 30 44 0.147764 0 235 0.147764 1
gene 1 30 45 2.56559 0 236 2.56559 1
gene 1 30 46 2.09277 0 237 2.09277 1
gene 1 30 47 0.329215 0 238 0.329215 1
gene 1 30 48 -0.280966 0 239 -0.280966 1
gene 1 30 49 -1.47349 0 240 -1.47349 1
gene 1 31 42 -2.73923 0 241 -2.73923 1
gene 1 31 43 -0.630707 0 242 -0.630707 1
gene 1 31 44 -1.29701 0 243 -1.29701 1
gene 1 31 45 -0.00518176 0 244 -0.00518176 1
gene 1 31 46 -1.87767 0 245 -1.87767 1
gene 1 31 47 4.84625 0 246 4.84625 1
gene 1 31 48 -2.30704 0 247 -2.30704 1
gene 1 31 49 -0.740882 0 248 -0.740882 1
gene 1 32 42 0.475655 0 249 0.475655 1
gene 1 32 43 -0.460123 0 250 -0.460123 1
gene 1 32 44 2.08628 0 251 2.08628 1
gene 1 32 45 -3.99271 0 252 -3.99271 1
gene 1 32 46 2.38409 0 253 2.38409 1
gene 1 32 47 0.807722 0 254 0.807722 1
gene 1 32 48 0.445178 0 255 0.445178 1
gene 1 32 49 -4.78364 0 256 -4.78364 1
gene 1 33 42 -1.18714 0 257 -1.18714 1
gene 1 33 43 0.531531 0 258 0.531531 1
gene 1 33 44 1.40164 0 259 1.40164 1
gene 1 33 45 -0.966648 0 260 -0.966648 1
gene 1 33 46 2.36147 0 261 2.36147 1
gene 1 33 47 0.892135 0 262 0.892135 1
gene 1 33 48 2.80251 0 263 2.80251 1
gene 1 33 49 0.241503 0 264 0.241503 1
gene 1 34 42 0.141208 0 265 0.141208 1
gene 1 34 43 -1.9259 0 266 -1.9259 1
gene 1 34 44 -0.98282 0 267 -0.98282 1
gene 1 34 45 -0.103531 0 268 -0.103531 1
gene 1 34 46 -1.09384 0 269 -1.09384 1
gene 1 34 47 0.81463 0 270 0.81463 1
gene 1 34 48 1.32569 0 271 1.32569 1
gene 1 34 49 -1.12239 0 272 -1.12239 1
gene 1 35 42 -0.595101 0 273 -0.595101 1
gene 1 35 43 -0.580919 0 274 -0.580919 1
gene 1 35 44 -0.584411 0 275 -0.584411 1
gene 1 35 45 -0.104989 0 276 -0.104989 1
gene 1 35 46 -0.602482 0 277 -0.602482 1
gene 1 35 47 0.128198 0 278 0.128198 1
gene 1 35 48 -1.24769 0 279 -1.24769 1
gene 1 35 49 -0.334824 0 280 -0.334824 1
gene 1 36 42 0.541178 0 281 0.541178 1
gene 1 36 43 0.57274 0 282 0.57274 1
gene 1 36 44 0.57092 0 283 0.57092 1
gene 1 36 45 0.694273 0 284 0.694273 1
gene 1 36 46 -0.193761 0 285 -0.193761 1
gene 1 36 47 1.07715 0 286 1.07715 1
gene 1 36 48 2.48819 0 287 2.48819 1
gene 1 36 49 -0.690266 0 288 -0.690266 1
gene 1 37 42 -0.107572 0 289 -0.107572 1
gene 1 37 43 1.49617 0 290 1.49617 1
gene 1 37 44 0.910378 0 291 0.910378 1
gene 1 37 45 0.371429 0 292 0.371429 1
gene 1 37 46 2.23176 0 293 2.23176 1
gene 1 37 47 0.357245 0 294 0.357245 1
gene 1 37 48 -0.819948 0 295 -0.819948 1
gene 1 37 49 0.808043 0 296 0.808043 1
gene 1 38 42 -1.76463 0 297 -1.76463 1
gene 1 38 43 -1.24356 0 298 -1.24356 1
gene 1 38 44 -1.66897 0 299 -1.66897 1
gene 1 38 45 -0.351765 0 300 -0.351765 1
gene 1 38 46 0.567751 0 301 0.567751 1
gene 1 38 47 0.973395 0 302 0.973395 1
gene 1 38 48 -0.351237 0 303 -0.351237 1
gene 1 38 49 -0.756304 0 304 -0.756304 1
gene 1 39 42 -0.593069 0 305 -0.593069 1
gene 1 39 43 -0.576885 0 306 -0.576885 1
gene 1 39 44 0.771629 0 307 0.771629 1
gene 1 39 45 0.226057 0 308 0.226057 1
gene 1 39 46 -0.764452 0 309 -0.764452 1
gene 1 39 47 -0.0233269 0 310 -0.0233269 1
gene 1 39 48 0.929714 0 311 0.929714 1
gene 1 39 49 -1.05209 0 312 -1.05209 1
gene 1 40 42 -2.95671 0 313 -2.95671 1
gene 1 40 43 -0.581363 0 314 -0.581363 1
gene 1 40 44 0.0171186 0 315 0.0171186 1
gene 1 40 45 0.0867351 0 316 0.0867351 1
gene 1 40 46 0.750947 0 317 0.750947 1
gene 1 40 47 1.17248 0 318 1.17248 1
gene 1 40 48 -0.736015 0 319 -0.736015 1
gene 1 40 49 0.753142 0 320 0.753142 1
gene 1 41 42 0.426225 0 321 0.426225 1
gene 1 41 43 -2.29167 0 322 -2.29167 1
gene 1 41 44 0.539531 0 323 0.539531 1
gene 1 41 45 -1.2594 0 324 -1.2594 1
gene 1 41 46 -0.772126 0 325 -0.772126 1
gene 1 41 47 -0.264149 0 326 -0.264149 1
gene 1 41 48 -0.735542 0 327 -0.735542 1
gene 1 41 49 -0.0439262 0 328 -0.0439262 1
genomeend 8


