/* Organism #57 Fitness: -4184.370000 Time: 0 */
genomestart 57
trait 1 0.061047 0.000000 0.835395 0.000000 0.242346 0.000000 0.000000 0.000000 
node 1 1 1 1
node 2 1 1 1
node 3 1 1 1
node 4 1 1 1
node 5 1 1 1
node 6 1 1 1
node 7 1 1 1
node 8 1 1 1
node 9 1 1 1
node 10 1 1 1
node 11 1 1 1
node 12 1 1 1
node 13 1 1 1
node 14 1 1 1
node 15 1 1 1
node 16 1 1 1
node 17 1 1 1
node 18 1 1 1
node 19 1 1 1
node 20 1 1 1
node 21 1 1 1
node 22 1 1 1
node 23 1 1 1
node 24 1 1 1
node 25 1 1 1
node 26 1 1 1
node 27 1 1 1
node 28 1 1 1
node 29 1 1 1
node 30 1 1 1
node 31 1 1 1
node 32 1 1 1
node 33 1 1 1
node 34 1 1 1
node 35 1 1 1
node 36 1 1 1
node 37 1 1 1
node 38 1 1 1
node 39 1 1 1
node 40 1 1 1
node 41 1 1 3
node 42 1 0 2
node 43 1 0 2
node 44 1 0 2
node 45 1 0 2
node 46 1 0 2
node 47 1 0 2
node 48 1 0 2
node 49 1 0 2
gene 1 1 42 2.0847 0 1 2.0847 1
gene 1 1 43 1.25438 0 2 1.25438 1
gene 1 1 44 1.23199 0 3 1.23199 1
gene 1 1 45 -0.543137 0 4 -0.543137 1
gene 1 1 46 -1.60905 0 5 -1.60905 1
gene 1 1 47 0.499849 0 6 0.499849 1
gene 1 1 48 2.04225 0 7 2.04225 1
gene 1 1 49 -1.34317 0 8 -1.34317 1
gene 1 2 42 2.19055 0 9 2.19055 1
gene 1 2 43 0.307766 0 10 0.307766 1
gene 1 2 44 0.670067 0 11 0.670067 1
gene 1 2 45 -0.097029 0 12 -0.097029 1
gene 1 2 46 -1.6334 0 13 -1.6334 1
gene 1 2 47 3.25958 0 14 3.25958 1
gene 1 2 48 0.595591 0 15 0.595591 1
gene 1 2 49 -3.68636 0 16 -3.68636 1
gene 1 3 42 -0.111886 0 17 -0.111886 1
gene 1 3 43 -1.28383 0 18 -1.28383 1
gene 1 3 44 5 0 19 5 1
gene 1 3 45 -0.30947 0 20 -0.30947 1
gene 1 3 46 -0.639606 0 21 -0.639606 1
gene 1 3 47 -1.49892 0 22 -1.49892 1
gene 1 3 48 2.11555 0 23 2.11555 1
gene 1 3 49 1.21702 0 24 1.21702 1
gene 1 4 42 -0.287705 0 25 -0.287705 1
gene 1 4 43 -3.21626 0 26 -3.21626 1
gene 1 4 44 -0.913749 0 27 -0.913749 1
gene 1 4 45 -0.43544 0 28 -0.43544 1
gene 1 4 46 0.377104 0 29 0.377104 1
gene 1 4 47 2.90623 0 30 2.90623 1
gene 1 4 48 2.04679 0 31 2.04679 1
gene 1 4 49 -0.54028 0 32 -0.54028 1
gene 1 5 42 3.58398 0 33 3.58398 1
gene 1 5 43 -1.98921 0 34 -1.98921 1
gene 1 5 44 -2.60958 0 35 -2.60958 1
gene 1 5 45 1.76364 0 36 1.76364 1
gene 1 5 46 2.7337 0 37 2.7337 1
gene 1 5 47 0.0497994 0 38 0.0497994 1
gene 1 5 48 0.123753 0 39 0.123753 1
gene 1 5 49 -1.31714 0 40 -1.31714 1
gene 1 6 42 1.17771 0 41 1.17771 1
gene 1 6 43 0.233968 0 42 0.233968 1
gene 1 6 44 -0.363737 0 43 -0.363737 1
gene 1 6 45 5 0 44 5 1
gene 1 6 46 0.558738 0 45 0.558738 1
gene 1 6 47 3.01512 0 46 3.01512 1
gene 1 6 48 -0.0371205 0 47 -0.0371205 1
gene 1 6 49 -0.201265 0 48 -0.201265 1
gene 1 7 42 1.13128 0 49 1.13128 1
gene 1 7 43 5 0 50 5 1
gene 1 7 44 -1.00084 0 51 -1.00084 1
gene 1 7 45 -0.851918 0 52 -0.851918 1
gene 1 7 46 0.959475 0 53 0.959475 1
gene 1 7 47 -2.4954 0 54 -2.4954 1
gene 1 7 48 -1.00932 0 55 -1.00932 1
gene 1 7 49 2.82223 0 56 2.82223 1
gene 1 8 42 1.05413 0 57 1.05413 1
gene 1 8 43 0.112857 0 58 0.112857 1
gene 1 8 44 -2.79832 0 59 -2.79832 1
gene 1 8 45 -2.40025 0 60 -2.40025 1
gene 1 8 46 0.294229 0 61 0.294229 1
gene 1 8 47 1.0946 0 62 1.0946 1
gene 1 8 48 -3.55272 0 63 -3.55272 1
gene 1 8 49 -4.51378 0 64 -4.51378 1
gene 1 9 42 -2.5525 0 65 -2.5525 1
gene 1 9 43 -0.749958 0 66 -0.749958 1
gene 1 9 44 0.395039 0 67 0.395039 1
gene 1 9 45 -2.56942 0 68 -2.56942 1
gene 1 9 46 -3.68901 0 69 -3.68901 1
gene 1 9 47 -1.37004 0 70 -1.37004 1
gene 1 9 48 -1.31069 0 71 -1.31069 1
gene 1 9 49 2.06168 0 72 2.06168 1
gene 1 10 42 1.22936 0 73 1.22936 1
gene 1 10 43 -2.92852 0 74 -2.92852 1
gene 1 10 44 1.41889 0 75 1.41889 1
gene 1 10 45 -4.35387 0 76 -4.35387 1
gene 1 10 46 0.757762 0 77 0.757762 1
gene 1 10 47 2.18255 0 78 2.18255 1
gene 1 10 48 -0.503565 0 79 -0.503565 1
gene 1 10 49 1.7954 0 80 1.7954 1
gene 1 11 42 0.729418 0 81 0.729418 1
gene 1 11 43 1.0752 0 82 1.0752 1
gene 1 11 44 1.47278 0 83 1.47278 1
gene 1 11 45 -3.23998 0 84 -3.23998 1
gene 1 11 46 -1.33392 0 85 -1.33392 1
gene 1 11 47 -1.9447 0 86 -1.9447 1
gene 1 11 48 0.29516 0 87 0.29516 1
gene 1 11 49 2.13118 0 88 2.13118 1
gene 1 12 42 -1.57542 0 89 -1.57542 1
gene 1 12 43 -1.87239 0 90 -1.87239 1
gene 1 12 44 -2.50421 0 91 -2.50421 1
gene 1 12 45 -1.8821 0 92 -1.8821 1
gene 1 12 46 1.33552 0 93 1.33552 1
gene 1 12 47 0.0486801 0 94 0.0486801 1
gene 1 12 48 1.61016 0 95 1.61016 1
gene 1 12 49 -1.35404 0 96 -1.35404 1
gene 1 13 42 1.60811 0 97 1.60811 1
gene 1 13 43 2.54592 0 98 2.54592 1
gene 1 13 44 -2.02263 0 99 -2.02263 1
gene 1 13 45 -2.55207 0 100 -2.55207 1
gene 1 13 46 -2.10315 0 101 -2.10315 1
gene 1 13 47 -2.34424 0 102 -2.34424 1
gene 1 13 48 5 0 103 5 1
gene 1 13 49 -0.753684 0 104 -0.753684 1
gene 1 14 42 1.57905 0 105 1.57905 1
gene 1 14 43 -1.74814 0 106 -1.74814 1
gene 1 14 44 -0.430823 0 107 -0.430823 1
gene 1 14 45 -0.900363 0 108 -0.900363 1
gene 1 14 46 1.50462 0 109 1.50462 1
gene 1 14 47 -0.917385 0 110 -0.917385 1
gene 1 14 48 -2.87915 0 111 -2.87915 1
gene 1 14 49 3.72925 0 112 3.72925 1
gene 1 15 42 -0.537359 0 113 -0.537359 1
gene 1 15 43 0.551201 0 114 0.551201 1
gene 1 15 44 -0.791437 0 115 -0.791437 1
gene 1 15 45 -4.10386 0 116 -4.10386 1
gene 1 15 46 -0.932259 0 117 -0.932259 1
gene 1 15 47 -3.11001 0 118 -3.11001 1
gene 1 15 48 -0.223933 0 119 -0.223933 1
gene 1 15 49 -0.453009 0 120 -0.453009 1
gene 1 16 42 -2.79543 0 121 -2.79543 1
gene 1 16 43 -0.356416 0 122 -0.356416 1
gene 1 16 44 4.18002 0 123 4.18002 1
gene 1 16 45 2.04475 0 124 2.04475 1
gene 1 16 46 -5 0 125 -5 1
gene 1 16 47 -4.74089 0 126 -4.74089 1
gene 1 16 48 -0.420053 0 127 -0.420053 1
gene 1 16 49 -1.82717 0 128 -1.82717 1
gene 1 17 42 -2.90982 0 129 -2.90982 1
gene 1 17 43 -0.00477646 0 130 -0.00477646 1
gene 1 17 44 -3.23896 0 131 -3.23896 1
gene 1 17 45 1.60974 0 132 1.60974 1
gene 1 17 46 -3.84718 0 133 -3.84718 1
gene 1 17 47 -0.0542479 0 134 -0.0542479 1
gene 1 17 48 -0.535096 0 135 -0.535096 1
gene 1 17 49 2.3681 0 136 2.3681 1
gene 1 18 42 0.942776 0 137 0.942776 1
gene 1 18 43 0.417188 0 138 0.417188 1
gene 1 18 44 2.42812 0 139 2.42812 1
gene 1 18 45 -0.125351 0 140 -0.125351 1
gene 1 18 46 1.05318 0 141 1.05318 1
gene 1 18 47 -0.808194 0 142 -0.808194 1
gene 1 18 48 0.591185 0 143 0.591185 1
gene 1 18 49 3.10287 0 144 3.10287 1
gene 1 19 42 1.82994 0 145 1.82994 1
gene 1 19 43 -1.59199 0 146 -1.59199 1
gene 1 19 44 3.256 0 147 3.256 1
gene 1 19 45 0.546382 0 148 0.546382 1
gene 1 19 46 -1.55999 0 149 -1.55999 1
gene 1 19 47 1.16424 0 150 1.16424 1
gene 1 19 48 0.379746 0 151 0.379746 1
gene 1 19 49 0.413774 0 152 0.413774 1
gene 1 20 42 0.967341 0 153 0.967341 1
gene 1 20 43 -1.50643 0 154 -1.50643 1
gene 1 20 44 -0.733851 0 155 -0.733851 1
gene 1 20 45 -0.462158 0 156 -0.462158 1
gene 1 20 46 0.18349 0 157 0.18349 1
gene 1 20 47 2.61873 0 158 2.61873 1
gene 1 20 48 -1.61899 0 159 -1.61899 1
gene 1 20 49 0.73161 0 160 0.73161 1
gene 1 21 42 -2.53553 0 161 -2.53553 1
gene 1 21 43 -0.0966088 0 162 -0.0966088 1
gene 1 21 44 2.29868 0 163 2.29868 1
gene 1 21 45 -2.61278 0 164 -2.61278 1
gene 1 21 46 0.395585 0 165 0.395585 1
gene 1 21 47 0.654015 0 166 0.654015 1
gene 1 21 48 1.86768 0 167 1.86768 1
gene 1 21 49 1.17615 0 168 1.17615 1
gene 1 22 42 -1.41622 0 169 -1.41622 1
gene 1 22 43 1.36086 0 170 1.36086 1
gene 1 22 44 -2.22058 0 171 -2.22058 1
gene 1 22 45 2.73574 0 172 2.73574 1
gene 1 22 46 2.91932 0 173 2.91932 1
gene 1 22 47 1.36774 0 174 1.36774 1
gene 1 22 48 -2.91005 0 175 -2.91005 1
gene 1 22 49 -0.771383 0 176 -0.771383 1
gene 1 23 42 -1.39934 0 177 -1.39934 1
gene 1 23 43 1.85394 0 178 1.85394 1
gene 1 23 44 0.341012 0 179 0.341012 1
gene 1 23 45 0.665297 0 180 0.665297 1
gene 1 23 46 -2.74691 0 181 -2.74691 1
gene 1 23 47 1.08287 0 182 1.08287 1
gene 1 23 48 0.704487 0 183 0.704487 1
gene 1 23 49 -0.119149 0 184 -0.119149 1
gene 1 24 42 -0.82778 0 185 -0.82778 1
gene 1 24 43 1.81004 0 186 1.81004 1
gene 1 24 44 4.14715 0 187 4.14715 1
gene 1 24 45 2.81941 0 188 2.81941 1
gene 1 24 46 1.6625 0 189 1.6625 1
gene 1 24 47 -0.96152 0 190 -0.96152 1
gene 1 24 48 0.506297 0 191 0.506297 1
gene 1 24 49 0.419416 0 192 0.419416 1
gene 1 25 42 2.18899 0 193 2.18899 1
gene 1 25 43 -0.374757 0 194 -0.374757 1
gene 1 25 44 0.94466 0 195 0.94466 1
gene 1 25 45 -5 0 196 -5 1
gene 1 25 46 1.3252 0 197 1.3252 1
gene 1 25 47 2.39485 0 198 2.39485 1
gene 1 25 48 -0.102485 0 199 -0.102485 1
gene 1 25 49 0.0680216 0 200 0.0680216 1
gene 1 26 42 -0.887563 0 201 -0.887563 1
gene 1 26 43 0.189611 0 202 0.189611 1
gene 1 26 44 -1.36135 0 203 -1.36135 1
gene 1 26 45 0.00843247 0 204 0.00843247 1
gene 1 26 46 4.6198 0 205 4.6198 1
gene 1 26 47 1.13476 0 206 1.13476 1
gene 1 26 48 2.66421 0 207 2.66421 1
gene 1 26 49 -0.252736 0 208 -0.252736 1
gene 1 27 42 0.281588 0 209 0.281588 1
gene 1 27 43 -0.0501213 0 210 -0.0501213 1
gene 1 27 44 0.144822 0 211 0.144822 1
gene 1 27 45 -0.760922 0 212 -0.760922 1
gene 1 27 46 -1.51308 0 213 -1.51308 1
gene 1 27 47 1.09165 0 214 1.09165 1
gene 1 27 48 2.55876 0 215 2.55876 1
gene 1 27 49 3.55273 0 216 3.55273 1
gene 1 28 42 0.794474 0 217 0.794474 1
gene 1 28 43 -1.0051 0 218 -1.0051 1
gene 1 28 44 -0.0410733 0 219 -0.0410733 1
gene 1 28 45 0.395136 0 220 0.395136 1
gene 1 28 46 -2.12899 0 221 -2.12899 1
gene 1 28 47 1.32225 0 222 1.32225 1
gene 1 28 48 -4.5772 0 223 -4.5772 1
gene 1 28 49 2.57119 0 224 2.57119 1
gene 1 29 42 0.413846 0 225 0.413846 1
gene 1 29 43 -0.31056 0 226 -0.31056 1
gene 1 29 44 -4.48447 0 227 -4.48447 1
gene 1 29 45 -1.35109 0 228 -1.35109 1
gene 1 29 46 2.32951 0 229 2.32951 1
gene 1 29 47 -1.13605 0 230 -1.13605 1
gene 1 29 48 -0.73534 0 231 -0.73534 1
gene 1 29 49 1.18721 0 232 1.18721 1
gene 1 30 42 1.72575 0 233 1.72575 1
gene 1 30 43 -2.67667 0 234 -2.67667 1
gene 1 30 44 -1.22693 0 235 -1.22693 1
gene 1 30 45 -2.00419 0 236 -2.00419 1
gene 1 30 46 0.721783 0 237 0.721783 1
gene 1 30 47 -1.50227 0 238 -1.50227 1
gene 1 30 48 2.5474 0 239 2.5474 1
gene 1 30 49 -1.22826 0 240 -1.22826 1
gene 1 31 42 -0.885322 0 241 -0.885322 1
gene 1 31 43 -0.190504 0 242 -0.190504 1
gene 1 31 44 -1.64659 0 243 -1.64659 1
gene 1 31 45 -4.092 0 244 -4.092 1
gene 1 31 46 1.05788 0 245 1.05788 1
gene 1 31 47 4.63049 0 246 4.63049 1
gene 1 31 48 0.134582 0 247 0.134582 1
gene 1 31 49 -0.353393 0 248 -0.353393 1
gene 1 32 42 -0.0736343 0 249 -0.0736343 1
gene 1 32 43 2.14884 0 250 2.14884 1
gene 1 32 44 -0.849016 0 251 -0.849016 1
gene 1 32 45 4.33806 0 252 4.33806 1
gene 1 32 46 -2.1095 0 253 -2.1095 1
gene 1 32 47 0.639212 0 254 0.639212 1
gene 1 32 48 1.47325 0 255 1.47325 1
gene 1 32 49 -3.51098 0 256 -3.51098 1
gene 1 33 42 -0.285923 0 257 -0.285923 1
gene 1 33 43 1.11226 0 258 1.11226 1
gene 1 33 44 -2.70827 0 259 -2.70827 1
gene 1 33 45 1.00356 0 260 1.00356 1
gene 1 33 46 -3.08613 0 261 -3.08613 1
gene 1 33 47 -2.66664 0 262 -2.66664 1
gene 1 33 48 -1.77869 0 263 -1.77869 1
gene 1 33 49 -0.744083 0 264 -0.744083 1
gene 1 34 42 0.541274 0 265 0.541274 1
gene 1 34 43 0.51574 0 266 0.51574 1
gene 1 34 44 0.370087 0 267 0.370087 1
gene 1 34 45 -0.171312 0 268 -0.171312 1
gene 1 34 46 -0.838476 0 269 -0.838476 1
gene 1 34 47 -1.00085 0 270 -1.00085 1
gene 1 34 48 0.368459 0 271 0.368459 1
gene 1 34 49 -2.05997 0 272 -2.05997 1
gene 1 35 42 0.278549 0 273 0.278549 1
gene 1 35 43 -1.84055 0 274 -1.84055 1
gene 1 35 44 -0.0936333 0 275 -0.0936333 1
gene 1 35 45 0.177759 0 276 0.177759 1
gene 1 35 46 -0.630382 0 277 -0.630382 1
gene 1 35 47 -0.71092 0 278 -0.71092 1
gene 1 35 48 -0.0729442 0 279 -0.0729442 1
gene 1 35 49 1.63965 0 280 1.63965 1
gene 1 36 42 1.09305 0 281 1.09305 1
gene 1 36 43 0.39051 0 282 0.39051 1
gene 1 36 44 -0.35334 0 283 -0.35334 1
gene 1 36 45 -0.354946 0 284 -0.354946 1
gene 1 36 46 0.633794 0 285 0.633794 1
gene 1 36 47 1.40369 0 286 1.40369 1
gene 1 36 48 -1.67783 0 287 -1.67783 1
gene 1 36 49 -0.231233 0 288 -0.231233 1
gene 1 37 42 -0.280912 0 289 -0.280912 1
gene 1 37 43 -0.668702 0 290 -0.668702 1
gene 1 37 44 0.798593 0 291 0.798593 1
gene 1 37 45 -0.586181 0 292 -0.586181 1
gene 1 37 46 -1.56271 0 293 -1.56271 1
gene 1 37 47 -0.232006 0 294 -0.232006 1
gene 1 37 48 -0.962115 0 295 -0.962115 1
gene 1 37 49 -1.30146 0 296 -1.30146 1
gene 1 38 42 -0.626156 0 297 -0.626156 1
gene 1 38 43 -0.603202 0 298 -0.603202 1
gene 1 38 44 -0.742956 0 299 -0.742956 1
gene 1 38 45 -0.252824 0 300 -0.252824 1
gene 1 38 46 0.40937 0 301 0.40937 1
gene 1 38 47 -2.19373 0 302 -2.19373 1
gene 1 38 48 -0.144556 0 303 -0.144556 1
gene 1 38 49 -0.292787 0 304 -0.292787 1
gene 1 39 42 -0.466691 0 305 -0.466691 1
gene 1 39 43 -0.346693 0 306 -0.346693 1
gene 1 39 44 -0.156255 0 307 -0.156255 1
gene 1 39 45 0.891743 0 308 0.891743 1
gene 1 39 46 0.104411 0 309 0.104411 1
gene 1 39 47 -0.106433 0 310 -0.106433 1
gene 1 39 48 -0.784103 0 311 -0.784103 1
gene 1 39 49 1.7851 0 312 1.7851 1
gene 1 40 42 0.330549 0 313 0.330549 1
gene 1 40 43 0.560506 0 314 0.560506 1
gene 1 40 44 0.389736 0 315 0.389736 1
gene 1 40 45 -0.944891 0 316 -0.944891 1
gene 1 40 46 0.23212 0 317 0.23212 1
gene 1 40 47 -1.12732 0 318 -1.12732 1
gene 1 40 48 -1.23714 0 319 -1.23714 1
gene 1 40 49 -0.329237 0 320 -0.329237 1
gene 1 41 42 4.59276 0 321 4.59276 1
gene 1 41 43 -1.03787 0 322 -1.03787 1
gene 1 41 44 0.141185 0 323 0.141185 1
gene 1 41 45 0.156103 0 324 0.156103 1
gene 1 41 46 1.75056 0 325 1.75056 1
gene 1 41 47 0.349703 0 326 0.349703 1
gene 1 41 48 0.82274 0 327 0.82274 1
gene 1 41 49 0.771742 0 328 0.771742 1
genomeend 57


