/* Organism #18 Fitness: -4643.050000 Time: 0 */
genomestart 18
trait 1 0.100000 0.639766 0.000000 0.000000 0.000000 0.874617 0.000000 0.000000 
node 1 1 1 1
node 2 1 1 1
node 3 1 1 1
node 4 1 1 1
node 5 1 1 1
node 6 1 1 1
node 7 1 1 1
node 8 1 1 1
node 9 1 1 1
node 10 1 1 1
node 11 1 1 1
node 12 1 1 1
node 13 1 1 1
node 14 1 1 1
node 15 1 1 1
node 16 1 1 1
node 17 1 1 1
node 18 1 1 1
node 19 1 1 1
node 20 1 1 1
node 21 1 1 1
node 22 1 1 1
node 23 1 1 1
node 24 1 1 1
node 25 1 1 1
node 26 1 1 1
node 27 1 1 1
node 28 1 1 1
node 29 1 1 1
node 30 1 1 1
node 31 1 1 1
node 32 1 1 1
node 33 1 1 1
node 34 1 1 1
node 35 1 1 1
node 36 1 1 1
node 37 1 1 1
node 38 1 1 1
node 39 1 1 1
node 40 1 1 1
node 41 1 1 3
node 42 1 0 2
node 43 1 0 2
node 44 1 0 2
node 45 1 0 2
node 46 1 0 2
node 47 1 0 2
node 48 1 0 2
node 49 1 0 2
gene 1 1 42 -4.02356 0 1 -4.02356 1
gene 1 1 43 -2.41636 0 2 -2.41636 1
gene 1 1 44 -1.00265 0 3 -1.00265 1
gene 1 1 45 0.484924 0 4 0.484924 1
gene 1 1 46 -2.57687 0 5 -2.57687 1
gene 1 1 47 -0.206664 0 6 -0.206664 1
gene 1 1 48 4.16061 0 7 4.16061 1
gene 1 1 49 0.665053 0 8 0.665053 1
gene 1 2 42 -4.97847 0 9 -4.97847 1
gene 1 2 43 -2.07755 0 10 -2.07755 1
gene 1 2 44 0.828706 0 11 0.828706 1
gene 1 2 45 -1.29887 0 12 -1.29887 1
gene 1 2 46 -0.26565 0 13 -0.26565 1
gene 1 2 47 0.753024 0 14 0.753024 1
gene 1 2 48 1.44477 0 15 1.44477 1
gene 1 2 49 -1.09399 0 16 -1.09399 1
gene 1 3 42 -2.05593 0 17 -2.05593 1
gene 1 3 43 1.9361 0 18 1.9361 1
gene 1 3 44 1.1642 0 19 1.1642 1
gene 1 3 45 -0.133858 0 20 -0.133858 1
gene 1 3 46 -0.841876 0 21 -0.841876 1
gene 1 3 47 0.816751 0 22 0.816751 1
gene 1 3 48 0.685808 0 23 0.685808 1
gene 1 3 49 1.63938 0 24 1.63938 1
gene 1 4 42 -0.721483 0 25 -0.721483 1
gene 1 4 43 -4.53917 0 26 -4.53917 1
gene 1 4 44 0.0567549 0 27 0.0567549 1
gene 1 4 45 1.27397 0 28 1.27397 1
gene 1 4 46 4.22134 0 29 4.22134 1
gene 1 4 47 -0.0102141 0 30 -0.0102141 1
gene 1 4 48 3.09331 0 31 3.09331 1
gene 1 4 49 2.98408 0 32 2.98408 1
gene 1 5 42 -1.99747 0 33 -1.99747 1
gene 1 5 43 0.54317 0 34 0.54317 1
gene 1 5 44 0.8331 0 35 0.8331 1
gene 1 5 45 -0.222198 0 36 -0.222198 1
gene 1 5 46 -1.35385 0 37 -1.35385 1
gene 1 5 47 -0.834846 0 38 -0.834846 1
gene 1 5 48 -0.0976687 0 39 -0.0976687 1
gene 1 5 49 1.50683 0 40 1.50683 1
gene 1 6 42 3.68057 0 41 3.68057 1
gene 1 6 43 -3.11733 0 42 -3.11733 1
gene 1 6 44 -1.91945 0 43 -1.91945 1
gene 1 6 45 1.45236 0 44 1.45236 1
gene 1 6 46 -4.97632 0 45 -4.97632 1
gene 1 6 47 -1.77966 0 46 -1.77966 1
gene 1 6 48 1.18987 0 47 1.18987 1
gene 1 6 49 0.0577683 0 48 0.0577683 1
gene 1 7 42 2.27734 0 49 2.27734 1
gene 1 7 43 -1.87668 0 50 -1.87668 1
gene 1 7 44 2.40237 0 51 2.40237 1
gene 1 7 45 3.81124 0 52 3.81124 1
gene 1 7 46 -0.503679 0 53 -0.503679 1
gene 1 7 47 3.08619 0 54 3.08619 1
gene 1 7 48 2.47929 0 55 2.47929 1
gene 1 7 49 -1.3157 0 56 -1.3157 1
gene 1 8 42 1.06385 0 57 1.06385 1
gene 1 8 43 1.14435 0 58 1.14435 1
gene 1 8 44 1.95735 0 59 1.95735 1
gene 1 8 45 4.06205 0 60 4.06205 1
gene 1 8 46 -3.91553 0 61 -3.91553 1
gene 1 8 47 2.8069 0 62 2.8069 1
gene 1 8 48 2.24898 0 63 2.24898 1
gene 1 8 49 0.670359 0 64 0.670359 1
gene 1 9 42 2.27673 0 65 2.27673 1
gene 1 9 43 -3.17758 0 66 -3.17758 1
gene 1 9 44 -2.05215 0 67 -2.05215 1
gene 1 9 45 0.745817 0 68 0.745817 1
gene 1 9 46 -0.558564 0 69 -0.558564 1
gene 1 9 47 0.849058 0 70 0.849058 1
gene 1 9 48 -1.19846 0 71 -1.19846 1
gene 1 9 49 -3.15032 0 72 -3.15032 1
gene 1 10 42 4.08296 0 73 4.08296 1
gene 1 10 43 0.968513 0 74 0.968513 1
gene 1 10 44 1.03573 0 75 1.03573 1
gene 1 10 45 -2.58123 0 76 -2.58123 1
gene 1 10 46 0.640286 0 77 0.640286 1
gene 1 10 47 -0.116921 0 78 -0.116921 1
gene 1 10 48 -0.064346 0 79 -0.064346 1
gene 1 10 49 1.71883 0 80 1.71883 1
gene 1 11 42 1.22319 0 81 1.22319 1
gene 1 11 43 -1.08235 0 82 -1.08235 1
gene 1 11 44 0.706231 0 83 0.706231 1
gene 1 11 45 -1.53004 0 84 -1.53004 1
gene 1 11 46 -0.442268 0 85 -0.442268 1
gene 1 11 47 1.1213 0 86 1.1213 1
gene 1 11 48 0.428479 0 87 0.428479 1
gene 1 11 49 -2.24073 0 88 -2.24073 1
gene 1 12 42 2.82483 0 89 2.82483 1
gene 1 12 43 -0.00717853 0 90 -0.00717853 1
gene 1 12 44 -0.343932 0 91 -0.343932 1
gene 1 12 45 0.726168 0 92 0.726168 1
gene 1 12 46 3.25515 0 93 3.25515 1
gene 1 12 47 -5 0 94 -5 1
gene 1 12 48 -0.884556 0 95 -0.884556 1
gene 1 12 49 -4.34612 0 96 -4.34612 1
gene 1 13 42 4.24381 0 97 4.24381 1
gene 1 13 43 -2.62578 0 98 -2.62578 1
gene 1 13 44 -1.51776 0 99 -1.51776 1
gene 1 13 45 1.65909 0 100 1.65909 1
gene 1 13 46 0.0164714 0 101 0.0164714 1
gene 1 13 47 -1.6464 0 102 -1.6464 1
gene 1 13 48 -1.17796 0 103 -1.17796 1
gene 1 13 49 1.70333 0 104 1.70333 1
gene 1 14 42 -0.686632 0 105 -0.686632 1
gene 1 14 43 -3.859 0 106 -3.859 1
gene 1 14 44 5 0 107 5 1
gene 1 14 45 -0.631419 0 108 -0.631419 1
gene 1 14 46 -0.457494 0 109 -0.457494 1
gene 1 14 47 3.34516 0 110 3.34516 1
gene 1 14 48 -1.28778 0 111 -1.28778 1
gene 1 14 49 3.52075 0 112 3.52075 1
gene 1 15 42 1.09328 0 113 1.09328 1
gene 1 15 43 1.02443 0 114 1.02443 1
gene 1 15 44 3.42365 0 115 3.42365 1
gene 1 15 45 -2.78498 0 116 -2.78498 1
gene 1 15 46 0.838245 0 117 0.838245 1
gene 1 15 47 0.0862993 0 118 0.0862993 1
gene 1 15 48 -1.07826 0 119 -1.07826 1
gene 1 15 49 1.43963 0 120 1.43963 1
gene 1 16 42 -1.42878 0 121 -1.42878 1
gene 1 16 43 -0.975878 0 122 -0.975878 1
gene 1 16 44 3.1221 0 123 3.1221 1
gene 1 16 45 1.28876 0 124 1.28876 1
gene 1 16 46 -0.573059 0 125 -0.573059 1
gene 1 16 47 2.9951 0 126 2.9951 1
gene 1 16 48 -4.11138 0 127 -4.11138 1
gene 1 16 49 -0.266209 0 128 -0.266209 1
gene 1 17 42 -0.563988 0 129 -0.563988 1
gene 1 17 43 -1.35323 0 130 -1.35323 1
gene 1 17 44 -2.8402 0 131 -2.8402 1
gene 1 17 45 0.123618 0 132 0.123618 1
gene 1 17 46 -5 0 133 -5 1
gene 1 17 47 0.235811 0 134 0.235811 1
gene 1 17 48 2.00197 0 135 2.00197 1
gene 1 17 49 -1.22781 0 136 -1.22781 1
gene 1 18 42 1.08286 0 137 1.08286 1
gene 1 18 43 -0.634813 0 138 -0.634813 1
gene 1 18 44 -3.48422 0 139 -3.48422 1
gene 1 18 45 -0.217528 0 140 -0.217528 1
gene 1 18 46 0.763074 0 141 0.763074 1
gene 1 18 47 -1.10298 0 142 -1.10298 1
gene 1 18 48 4.45568 0 143 4.45568 1
gene 1 18 49 3.54635 0 144 3.54635 1
gene 1 19 42 -3.76636 0 145 -3.76636 1
gene 1 19 43 2.19258 0 146 2.19258 1
gene 1 19 44 -0.944746 0 147 -0.944746 1
gene 1 19 45 -0.74383 0 148 -0.74383 1
gene 1 19 46 1.86328 0 149 1.86328 1
gene 1 19 47 0.304953 0 150 0.304953 1
gene 1 19 48 -0.906445 0 151 -0.906445 1
gene 1 19 49 -0.437705 0 152 -0.437705 1
gene 1 20 42 3.09453 0 153 3.09453 1
gene 1 20 43 1.43892 0 154 1.43892 1
gene 1 20 44 0.232246 0 155 0.232246 1
gene 1 20 45 -0.0648664 0 156 -0.0648664 1
gene 1 20 46 -0.120106 0 157 -0.120106 1
gene 1 20 47 1.73854 0 158 1.73854 1
gene 1 20 48 1.13598 0 159 1.13598 1
gene 1 20 49 4.41452 0 160 4.41452 1
gene 1 21 42 -2.5437 0 161 -2.5437 1
gene 1 21 43 -3.87834 0 162 -3.87834 1
gene 1 21 44 3.64597 0 163 3.64597 1
gene 1 21 45 -0.170727 0 164 -0.170727 1
gene 1 21 46 2.11762 0 165 2.11762 1
gene 1 21 47 -1.13761 0 166 -1.13761 1
gene 1 21 48 1.22778 0 167 1.22778 1
gene 1 21 49 4.11529 0 168 4.11529 1
gene 1 22 42 -0.949534 0 169 -0.949534 1
gene 1 22 43 -1.72557 0 170 -1.72557 1
gene 1 22 44 -1.20256 0 171 -1.20256 1
gene 1 22 45 -1.60633 0 172 -1.60633 1
gene 1 22 46 1.59722 0 173 1.59722 1
gene 1 22 47 1.43611 0 174 1.43611 1
gene 1 22 48 -3.81341 0 175 -3.81341 1
gene 1 22 49 0.700887 0 176 0.700887 1
gene 1 23 42 -1.02727 0 177 -1.02727 1
gene 1 23 43 2.37781 0 178 2.37781 1
gene 1 23 44 1.79592 0 179 1.79592 1
gene 1 23 45 -0.838409 0 180 -0.838409 1
gene 1 23 46 -0.929383 0 181 -0.929383 1
gene 1 23 47 -3.63146 0 182 -3.63146 1
gene 1 23 48 -1.28561 0 183 -1.28561 1
gene 1 23 49 3.44161 0 184 3.44161 1
gene 1 24 42 2.49748 0 185 2.49748 1
gene 1 24 43 0.85528 0 186 0.85528 1
gene 1 24 44 -0.834992 0 187 -0.834992 1
gene 1 24 45 4.52793 0 188 4.52793 1
gene 1 24 46 -0.227435 0 189 -0.227435 1
gene 1 24 47 -0.56048 0 190 -0.56048 1
gene 1 24 48 1.40059 0 191 1.40059 1
gene 1 24 49 -0.987384 0 192 -0.987384 1
gene 1 25 42 1.72304 0 193 1.72304 1
gene 1 25 43 -1.85639 0 194 -1.85639 1
gene 1 25 44 0.873866 0 195 0.873866 1
gene 1 25 45 0.433998 0 196 0.433998 1
gene 1 25 46 0.450057 0 197 0.450057 1
gene 1 25 47 0.951623 0 198 0.951623 1
gene 1 25 48 -0.631748 0 199 -0.631748 1
gene 1 25 49 1.5341 0 200 1.5341 1
gene 1 26 42 4.12217 0 201 4.12217 1
gene 1 26 43 -0.993099 0 202 -0.993099 1
gene 1 26 44 2.3098 0 203 2.3098 1
gene 1 26 45 -5 0 204 -5 1
gene 1 26 46 -3.46775 0 205 -3.46775 1
gene 1 26 47 0.528217 0 206 0.528217 1
gene 1 26 48 -0.415995 0 207 -0.415995 1
gene 1 26 49 2.26505 0 208 2.26505 1
gene 1 27 42 1.02072 0 209 1.02072 1
gene 1 27 43 -0.984156 0 210 -0.984156 1
gene 1 27 44 1.76745 0 211 1.76745 1
gene 1 27 45 -1.87839 0 212 -1.87839 1
gene 1 27 46 0.697825 0 213 0.697825 1
gene 1 27 47 -0.712408 0 214 -0.712408 1
gene 1 27 48 -1.56691 0 215 -1.56691 1
gene 1 27 49 0.264932 0 216 0.264932 1
gene 1 28 42 2.72547 0 217 2.72547 1
gene 1 28 43 -3.23875 0 218 -3.23875 1
gene 1 28 44 0.82519 0 219 0.82519 1
gene 1 28 45 2.66239 0 220 2.66239 1
gene 1 28 46 -0.333219 0 221 -0.333219 1
gene 1 28 47 -0.702734 0 222 -0.702734 1
gene 1 28 48 -0.433039 0 223 -0.433039 1
gene 1 28 49 0.664177 0 224 0.664177 1
gene 1 29 42 -1.5032 0 225 -1.5032 1
gene 1 29 43 -0.509839 0 226 -0.509839 1
gene 1 29 44 -1.43498 0 227 -1.43498 1
gene 1 29 45 -0.36293 0 228 -0.36293 1
gene 1 29 46 0.722683 0 229 0.722683 1
gene 1 29 47 -3.49328 0 230 -3.49328 1
gene 1 29 48 -2.5262 0 231 -2.5262 1
gene 1 29 49 -1.7246 0 232 -1.7246 1
gene 1 30 42 -2.94907 0 233 -2.94907 1
gene 1 30 43 -0.85709 0 234 -0.85709 1
gene 1 30 44 -0.446929 0 235 -0.446929 1
gene 1 30 45 -5 0 236 -5 1
gene 1 30 46 0.86364 0 237 0.86364 1
gene 1 30 47 -0.301271 0 238 -0.301271 1
gene 1 30 48 -0.953308 0 239 -0.953308 1
gene 1 30 49 0.195837 0 240 0.195837 1
gene 1 31 42 -1.79429 0 241 -1.79429 1
gene 1 31 43 2.08136 0 242 2.08136 1
gene 1 31 44 4.11387 0 243 4.11387 1
gene 1 31 45 -3.72697 0 244 -3.72697 1
gene 1 31 46 1.54992 0 245 1.54992 1
gene 1 31 47 2.27573 0 246 2.27573 1
gene 1 31 48 0.785991 0 247 0.785991 1
gene 1 31 49 0.0103264 0 248 0.0103264 1
gene 1 32 42 2.0989 0 249 2.0989 1
gene 1 32 43 0.232474 0 250 0.232474 1
gene 1 32 44 3.25033 0 251 3.25033 1
gene 1 32 45 -1.0502 0 252 -1.0502 1
gene 1 32 46 -2.11082 0 253 -2.11082 1
gene 1 32 47 -0.449408 0 254 -0.449408 1
gene 1 32 48 4.7456 0 255 4.7456 1
gene 1 32 49 -0.407418 0 256 -0.407418 1
gene 1 33 42 -0.28583 0 257 -0.28583 1
gene 1 33 43 -2.14217 0 258 -2.14217 1
gene 1 33 44 -2.79702 0 259 -2.79702 1
gene 1 33 45 1.22279 0 260 1.22279 1
gene 1 33 46 -2.22237 0 261 -2.22237 1
gene 1 33 47 -0.202141 0 262 -0.202141 1
gene 1 33 48 4.12067 0 263 4.12067 1
gene 1 33 49 0.731813 0 264 0.731813 1
gene 1 34 42 -0.192328 0 265 -0.192328 1
gene 1 34 43 -0.321624 0 266 -0.321624 1
gene 1 34 44 -1.88314 0 267 -1.88314 1
gene 1 34 45 -2.04225 0 268 -2.04225 1
gene 1 34 46 0.531375 0 269 0.531375 1
gene 1 34 47 -0.75522 0 270 -0.75522 1
gene 1 34 48 1.61106 0 271 1.61106 1
gene 1 34 49 0.359069 0 272 0.359069 1
gene 1 35 42 -0.778704 0 273 -0.778704 1
gene 1 35 43 -0.0285938 0 274 -0.0285938 1
gene 1 35 44 -3.29296 0 275 -3.29296 1
gene 1 35 45 0.344773 0 276 0.344773 1
gene 1 35 46 1.73657 0 277 1.73657 1
gene 1 35 47 -0.0324177 0 278 -0.0324177 1
gene 1 35 48 0.58706 0 279 0.58706 1
gene 1 35 49 -0.610074 0 280 -0.610074 1
gene 1 36 42 -1.07685 0 281 -1.07685 1
gene 1 36 43 0.640019 0 282 0.640019 1
gene 1 36 44 0.430558 0 283 0.430558 1
gene 1 36 45 0.233136 0 284 0.233136 1
gene 1 36 46 0.637389 0 285 0.637389 1
gene 1 36 47 -0.126116 0 286 -0.126116 1
gene 1 36 48 0.115339 0 287 0.115339 1
gene 1 36 49 -0.875254 0 288 -0.875254 1
gene 1 37 42 -0.667507 0 289 -0.667507 1
gene 1 37 43 -0.0180766 0 290 -0.0180766 1
gene 1 37 44 -0.909464 0 291 -0.909464 1
gene 1 37 45 -0.035731 0 292 -0.035731 1
gene 1 37 46 -0.580919 0 293 -0.580919 1
gene 1 37 47 -0.28111 0 294 -0.28111 1
gene 1 37 48 0.582721 0 295 0.582721 1
gene 1 37 49 -1.76735 0 296 -1.76735 1
gene 1 38 42 0.214597 0 297 0.214597 1
gene 1 38 43 -0.552344 0 298 -0.552344 1
gene 1 38 44 -0.23386 0 299 -0.23386 1
gene 1 38 45 0.0154488 0 300 0.0154488 1
gene 1 38 46 1.85903 0 301 1.85903 1
gene 1 38 47 0.627442 0 302 0.627442 1
gene 1 38 48 0.650943 0 303 0.650943 1
gene 1 38 49 0.581586 0 304 0.581586 1
gene 1 39 42 0.102121 0 305 0.102121 1
gene 1 39 43 -2.65392 0 306 -2.65392 1
gene 1 39 44 1.77645e-05 0 307 1.77645e-05 1
gene 1 39 45 -0.468689 0 308 -0.468689 1
gene 1 39 46 -0.529239 0 309 -0.529239 1
gene 1 39 47 -0.74328 0 310 -0.74328 1
gene 1 39 48 0.396036 0 311 0.396036 1
gene 1 39 49 -1.3723 0 312 -1.3723 1
gene 1 40 42 1.06416 0 313 1.06416 1
gene 1 40 43 -1.77677 0 314 -1.77677 1
gene 1 40 44 -0.828764 0 315 -0.828764 1
gene 1 40 45 0.42192 0 316 0.42192 1
gene 1 40 46 0.619471 0 317 0.619471 1
gene 1 40 47 0.174511 0 318 0.174511 1
gene 1 40 48 -0.127723 0 319 -0.127723 1
gene 1 40 49 -0.188427 0 320 -0.188427 1
gene 1 41 42 -0.147448 0 321 -0.147448 1
gene 1 41 43 -0.0460024 0 322 -0.0460024 1
gene 1 41 44 1.56167 0 323 1.56167 1
gene 1 41 45 -0.560987 0 324 -0.560987 1
gene 1 41 46 -0.298469 0 325 -0.298469 1
gene 1 41 47 -1.53251 0 326 -1.53251 1
gene 1 41 48 1.36768 0 327 1.36768 1
gene 1 41 49 1.22831 0 328 1.22831 1
genomeend 18


