/* Organism #44 Fitness: -5960.370000 Time: 0 */
genomestart 44
trait 1 0.000000 0.179108 0.000000 0.000000 0.940454 0.000000 0.000000 0.161903 
node 1 1 1 1
node 2 1 1 1
node 3 1 1 1
node 4 1 1 1
node 5 1 1 1
node 6 1 1 1
node 7 1 1 1
node 8 1 1 1
node 9 1 1 1
node 10 1 1 1
node 11 1 1 1
node 12 1 1 1
node 13 1 1 1
node 14 1 1 1
node 15 1 1 1
node 16 1 1 1
node 17 1 1 1
node 18 1 1 1
node 19 1 1 1
node 20 1 1 1
node 21 1 1 1
node 22 1 1 1
node 23 1 1 1
node 24 1 1 1
node 25 1 1 1
node 26 1 1 1
node 27 1 1 1
node 28 1 1 1
node 29 1 1 1
node 30 1 1 1
node 31 1 1 1
node 32 1 1 1
node 33 1 1 1
node 34 1 1 1
node 35 1 1 1
node 36 1 1 1
node 37 1 1 1
node 38 1 1 1
node 39 1 1 1
node 40 1 1 1
node 41 1 1 3
node 42 1 0 2
node 43 1 0 2
node 44 1 0 2
node 45 1 0 2
node 46 1 0 2
node 47 1 0 2
node 48 1 0 2
node 49 1 0 2
gene 1 1 42 -0.286695 0 1 -0.286695 1
gene 1 1 43 3.70073 0 2 3.70073 1
gene 1 1 44 -2.41745 0 3 -2.41745 1
gene 1 1 45 -4.15524 0 4 -4.15524 1
gene 1 1 46 3.16 0 5 3.16 1
gene 1 1 47 2.83385 0 6 2.83385 1
gene 1 1 48 -1.1093 0 7 -1.1093 1
gene 1 1 49 -1.02328 0 8 -1.02328 1
gene 1 2 42 -0.0250631 0 9 -0.0250631 1
gene 1 2 43 5 0 10 5 1
gene 1 2 44 0.0551331 0 11 0.0551331 1
gene 1 2 45 3.55377 0 12 3.55377 1
gene 1 2 46 0.656653 0 13 0.656653 1
gene 1 2 47 1.26771 0 14 1.26771 1
gene 1 2 48 0.283616 0 15 0.283616 1
gene 1 2 49 -2.87232 0 16 -2.87232 1
gene 1 3 42 -1.32612 0 17 -1.32612 1
gene 1 3 43 -1.17922 0 18 -1.17922 1
gene 1 3 44 -0.927511 0 19 -0.927511 1
gene 1 3 45 -2.85816 0 20 -2.85816 1
gene 1 3 46 2.67614 0 21 2.67614 1
gene 1 3 47 1.95773 0 22 1.95773 1
gene 1 3 48 4.70565 0 23 4.70565 1
gene 1 3 49 -2.08867 0 24 -2.08867 1
gene 1 4 42 -2.64102 0 25 -2.64102 1
gene 1 4 43 2.18694 0 26 2.18694 1
gene 1 4 44 2.64898 0 27 2.64898 1
gene 1 4 45 -4.53452 0 28 -4.53452 1
gene 1 4 46 -3.56328 0 29 -3.56328 1
gene 1 4 47 2.00042 0 30 2.00042 1
gene 1 4 48 -2.17372 0 31 -2.17372 1
gene 1 4 49 2.8364 0 32 2.8364 1
gene 1 5 42 -2.17972 0 33 -2.17972 1
gene 1 5 43 -0.239643 0 34 -0.239643 1
gene 1 5 44 1.84091 0 35 1.84091 1
gene 1 5 45 1.15316 0 36 1.15316 1
gene 1 5 46 -1.38173 0 37 -1.38173 1
gene 1 5 47 -1.64844 0 38 -1.64844 1
gene 1 5 48 -0.835959 0 39 -0.835959 1
gene 1 5 49 1.03288 0 40 1.03288 1
gene 1 6 42 -0.768046 0 41 -0.768046 1
gene 1 6 43 0.0559924 0 42 0.0559924 1
gene 1 6 44 1.07679 0 43 1.07679 1
gene 1 6 45 -1.29128 0 44 -1.29128 1
gene 1 6 46 2.98325 0 45 2.98325 1
gene 1 6 47 -3.15578 0 46 -3.15578 1
gene 1 6 48 -0.3692 0 47 -0.3692 1
gene 1 6 49 1.26199 0 48 1.26199 1
gene 1 7 42 1.92229 0 49 1.92229 1
gene 1 7 43 3.7094 0 50 3.7094 1
gene 1 7 44 2.64802 0 51 2.64802 1
gene 1 7 45 -0.264811 0 52 -0.264811 1
gene 1 7 46 -2.11762 0 53 -2.11762 1
gene 1 7 47 2.18892 0 54 2.18892 1
gene 1 7 48 2.0475 0 55 2.0475 1
gene 1 7 49 -2.74997 0 56 -2.74997 1
gene 1 8 42 1.67912 0 57 1.67912 1
gene 1 8 43 -1.5079 0 58 -1.5079 1
gene 1 8 44 0.379168 0 59 0.379168 1
gene 1 8 45 2.09643 0 60 2.09643 1
gene 1 8 46 -1.94372 0 61 -1.94372 1
gene 1 8 47 4.46077 0 62 4.46077 1
gene 1 8 48 3.02044 0 63 3.02044 1
gene 1 8 49 1.84947 0 64 1.84947 1
gene 1 9 42 -5 0 65 -5 1
gene 1 9 43 1.99256 0 66 1.99256 1
gene 1 9 44 -1.70722 0 67 -1.70722 1
gene 1 9 45 0.163947 0 68 0.163947 1
gene 1 9 46 1.51482 0 69 1.51482 1
gene 1 9 47 -3.0232 0 70 -3.0232 1
gene 1 9 48 0.49772 0 71 0.49772 1
gene 1 9 49 -3.53447 0 72 -3.53447 1
gene 1 10 42 -1.10913 0 73 -1.10913 1
gene 1 10 43 1.9087 0 74 1.9087 1
gene 1 10 44 -3.71677 0 75 -3.71677 1
gene 1 10 45 1.83955 0 76 1.83955 1
gene 1 10 46 0.336351 0 77 0.336351 1
gene 1 10 47 0.500374 0 78 0.500374 1
gene 1 10 48 1.07481 0 79 1.07481 1
gene 1 10 49 -1.79338 0 80 -1.79338 1
gene 1 11 42 -0.0671008 0 81 -0.0671008 1
gene 1 11 43 3.21267 0 82 3.21267 1
gene 1 11 44 -2.78097 0 83 -2.78097 1
gene 1 11 45 4.12198 0 84 4.12198 1
gene 1 11 46 -0.564202 0 85 -0.564202 1
gene 1 11 47 -3.10186 0 86 -3.10186 1
gene 1 11 48 4.35324 0 87 4.35324 1
gene 1 11 49 3.71945 0 88 3.71945 1
gene 1 12 42 -0.679231 0 89 -0.679231 1
gene 1 12 43 -0.603004 0 90 -0.603004 1
gene 1 12 44 0.619174 0 91 0.619174 1
gene 1 12 45 2.2804 0 92 2.2804 1
gene 1 12 46 -0.221515 0 93 -0.221515 1
gene 1 12 47 2.17468 0 94 2.17468 1
gene 1 12 48 0.668095 0 95 0.668095 1
gene 1 12 49 1.78797 0 96 1.78797 1
gene 1 13 42 -3.74313 0 97 -3.74313 1
gene 1 13 43 -1.06293 0 98 -1.06293 1
gene 1 13 44 -0.288557 0 99 -0.288557 1
gene 1 13 45 -4.98756 0 100 -4.98756 1
gene 1 13 46 -1.70268 0 101 -1.70268 1
gene 1 13 47 2.37096 0 102 2.37096 1
gene 1 13 48 -0.572874 0 103 -0.572874 1
gene 1 13 49 -2.90738 0 104 -2.90738 1
gene 1 14 42 0.614568 0 105 0.614568 1
gene 1 14 43 0.304398 0 106 0.304398 1
gene 1 14 44 -2.06921 0 107 -2.06921 1
gene 1 14 45 -2.48611 0 108 -2.48611 1
gene 1 14 46 1.81377 0 109 1.81377 1
gene 1 14 47 1.31861 0 110 1.31861 1
gene 1 14 48 1.21445 0 111 1.21445 1
gene 1 14 49 -4.13429 0 112 -4.13429 1
gene 1 15 42 1.0284 0 113 1.0284 1
gene 1 15 43 -4.75478 0 114 -4.75478 1
gene 1 15 44 0.985226 0 115 0.985226 1
gene 1 15 45 -2.14461 0 116 -2.14461 1
gene 1 15 46 4.15518 0 117 4.15518 1
gene 1 15 47 -3.7592 0 118 -3.7592 1
gene 1 15 48 -0.484362 0 119 -0.484362 1
gene 1 15 49 3.85355 0 120 3.85355 1
gene 1 16 42 -0.627941 0 121 -0.627941 1
gene 1 16 43 0.238335 0 122 0.238335 1
gene 1 16 44 -0.79866 0 123 -0.79866 1
gene 1 16 45 -0.897666 0 124 -0.897666 1
gene 1 16 46 -0.952737 0 125 -0.952737 1
gene 1 16 47 -1.12764 0 126 -1.12764 1
gene 1 16 48 4.48411 0 127 4.48411 1
gene 1 16 49 2.37241 0 128 2.37241 1
gene 1 17 42 2.45098 0 129 2.45098 1
gene 1 17 43 1.0665 0 130 1.0665 1
gene 1 17 44 -0.406152 0 131 -0.406152 1
gene 1 17 45 5 0 132 5 1
gene 1 17 46 0.115273 0 133 0.115273 1
gene 1 17 47 2.43682 0 134 2.43682 1
gene 1 17 48 -2.21896 0 135 -2.21896 1
gene 1 17 49 0.775804 0 136 0.775804 1
gene 1 18 42 0.255723 0 137 0.255723 1
gene 1 18 43 3.5519 0 138 3.5519 1
gene 1 18 44 3.47484 0 139 3.47484 1
gene 1 18 45 2.58761 0 140 2.58761 1
gene 1 18 46 1.87876 0 141 1.87876 1
gene 1 18 47 0.885707 0 142 0.885707 1
gene 1 18 48 1.65723 0 143 1.65723 1
gene 1 18 49 -0.127417 0 144 -0.127417 1
gene 1 19 42 -0.634215 0 145 -0.634215 1
gene 1 19 43 0.254864 0 146 0.254864 1
gene 1 19 44 0.887334 0 147 0.887334 1
gene 1 19 45 -1.72398 0 148 -1.72398 1
gene 1 19 46 0.193941 0 149 0.193941 1
gene 1 19 47 -0.339774 0 150 -0.339774 1
gene 1 19 48 -0.383592 0 151 -0.383592 1
gene 1 19 49 0.0118369 0 152 0.0118369 1
gene 1 20 42 0.760887 0 153 0.760887 1
gene 1 20 43 0.0418159 0 154 0.0418159 1
gene 1 20 44 -4.97626 0 155 -4.97626 1
gene 1 20 45 2.60636 0 156 2.60636 1
gene 1 20 46 2.22427 0 157 2.22427 1
gene 1 20 47 1.98765 0 158 1.98765 1
gene 1 20 48 1.38479 0 159 1.38479 1
gene 1 20 49 0.698382 0 160 0.698382 1
gene 1 21 42 2.70727 0 161 2.70727 1
gene 1 21 43 1.13072 0 162 1.13072 1
gene 1 21 44 2.29476 0 163 2.29476 1
gene 1 21 45 0.0534222 0 164 0.0534222 1
gene 1 21 46 -1.79224 0 165 -1.79224 1
gene 1 21 47 3.3802 0 166 3.3802 1
gene 1 21 48 -1.57667 0 167 -1.57667 1
gene 1 21 49 0.127049 0 168 0.127049 1
gene 1 22 42 2.50837 0 169 2.50837 1
gene 1 22 43 1.7245 0 170 1.7245 1
gene 1 22 44 -2.20679 0 171 -2.20679 1
gene 1 22 45 5 0 172 5 1
gene 1 22 46 -2.2238 0 173 -2.2238 1
gene 1 22 47 -1.48312 0 174 -1.48312 1
gene 1 22 48 0.858974 0 175 0.858974 1
gene 1 22 49 5 0 176 5 1
gene 1 23 42 -4.0466 0 177 -4.0466 1
gene 1 23 43 1.79701 0 178 1.79701 1
gene 1 23 44 -1.62311 0 179 -1.62311 1
gene 1 23 45 1.86815 0 180 1.86815 1
gene 1 23 46 0.507436 0 181 0.507436 1
gene 1 23 47 -0.925661 0 182 -0.925661 1
gene 1 23 48 1.286 0 183 1.286 1
gene 1 23 49 -1.23014 0 184 -1.23014 1
gene 1 24 42 1.51561 0 185 1.51561 1
gene 1 24 43 -4.49505 0 186 -4.49505 1
gene 1 24 44 1.50101 0 187 1.50101 1
gene 1 24 45 -4.10981 0 188 -4.10981 1
gene 1 24 46 4.00557 0 189 4.00557 1
gene 1 24 47 2.93526 0 190 2.93526 1
gene 1 24 48 3.20904 0 191 3.20904 1
gene 1 24 49 1.01242 0 192 1.01242 1
gene 1 25 42 0.262702 0 193 0.262702 1
gene 1 25 43 -0.261084 0 194 -0.261084 1
gene 1 25 44 -0.212108 0 195 -0.212108 1
gene 1 25 45 0.286199 0 196 0.286199 1
gene 1 25 46 1.16312 0 197 1.16312 1
gene 1 25 47 0.710244 0 198 0.710244 1
gene 1 25 48 1.04618 0 199 1.04618 1
gene 1 25 49 4.12384 0 200 4.12384 1
gene 1 26 42 1.57388 0 201 1.57388 1
gene 1 26 43 3.24007 0 202 3.24007 1
gene 1 26 44 5 0 203 5 1
gene 1 26 45 3.46883 0 204 3.46883 1
gene 1 26 46 2.33642 0 205 2.33642 1
gene 1 26 47 -1.98192 0 206 -1.98192 1
gene 1 26 48 0.353185 0 207 0.353185 1
gene 1 26 49 -2.5958 0 208 -2.5958 1
gene 1 27 42 -1.19676 0 209 -1.19676 1
gene 1 27 43 1.75593 0 210 1.75593 1
gene 1 27 44 -0.660303 0 211 -0.660303 1
gene 1 27 45 2.05046 0 212 2.05046 1
gene 1 27 46 -2.43236 0 213 -2.43236 1
gene 1 27 47 -0.0234855 0 214 -0.0234855 1
gene 1 27 48 -0.17455 0 215 -0.17455 1
gene 1 27 49 0.421167 0 216 0.421167 1
gene 1 28 42 1.8285 0 217 1.8285 1
gene 1 28 43 -2.06768 0 218 -2.06768 1
gene 1 28 44 -3.24339 0 219 -3.24339 1
gene 1 28 45 -2.91086 0 220 -2.91086 1
gene 1 28 46 -1.72204 0 221 -1.72204 1
gene 1 28 47 -1.88357 0 222 -1.88357 1
gene 1 28 48 -3.78615 0 223 -3.78615 1
gene 1 28 49 -1.73132 0 224 -1.73132 1
gene 1 29 42 0.747141 0 225 0.747141 1
gene 1 29 43 -2.34445 0 226 -2.34445 1
gene 1 29 44 -1.74683 0 227 -1.74683 1
gene 1 29 45 -1.87943 0 228 -1.87943 1
gene 1 29 46 1.95571 0 229 1.95571 1
gene 1 29 47 -1.60144 0 230 -1.60144 1
gene 1 29 48 -0.866425 0 231 -0.866425 1
gene 1 29 49 0.161572 0 232 0.161572 1
gene 1 30 42 -0.736924 0 233 -0.736924 1
gene 1 30 43 1.42326 0 234 1.42326 1
gene 1 30 44 -4.45791 0 235 -4.45791 1
gene 1 30 45 -0.819399 0 236 -0.819399 1
gene 1 30 46 0.254804 0 237 0.254804 1
gene 1 30 47 5 0 238 5 1
gene 1 30 48 0.165654 0 239 0.165654 1
gene 1 30 49 -1.876 0 240 -1.876 1
gene 1 31 42 1.78292 0 241 1.78292 1
gene 1 31 43 -0.00101065 0 242 -0.00101065 1
gene 1 31 44 2.38503 0 243 2.38503 1
gene 1 31 45 -1.99933 0 244 -1.99933 1
gene 1 31 46 1.7481 0 245 1.7481 1
gene 1 31 47 -2.5666 0 246 -2.5666 1
gene 1 31 48 -2.85819 0 247 -2.85819 1
gene 1 31 49 0.552037 0 248 0.552037 1
gene 1 32 42 -2.01134 0 249 -2.01134 1
gene 1 32 43 -0.248217 0 250 -0.248217 1
gene 1 32 44 1.94607 0 251 1.94607 1
gene 1 32 45 -2.73848 0 252 -2.73848 1
gene 1 32 46 0.254519 0 253 0.254519 1
gene 1 32 47 -0.46046 0 254 -0.46046 1
gene 1 32 48 -1.42513 0 255 -1.42513 1
gene 1 32 49 1.1716 0 256 1.1716 1
gene 1 33 42 -4.76747 0 257 -4.76747 1
gene 1 33 43 -0.831948 0 258 -0.831948 1
gene 1 33 44 1.13239 0 259 1.13239 1
gene 1 33 45 2.24467 0 260 2.24467 1
gene 1 33 46 -0.768315 0 261 -0.768315 1
gene 1 33 47 -1.62591 0 262 -1.62591 1
gene 1 33 48 -0.13728 0 263 -0.13728 1
gene 1 33 49 -1.33891 0 264 -1.33891 1
gene 1 34 42 -0.197497 0 265 -0.197497 1
gene 1 34 43 1.93523 0 266 1.93523 1
gene 1 34 44 -0.588162 0 267 -0.588162 1
gene 1 34 45 1.62947 0 268 1.62947 1
gene 1 34 46 -0.145752 0 269 -0.145752 1
gene 1 34 47 0.792581 0 270 0.792581 1
gene 1 34 48 1.68752 0 271 1.68752 1
gene 1 34 49 0.99461 0 272 0.99461 1
gene 1 35 42 1.45821 0 273 1.45821 1
gene 1 35 43 0.664634 0 274 0.664634 1
gene 1 35 44 1.3309 0 275 1.3309 1
gene 1 35 45 0.640011 0 276 0.640011 1
gene 1 35 46 0.332889 0 277 0.332889 1
gene 1 35 47 -0.542555 0 278 -0.542555 1
gene 1 35 48 -1.01497 0 279 -1.01497 1
gene 1 35 49 0.410483 0 280 0.410483 1
gene 1 36 42 0.171816 0 281 0.171816 1
gene 1 36 43 1.0453 0 282 1.0453 1
gene 1 36 44 -1.39161 0 283 -1.39161 1
gene 1 36 45 -0.328246 0 284 -0.328246 1
gene 1 36 46 -0.322889 0 285 -0.322889 1
gene 1 36 47 -0.956278 0 286 -0.956278 1
gene 1 36 48 -0.225499 0 287 -0.225499 1
gene 1 36 49 1.38429 0 288 1.38429 1
gene 1 37 42 -2.23792 0 289 -2.23792 1
gene 1 37 43 1.92258 0 290 1.92258 1
gene 1 37 44 -0.9655 0 291 -0.9655 1
gene 1 37 45 0.370504 0 292 0.370504 1
gene 1 37 46 -0.945609 0 293 -0.945609 1
gene 1 37 47 0.741981 0 294 0.741981 1
gene 1 37 48 -0.329054 0 295 -0.329054 1
gene 1 37 49 0.465401 0 296 0.465401 1
gene 1 38 42 -0.312838 0 297 -0.312838 1
gene 1 38 43 0.66298 0 298 0.66298 1
gene 1 38 44 0.293511 0 299 0.293511 1
gene 1 38 45 -0.916185 0 300 -0.916185 1
gene 1 38 46 0.68919 0 301 0.68919 1
gene 1 38 47 1.82718 0 302 1.82718 1
gene 1 38 48 0.530419 0 303 0.530419 1
gene 1 38 49 -0.383732 0 304 -0.383732 1
gene 1 39 42 0.416185 0 305 0.416185 1
gene 1 39 43 0.942924 0 306 0.942924 1
gene 1 39 44 2.72021 0 307 2.72021 1
gene 1 39 45 -0.0948516 0 308 -0.0948516 1
gene 1 39 46 0.0707315 0 309 0.0707315 1
gene 1 39 47 -0.699879 0 310 -0.699879 1
gene 1 39 48 0.692039 0 311 0.692039 1
gene 1 39 49 -0.215805 0 312 -0.215805 1
gene 1 40 42 2.48248 0 313 2.48248 1
gene 1 40 43 2.67514 0 314 2.67514 1
gene 1 40 44 2.40392 0 315 2.40392 1
gene 1 40 45 0.0690236 0 316 0.0690236 1
gene 1 40 46 1.33036 0 317 1.33036 1
gene 1 40 47 -0.15011 0 318 -0.15011 1
gene 1 40 48 -0.0275024 0 319 -0.0275024 1
gene 1 40 49 -0.798969 0 320 -0.798969 1
gene 1 41 42 -0.508886 0 321 -0.508886 1
gene 1 41 43 0.0774737 0 322 0.0774737 1
gene 1 41 44 -0.0420846 0 323 -0.0420846 1
gene 1 41 45 0.0133693 0 324 0.0133693 1
gene 1 41 46 0.748352 0 325 0.748352 1
gene 1 41 47 0.344034 0 326 0.344034 1
gene 1 41 48 0.0169191 0 327 0.0169191 1
gene 1 41 49 0.0203765 0 328 0.0203765 1
genomeend 44


