/* Organism #4 Fitness: -6112.820000 Time: 0 */
genomestart 4
trait 1 0.385623 0.000000 0.000000 0.218050 0.000000 1.000000 0.314375 0.000000 
node 1 1 1 1
node 2 1 1 1
node 3 1 1 1
node 4 1 1 1
node 5 1 1 1
node 6 1 1 1
node 7 1 1 1
node 8 1 1 1
node 9 1 1 1
node 10 1 1 1
node 11 1 1 1
node 12 1 1 1
node 13 1 1 1
node 14 1 1 1
node 15 1 1 1
node 16 1 1 1
node 17 1 1 1
node 18 1 1 1
node 19 1 1 1
node 20 1 1 1
node 21 1 1 1
node 22 1 1 1
node 23 1 1 1
node 24 1 1 1
node 25 1 1 1
node 26 1 1 1
node 27 1 1 1
node 28 1 1 1
node 29 1 1 1
node 30 1 1 1
node 31 1 1 1
node 32 1 1 1
node 33 1 1 1
node 34 1 1 1
node 35 1 1 1
node 36 1 1 1
node 37 1 1 1
node 38 1 1 1
node 39 1 1 1
node 40 1 1 1
node 41 1 1 3
node 42 1 0 2
node 43 1 0 2
node 44 1 0 2
node 45 1 0 2
node 46 1 0 2
node 47 1 0 2
node 48 1 0 2
node 49 1 0 2
gene 1 1 42 0.81062 0 1 0.81062 1
gene 1 1 43 -2.71583 0 2 -2.71583 1
gene 1 1 44 0.139767 0 3 0.139767 1
gene 1 1 45 2.41002 0 4 2.41002 1
gene 1 1 46 0.609383 0 5 0.609383 1
gene 1 1 47 1.35309 0 6 1.35309 1
gene 1 1 48 -1.23543 0 7 -1.23543 1
gene 1 1 49 -2.34098 0 8 -2.34098 1
gene 1 2 42 0.393588 0 9 0.393588 1
gene 1 2 43 2.64688 0 10 2.64688 1
gene 1 2 44 -2.89893 0 11 -2.89893 1
gene 1 2 45 1.07656 0 12 1.07656 1
gene 1 2 46 3.36974 0 13 3.36974 1
gene 1 2 47 0.958497 0 14 0.958497 1
gene 1 2 48 1.13629 0 15 1.13629 1
gene 1 2 49 -1.64387 0 16 -1.64387 1
gene 1 3 42 -1.26397 0 17 -1.26397 1
gene 1 3 43 -0.30509 0 18 -0.30509 1
gene 1 3 44 0.354696 0 19 0.354696 1
gene 1 3 45 1.43752 0 20 1.43752 1
gene 1 3 46 -3.58709 0 21 -3.58709 1
gene 1 3 47 3.42802 0 22 3.42802 1
gene 1 3 48 -1.82868 0 23 -1.82868 1
gene 1 3 49 -0.410534 0 24 -0.410534 1
gene 1 4 42 -1.2187 0 25 -1.2187 1
gene 1 4 43 -0.676355 0 26 -0.676355 1
gene 1 4 44 -1.83976 0 27 -1.83976 1
gene 1 4 45 0.134659 0 28 0.134659 1
gene 1 4 46 2.81783 0 29 2.81783 1
gene 1 4 47 -5 0 30 -5 1
gene 1 4 48 0.0826521 0 31 0.0826521 1
gene 1 4 49 -2.50501 0 32 -2.50501 1
gene 1 5 42 1.38601 0 33 1.38601 1
gene 1 5 43 -2.33767 0 34 -2.33767 1
gene 1 5 44 -3.52855 0 35 -3.52855 1
gene 1 5 45 2.2265 0 36 2.2265 1
gene 1 5 46 -0.689265 0 37 -0.689265 1
gene 1 5 47 0.610881 0 38 0.610881 1
gene 1 5 48 -1.95869 0 39 -1.95869 1
gene 1 5 49 -1.34468 0 40 -1.34468 1
gene 1 6 42 -0.207897 0 41 -0.207897 1
gene 1 6 43 -0.211419 0 42 -0.211419 1
gene 1 6 44 0.349835 0 43 0.349835 1
gene 1 6 45 -0.0959806 0 44 -0.0959806 1
gene 1 6 46 0.117041 0 45 0.117041 1
gene 1 6 47 1.88244 0 46 1.88244 1
gene 1 6 48 1.45369 0 47 1.45369 1
gene 1 6 49 -1.45149 0 48 -1.45149 1
gene 1 7 42 0.137957 0 49 0.137957 1
gene 1 7 43 0.138797 0 50 0.138797 1
gene 1 7 44 -0.850459 0 51 -0.850459 1
gene 1 7 45 3.65783 0 52 3.65783 1
gene 1 7 46 -1.56308 0 53 -1.56308 1
gene 1 7 47 -0.742616 0 54 -0.742616 1
gene 1 7 48 -0.728286 0 55 -0.728286 1
gene 1 7 49 1.99633 0 56 1.99633 1
gene 1 8 42 -3.66559 0 57 -3.66559 1
gene 1 8 43 2.74682 0 58 2.74682 1
gene 1 8 44 -2.26222 0 59 -2.26222 1
gene 1 8 45 0.0465449 0 60 0.0465449 1
gene 1 8 46 0.803717 0 61 0.803717 1
gene 1 8 47 1.06651 0 62 1.06651 1
gene 1 8 48 0.639939 0 63 0.639939 1
gene 1 8 49 1.25827 0 64 1.25827 1
gene 1 9 42 -0.767146 0 65 -0.767146 1
gene 1 9 43 1.61117 0 66 1.61117 1
gene 1 9 44 -2.25305 0 67 -2.25305 1
gene 1 9 45 1.8989 0 68 1.8989 1
gene 1 9 46 1.49497 0 69 1.49497 1
gene 1 9 47 -1.49203 0 70 -1.49203 1
gene 1 9 48 -3.36284 0 71 -3.36284 1
gene 1 9 49 -3.88605 0 72 -3.88605 1
gene 1 10 42 -5 0 73 -5 1
gene 1 10 43 -0.524262 0 74 -0.524262 1
gene 1 10 44 -1.18487 0 75 -1.18487 1
gene 1 10 45 -1.69878 0 76 -1.69878 1
gene 1 10 46 2.02818 0 77 2.02818 1
gene 1 10 47 1.17688 0 78 1.17688 1
gene 1 10 48 -2.51339 0 79 -2.51339 1
gene 1 10 49 -0.221601 0 80 -0.221601 1
gene 1 11 42 -3.71985 0 81 -3.71985 1
gene 1 11 43 -0.279452 0 82 -0.279452 1
gene 1 11 44 -2.06226 0 83 -2.06226 1
gene 1 11 45 0.00614184 0 84 0.00614184 1
gene 1 11 46 -2.47739 0 85 -2.47739 1
gene 1 11 47 0.570751 0 86 0.570751 1
gene 1 11 48 0.911149 0 87 0.911149 1
gene 1 11 49 0.451352 0 88 0.451352 1
gene 1 12 42 0.867297 0 89 0.867297 1
gene 1 12 43 0.904944 0 90 0.904944 1
gene 1 12 44 -4.14065 0 91 -4.14065 1
gene 1 12 45 0.623762 0 92 0.623762 1
gene 1 12 46 3.94384 0 93 3.94384 1
gene 1 12 47 2.19625 0 94 2.19625 1
gene 1 12 48 -0.580704 0 95 -0.580704 1
gene 1 12 49 0.633604 0 96 0.633604 1
gene 1 13 42 1.04363 0 97 1.04363 1
gene 1 13 43 -0.79865 0 98 -0.79865 1
gene 1 13 44 0.992633 0 99 0.992633 1
gene 1 13 45 -0.655693 0 100 -0.655693 1
gene 1 13 46 1.59293 0 101 1.59293 1
gene 1 13 47 2.89957 0 102 2.89957 1
gene 1 13 48 2.53162 0 103 2.53162 1
gene 1 13 49 -2.27042 0 104 -2.27042 1
gene 1 14 42 -0.680328 0 105 -0.680328 1
gene 1 14 43 -0.414344 0 106 -0.414344 1
gene 1 14 44 -0.505597 0 107 -0.505597 1
gene 1 14 45 2.33936 0 108 2.33936 1
gene 1 14 46 3.5847 0 109 3.5847 1
gene 1 14 47 -3.56382 0 110 -3.56382 1
gene 1 14 48 0.607708 0 111 0.607708 1
gene 1 14 49 0.111143 0 112 0.111143 1
gene 1 15 42 1.34387 0 113 1.34387 1
gene 1 15 43 -1.74524 0 114 -1.74524 1
gene 1 15 44 1.03328 0 115 1.03328 1
gene 1 15 45 0.808573 0 116 0.808573 1
gene 1 15 46 -0.014754 0 117 -0.014754 1
gene 1 15 47 1.0535 0 118 1.0535 1
gene 1 15 48 0.846065 0 119 0.846065 1
gene 1 15 49 -2.16188 0 120 -2.16188 1
gene 1 16 42 1.9766 0 121 1.9766 1
gene 1 16 43 -0.409154 0 122 -0.409154 1
gene 1 16 44 -0.501976 0 123 -0.501976 1
gene 1 16 45 -0.161573 0 124 -0.161573 1
gene 1 16 46 -0.850713 0 125 -0.850713 1
gene 1 16 47 -3.96101 0 126 -3.96101 1
gene 1 16 48 -1.34506 0 127 -1.34506 1
gene 1 16 49 3.17978 0 128 3.17978 1
gene 1 17 42 -3.4578 0 129 -3.4578 1
gene 1 17 43 1.03793 0 130 1.03793 1
gene 1 17 44 3.93866 0 131 3.93866 1
gene 1 17 45 -2.39607 0 132 -2.39607 1
gene 1 17 46 1.12986 0 133 1.12986 1
gene 1 17 47 -2.47482 0 134 -2.47482 1
gene 1 17 48 -0.410956 0 135 -0.410956 1
gene 1 17 49 0.770181 0 136 0.770181 1
gene 1 18 42 1.06299 0 137 1.06299 1
gene 1 18 43 -0.99409 0 138 -0.99409 1
gene 1 18 44 0.784523 0 139 0.784523 1
gene 1 18 45 -1.44645 0 140 -1.44645 1
gene 1 18 46 -2.46179 0 141 -2.46179 1
gene 1 18 47 -1.63574 0 142 -1.63574 1
gene 1 18 48 -2.03219 0 143 -2.03219 1
gene 1 18 49 4.03239 0 144 4.03239 1
gene 1 19 42 2.98015 0 145 2.98015 1
gene 1 19 43 -2.0425 0 146 -2.0425 1
gene 1 19 44 -1.35739 0 147 -1.35739 1
gene 1 19 45 0.608955 0 148 0.608955 1
gene 1 19 46 0.220662 0 149 0.220662 1
gene 1 19 47 3.29281 0 150 3.29281 1
gene 1 19 48 -3.59392 0 151 -3.59392 1
gene 1 19 49 0.0572512 0 152 0.0572512 1
gene 1 20 42 -2.41661 0 153 -2.41661 1
gene 1 20 43 0.415488 0 154 0.415488 1
gene 1 20 44 3.11202 0 155 3.11202 1
gene 1 20 45 0.306009 0 156 0.306009 1
gene 1 20 46 2.05943 0 157 2.05943 1
gene 1 20 47 -0.98934 0 158 -0.98934 1
gene 1 20 48 4.76494 0 159 4.76494 1
gene 1 20 49 -0.958527 0 160 -0.958527 1
gene 1 21 42 -1.11853 0 161 -1.11853 1
gene 1 21 43 -4.40873 0 162 -4.40873 1
gene 1 21 44 -2.50952 0 163 -2.50952 1
gene 1 21 45 1.87197 0 164 1.87197 1
gene 1 21 46 2.2579 0 165 2.2579 1
gene 1 21 47 2.74767 0 166 2.74767 1
gene 1 21 48 0.722937 0 167 0.722937 1
gene 1 21 49 1.91878 0 168 1.91878 1
gene 1 22 42 1.84884 0 169 1.84884 1
gene 1 22 43 5 0 170 5 1
gene 1 22 44 1.49483 0 171 1.49483 1
gene 1 22 45 1.11269 0 172 1.11269 1
gene 1 22 46 -0.186032 0 173 -0.186032 1
gene 1 22 47 1.04053 0 174 1.04053 1
gene 1 22 48 2.52197 0 175 2.52197 1
gene 1 22 49 1.74361 0 176 1.74361 1
gene 1 23 42 1.38396 0 177 1.38396 1
gene 1 23 43 4.3037 0 178 4.3037 1
gene 1 23 44 -2.19293 0 179 -2.19293 1
gene 1 23 45 -0.763143 0 180 -0.763143 1
gene 1 23 46 -0.813004 0 181 -0.813004 1
gene 1 23 47 1.41014 0 182 1.41014 1
gene 1 23 48 -0.313819 0 183 -0.313819 1
gene 1 23 49 -1.11263 0 184 -1.11263 1
gene 1 24 42 2.51067 0 185 2.51067 1
gene 1 24 43 -1.24456 0 186 -1.24456 1
gene 1 24 44 -2.56106 0 187 -2.56106 1
gene 1 24 45 1.59086 0 188 1.59086 1
gene 1 24 46 -1.63162 0 189 -1.63162 1
gene 1 24 47 1.75742 0 190 1.75742 1
gene 1 24 48 1.78367 0 191 1.78367 1
gene 1 24 49 -0.335689 0 192 -0.335689 1
gene 1 25 42 1.87962 0 193 1.87962 1
gene 1 25 43 0.525356 0 194 0.525356 1
gene 1 25 44 0.501636 0 195 0.501636 1
gene 1 25 45 0.864815 0 196 0.864815 1
gene 1 25 46 0.205235 0 197 0.205235 1
gene 1 25 47 -1.22677 0 198 -1.22677 1
gene 1 25 48 -1.44227 0 199 -1.44227 1
gene 1 25 49 -0.520321 0 200 -0.520321 1
gene 1 26 42 1.69197 0 201 1.69197 1
gene 1 26 43 -0.330881 0 202 -0.330881 1
gene 1 26 44 -0.550983 0 203 -0.550983 1
gene 1 26 45 0.107786 0 204 0.107786 1
gene 1 26 46 1.18302 0 205 1.18302 1
gene 1 26 47 -1.32759 0 206 -1.32759 1
gene 1 26 48 0.623532 0 207 0.623532 1
gene 1 26 49 2.64841 0 208 2.64841 1
gene 1 27 42 -2.94959 0 209 -2.94959 1
gene 1 27 43 0.179343 0 210 0.179343 1
gene 1 27 44 0.411668 0 211 0.411668 1
gene 1 27 45 0.0761319 0 212 0.0761319 1
gene 1 27 46 -0.33534 0 213 -0.33534 1
gene 1 27 47 2.59756 0 214 2.59756 1
gene 1 27 48 1.35436 0 215 1.35436 1
gene 1 27 49 0.636971 0 216 0.636971 1
gene 1 28 42 4.91296 0 217 4.91296 1
gene 1 28 43 -0.377373 0 218 -0.377373 1
gene 1 28 44 -1.96382 0 219 -1.96382 1
gene 1 28 45 -2.27224 0 220 -2.27224 1
gene 1 28 46 1.7154 0 221 1.7154 1
gene 1 28 47 1.83373 0 222 1.83373 1
gene 1 28 48 -1.50221 0 223 -1.50221 1
gene 1 28 49 -1.20711 0 224 -1.20711 1
gene 1 29 42 0.796302 0 225 0.796302 1
gene 1 29 43 -4.49172 0 226 -4.49172 1
gene 1 29 44 2.85058 0 227 2.85058 1
gene 1 29 45 -2.84876 0 228 -2.84876 1
gene 1 29 46 -2.35151 0 229 -2.35151 1
gene 1 29 47 -1.63005 0 230 -1.63005 1
gene 1 29 48 -0.454329 0 231 -0.454329 1
gene 1 29 49 0.062276 0 232 0.062276 1
gene 1 30 42 -2.43041 0 233 -2.43041 1
gene 1 30 43 -0.964989 0 234 -0.964989 1
gene 1 30 44 1.38448 0 235 1.38448 1
gene 1 30 45 -3.53777 0 236 -3.53777 1
gene 1 30 46 -1.22526 0 237 -1.22526 1
gene 1 30 47 -0.151364 0 238 -0.151364 1
gene 1 30 48 0.926772 0 239 0.926772 1
gene 1 30 49 -2.67004 0 240 -2.67004 1
gene 1 31 42 2.65787 0 241 2.65787 1
gene 1 31 43 -0.159243 0 242 -0.159243 1
gene 1 31 44 0.681297 0 243 0.681297 1
gene 1 31 45 0.61293 0 244 0.61293 1
gene 1 31 46 -0.949 0 245 -0.949 1
gene 1 31 47 1.0121 0 246 1.0121 1
gene 1 31 48 -0.0715845 0 247 -0.0715845 1
gene 1 31 49 -1.36183 0 248 -1.36183 1
gene 1 32 42 -0.287668 0 249 -0.287668 1
gene 1 32 43 0.463006 0 250 0.463006 1
gene 1 32 44 0.544972 0 251 0.544972 1
gene 1 32 45 2.02978 0 252 2.02978 1
gene 1 32 46 2.37328 0 253 2.37328 1
gene 1 32 47 -0.0505145 0 254 -0.0505145 1
gene 1 32 48 -0.674401 0 255 -0.674401 1
gene 1 32 49 -0.747734 0 256 -0.747734 1
gene 1 33 42 -1.24207 0 257 -1.24207 1
gene 1 33 43 0.550268 0 258 0.550268 1
gene 1 33 44 -4.61878 0 259 -4.61878 1
gene 1 33 45 0.205023 0 260 0.205023 1
gene 1 33 46 0.991611 0 261 0.991611 1
gene 1 33 47 -1.87317 0 262 -1.87317 1
gene 1 33 48 -3.89133 0 263 -3.89133 1
gene 1 33 49 0.908543 0 264 0.908543 1
gene 1 34 42 -0.307559 0 265 -0.307559 1
gene 1 34 43 -0.751976 0 266 -0.751976 1
gene 1 34 44 0.363736 0 267 0.363736 1
gene 1 34 45 0.255505 0 268 0.255505 1
gene 1 34 46 0.156568 0 269 0.156568 1
gene 1 34 47 2.21251 0 270 2.21251 1
gene 1 34 48 2.36732 0 271 2.36732 1
gene 1 34 49 0.518833 0 272 0.518833 1
gene 1 35 42 0.177422 0 273 0.177422 1
gene 1 35 43 -0.235809 0 274 -0.235809 1
gene 1 35 44 -0.21477 0 275 -0.21477 1
gene 1 35 45 -1.25734 0 276 -1.25734 1
gene 1 35 46 -1.93444 0 277 -1.93444 1
gene 1 35 47 -0.809776 0 278 -0.809776 1
gene 1 35 48 0.0529179 0 279 0.0529179 1
gene 1 35 49 0.164994 0 280 0.164994 1
gene 1 36 42 0.769822 0 281 0.769822 1
gene 1 36 43 0.135434 0 282 0.135434 1
gene 1 36 44 0.0120902 0 283 0.0120902 1
gene 1 36 45 -0.21971 0 284 -0.21971 1
gene 1 36 46 -1.03819 0 285 -1.03819 1
gene 1 36 47 -0.170572 0 286 -0.170572 1
gene 1 36 48 0.777824 0 287 0.777824 1
gene 1 36 49 -0.629685 0 288 -0.629685 1
gene 1 37 42 1.925 0 289 1.925 1
gene 1 37 43 -0.49888 0 290 -0.49888 1
gene 1 37 44 -1.02083 0 291 -1.02083 1
gene 1 37 45 -0.419678 0 292 -0.419678 1
gene 1 37 46 -1.06389 0 293 -1.06389 1
gene 1 37 47 0.291176 0 294 0.291176 1
gene 1 37 48 -3.92972 0 295 -3.92972 1
gene 1 37 49 -2.98183 0 296 -2.98183 1
gene 1 38 42 0.267032 0 297 0.267032 1
gene 1 38 43 0.761489 0 298 0.761489 1
gene 1 38 44 3.3609 0 299 3.3609 1
gene 1 38 45 -0.108514 0 300 -0.108514 1
gene 1 38 46 0.245581 0 301 0.245581 1
gene 1 38 47 -0.91745 0 302 -0.91745 1
gene 1 38 48 -0.166037 0 303 -0.166037 1
gene 1 38 49 0.616091 0 304 0.616091 1
gene 1 39 42 -0.973904 0 305 -0.973904 1
gene 1 39 43 2.00505 0 306 2.00505 1
gene 1 39 44 0.435893 0 307 0.435893 1
gene 1 39 45 -0.625422 0 308 -0.625422 1
gene 1 39 46 0.18532 0 309 0.18532 1
gene 1 39 47 -0.424407 0 310 -0.424407 1
gene 1 39 48 -2.35716 0 311 -2.35716 1
gene 1 39 49 0.144484 0 312 0.144484 1
gene 1 40 42 -1.30191 0 313 -1.30191 1
gene 1 40 43 0.558539 0 314 0.558539 1
gene 1 40 44 0.0438509 0 315 0.0438509 1
gene 1 40 45 0.641988 0 316 0.641988 1
gene 1 40 46 -0.530108 0 317 -0.530108 1
gene 1 40 47 1.58322 0 318 1.58322 1
gene 1 40 48 -0.53624 0 319 -0.53624 1
gene 1 40 49 -1.35732 0 320 -1.35732 1
gene 1 41 42 0.00944267 0 321 0.00944267 1
gene 1 41 43 0.550294 0 322 0.550294 1
gene 1 41 44 0.129334 0 323 0.129334 1
gene 1 41 45 1.57649 0 324 1.57649 1
gene 1 41 46 1.55034 0 325 1.55034 1
gene 1 41 47 0.0615544 0 326 0.0615544 1
gene 1 41 48 0.31154 0 327 0.31154 1
gene 1 41 49 -0.75072 0 328 -0.75072 1
genomeend 4


