/* Organism #0 Fitness: -5320.210000 Time: 0 */
genomestart 0
trait 1 0.100000 0.000000 0.311072 0.888299 0.000000 0.551931 0.203560 0.000000 
node 1 1 1 1
node 2 1 1 1
node 3 1 1 1
node 4 1 1 1
node 5 1 1 1
node 6 1 1 1
node 7 1 1 1
node 8 1 1 1
node 9 1 1 1
node 10 1 1 1
node 11 1 1 1
node 12 1 1 1
node 13 1 1 1
node 14 1 1 1
node 15 1 1 1
node 16 1 1 1
node 17 1 1 1
node 18 1 1 1
node 19 1 1 1
node 20 1 1 1
node 21 1 1 1
node 22 1 1 1
node 23 1 1 1
node 24 1 1 1
node 25 1 1 1
node 26 1 1 1
node 27 1 1 1
node 28 1 1 1
node 29 1 1 1
node 30 1 1 1
node 31 1 1 1
node 32 1 1 1
node 33 1 1 1
node 34 1 1 1
node 35 1 1 1
node 36 1 1 1
node 37 1 1 1
node 38 1 1 1
node 39 1 1 1
node 40 1 1 1
node 41 1 1 3
node 42 1 0 2
node 43 1 0 2
node 44 1 0 2
node 45 1 0 2
node 46 1 0 2
node 47 1 0 2
node 48 1 0 2
node 49 1 0 2
gene 1 1 42 1.04944 0 1 1.04944 1
gene 1 1 43 -0.297728 0 2 -0.297728 1
gene 1 1 44 0.0474161 0 3 0.0474161 1
gene 1 1 45 0.780996 0 4 0.780996 1
gene 1 1 46 -4.71321 0 5 -4.71321 1
gene 1 1 47 -0.681897 0 6 -0.681897 1
gene 1 1 48 -4.16949 0 7 -4.16949 1
gene 1 1 49 -2.09229 0 8 -2.09229 1
gene 1 2 42 0.683364 0 9 0.683364 1
gene 1 2 43 0.599411 0 10 0.599411 1
gene 1 2 44 1.16283 0 11 1.16283 1
gene 1 2 45 -2.90173 0 12 -2.90173 1
gene 1 2 46 -0.147122 0 13 -0.147122 1
gene 1 2 47 3.44259 0 14 3.44259 1
gene 1 2 48 -2.34702 0 15 -2.34702 1
gene 1 2 49 -3.30659 0 16 -3.30659 1
gene 1 3 42 -1.82319 0 17 -1.82319 1
gene 1 3 43 3.14545 0 18 3.14545 1
gene 1 3 44 1.70244 0 19 1.70244 1
gene 1 3 45 -3.85482 0 20 -3.85482 1
gene 1 3 46 1.34972 0 21 1.34972 1
gene 1 3 47 2.93185 0 22 2.93185 1
gene 1 3 48 1.62707 0 23 1.62707 1
gene 1 3 49 -4.04246 0 24 -4.04246 1
gene 1 4 42 -0.0383087 0 25 -0.0383087 1
gene 1 4 43 0.180893 0 26 0.180893 1
gene 1 4 44 -1.36134 0 27 -1.36134 1
gene 1 4 45 -3.34038 0 28 -3.34038 1
gene 1 4 46 2.6356 0 29 2.6356 1
gene 1 4 47 -5 0 30 -5 1
gene 1 4 48 0.043407 0 31 0.043407 1
gene 1 4 49 0.957537 0 32 0.957537 1
gene 1 5 42 1.81532 0 33 1.81532 1
gene 1 5 43 5 0 34 5 1
gene 1 5 44 -1.32243 0 35 -1.32243 1
gene 1 5 45 -2.18266 0 36 -2.18266 1
gene 1 5 46 -0.723626 0 37 -0.723626 1
gene 1 5 47 -3.04881 0 38 -3.04881 1
gene 1 5 48 -0.621125 0 39 -0.621125 1
gene 1 5 49 -1.99379 0 40 -1.99379 1
gene 1 6 42 2.21788 0 41 2.21788 1
gene 1 6 43 -1.94837 0 42 -1.94837 1
gene 1 6 44 -1.63682 0 43 -1.63682 1
gene 1 6 45 0.276805 0 44 0.276805 1
gene 1 6 46 -4.36742 0 45 -4.36742 1
gene 1 6 47 -0.234002 0 46 -0.234002 1
gene 1 6 48 1.02007 0 47 1.02007 1
gene 1 6 49 -5 0 48 -5 1
gene 1 7 42 0.543542 0 49 0.543542 1
gene 1 7 43 -0.267861 0 50 -0.267861 1
gene 1 7 44 -0.24479 0 51 -0.24479 1
gene 1 7 45 4.36196 0 52 4.36196 1
gene 1 7 46 0.383894 0 53 0.383894 1
gene 1 7 47 4.99916 0 54 4.99916 1
gene 1 7 48 -3.6181 0 55 -3.6181 1
gene 1 7 49 -2.19817 0 56 -2.19817 1
gene 1 8 42 1.41191 0 57 1.41191 1
gene 1 8 43 1.32195 0 58 1.32195 1
gene 1 8 44 -1.0469 0 59 -1.0469 1
gene 1 8 45 0.543893 0 60 0.543893 1
gene 1 8 46 -3.50255 0 61 -3.50255 1
gene 1 8 47 1.57795 0 62 1.57795 1
gene 1 8 48 4.61743 0 63 4.61743 1
gene 1 8 49 0.782922 0 64 0.782922 1
gene 1 9 42 -4.41818 0 65 -4.41818 1
gene 1 9 43 4.6727 0 66 4.6727 1
gene 1 9 44 0.454647 0 67 0.454647 1
gene 1 9 45 4.22554 0 68 4.22554 1
gene 1 9 46 -3.34323 0 69 -3.34323 1
gene 1 9 47 0.0843736 0 70 0.0843736 1
gene 1 9 48 -0.480879 0 71 -0.480879 1
gene 1 9 49 1.48432 0 72 1.48432 1
gene 1 10 42 3.76898 0 73 3.76898 1
gene 1 10 43 2.83223 0 74 2.83223 1
gene 1 10 44 -0.144368 0 75 -0.144368 1
gene 1 10 45 0.269336 0 76 0.269336 1
gene 1 10 46 -0.820032 0 77 -0.820032 1
gene 1 10 47 2.25795 0 78 2.25795 1
gene 1 10 48 -1.63722 0 79 -1.63722 1
gene 1 10 49 -1.03612 0 80 -1.03612 1
gene 1 11 42 -0.629186 0 81 -0.629186 1
gene 1 11 43 1.24223 0 82 1.24223 1
gene 1 11 44 -5 0 83 -5 1
gene 1 11 45 5 0 84 5 1
gene 1 11 46 1.992 0 85 1.992 1
gene 1 11 47 0.167179 0 86 0.167179 1
gene 1 11 48 4.14625 0 87 4.14625 1
gene 1 11 49 3.35017 0 88 3.35017 1
gene 1 12 42 0.81938 0 89 0.81938 1
gene 1 12 43 2.03717 0 90 2.03717 1
gene 1 12 44 0.0895958 0 91 0.0895958 1
gene 1 12 45 -2.01667 0 92 -2.01667 1
gene 1 12 46 -1.5215 0 93 -1.5215 1
gene 1 12 47 -0.865377 0 94 -0.865377 1
gene 1 12 48 -0.250957 0 95 -0.250957 1
gene 1 12 49 0.578771 0 96 0.578771 1
gene 1 13 42 0.840487 0 97 0.840487 1
gene 1 13 43 0.730409 0 98 0.730409 1
gene 1 13 44 3.47456 0 99 3.47456 1
gene 1 13 45 -0.978572 0 100 -0.978572 1
gene 1 13 46 -1.3579 0 101 -1.3579 1
gene 1 13 47 -1.62883 0 102 -1.62883 1
gene 1 13 48 0.464085 0 103 0.464085 1
gene 1 13 49 2.01094 0 104 2.01094 1
gene 1 14 42 0.410699 0 105 0.410699 1
gene 1 14 43 1.38784 0 106 1.38784 1
gene 1 14 44 0.0317184 0 107 0.0317184 1
gene 1 14 45 -0.448029 0 108 -0.448029 1
gene 1 14 46 -3.7986 0 109 -3.7986 1
gene 1 14 47 -2.58134 0 110 -2.58134 1
gene 1 14 48 -0.742811 0 111 -0.742811 1
gene 1 14 49 -0.51351 0 112 -0.51351 1
gene 1 15 42 -0.608018 0 113 -0.608018 1
gene 1 15 43 -0.157085 0 114 -0.157085 1
gene 1 15 44 0.898468 0 115 0.898468 1
gene 1 15 45 1.09312 0 116 1.09312 1
gene 1 15 46 1.08635 0 117 1.08635 1
gene 1 15 47 -1.41147 0 118 -1.41147 1
gene 1 15 48 -2.7002 0 119 -2.7002 1
gene 1 15 49 1.05563 0 120 1.05563 1
gene 1 16 42 0.297229 0 121 0.297229 1
gene 1 16 43 -0.892347 0 122 -0.892347 1
gene 1 16 44 0.760336 0 123 0.760336 1
gene 1 16 45 -1.28056 0 124 -1.28056 1
gene 1 16 46 -0.585902 0 125 -0.585902 1
gene 1 16 47 1.63874 0 126 1.63874 1
gene 1 16 48 -5 0 127 -5 1
gene 1 16 49 2.94236 0 128 2.94236 1
gene 1 17 42 -2.13397 0 129 -2.13397 1
gene 1 17 43 1.18622 0 130 1.18622 1
gene 1 17 44 0.372675 0 131 0.372675 1
gene 1 17 45 -0.22286 0 132 -0.22286 1
gene 1 17 46 -4.44292 0 133 -4.44292 1
gene 1 17 47 1.70585 0 134 1.70585 1
gene 1 17 48 0.845048 0 135 0.845048 1
gene 1 17 49 -1.16128 0 136 -1.16128 1
gene 1 18 42 1.00791 0 137 1.00791 1
gene 1 18 43 -3.35256 0 138 -3.35256 1
gene 1 18 44 0.719887 0 139 0.719887 1
gene 1 18 45 -2.04441 0 140 -2.04441 1
gene 1 18 46 -2.45176 0 141 -2.45176 1
gene 1 18 47 0.715114 0 142 0.715114 1
gene 1 18 48 0.844089 0 143 0.844089 1
gene 1 18 49 -1.59372 0 144 -1.59372 1
gene 1 19 42 3.58585 0 145 3.58585 1
gene 1 19 43 -0.0338875 0 146 -0.0338875 1
gene 1 19 44 -1.43429 0 147 -1.43429 1
gene 1 19 45 2.81595 0 148 2.81595 1
gene 1 19 46 0.118208 0 149 0.118208 1
gene 1 19 47 -0.460258 0 150 -0.460258 1
gene 1 19 48 1.5668 0 151 1.5668 1
gene 1 19 49 5 0 152 5 1
gene 1 20 42 0.0549244 0 153 0.0549244 1
gene 1 20 43 -1.19276 0 154 -1.19276 1
gene 1 20 44 -5 0 155 -5 1
gene 1 20 45 1.44837 0 156 1.44837 1
gene 1 20 46 3.10514 0 157 3.10514 1
gene 1 20 47 -2.90407 0 158 -2.90407 1
gene 1 20 48 -2.87376 0 159 -2.87376 1
gene 1 20 49 -1.82515 0 160 -1.82515 1
gene 1 21 42 3.19241 0 161 3.19241 1
gene 1 21 43 -2.82401 0 162 -2.82401 1
gene 1 21 44 2.28115 0 163 2.28115 1
gene 1 21 45 -2.5921 0 164 -2.5921 1
gene 1 21 46 -1.76924 0 165 -1.76924 1
gene 1 21 47 -0.641884 0 166 -0.641884 1
gene 1 21 48 0.0203958 0 167 0.0203958 1
gene 1 21 49 -0.982948 0 168 -0.982948 1
gene 1 22 42 3.24854 0 169 3.24854 1
gene 1 22 43 0.318209 0 170 0.318209 1
gene 1 22 44 -0.28962 0 171 -0.28962 1
gene 1 22 45 0.529487 0 172 0.529487 1
gene 1 22 46 -1.36312 0 173 -1.36312 1
gene 1 22 47 -2.30521 0 174 -2.30521 1
gene 1 22 48 -1.82585 0 175 -1.82585 1
gene 1 22 49 -3.71275 0 176 -3.71275 1
gene 1 23 42 -5 0 177 -5 1
gene 1 23 43 -1.19169 0 178 -1.19169 1
gene 1 23 44 3.20721 0 179 3.20721 1
gene 1 23 45 -4.8803 0 180 -4.8803 1
gene 1 23 46 -0.24137 0 181 -0.24137 1
gene 1 23 47 -2.12355 0 182 -2.12355 1
gene 1 23 48 -2.52008 0 183 -2.52008 1
gene 1 23 49 1.49319 0 184 1.49319 1
gene 1 24 42 -1.09236 0 185 -1.09236 1
gene 1 24 43 -2.32701 0 186 -2.32701 1
gene 1 24 44 5 0 187 5 1
gene 1 24 45 -4.19862 0 188 -4.19862 1
gene 1 24 46 0.467302 0 189 0.467302 1
gene 1 24 47 -4.52776 0 190 -4.52776 1
gene 1 24 48 1.20201 0 191 1.20201 1
gene 1 24 49 0.735228 0 192 0.735228 1
gene 1 25 42 0.383491 0 193 0.383491 1
gene 1 25 43 1.70146 0 194 1.70146 1
gene 1 25 44 -0.824856 0 195 -0.824856 1
gene 1 25 45 2.24438 0 196 2.24438 1
gene 1 25 46 -4.31179 0 197 -4.31179 1
gene 1 25 47 0.554893 0 198 0.554893 1
gene 1 25 48 -1.77529 0 199 -1.77529 1
gene 1 25 49 -1.62418 0 200 -1.62418 1
gene 1 26 42 -0.096854 0 201 -0.096854 1
gene 1 26 43 0.604296 0 202 0.604296 1
gene 1 26 44 0.500957 0 203 0.500957 1
gene 1 26 45 1.31605 0 204 1.31605 1
gene 1 26 46 1.97539 0 205 1.97539 1
gene 1 26 47 -0.28673 0 206 -0.28673 1
gene 1 26 48 -0.788925 0 207 -0.788925 1
gene 1 26 49 0.725182 0 208 0.725182 1
gene 1 27 42 -2.50051 0 209 -2.50051 1
gene 1 27 43 0.0903613 0 210 0.0903613 1
gene 1 27 44 3.66497 0 211 3.66497 1
gene 1 27 45 -0.385757 0 212 -0.385757 1
gene 1 27 46 -1.02807 0 213 -1.02807 1
gene 1 27 47 -2.31159 0 214 -2.31159 1
gene 1 27 48 2.41042 0 215 2.41042 1
gene 1 27 49 -1.76161 0 216 -1.76161 1
gene 1 28 42 -5 0 217 -5 1
gene 1 28 43 5 0 218 5 1
gene 1 28 44 0.910496 0 219 0.910496 1
gene 1 28 45 -3.53017 0 220 -3.53017 1
gene 1 28 46 -0.60197 0 221 -0.60197 1
gene 1 28 47 0.875838 0 222 0.875838 1
gene 1 28 48 0.456681 0 223 0.456681 1
gene 1 28 49 4.79455 0 224 4.79455 1
gene 1 29 42 1.45925 0 225 1.45925 1
gene 1 29 43 -3.3784 0 226 -3.3784 1
gene 1 29 44 -3.34344 0 227 -3.34344 1
gene 1 29 45 0.0604435 0 228 0.0604435 1
gene 1 29 46 2.10517 0 229 2.10517 1
gene 1 29 47 -1.26548 0 230 -1.26548 1
gene 1 29 48 4.68717 0 231 4.68717 1
gene 1 29 49 -0.85249 0 232 -0.85249 1
gene 1 30 42 -1.73478 0 233 -1.73478 1
gene 1 30 43 1.06452 0 234 1.06452 1
gene 1 30 44 2.24764 0 235 2.24764 1
gene 1 30 45 3.91511 0 236 3.91511 1
gene 1 30 46 -0.54479 0 237 -0.54479 1
gene 1 30 47 -2.42692 0 238 -2.42692 1
gene 1 30 48 1.73073 0 239 1.73073 1
gene 1 30 49 0.229987 0 240 0.229987 1
gene 1 31 42 -1.25644 0 241 -1.25644 1
gene 1 31 43 0.942458 0 242 0.942458 1
gene 1 31 44 -0.973724 0 243 -0.973724 1
gene 1 31 45 1.65742 0 244 1.65742 1
gene 1 31 46 1.54017 0 245 1.54017 1
gene 1 31 47 -2.44213 0 246 -2.44213 1
gene 1 31 48 -3.43118 0 247 -3.43118 1
gene 1 31 49 -0.424897 0 248 -0.424897 1
gene 1 32 42 -1.00716 0 249 -1.00716 1
gene 1 32 43 1.54356 0 250 1.54356 1
gene 1 32 44 1.1117 0 251 1.1117 1
gene 1 32 45 -0.611612 0 252 -0.611612 1
gene 1 32 46 4.10603 0 253 4.10603 1
gene 1 32 47 2.35117 0 254 2.35117 1
gene 1 32 48 -2.79314 0 255 -2.79314 1
gene 1 32 49 2.02342 0 256 2.02342 1
gene 1 33 42 3.42285 0 257 3.42285 1
gene 1 33 43 -0.885238 0 258 -0.885238 1
gene 1 33 44 2.64989 0 259 2.64989 1
gene 1 33 45 2.85539 0 260 2.85539 1
gene 1 33 46 -1.72383 0 261 -1.72383 1
gene 1 33 47 -1.5719 0 262 -1.5719 1
gene 1 33 48 2.50692 0 263 2.50692 1
gene 1 33 49 0.722364 0 264 0.722364 1
gene 1 34 42 -1.13393 0 265 -1.13393 1
gene 1 34 43 1.93556 0 266 1.93556 1
gene 1 34 44 0.962981 0 267 0.962981 1
gene 1 34 45 0.226223 0 268 0.226223 1
gene 1 34 46 3.02978 0 269 3.02978 1
gene 1 34 47 -0.33247 0 270 -0.33247 1
gene 1 34 48 1.29868 0 271 1.29868 1
gene 1 34 49 -0.874284 0 272 -0.874284 1
gene 1 35 42 2.18004 0 273 2.18004 1
gene 1 35 43 -1.59924 0 274 -1.59924 1
gene 1 35 44 0.875483 0 275 0.875483 1
gene 1 35 45 0.335763 0 276 0.335763 1
gene 1 35 46 0.357715 0 277 0.357715 1
gene 1 35 47 0.814423 0 278 0.814423 1
gene 1 35 48 0.513747 0 279 0.513747 1
gene 1 35 49 -0.798238 0 280 -0.798238 1
gene 1 36 42 0.0360744 0 281 0.0360744 1
gene 1 36 43 -1.4488 0 282 -1.4488 1
gene 1 36 44 -0.822331 0 283 -0.822331 1
gene 1 36 45 0.812502 0 284 0.812502 1
gene 1 36 46 -1.53881 0 285 -1.53881 1
gene 1 36 47 1.51687 0 286 1.51687 1
gene 1 36 48 1.00301 0 287 1.00301 1
gene 1 36 49 1.37155 0 288 1.37155 1
gene 1 37 42 0.00137415 0 289 0.00137415 1
gene 1 37 43 -0.0270607 0 290 -0.0270607 1
gene 1 37 44 0.659183 0 291 0.659183 1
gene 1 37 45 -0.514139 0 292 -0.514139 1
gene 1 37 46 0.123665 0 293 0.123665 1
gene 1 37 47 -0.794999 0 294 -0.794999 1
gene 1 37 48 0.726961 0 295 0.726961 1
gene 1 37 49 -0.247218 0 296 -0.247218 1
gene 1 38 42 0.521339 0 297 0.521339 1
gene 1 38 43 1.39583 0 298 1.39583 1
gene 1 38 44 0.0356243 0 299 0.0356243 1
gene 1 38 45 -1.06019 0 300 -1.06019 1
gene 1 38 46 0.323398 0 301 0.323398 1
gene 1 38 47 -1.45147 0 302 -1.45147 1
gene 1 38 48 0.728174 0 303 0.728174 1
gene 1 38 49 -1.34231 0 304 -1.34231 1
gene 1 39 42 1.32223 0 305 1.32223 1
gene 1 39 43 -0.710597 0 306 -0.710597 1
gene 1 39 44 -2.52896 0 307 -2.52896 1
gene 1 39 45 -0.961339 0 308 -0.961339 1
gene 1 39 46 1.43156 0 309 1.43156 1
gene 1 39 47 -1.61124 0 310 -1.61124 1
gene 1 39 48 -0.170062 0 311 -0.170062 1
gene 1 39 49 0.67285 0 312 0.67285 1
gene 1 40 42 0.531269 0 313 0.531269 1
gene 1 40 43 -1.50338 0 314 -1.50338 1
gene 1 40 44 -0.0156104 0 315 -0.0156104 1
gene 1 40 45 -0.983309 0 316 -0.983309 1
gene 1 40 46 -0.717021 0 317 -0.717021 1
gene 1 40 47 -0.884912 0 318 -0.884912 1
gene 1 40 48 1.95834 0 319 1.95834 1
gene 1 40 49 -2.00909 0 320 -2.00909 1
gene 1 41 42 -0.957271 0 321 -0.957271 1
gene 1 41 43 0.173202 0 322 0.173202 1
gene 1 41 44 0.0512527 0 323 0.0512527 1
gene 1 41 45 0.329375 0 324 0.329375 1
gene 1 41 46 -1.07337 0 325 -1.07337 1
gene 1 41 47 0.552682 0 326 0.552682 1
gene 1 41 48 1.55563 0 327 1.55563 1
gene 1 41 49 -0.899152 0 328 -0.899152 1
genomeend 0


