/* Organism #9 Fitness: -5693.950000 Time: 0 */
genomestart 9
trait 1 0.100000 0.000000 0.000000 0.000000 0.000000 0.000000 0.000000 0.000000 
node 1 1 1 1
node 2 1 1 1
node 3 1 1 1
node 4 1 1 1
node 5 1 1 1
node 6 1 1 1
node 7 1 1 1
node 8 1 1 1
node 9 1 1 1
node 10 1 1 1
node 11 1 1 1
node 12 1 1 1
node 13 1 1 1
node 14 1 1 1
node 15 1 1 1
node 16 1 1 1
node 17 1 1 1
node 18 1 1 1
node 19 1 1 1
node 20 1 1 1
node 21 1 1 1
node 22 1 1 1
node 23 1 1 1
node 24 1 1 1
node 25 1 1 1
node 26 1 1 1
node 27 1 1 1
node 28 1 1 1
node 29 1 1 1
node 30 1 1 1
node 31 1 1 1
node 32 1 1 1
node 33 1 1 1
node 34 1 1 1
node 35 1 1 1
node 36 1 1 1
node 37 1 1 1
node 38 1 1 1
node 39 1 1 1
node 40 1 1 1
node 41 1 1 3
node 42 1 0 2
node 43 1 0 2
node 44 1 0 2
node 45 1 0 2
node 46 1 0 2
node 47 1 0 2
node 48 1 0 2
node 49 1 0 2
gene 1 1 42 -4.10869 0 1 -4.10869 1
gene 1 1 43 -1.13187 0 2 -1.13187 1
gene 1 1 44 -1.03512 0 3 -1.03512 1
gene 1 1 45 -0.466379 0 4 -0.466379 1
gene 1 1 46 -2.62416 0 5 -2.62416 1
gene 1 1 47 2.98505 0 6 2.98505 1
gene 1 1 48 -2.08075 0 7 -2.08075 1
gene 1 1 49 -2.12369 0 8 -2.12369 1
gene 1 2 42 -1.51377 0 9 -1.51377 1
gene 1 2 43 0.881878 0 10 0.881878 1
gene 1 2 44 0.89314 0 11 0.89314 1
gene 1 2 45 1.26834 0 12 1.26834 1
gene 1 2 46 -0.983155 0 13 -0.983155 1
gene 1 2 47 1.50415 0 14 1.50415 1
gene 1 2 48 -0.640214 0 15 -0.640214 1
gene 1 2 49 -0.615779 0 16 -0.615779 1
gene 1 3 42 -3.7235 0 17 -3.7235 1
gene 1 3 43 0.503653 0 18 0.503653 1
gene 1 3 44 2.64692 0 19 2.64692 1
gene 1 3 45 -0.00970392 0 20 -0.00970392 1
gene 1 3 46 1.23028 0 21 1.23028 1
gene 1 3 47 0.714526 0 22 0.714526 1
gene 1 3 48 3.68562 0 23 3.68562 1
gene 1 3 49 1.71488 0 24 1.71488 1
gene 1 4 42 1.47099 0 25 1.47099 1
gene 1 4 43 -0.382549 0 26 -0.382549 1
gene 1 4 44 -1.84907 0 27 -1.84907 1
gene 1 4 45 -3.1567 0 28 -3.1567 1
gene 1 4 46 -1.88825 0 29 -1.88825 1
gene 1 4 47 1.66877 0 30 1.66877 1
gene 1 4 48 3.98087 0 31 3.98087 1
gene 1 4 49 5 0 32 5 1
gene 1 5 42 0.271664 0 33 0.271664 1
gene 1 5 43 -1.44455 0 34 -1.44455 1
gene 1 5 44 -3.60676 0 35 -3.60676 1
gene 1 5 45 -1.81253 0 36 -1.81253 1
gene 1 5 46 -3.47378 0 37 -3.47378 1
gene 1 5 47 -1.13399 0 38 -1.13399 1
gene 1 5 48 -2.30483 0 39 -2.30483 1
gene 1 5 49 -2.45331 0 40 -2.45331 1
gene 1 6 42 -1.20944 0 41 -1.20944 1
gene 1 6 43 -0.736371 0 42 -0.736371 1
gene 1 6 44 2.53065 0 43 2.53065 1
gene 1 6 45 -1.00439 0 44 -1.00439 1
gene 1 6 46 -4.39086 0 45 -4.39086 1
gene 1 6 47 -0.212485 0 46 -0.212485 1
gene 1 6 48 4.15718 0 47 4.15718 1
gene 1 6 49 5 0 48 5 1
gene 1 7 42 1.21202 0 49 1.21202 1
gene 1 7 43 -0.570078 0 50 -0.570078 1
gene 1 7 44 2.05076 0 51 2.05076 1
gene 1 7 45 -1.27174 0 52 -1.27174 1
gene 1 7 46 -0.14636 0 53 -0.14636 1
gene 1 7 47 2.60905 0 54 2.60905 1
gene 1 7 48 5 0 55 5 1
gene 1 7 49 2.78973 0 56 2.78973 1
gene 1 8 42 1.71922 0 57 1.71922 1
gene 1 8 43 -3.71644 0 58 -3.71644 1
gene 1 8 44 0.381734 0 59 0.381734 1
gene 1 8 45 0.917297 0 60 0.917297 1
gene 1 8 46 -4.07124 0 61 -4.07124 1
gene 1 8 47 0.398209 0 62 0.398209 1
gene 1 8 48 -0.373752 0 63 -0.373752 1
gene 1 8 49 -0.650272 0 64 -0.650272 1
gene 1 9 42 1.47196 0 65 1.47196 1
gene 1 9 43 -0.742992 0 66 -0.742992 1
gene 1 9 44 -1.7694 0 67 -1.7694 1
gene 1 9 45 0.608524 0 68 0.608524 1
gene 1 9 46 -1.24967 0 69 -1.24967 1
gene 1 9 47 2.58763 0 70 2.58763 1
gene 1 9 48 -2.94405 0 71 -2.94405 1
gene 1 9 49 -2.13646 0 72 -2.13646 1
gene 1 10 42 -4.23128 0 73 -4.23128 1
gene 1 10 43 1.69079 0 74 1.69079 1
gene 1 10 44 -1.71244 0 75 -1.71244 1
gene 1 10 45 3.17119 0 76 3.17119 1
gene 1 10 46 0.947884 0 77 0.947884 1
gene 1 10 47 0.219104 0 78 0.219104 1
gene 1 10 48 -0.517836 0 79 -0.517836 1
gene 1 10 49 -1.43483 0 80 -1.43483 1
gene 1 11 42 -1.17581 0 81 -1.17581 1
gene 1 11 43 1.84134 0 82 1.84134 1
gene 1 11 44 -2.85591 0 83 -2.85591 1
gene 1 11 45 -0.498227 0 84 -0.498227 1
gene 1 11 46 -5 0 85 -5 1
gene 1 11 47 2.96274 0 86 2.96274 1
gene 1 11 48 2.34336 0 87 2.34336 1
gene 1 11 49 0.612452 0 88 0.612452 1
gene 1 12 42 -1.90462 0 89 -1.90462 1
gene 1 12 43 -2.22703 0 90 -2.22703 1
gene 1 12 44 0.352377 0 91 0.352377 1
gene 1 12 45 -0.183612 0 92 -0.183612 1
gene 1 12 46 2.22798 0 93 2.22798 1
gene 1 12 47 -0.274989 0 94 -0.274989 1
gene 1 12 48 0.213667 0 95 0.213667 1
gene 1 12 49 3.24471 0 96 3.24471 1
gene 1 13 42 0.121535 0 97 0.121535 1
gene 1 13 43 4.54007 0 98 4.54007 1
gene 1 13 44 1.0129 0 99 1.0129 1
gene 1 13 45 -1.07965 0 100 -1.07965 1
gene 1 13 46 0.000598065 0 101 0.000598065 1
gene 1 13 47 1.04101 0 102 1.04101 1
gene 1 13 48 -1.025 0 103 -1.025 1
gene 1 13 49 2.09785 0 104 2.09785 1
gene 1 14 42 -1.57401 0 105 -1.57401 1
gene 1 14 43 -1.93391 0 106 -1.93391 1
gene 1 14 44 -0.158249 0 107 -0.158249 1
gene 1 14 45 -0.48814 0 108 -0.48814 1
gene 1 14 46 0.830623 0 109 0.830623 1
gene 1 14 47 -1.05611 0 110 -1.05611 1
gene 1 14 48 -0.302678 0 111 -0.302678 1
gene 1 14 49 0.29651 0 112 0.29651 1
gene 1 15 42 -2.19976 0 113 -2.19976 1
gene 1 15 43 0.430052 0 114 0.430052 1
gene 1 15 44 0.0528209 0 115 0.0528209 1
gene 1 15 45 -3.01226 0 116 -3.01226 1
gene 1 15 46 -3.27472 0 117 -3.27472 1
gene 1 15 47 -0.0298169 0 118 -0.0298169 1
gene 1 15 48 2.38119 0 119 2.38119 1
gene 1 15 49 0.247539 0 120 0.247539 1
gene 1 16 42 0.329424 0 121 0.329424 1
gene 1 16 43 3.69144 0 122 3.69144 1
gene 1 16 44 -0.434522 0 123 -0.434522 1
gene 1 16 45 -1.08074 0 124 -1.08074 1
gene 1 16 46 -2.40399 0 125 -2.40399 1
gene 1 16 47 0.159109 0 126 0.159109 1
gene 1 16 48 2.03887 0 127 2.03887 1
gene 1 16 49 0.582263 0 128 0.582263 1
gene 1 17 42 -1.42189 0 129 -1.42189 1
gene 1 17 43 1.83962 0 130 1.83962 1
gene 1 17 44 -0.0988907 0 131 -0.0988907 1
gene 1 17 45 3.49506 0 132 3.49506 1
gene 1 17 46 -0.874798 0 133 -0.874798 1
gene 1 17 47 -5 0 134 -5 1
gene 1 17 48 -3.2136 0 135 -3.2136 1
gene 1 17 49 3.87941 0 136 3.87941 1
gene 1 18 42 -1.80697 0 137 -1.80697 1
gene 1 18 43 2.85793 0 138 2.85793 1
gene 1 18 44 0.12794 0 139 0.12794 1
gene 1 18 45 -0.426302 0 140 -0.426302 1
gene 1 18 46 1.68842 0 141 1.68842 1
gene 1 18 47 1.51147 0 142 1.51147 1
gene 1 18 48 0.781118 0 143 0.781118 1
gene 1 18 49 -2.07616 0 144 -2.07616 1
gene 1 19 42 -0.380383 0 145 -0.380383 1
gene 1 19 43 4.16956 0 146 4.16956 1
gene 1 19 44 -1.229 0 147 -1.229 1
gene 1 19 45 -1.41596 0 148 -1.41596 1
gene 1 19 46 2.92244 0 149 2.92244 1
gene 1 19 47 -1.08346 0 150 -1.08346 1
gene 1 19 48 0.142081 0 151 0.142081 1
gene 1 19 49 0.423927 0 152 0.423927 1
gene 1 20 42 -2.61574 0 153 -2.61574 1
gene 1 20 43 4.1197 0 154 4.1197 1
gene 1 20 44 -0.171349 0 155 -0.171349 1
gene 1 20 45 5 0 156 5 1
gene 1 20 46 -0.94859 0 157 -0.94859 1
gene 1 20 47 -2.0265 0 158 -2.0265 1
gene 1 20 48 0.210821 0 159 0.210821 1
gene 1 20 49 3.48908 0 160 3.48908 1
gene 1 21 42 3.30439 0 161 3.30439 1
gene 1 21 43 0.742497 0 162 0.742497 1
gene 1 21 44 5 0 163 5 1
gene 1 21 45 -5 0 164 -5 1
gene 1 21 46 1.80922 0 165 1.80922 1
gene 1 21 47 -2.16833 0 166 -2.16833 1
gene 1 21 48 -4.89813 0 167 -4.89813 1
gene 1 21 49 -0.719085 0 168 -0.719085 1
gene 1 22 42 0.855668 0 169 0.855668 1
gene 1 22 43 -0.0168023 0 170 -0.0168023 1
gene 1 22 44 -1.15967 0 171 -1.15967 1
gene 1 22 45 0.085272 0 172 0.085272 1
gene 1 22 46 0.0149564 0 173 0.0149564 1
gene 1 22 47 2.19516 0 174 2.19516 1
gene 1 22 48 -0.178156 0 175 -0.178156 1
gene 1 22 49 -0.423096 0 176 -0.423096 1
gene 1 23 42 -1.27124 0 177 -1.27124 1
gene 1 23 43 -1.40479 0 178 -1.40479 1
gene 1 23 44 0.432763 0 179 0.432763 1
gene 1 23 45 -0.952958 0 180 -0.952958 1
gene 1 23 46 2.92467 0 181 2.92467 1
gene 1 23 47 0.0343047 0 182 0.0343047 1
gene 1 23 48 -0.235929 0 183 -0.235929 1
gene 1 23 49 2.56699 0 184 2.56699 1
gene 1 24 42 -0.0649625 0 185 -0.0649625 1
gene 1 24 43 -3.148 0 186 -3.148 1
gene 1 24 44 2.6689 0 187 2.6689 1
gene 1 24 45 -5 0 188 -5 1
gene 1 24 46 2.6226 0 189 2.6226 1
gene 1 24 47 -3.58946 0 190 -3.58946 1
gene 1 24 48 2.39461 0 191 2.39461 1
gene 1 24 49 -2.51984 0 192 -2.51984 1
gene 1 25 42 -0.380278 0 193 -0.380278 1
gene 1 25 43 0.701643 0 194 0.701643 1
gene 1 25 44 1.36019 0 195 1.36019 1
gene 1 25 45 1.82499 0 196 1.82499 1
gene 1 25 46 -2.40193 0 197 -2.40193 1
gene 1 25 47 0.195371 0 198 0.195371 1
gene 1 25 48 1.0684 0 199 1.0684 1
gene 1 25 49 1.29027 0 200 1.29027 1
gene 1 26 42 -0.944474 0 201 -0.944474 1
gene 1 26 43 -1.452 0 202 -1.452 1
gene 1 26 44 -0.539627 0 203 -0.539627 1
gene 1 26 45 -0.80496 0 204 -0.80496 1
gene 1 26 46 -2.50766 0 205 -2.50766 1
gene 1 26 47 0.939329 0 206 0.939329 1
gene 1 26 48 -4.7428 0 207 -4.7428 1
gene 1 26 49 -1.17346 0 208 -1.17346 1
gene 1 27 42 -1.68623 0 209 -1.68623 1
gene 1 27 43 -0.139912 0 210 -0.139912 1
gene 1 27 44 0.492281 0 211 0.492281 1
gene 1 27 45 -0.588458 0 212 -0.588458 1
gene 1 27 46 -0.293613 0 213 -0.293613 1
gene 1 27 47 -1.23948 0 214 -1.23948 1
gene 1 27 48 -0.716783 0 215 -0.716783 1
gene 1 27 49 1.85872 0 216 1.85872 1
gene 1 28 42 1.72372 0 217 1.72372 1
gene 1 28 43 0.13985 0 218 0.13985 1
gene 1 28 44 0.840578 0 219 0.840578 1
gene 1 28 45 0.689095 0 220 0.689095 1
gene 1 28 46 -0.604843 0 221 -0.604843 1
gene 1 28 47 0.107927 0 222 0.107927 1
gene 1 28 48 -4.18149 0 223 -4.18149 1
gene 1 28 49 -3.51962 0 224 -3.51962 1
gene 1 29 42 1.52443 0 225 1.52443 1
gene 1 29 43 0.0495496 0 226 0.0495496 1
gene 1 29 44 5 0 227 5 1
gene 1 29 45 -5 0 228 -5 1
gene 1 29 46 -0.572703 0 229 -0.572703 1
gene 1 29 47 -1.96383 0 230 -1.96383 1
gene 1 29 48 0.116948 0 231 0.116948 1
gene 1 29 49 -1.00713 0 232 -1.00713 1
gene 1 30 42 2.36744 0 233 2.36744 1
gene 1 30 43 2.33041 0 234 2.33041 1
gene 1 30 44 2.57905 0 235 2.57905 1
gene 1 30 45 -0.0268626 0 236 -0.0268626 1
gene 1 30 46 1.196 0 237 1.196 1
gene 1 30 47 0.34553 0 238 0.34553 1
gene 1 30 48 1.74023 0 239 1.74023 1
gene 1 30 49 1.42907 0 240 1.42907 1
gene 1 31 42 -0.777423 0 241 -0.777423 1
gene 1 31 43 4.83826 0 242 4.83826 1
gene 1 31 44 2.19753 0 243 2.19753 1
gene 1 31 45 2.01225 0 244 2.01225 1
gene 1 31 46 -0.342788 0 245 -0.342788 1
gene 1 31 47 -1.46754 0 246 -1.46754 1
gene 1 31 48 -0.00718794 0 247 -0.00718794 1
gene 1 31 49 -0.489183 0 248 -0.489183 1
gene 1 32 42 2.74576 0 249 2.74576 1
gene 1 32 43 1.37396 0 250 1.37396 1
gene 1 32 44 -1.5831 0 251 -1.5831 1
gene 1 32 45 3.39731 0 252 3.39731 1
gene 1 32 46 0.735044 0 253 0.735044 1
gene 1 32 47 4.50577 0 254 4.50577 1
gene 1 32 48 1.27971 0 255 1.27971 1
gene 1 32 49 1.6858 0 256 1.6858 1
gene 1 33 42 3.82142 0 257 3.82142 1
gene 1 33 43 1.04155 0 258 1.04155 1
gene 1 33 44 -0.15948 0 259 -0.15948 1
gene 1 33 45 -1.89853 0 260 -1.89853 1
gene 1 33 46 2.94818 0 261 2.94818 1
gene 1 33 47 -1.54432 0 262 -1.54432 1
gene 1 33 48 -0.239768 0 263 -0.239768 1
gene 1 33 49 -1.36675 0 264 -1.36675 1
gene 1 34 42 0.405213 0 265 0.405213 1
gene 1 34 43 0.202347 0 266 0.202347 1
gene 1 34 44 -1.72206 0 267 -1.72206 1
gene 1 34 45 -0.109714 0 268 -0.109714 1
gene 1 34 46 -0.331143 0 269 -0.331143 1
gene 1 34 47 0.253029 0 270 0.253029 1
gene 1 34 48 0.336077 0 271 0.336077 1
gene 1 34 49 -0.299655 0 272 -0.299655 1
gene 1 35 42 -0.511951 0 273 -0.511951 1
gene 1 35 43 -0.576863 0 274 -0.576863 1
gene 1 35 44 0.0713009 0 275 0.0713009 1
gene 1 35 45 -0.0803737 0 276 -0.0803737 1
gene 1 35 46 0.398434 0 277 0.398434 1
gene 1 35 47 0.982339 0 278 0.982339 1
gene 1 35 48 -0.644396 0 279 -0.644396 1
gene 1 35 49 -0.0344363 0 280 -0.0344363 1
gene 1 36 42 0.607515 0 281 0.607515 1
gene 1 36 43 -0.802261 0 282 -0.802261 1
gene 1 36 44 1.34468 0 283 1.34468 1
gene 1 36 45 -0.497626 0 284 -0.497626 1
gene 1 36 46 -0.219182 0 285 -0.219182 1
gene 1 36 47 -1.17807 0 286 -1.17807 1
gene 1 36 48 0.741616 0 287 0.741616 1
gene 1 36 49 -0.614121 0 288 -0.614121 1
gene 1 37 42 -1.45418 0 289 -1.45418 1
gene 1 37 43 -0.771604 0 290 -0.771604 1
gene 1 37 44 -0.790098 0 291 -0.790098 1
gene 1 37 45 0.271292 0 292 0.271292 1
gene 1 37 46 -0.33265 0 293 -0.33265 1
gene 1 37 47 0.465221 0 294 0.465221 1
gene 1 37 48 -0.373947 0 295 -0.373947 1
gene 1 37 49 -0.0418857 0 296 -0.0418857 1
gene 1 38 42 0.201168 0 297 0.201168 1
gene 1 38 43 1.58993 0 298 1.58993 1
gene 1 38 44 -0.391661 0 299 -0.391661 1
gene 1 38 45 1.83198 0 300 1.83198 1
gene 1 38 46 -0.960759 0 301 -0.960759 1
gene 1 38 47 -0.268411 0 302 -0.268411 1
gene 1 38 48 0.934983 0 303 0.934983 1
gene 1 38 49 -0.264087 0 304 -0.264087 1
gene 1 39 42 4.5347 0 305 4.5347 1
gene 1 39 43 -0.118721 0 306 -0.118721 1
gene 1 39 44 -0.901611 0 307 -0.901611 1
gene 1 39 45 0.198409 0 308 0.198409 1
gene 1 39 46 -0.87587 0 309 -0.87587 1
gene 1 39 47 -0.988889 0 310 -0.988889 1
gene 1 39 48 0.10228 0 311 0.10228 1
gene 1 39 49 -1.20428 0 312 -1.20428 1
gene 1 40 42 -0.663461 0 313 -0.663461 1
gene 1 40 43 0.188414 0 314 0.188414 1
gene 1 40 44 4.24314 0 315 4.24314 1
gene 1 40 45 -0.00739002 0 316 -0.00739002 1
gene 1 40 46 -3.5967 0 317 -3.5967 1
gene 1 40 47 0.596418 0 318 0.596418 1
gene 1 40 48 -0.393721 0 319 -0.393721 1
gene 1 40 49 2.80908 0 320 2.80908 1
gene 1 41 42 -0.675079 0 321 -0.675079 1
gene 1 41 43 5 0 322 5 1
gene 1 41 44 -0.62626 0 323 -0.62626 1
gene 1 41 45 0.57585 0 324 0.57585 1
gene 1 41 46 0.307047 0 325 0.307047 1
gene 1 41 47 -0.699681 0 326 -0.699681 1
gene 1 41 48 1.18782 0 327 1.18782 1
gene 1 41 49 2.47766 0 328 2.47766 1
genomeend 9


