/* Organism #0 Fitness: -6424.720000 Time: 0 */
genomestart 0
trait 1 0.126305 0.000000 0.000000 0.000000 0.759063 0.734901 0.829609 0.000000 
node 1 1 1 1
node 2 1 1 1
node 3 1 1 1
node 4 1 1 1
node 5 1 1 1
node 6 1 1 1
node 7 1 1 1
node 8 1 1 1
node 9 1 1 1
node 10 1 1 1
node 11 1 1 1
node 12 1 1 1
node 13 1 1 1
node 14 1 1 1
node 15 1 1 1
node 16 1 1 1
node 17 1 1 1
node 18 1 1 1
node 19 1 1 1
node 20 1 1 1
node 21 1 1 1
node 22 1 1 1
node 23 1 1 1
node 24 1 1 1
node 25 1 1 1
node 26 1 1 1
node 27 1 1 1
node 28 1 1 1
node 29 1 1 1
node 30 1 1 1
node 31 1 1 1
node 32 1 1 1
node 33 1 1 1
node 34 1 1 1
node 35 1 1 1
node 36 1 1 1
node 37 1 1 1
node 38 1 1 1
node 39 1 1 1
node 40 1 1 1
node 41 1 1 3
node 42 1 0 2
node 43 1 0 2
node 44 1 0 2
node 45 1 0 2
node 46 1 0 2
node 47 1 0 2
node 48 1 0 2
node 49 1 0 2
gene 1 1 42 -1.74401 0 1 -1.74401 1
gene 1 1 43 -2.56412 0 2 -2.56412 1
gene 1 1 44 3.0013 0 3 3.0013 1
gene 1 1 45 1.11821 0 4 1.11821 1
gene 1 1 46 0.053892 0 5 0.053892 1
gene 1 1 47 -1.24676 0 6 -1.24676 1
gene 1 1 48 -0.105849 0 7 -0.105849 1
gene 1 1 49 1.47529 0 8 1.47529 1
gene 1 2 42 -1.83566 0 9 -1.83566 1
gene 1 2 43 -1.65009 0 10 -1.65009 1
gene 1 2 44 -0.994715 0 11 -0.994715 1
gene 1 2 45 -2.52841 0 12 -2.52841 1
gene 1 2 46 -1.55144 0 13 -1.55144 1
gene 1 2 47 -0.113964 0 14 -0.113964 1
gene 1 2 48 3.85902 0 15 3.85902 1
gene 1 2 49 -0.7257 0 16 -0.7257 1
gene 1 3 42 1.48543 0 17 1.48543 1
gene 1 3 43 0.411018 0 18 0.411018 1
gene 1 3 44 0.779723 0 19 0.779723 1
gene 1 3 45 -4.1858 0 20 -4.1858 1
gene 1 3 46 -0.459538 0 21 -0.459538 1
gene 1 3 47 1.93078 0 22 1.93078 1
gene 1 3 48 4.26242 0 23 4.26242 1
gene 1 3 49 0.999764 0 24 0.999764 1
gene 1 4 42 1.59286 0 25 1.59286 1
gene 1 4 43 1.71489 0 26 1.71489 1
gene 1 4 44 5 0 27 5 1
gene 1 4 45 1.27974 0 28 1.27974 1
gene 1 4 46 0.154268 0 29 0.154268 1
gene 1 4 47 -0.253983 0 30 -0.253983 1
gene 1 4 48 -1.7394 0 31 -1.7394 1
gene 1 4 49 -5 0 32 -5 1
gene 1 5 42 -1.07584 0 33 -1.07584 1
gene 1 5 43 -1.19766 0 34 -1.19766 1
gene 1 5 44 2.92933 0 35 2.92933 1
gene 1 5 45 0.591907 0 36 0.591907 1
gene 1 5 46 0.47729 0 37 0.47729 1
gene 1 5 47 -0.415514 0 38 -0.415514 1
gene 1 5 48 -1.67608 0 39 -1.67608 1
gene 1 5 49 1.61587 0 40 1.61587 1
gene 1 6 42 -0.916531 0 41 -0.916531 1
gene 1 6 43 -1.65544 0 42 -1.65544 1
gene 1 6 44 0.990499 0 43 0.990499 1
gene 1 6 45 2.97099 0 44 2.97099 1
gene 1 6 46 -1.13766 0 45 -1.13766 1
gene 1 6 47 3.44747 0 46 3.44747 1
gene 1 6 48 -0.857358 0 47 -0.857358 1
gene 1 6 49 -1.06405 0 48 -1.06405 1
gene 1 7 42 -1.31332 0 49 -1.31332 1
gene 1 7 43 -1.41883 0 50 -1.41883 1
gene 1 7 44 -0.206762 0 51 -0.206762 1
gene 1 7 45 0.644942 0 52 0.644942 1
gene 1 7 46 1.67761 0 53 1.67761 1
gene 1 7 47 1.7458 0 54 1.7458 1
gene 1 7 48 2.82325 0 55 2.82325 1
gene 1 7 49 1.65701 0 56 1.65701 1
gene 1 8 42 1.66552 0 57 1.66552 1
gene 1 8 43 3.10454 0 58 3.10454 1
gene 1 8 44 -1.64589 0 59 -1.64589 1
gene 1 8 45 1.56255 0 60 1.56255 1
gene 1 8 46 -0.817062 0 61 -0.817062 1
gene 1 8 47 0.441998 0 62 0.441998 1
gene 1 8 48 2.70626 0 63 2.70626 1
gene 1 8 49 -2.80229 0 64 -2.80229 1
gene 1 9 42 0.406009 0 65 0.406009 1
gene 1 9 43 0.344028 0 66 0.344028 1
gene 1 9 44 -3.2362 0 67 -3.2362 1
gene 1 9 45 2.41025 0 68 2.41025 1
gene 1 9 46 -1.79793 0 69 -1.79793 1
gene 1 9 47 -3.36363 0 70 -3.36363 1
gene 1 9 48 0.575707 0 71 0.575707 1
gene 1 9 49 -1.30977 0 72 -1.30977 1
gene 1 10 42 -4.48588 0 73 -4.48588 1
gene 1 10 43 1.47631 0 74 1.47631 1
gene 1 10 44 -0.32471 0 75 -0.32471 1
gene 1 10 45 2.06916 0 76 2.06916 1
gene 1 10 46 0.199804 0 77 0.199804 1
gene 1 10 47 0.465683 0 78 0.465683 1
gene 1 10 48 1.33274 0 79 1.33274 1
gene 1 10 49 -2.35291 0 80 -2.35291 1
gene 1 11 42 0.137433 0 81 0.137433 1
gene 1 11 43 4.88291 0 82 4.88291 1
gene 1 11 44 0.68273 0 83 0.68273 1
gene 1 11 45 -1.14567 0 84 -1.14567 1
gene 1 11 46 -0.146734 0 85 -0.146734 1
gene 1 11 47 -0.138618 0 86 -0.138618 1
gene 1 11 48 -0.342094 0 87 -0.342094 1
gene 1 11 49 0.501668 0 88 0.501668 1
gene 1 12 42 -2.114 0 89 -2.114 1
gene 1 12 43 -3.69798 0 90 -3.69798 1
gene 1 12 44 -1.00613 0 91 -1.00613 1
gene 1 12 45 2.5076 0 92 2.5076 1
gene 1 12 46 -0.643303 0 93 -0.643303 1
gene 1 12 47 -2.76668 0 94 -2.76668 1
gene 1 12 48 -1.23726 0 95 -1.23726 1
gene 1 12 49 -2.49134 0 96 -2.49134 1
gene 1 13 42 0.331743 0 97 0.331743 1
gene 1 13 43 -0.119951 0 98 -0.119951 1
gene 1 13 44 -2.54253 0 99 -2.54253 1
gene 1 13 45 0.0836462 0 100 0.0836462 1
gene 1 13 46 2.4029 0 101 2.4029 1
gene 1 13 47 -0.586978 0 102 -0.586978 1
gene 1 13 48 0.320949 0 103 0.320949 1
gene 1 13 49 -4.38987 0 104 -4.38987 1
gene 1 14 42 -0.232726 0 105 -0.232726 1
gene 1 14 43 0.314996 0 106 0.314996 1
gene 1 14 44 0.570003 0 107 0.570003 1
gene 1 14 45 -0.0418924 0 108 -0.0418924 1
gene 1 14 46 0.741899 0 109 0.741899 1
gene 1 14 47 0.323962 0 110 0.323962 1
gene 1 14 48 -0.93749 0 111 -0.93749 1
gene 1 14 49 -0.320755 0 112 -0.320755 1
gene 1 15 42 0.233681 0 113 0.233681 1
gene 1 15 43 -0.248773 0 114 -0.248773 1
gene 1 15 44 2.72725 0 115 2.72725 1
gene 1 15 45 4.33059 0 116 4.33059 1
gene 1 15 46 5 0 117 5 1
gene 1 15 47 5 0 118 5 1
gene 1 15 48 0.661518 0 119 0.661518 1
gene 1 15 49 4.16005 0 120 4.16005 1
gene 1 16 42 0.0100976 0 121 0.0100976 1
gene 1 16 43 -0.73925 0 122 -0.73925 1
gene 1 16 44 2.57586 0 123 2.57586 1
gene 1 16 45 -2.24652 0 124 -2.24652 1
gene 1 16 46 -1.32064 0 125 -1.32064 1
gene 1 16 47 -4.28897 0 126 -4.28897 1
gene 1 16 48 -2.35 0 127 -2.35 1
gene 1 16 49 -2.39993 0 128 -2.39993 1
gene 1 17 42 -3.93378 0 129 -3.93378 1
gene 1 17 43 1.535 0 130 1.535 1
gene 1 17 44 -0.70196 0 131 -0.70196 1
gene 1 17 45 -3.48316 0 132 -3.48316 1
gene 1 17 46 0.657217 0 133 0.657217 1
gene 1 17 47 -1.5733 0 134 -1.5733 1
gene 1 17 48 1.20156 0 135 1.20156 1
gene 1 17 49 -2.68124 0 136 -2.68124 1
gene 1 18 42 1.88205 0 137 1.88205 1
gene 1 18 43 -2.64753 0 138 -2.64753 1
gene 1 18 44 0.303661 0 139 0.303661 1
gene 1 18 45 -0.0514651 0 140 -0.0514651 1
gene 1 18 46 0.873267 0 141 0.873267 1
gene 1 18 47 -0.75532 0 142 -0.75532 1
gene 1 18 48 4.34375 0 143 4.34375 1
gene 1 18 49 -2.09749 0 144 -2.09749 1
gene 1 19 42 1.64667 0 145 1.64667 1
gene 1 19 43 0.060317 0 146 0.060317 1
gene 1 19 44 -1.84114 0 147 -1.84114 1
gene 1 19 45 0.301906 0 148 0.301906 1
gene 1 19 46 -1.39434 0 149 -1.39434 1
gene 1 19 47 -0.0888194 0 150 -0.0888194 1
gene 1 19 48 0.426298 0 151 0.426298 1
gene 1 19 49 1.77328 0 152 1.77328 1
gene 1 20 42 -0.133979 0 153 -0.133979 1
gene 1 20 43 -0.245021 0 154 -0.245021 1
gene 1 20 44 2.44229 0 155 2.44229 1
gene 1 20 45 0.020987 0 156 0.020987 1
gene 1 20 46 0.100962 0 157 0.100962 1
gene 1 20 47 1.32354 0 158 1.32354 1
gene 1 20 48 0.293237 0 159 0.293237 1
gene 1 20 49 1.13681 0 160 1.13681 1
gene 1 21 42 4.44724 0 161 4.44724 1
gene 1 21 43 1.91521 0 162 1.91521 1
gene 1 21 44 -3.96814 0 163 -3.96814 1
gene 1 21 45 -0.0783755 0 164 -0.0783755 1
gene 1 21 46 0.429306 0 165 0.429306 1
gene 1 21 47 -1.10604 0 166 -1.10604 1
gene 1 21 48 -0.178403 0 167 -0.178403 1
gene 1 21 49 2.95128 0 168 2.95128 1
gene 1 22 42 1.14124 0 169 1.14124 1
gene 1 22 43 -1.70452 0 170 -1.70452 1
gene 1 22 44 -3.17703 0 171 -3.17703 1
gene 1 22 45 2.11236 0 172 2.11236 1
gene 1 22 46 2.8203 0 173 2.8203 1
gene 1 22 47 0.720871 0 174 0.720871 1
gene 1 22 48 0.366977 0 175 0.366977 1
gene 1 22 49 -1.62184 0 176 -1.62184 1
gene 1 23 42 -0.852849 0 177 -0.852849 1
gene 1 23 43 4.22509 0 178 4.22509 1
gene 1 23 44 2.93919 0 179 2.93919 1
gene 1 23 45 0.207003 0 180 0.207003 1
gene 1 23 46 0.807336 0 181 0.807336 1
gene 1 23 47 1.13805 0 182 1.13805 1
gene 1 23 48 0.292973 0 183 0.292973 1
gene 1 23 49 -1.22648 0 184 -1.22648 1
gene 1 24 42 3.13869 0 185 3.13869 1
gene 1 24 43 -4.56475 0 186 -4.56475 1
gene 1 24 44 0.477542 0 187 0.477542 1
gene 1 24 45 1.79928 0 188 1.79928 1
gene 1 24 46 3.89187 0 189 3.89187 1
gene 1 24 47 -3.26982 0 190 -3.26982 1
gene 1 24 48 0.205858 0 191 0.205858 1
gene 1 24 49 -3.77308 0 192 -3.77308 1
gene 1 25 42 -2.05183 0 193 -2.05183 1
gene 1 25 43 0.489862 0 194 0.489862 1
gene 1 25 44 5 0 195 5 1
gene 1 25 45 5 0 196 5 1
gene 1 25 46 -1.97842 0 197 -1.97842 1
gene 1 25 47 -0.78634 0 198 -0.78634 1
gene 1 25 48 1.70218 0 199 1.70218 1
gene 1 25 49 -1.13331 0 200 -1.13331 1
gene 1 26 42 4.06851 0 201 4.06851 1
gene 1 26 43 0.578328 0 202 0.578328 1
gene 1 26 44 3.73995 0 203 3.73995 1
gene 1 26 45 -1.63237 0 204 -1.63237 1
gene 1 26 46 2.47099 0 205 2.47099 1
gene 1 26 47 1.52267 0 206 1.52267 1
gene 1 26 48 0.773742 0 207 0.773742 1
gene 1 26 49 -0.0982206 0 208 -0.0982206 1
gene 1 27 42 1.79087 0 209 1.79087 1
gene 1 27 43 -1.11245 0 210 -1.11245 1
gene 1 27 44 0.0837763 0 211 0.0837763 1
gene 1 27 45 -2.47335 0 212 -2.47335 1
gene 1 27 46 3.54419 0 213 3.54419 1
gene 1 27 47 1.49493 0 214 1.49493 1
gene 1 27 48 -0.662919 0 215 -0.662919 1
gene 1 27 49 0.0730306 0 216 0.0730306 1
gene 1 28 42 -0.566836 0 217 -0.566836 1
gene 1 28 43 -1.09963 0 218 -1.09963 1
gene 1 28 44 -5 0 219 -5 1
gene 1 28 45 0.639619 0 220 0.639619 1
gene 1 28 46 -1.2297 0 221 -1.2297 1
gene 1 28 47 -0.421057 0 222 -0.421057 1
gene 1 28 48 -1.67793 0 223 -1.67793 1
gene 1 28 49 -3.21001 0 224 -3.21001 1
gene 1 29 42 -1.01945 0 225 -1.01945 1
gene 1 29 43 -0.827475 0 226 -0.827475 1
gene 1 29 44 -3.87277 0 227 -3.87277 1
gene 1 29 45 -1.31492 0 228 -1.31492 1
gene 1 29 46 -1.16729 0 229 -1.16729 1
gene 1 29 47 0.366974 0 230 0.366974 1
gene 1 29 48 0.644009 0 231 0.644009 1
gene 1 29 49 -2.37039 0 232 -2.37039 1
gene 1 30 42 1.73268 0 233 1.73268 1
gene 1 30 43 0.117894 0 234 0.117894 1
gene 1 30 44 -3.00296 0 235 -3.00296 1
gene 1 30 45 1.212 0 236 1.212 1
gene 1 30 46 -1.15794 0 237 -1.15794 1
gene 1 30 47 3.53049 0 238 3.53049 1
gene 1 30 48 3.66487 0 239 3.66487 1
gene 1 30 49 0.0010949 0 240 0.0010949 1
gene 1 31 42 -3.52498 0 241 -3.52498 1
gene 1 31 43 0.0177163 0 242 0.0177163 1
gene 1 31 44 1.42924 0 243 1.42924 1
gene 1 31 45 5 0 244 5 1
gene 1 31 46 -2.00243 0 245 -2.00243 1
gene 1 31 47 0.811316 0 246 0.811316 1
gene 1 31 48 0.0024949 0 247 0.0024949 1
gene 1 31 49 -4.74337 0 248 -4.74337 1
gene 1 32 42 -0.353959 0 249 -0.353959 1
gene 1 32 43 -2.94015 0 250 -2.94015 1
gene 1 32 44 1.46668 0 251 1.46668 1
gene 1 32 45 -2.38362 0 252 -2.38362 1
gene 1 32 46 0.473961 0 253 0.473961 1
gene 1 32 47 -0.865405 0 254 -0.865405 1
gene 1 32 48 -0.772315 0 255 -0.772315 1
gene 1 32 49 1.26303 0 256 1.26303 1
gene 1 33 42 2.39473 0 257 2.39473 1
gene 1 33 43 4.41674 0 258 4.41674 1
gene 1 33 44 1.57244 0 259 1.57244 1
gene 1 33 45 -1.09113 0 260 -1.09113 1
gene 1 33 46 -2.45644 0 261 -2.45644 1
gene 1 33 47 4.2329 0 262 4.2329 1
gene 1 33 48 0.8174 0 263 0.8174 1
gene 1 33 49 -1.64337 0 264 -1.64337 1
gene 1 34 42 -0.368725 0 265 -0.368725 1
gene 1 34 43 -0.203691 0 266 -0.203691 1
gene 1 34 44 -0.475008 0 267 -0.475008 1
gene 1 34 45 0.650822 0 268 0.650822 1
gene 1 34 46 -0.706899 0 269 -0.706899 1
gene 1 34 47 -1.66463 0 270 -1.66463 1
gene 1 34 48 -0.109002 0 271 -0.109002 1
gene 1 34 49 -0.470413 0 272 -0.470413 1
gene 1 35 42 3.35868 0 273 3.35868 1
gene 1 35 43 0.460097 0 274 0.460097 1
gene 1 35 44 -0.616266 0 275 -0.616266 1
gene 1 35 45 0.817728 0 276 0.817728 1
gene 1 35 46 -0.124984 0 277 -0.124984 1
gene 1 35 47 -0.363202 0 278 -0.363202 1
gene 1 35 48 -0.938148 0 279 -0.938148 1
gene 1 35 49 0.526499 0 280 0.526499 1
gene 1 36 42 0.35823 0 281 0.35823 1
gene 1 36 43 -0.882936 0 282 -0.882936 1
gene 1 36 44 -0.422641 0 283 -0.422641 1
gene 1 36 45 0.751393 0 284 0.751393 1
gene 1 36 46 -0.25163 0 285 -0.25163 1
gene 1 36 47 -0.651169 0 286 -0.651169 1
gene 1 36 48 -0.278858 0 287 -0.278858 1
gene 1 36 49 -0.427872 0 288 -0.427872 1
gene 1 37 42 -0.520415 0 289 -0.520415 1
gene 1 37 43 -0.57512 0 290 -0.57512 1
gene 1 37 44 -0.313782 0 291 -0.313782 1
gene 1 37 45 0.0199957 0 292 0.0199957 1
gene 1 37 46 0.16139 0 293 0.16139 1
gene 1 37 47 0.608214 0 294 0.608214 1
gene 1 37 48 -1.61171 0 295 -1.61171 1
gene 1 37 49 -2.4115 0 296 -2.4115 1
gene 1 38 42 0.523385 0 297 0.523385 1
gene 1 38 43 -0.643637 0 298 -0.643637 1
gene 1 38 44 0.685536 0 299 0.685536 1
gene 1 38 45 0.139713 0 300 0.139713 1
gene 1 38 46 0.603308 0 301 0.603308 1
gene 1 38 47 -0.820468 0 302 -0.820468 1
gene 1 38 48 -0.532164 0 303 -0.532164 1
gene 1 38 49 -1.13884 0 304 -1.13884 1
gene 1 39 42 -0.337048 0 305 -0.337048 1
gene 1 39 43 -0.426008 0 306 -0.426008 1
gene 1 39 44 -2.02222 0 307 -2.02222 1
gene 1 39 45 0.383965 0 308 0.383965 1
gene 1 39 46 -0.837639 0 309 -0.837639 1
gene 1 39 47 0.207772 0 310 0.207772 1
gene 1 39 48 -0.987194 0 311 -0.987194 1
gene 1 39 49 -1.7328 0 312 -1.7328 1
gene 1 40 42 0.583605 0 313 0.583605 1
gene 1 40 43 -0.409346 0 314 -0.409346 1
gene 1 40 44 2.8552 0 315 2.8552 1
gene 1 40 45 1.00205 0 316 1.00205 1
gene 1 40 46 0.76349 0 317 0.76349 1
gene 1 40 47 0.749622 0 318 0.749622 1
gene 1 40 48 -0.793296 0 319 -0.793296 1
gene 1 40 49 1.381 0 320 1.381 1
gene 1 41 42 0.423761 0 321 0.423761 1
gene 1 41 43 0.946282 0 322 0.946282 1
gene 1 41 44 -1.74543 0 323 -1.74543 1
gene 1 41 45 -0.0281315 0 324 -0.0281315 1
gene 1 41 46 -0.0835826 0 325 -0.0835826 1
gene 1 41 47 -0.296614 0 326 -0.296614 1
gene 1 41 48 -0.379245 0 327 -0.379245 1
gene 1 41 49 -1.58178 0 328 -1.58178 1
genomeend 0


