/* Organism #6 Fitness: -5954.830000 Time: 0 */
genomestart 6
trait 1 0.000000 0.000000 0.000000 0.793998 0.871204 0.000000 0.945785 0.000000 
node 1 1 1 1
node 2 1 1 1
node 3 1 1 1
node 4 1 1 1
node 5 1 1 1
node 6 1 1 1
node 7 1 1 1
node 8 1 1 1
node 9 1 1 1
node 10 1 1 1
node 11 1 1 1
node 12 1 1 1
node 13 1 1 1
node 14 1 1 1
node 15 1 1 1
node 16 1 1 1
node 17 1 1 1
node 18 1 1 1
node 19 1 1 1
node 20 1 1 1
node 21 1 1 1
node 22 1 1 1
node 23 1 1 1
node 24 1 1 1
node 25 1 1 1
node 26 1 1 1
node 27 1 1 1
node 28 1 1 1
node 29 1 1 1
node 30 1 1 1
node 31 1 1 1
node 32 1 1 1
node 33 1 1 1
node 34 1 1 1
node 35 1 1 1
node 36 1 1 1
node 37 1 1 1
node 38 1 1 1
node 39 1 1 1
node 40 1 1 1
node 41 1 1 3
node 42 1 0 2
node 43 1 0 2
node 44 1 0 2
node 45 1 0 2
node 46 1 0 2
node 47 1 0 2
node 48 1 0 2
node 49 1 0 2
gene 1 1 42 -4.16609 0 1 -4.16609 1
gene 1 1 43 1.8603 0 2 1.8603 1
gene 1 1 44 -1.36224 0 3 -1.36224 1
gene 1 1 45 2.54678 0 4 2.54678 1
gene 1 1 46 2.88373 0 5 2.88373 1
gene 1 1 47 -2.43608 0 6 -2.43608 1
gene 1 1 48 0.400176 0 7 0.400176 1
gene 1 1 49 2.52976 0 8 2.52976 1
gene 1 2 42 -1.0209 0 9 -1.0209 1
gene 1 2 43 1.14262 0 10 1.14262 1
gene 1 2 44 1.53105 0 11 1.53105 1
gene 1 2 45 1.36352 0 12 1.36352 1
gene 1 2 46 -3.54321 0 13 -3.54321 1
gene 1 2 47 -0.422857 0 14 -0.422857 1
gene 1 2 48 1.71343 0 15 1.71343 1
gene 1 2 49 0.0489675 0 16 0.0489675 1
gene 1 3 42 -0.713847 0 17 -0.713847 1
gene 1 3 43 1.65043 0 18 1.65043 1
gene 1 3 44 -0.574583 0 19 -0.574583 1
gene 1 3 45 0.478201 0 20 0.478201 1
gene 1 3 46 -0.372871 0 21 -0.372871 1
gene 1 3 47 -2.92654 0 22 -2.92654 1
gene 1 3 48 -1.86235 0 23 -1.86235 1
gene 1 3 49 -0.737733 0 24 -0.737733 1
gene 1 4 42 1.55984 0 25 1.55984 1
gene 1 4 43 0.536234 0 26 0.536234 1
gene 1 4 44 -0.106679 0 27 -0.106679 1
gene 1 4 45 -5 0 28 -5 1
gene 1 4 46 2.82465 0 29 2.82465 1
gene 1 4 47 1.02724 0 30 1.02724 1
gene 1 4 48 1.98317 0 31 1.98317 1
gene 1 4 49 -4.3429 0 32 -4.3429 1
gene 1 5 42 1.71658 0 33 1.71658 1
gene 1 5 43 1.43962 0 34 1.43962 1
gene 1 5 44 0.705336 0 35 0.705336 1
gene 1 5 45 -1.56954 0 36 -1.56954 1
gene 1 5 46 -0.801781 0 37 -0.801781 1
gene 1 5 47 -2.21851 0 38 -2.21851 1
gene 1 5 48 0.155335 0 39 0.155335 1
gene 1 5 49 0.737456 0 40 0.737456 1
gene 1 6 42 2.02522 0 41 2.02522 1
gene 1 6 43 -1.27813 0 42 -1.27813 1
gene 1 6 44 -3.77371 0 43 -3.77371 1
gene 1 6 45 -0.776996 0 44 -0.776996 1
gene 1 6 46 2.05388 0 45 2.05388 1
gene 1 6 47 -0.894391 0 46 -0.894391 1
gene 1 6 48 -2.61085 0 47 -2.61085 1
gene 1 6 49 -2.17618 0 48 -2.17618 1
gene 1 7 42 -0.454402 0 49 -0.454402 1
gene 1 7 43 0.39675 0 50 0.39675 1
gene 1 7 44 -0.601852 0 51 -0.601852 1
gene 1 7 45 -0.404539 0 52 -0.404539 1
gene 1 7 46 1.82858 0 53 1.82858 1
gene 1 7 47 -2.1504 0 54 -2.1504 1
gene 1 7 48 2.74927 0 55 2.74927 1
gene 1 7 49 0.00575982 0 56 0.00575982 1
gene 1 8 42 -4.04812 0 57 -4.04812 1
gene 1 8 43 0.793278 0 58 0.793278 1
gene 1 8 44 2.4162 0 59 2.4162 1
gene 1 8 45 -1.43869 0 60 -1.43869 1
gene 1 8 46 1.63495 0 61 1.63495 1
gene 1 8 47 1.6866 0 62 1.6866 1
gene 1 8 48 2.40211 0 63 2.40211 1
gene 1 8 49 0.403127 0 64 0.403127 1
gene 1 9 42 -1.53918 0 65 -1.53918 1
gene 1 9 43 0.329879 0 66 0.329879 1
gene 1 9 44 -1.99511 0 67 -1.99511 1
gene 1 9 45 2.83368 0 68 2.83368 1
gene 1 9 46 1.89455 0 69 1.89455 1
gene 1 9 47 0.884207 0 70 0.884207 1
gene 1 9 48 0.455942 0 71 0.455942 1
gene 1 9 49 0.0391748 0 72 0.0391748 1
gene 1 10 42 -3.14933 0 73 -3.14933 1
gene 1 10 43 2.20516 0 74 2.20516 1
gene 1 10 44 0.572647 0 75 0.572647 1
gene 1 10 45 -0.515168 0 76 -0.515168 1
gene 1 10 46 0.692703 0 77 0.692703 1
gene 1 10 47 0.16426 0 78 0.16426 1
gene 1 10 48 0.747099 0 79 0.747099 1
gene 1 10 49 -0.820102 0 80 -0.820102 1
gene 1 11 42 -4.3216 0 81 -4.3216 1
gene 1 11 43 -1.09013 0 82 -1.09013 1
gene 1 11 44 -2.7696 0 83 -2.7696 1
gene 1 11 45 0.58285 0 84 0.58285 1
gene 1 11 46 -0.491255 0 85 -0.491255 1
gene 1 11 47 5 0 86 5 1
gene 1 11 48 -3.17316 0 87 -3.17316 1
gene 1 11 49 -1.63872 0 88 -1.63872 1
gene 1 12 42 2.21999 0 89 2.21999 1
gene 1 12 43 -0.949989 0 90 -0.949989 1
gene 1 12 44 -0.776098 0 91 -0.776098 1
gene 1 12 45 0.0960245 0 92 0.0960245 1
gene 1 12 46 2.58861 0 93 2.58861 1
gene 1 12 47 2.96128 0 94 2.96128 1
gene 1 12 48 -0.664419 0 95 -0.664419 1
gene 1 12 49 0.793198 0 96 0.793198 1
gene 1 13 42 0.162249 0 97 0.162249 1
gene 1 13 43 2.52557 0 98 2.52557 1
gene 1 13 44 2.04532 0 99 2.04532 1
gene 1 13 45 -1.80738 0 100 -1.80738 1
gene 1 13 46 -2.80424 0 101 -2.80424 1
gene 1 13 47 -1.7424 0 102 -1.7424 1
gene 1 13 48 -4.70797 0 103 -4.70797 1
gene 1 13 49 -0.880769 0 104 -0.880769 1
gene 1 14 42 -1.76925 0 105 -1.76925 1
gene 1 14 43 -3.00837 0 106 -3.00837 1
gene 1 14 44 0.878764 0 107 0.878764 1
gene 1 14 45 -2.21327 0 108 -2.21327 1
gene 1 14 46 0.754494 0 109 0.754494 1
gene 1 14 47 3.77778 0 110 3.77778 1
gene 1 14 48 0.218251 0 111 0.218251 1
gene 1 14 49 1.59114 0 112 1.59114 1
gene 1 15 42 -3.70153 0 113 -3.70153 1
gene 1 15 43 3.44559 0 114 3.44559 1
gene 1 15 44 1.40412 0 115 1.40412 1
gene 1 15 45 1.0318 0 116 1.0318 1
gene 1 15 46 -1.34862 0 117 -1.34862 1
gene 1 15 47 1.64733 0 118 1.64733 1
gene 1 15 48 2.68223 0 119 2.68223 1
gene 1 15 49 -0.821598 0 120 -0.821598 1
gene 1 16 42 -1.9331 0 121 -1.9331 1
gene 1 16 43 -0.289222 0 122 -0.289222 1
gene 1 16 44 -3.10717 0 123 -3.10717 1
gene 1 16 45 -2.44206 0 124 -2.44206 1
gene 1 16 46 -0.500597 0 125 -0.500597 1
gene 1 16 47 -0.964381 0 126 -0.964381 1
gene 1 16 48 0.0508397 0 127 0.0508397 1
gene 1 16 49 -1.63766 0 128 -1.63766 1
gene 1 17 42 1.46013 0 129 1.46013 1
gene 1 17 43 -1.24825 0 130 -1.24825 1
gene 1 17 44 0.29868 0 131 0.29868 1
gene 1 17 45 3.08683 0 132 3.08683 1
gene 1 17 46 2.67596 0 133 2.67596 1
gene 1 17 47 0.0308509 0 134 0.0308509 1
gene 1 17 48 1.72648 0 135 1.72648 1
gene 1 17 49 3.73623 0 136 3.73623 1
gene 1 18 42 1.02256 0 137 1.02256 1
gene 1 18 43 -0.286868 0 138 -0.286868 1
gene 1 18 44 0.0107474 0 139 0.0107474 1
gene 1 18 45 -0.106208 0 140 -0.106208 1
gene 1 18 46 0.243944 0 141 0.243944 1
gene 1 18 47 -2.17065 0 142 -2.17065 1
gene 1 18 48 1.49857 0 143 1.49857 1
gene 1 18 49 -0.414857 0 144 -0.414857 1
gene 1 19 42 0.871821 0 145 0.871821 1
gene 1 19 43 0.883832 0 146 0.883832 1
gene 1 19 44 1.43941 0 147 1.43941 1
gene 1 19 45 4.7806 0 148 4.7806 1
gene 1 19 46 0.689084 0 149 0.689084 1
gene 1 19 47 0.705947 0 150 0.705947 1
gene 1 19 48 -3.26167 0 151 -3.26167 1
gene 1 19 49 0.117044 0 152 0.117044 1
gene 1 20 42 -1.9481 0 153 -1.9481 1
gene 1 20 43 2.26413 0 154 2.26413 1
gene 1 20 44 -3.43471 0 155 -3.43471 1
gene 1 20 45 4.26221 0 156 4.26221 1
gene 1 20 46 -1.11044 0 157 -1.11044 1
gene 1 20 47 4.51197 0 158 4.51197 1
gene 1 20 48 -3.88314 0 159 -3.88314 1
gene 1 20 49 -0.11051 0 160 -0.11051 1
gene 1 21 42 1.78806 0 161 1.78806 1
gene 1 21 43 -2.95321 0 162 -2.95321 1
gene 1 21 44 3.05894 0 163 3.05894 1
gene 1 21 45 -1.40908 0 164 -1.40908 1
gene 1 21 46 0.196901 0 165 0.196901 1
gene 1 21 47 0.972962 0 166 0.972962 1
gene 1 21 48 3.11515 0 167 3.11515 1
gene 1 21 49 3.29828 0 168 3.29828 1
gene 1 22 42 3.31526 0 169 3.31526 1
gene 1 22 43 0.433389 0 170 0.433389 1
gene 1 22 44 -4.51416 0 171 -4.51416 1
gene 1 22 45 5 0 172 5 1
gene 1 22 46 3.62017 0 173 3.62017 1
gene 1 22 47 -3.94312 0 174 -3.94312 1
gene 1 22 48 -1.39985 0 175 -1.39985 1
gene 1 22 49 -0.0630778 0 176 -0.0630778 1
gene 1 23 42 -0.507725 0 177 -0.507725 1
gene 1 23 43 1.46363 0 178 1.46363 1
gene 1 23 44 1.25764 0 179 1.25764 1
gene 1 23 45 2.29295 0 180 2.29295 1
gene 1 23 46 -3.73067 0 181 -3.73067 1
gene 1 23 47 0.852973 0 182 0.852973 1
gene 1 23 48 -2.3681 0 183 -2.3681 1
gene 1 23 49 1.99866 0 184 1.99866 1
gene 1 24 42 3.46532 0 185 3.46532 1
gene 1 24 43 1.96982 0 186 1.96982 1
gene 1 24 44 0.160854 0 187 0.160854 1
gene 1 24 45 -4.86341 0 188 -4.86341 1
gene 1 24 46 0.0268516 0 189 0.0268516 1
gene 1 24 47 -0.0528335 0 190 -0.0528335 1
gene 1 24 48 0.0934389 0 191 0.0934389 1
gene 1 24 49 2.08814 0 192 2.08814 1
gene 1 25 42 -3.68384 0 193 -3.68384 1
gene 1 25 43 -1.18127 0 194 -1.18127 1
gene 1 25 44 -1.92614 0 195 -1.92614 1
gene 1 25 45 -0.169136 0 196 -0.169136 1
gene 1 25 46 -2.06186 0 197 -2.06186 1
gene 1 25 47 1.88271 0 198 1.88271 1
gene 1 25 48 -0.660453 0 199 -0.660453 1
gene 1 25 49 -2.43452 0 200 -2.43452 1
gene 1 26 42 0.86648 0 201 0.86648 1
gene 1 26 43 2.47131 0 202 2.47131 1
gene 1 26 44 1.64651 0 203 1.64651 1
gene 1 26 45 -4.33881 0 204 -4.33881 1
gene 1 26 46 -0.11832 0 205 -0.11832 1
gene 1 26 47 -3.83944 0 206 -3.83944 1
gene 1 26 48 0.769301 0 207 0.769301 1
gene 1 26 49 0.863714 0 208 0.863714 1
gene 1 27 42 -3.12351 0 209 -3.12351 1
gene 1 27 43 1.53385 0 210 1.53385 1
gene 1 27 44 1.34811 0 211 1.34811 1
gene 1 27 45 2.33565 0 212 2.33565 1
gene 1 27 46 1.41279 0 213 1.41279 1
gene 1 27 47 1.43592 0 214 1.43592 1
gene 1 27 48 -1.09968 0 215 -1.09968 1
gene 1 27 49 -1.16899 0 216 -1.16899 1
gene 1 28 42 -2.76672 0 217 -2.76672 1
gene 1 28 43 -2.15257 0 218 -2.15257 1
gene 1 28 44 1.03042 0 219 1.03042 1
gene 1 28 45 2.83681 0 220 2.83681 1
gene 1 28 46 0.355711 0 221 0.355711 1
gene 1 28 47 1.064 0 222 1.064 1
gene 1 28 48 -0.640215 0 223 -0.640215 1
gene 1 28 49 1.88302 0 224 1.88302 1
gene 1 29 42 2.96845 0 225 2.96845 1
gene 1 29 43 -3.43308 0 226 -3.43308 1
gene 1 29 44 -3.62491 0 227 -3.62491 1
gene 1 29 45 -1.19138 0 228 -1.19138 1
gene 1 29 46 0.329288 0 229 0.329288 1
gene 1 29 47 4.15661 0 230 4.15661 1
gene 1 29 48 1.52375 0 231 1.52375 1
gene 1 29 49 1.85954 0 232 1.85954 1
gene 1 30 42 1.38289 0 233 1.38289 1
gene 1 30 43 -0.330194 0 234 -0.330194 1
gene 1 30 44 -0.777187 0 235 -0.777187 1
gene 1 30 45 -2.33466 0 236 -2.33466 1
gene 1 30 46 1.67937 0 237 1.67937 1
gene 1 30 47 1.37485 0 238 1.37485 1
gene 1 30 48 2.32872 0 239 2.32872 1
gene 1 30 49 1.13867 0 240 1.13867 1
gene 1 31 42 1.17029 0 241 1.17029 1
gene 1 31 43 -2.02059 0 242 -2.02059 1
gene 1 31 44 4.97224 0 243 4.97224 1
gene 1 31 45 0.921455 0 244 0.921455 1
gene 1 31 46 -1.65004 0 245 -1.65004 1
gene 1 31 47 5 0 246 5 1
gene 1 31 48 0.177316 0 247 0.177316 1
gene 1 31 49 -2.19189 0 248 -2.19189 1
gene 1 32 42 0.595921 0 249 0.595921 1
gene 1 32 43 0.0597558 0 250 0.0597558 1
gene 1 32 44 1.27921 0 251 1.27921 1
gene 1 32 45 3.97659 0 252 3.97659 1
gene 1 32 46 -1.72019 0 253 -1.72019 1
gene 1 32 47 -1.98209 0 254 -1.98209 1
gene 1 32 48 4.81425 0 255 4.81425 1
gene 1 32 49 5 0 256 5 1
gene 1 33 42 0.401321 0 257 0.401321 1
gene 1 33 43 0.144355 0 258 0.144355 1
gene 1 33 44 -0.278429 0 259 -0.278429 1
gene 1 33 45 -1.47521 0 260 -1.47521 1
gene 1 33 46 -1.45992 0 261 -1.45992 1
gene 1 33 47 -0.261155 0 262 -0.261155 1
gene 1 33 48 -1.75028 0 263 -1.75028 1
gene 1 33 49 -0.239447 0 264 -0.239447 1
gene 1 34 42 1.37244 0 265 1.37244 1
gene 1 34 43 0.89645 0 266 0.89645 1
gene 1 34 44 -0.434178 0 267 -0.434178 1
gene 1 34 45 0.295619 0 268 0.295619 1
gene 1 34 46 -2.39432 0 269 -2.39432 1
gene 1 34 47 -0.22627 0 270 -0.22627 1
gene 1 34 48 -0.36798 0 271 -0.36798 1
gene 1 34 49 0.731202 0 272 0.731202 1
gene 1 35 42 -0.143004 0 273 -0.143004 1
gene 1 35 43 0.0229476 0 274 0.0229476 1
gene 1 35 44 0.629301 0 275 0.629301 1
gene 1 35 45 0.176386 0 276 0.176386 1
gene 1 35 46 -0.29844 0 277 -0.29844 1
gene 1 35 47 0.989768 0 278 0.989768 1
gene 1 35 48 -0.668569 0 279 -0.668569 1
gene 1 35 49 -1.65765 0 280 -1.65765 1
gene 1 36 42 -0.812226 0 281 -0.812226 1
gene 1 36 43 0.0317987 0 282 0.0317987 1
gene 1 36 44 1.61205 0 283 1.61205 1
gene 1 36 45 0.229568 0 284 0.229568 1
gene 1 36 46 -0.171678 0 285 -0.171678 1
gene 1 36 47 -0.902009 0 286 -0.902009 1
gene 1 36 48 0.757413 0 287 0.757413 1
gene 1 36 49 -0.434505 0 288 -0.434505 1
gene 1 37 42 0.323113 0 289 0.323113 1
gene 1 37 43 -0.29824 0 290 -0.29824 1
gene 1 37 44 0.716918 0 291 0.716918 1
gene 1 37 45 -1.77129 0 292 -1.77129 1
gene 1 37 46 0.329003 0 293 0.329003 1
gene 1 37 47 -0.901746 0 294 -0.901746 1
gene 1 37 48 2.28892 0 295 2.28892 1
gene 1 37 49 0.977041 0 296 0.977041 1
gene 1 38 42 1.38205 0 297 1.38205 1
gene 1 38 43 -1.37345 0 298 -1.37345 1
gene 1 38 44 -0.476053 0 299 -0.476053 1
gene 1 38 45 0.065068 0 300 0.065068 1
gene 1 38 46 -0.047793 0 301 -0.047793 1
gene 1 38 47 0.222944 0 302 0.222944 1
gene 1 38 48 1.24003 0 303 1.24003 1
gene 1 38 49 0.64106 0 304 0.64106 1
gene 1 39 42 -0.162539 0 305 -0.162539 1
gene 1 39 43 -0.196468 0 306 -0.196468 1
gene 1 39 44 0.801364 0 307 0.801364 1
gene 1 39 45 -0.786486 0 308 -0.786486 1
gene 1 39 46 -1.4554 0 309 -1.4554 1
gene 1 39 47 -0.53888 0 310 -0.53888 1
gene 1 39 48 0.966862 0 311 0.966862 1
gene 1 39 49 -0.360022 0 312 -0.360022 1
gene 1 40 42 -1.29794 0 313 -1.29794 1
gene 1 40 43 0.384821 0 314 0.384821 1
gene 1 40 44 -0.481394 0 315 -0.481394 1
gene 1 40 45 1.47412 0 316 1.47412 1
gene 1 40 46 -0.445339 0 317 -0.445339 1
gene 1 40 47 1.26557 0 318 1.26557 1
gene 1 40 48 -2.10636 0 319 -2.10636 1
gene 1 40 49 1.98087 0 320 1.98087 1
gene 1 41 42 -2.83333 0 321 -2.83333 1
gene 1 41 43 0.794288 0 322 0.794288 1
gene 1 41 44 -0.154886 0 323 -0.154886 1
gene 1 41 45 0.335041 0 324 0.335041 1
gene 1 41 46 -0.187051 0 325 -0.187051 1
gene 1 41 47 -0.866323 0 326 -0.866323 1
gene 1 41 48 0.205638 0 327 0.205638 1
gene 1 41 49 -0.206412 0 328 -0.206412 1
genomeend 6


