/* Organism #0 Fitness: -4702.490000 Time: 0 */
genomestart 0
trait 1 0.000000 0.000000 0.000000 0.592861 0.000000 0.000000 0.128757 0.359066 
node 1 1 1 1
node 2 1 1 1
node 3 1 1 1
node 4 1 1 1
node 5 1 1 1
node 6 1 1 1
node 7 1 1 1
node 8 1 1 1
node 9 1 1 1
node 10 1 1 1
node 11 1 1 1
node 12 1 1 1
node 13 1 1 1
node 14 1 1 1
node 15 1 1 1
node 16 1 1 1
node 17 1 1 1
node 18 1 1 1
node 19 1 1 1
node 20 1 1 1
node 21 1 1 1
node 22 1 1 1
node 23 1 1 1
node 24 1 1 1
node 25 1 1 1
node 26 1 1 1
node 27 1 1 1
node 28 1 1 1
node 29 1 1 1
node 30 1 1 1
node 31 1 1 1
node 32 1 1 1
node 33 1 1 1
node 34 1 1 1
node 35 1 1 1
node 36 1 1 1
node 37 1 1 1
node 38 1 1 1
node 39 1 1 1
node 40 1 1 1
node 41 1 1 3
node 42 1 0 2
node 43 1 0 2
node 44 1 0 2
node 45 1 0 2
node 46 1 0 2
node 47 1 0 2
node 48 1 0 2
node 49 1 0 2
gene 1 1 42 -0.819024 0 1 -0.819024 1
gene 1 1 43 0.181497 0 2 0.181497 1
gene 1 1 44 1.13285 0 3 1.13285 1
gene 1 1 45 -1.13708 0 4 -1.13708 1
gene 1 1 46 3.90918 0 5 3.90918 1
gene 1 1 47 -0.870418 0 6 -0.870418 1
gene 1 1 48 -1.71884 0 7 -1.71884 1
gene 1 1 49 2.28177 0 8 2.28177 1
gene 1 2 42 -1.47526 0 9 -1.47526 1
gene 1 2 43 1.14392 0 10 1.14392 1
gene 1 2 44 -3.73111 0 11 -3.73111 1
gene 1 2 45 0.0152891 0 12 0.0152891 1
gene 1 2 46 -1.86711 0 13 -1.86711 1
gene 1 2 47 -3.31798 0 14 -3.31798 1
gene 1 2 48 -1.90144 0 15 -1.90144 1
gene 1 2 49 -1.12849 0 16 -1.12849 1
gene 1 3 42 -2.45818 0 17 -2.45818 1
gene 1 3 43 0.671532 0 18 0.671532 1
gene 1 3 44 0.734311 0 19 0.734311 1
gene 1 3 45 -1.91612 0 20 -1.91612 1
gene 1 3 46 2.70787 0 21 2.70787 1
gene 1 3 47 -0.138794 0 22 -0.138794 1
gene 1 3 48 -0.271292 0 23 -0.271292 1
gene 1 3 49 -0.258597 0 24 -0.258597 1
gene 1 4 42 1.84003 0 25 1.84003 1
gene 1 4 43 1.99353 0 26 1.99353 1
gene 1 4 44 3.41299 0 27 3.41299 1
gene 1 4 45 0.394967 0 28 0.394967 1
gene 1 4 46 -1.14961 0 29 -1.14961 1
gene 1 4 47 1.14454 0 30 1.14454 1
gene 1 4 48 -0.77851 0 31 -0.77851 1
gene 1 4 49 -0.737844 0 32 -0.737844 1
gene 1 5 42 1.88394 0 33 1.88394 1
gene 1 5 43 -1.0875 0 34 -1.0875 1
gene 1 5 44 0.915367 0 35 0.915367 1
gene 1 5 45 0.142518 0 36 0.142518 1
gene 1 5 46 0.412806 0 37 0.412806 1
gene 1 5 47 3.96772 0 38 3.96772 1
gene 1 5 48 3.49245 0 39 3.49245 1
gene 1 5 49 -1.79824 0 40 -1.79824 1
gene 1 6 42 5 0 41 5 1
gene 1 6 43 1.07076 0 42 1.07076 1
gene 1 6 44 -1.57748 0 43 -1.57748 1
gene 1 6 45 -0.484344 0 44 -0.484344 1
gene 1 6 46 1.16613 0 45 1.16613 1
gene 1 6 47 -3.36898 0 46 -3.36898 1
gene 1 6 48 0.383682 0 47 0.383682 1
gene 1 6 49 1.62842 0 48 1.62842 1
gene 1 7 42 0.695512 0 49 0.695512 1
gene 1 7 43 -1.52248 0 50 -1.52248 1
gene 1 7 44 -2.88903 0 51 -2.88903 1
gene 1 7 45 0.28742 0 52 0.28742 1
gene 1 7 46 -3.02204 0 53 -3.02204 1
gene 1 7 47 -5 0 54 -5 1
gene 1 7 48 -4.7418 0 55 -4.7418 1
gene 1 7 49 -1.3835 0 56 -1.3835 1
gene 1 8 42 0.410881 0 57 0.410881 1
gene 1 8 43 1.63463 0 58 1.63463 1
gene 1 8 44 -1.10525 0 59 -1.10525 1
gene 1 8 45 0.725675 0 60 0.725675 1
gene 1 8 46 -2.117 0 61 -2.117 1
gene 1 8 47 -1.86151 0 62 -1.86151 1
gene 1 8 48 -4.36799 0 63 -4.36799 1
gene 1 8 49 -3.66437 0 64 -3.66437 1
gene 1 9 42 -1.98246 0 65 -1.98246 1
gene 1 9 43 -0.998364 0 66 -0.998364 1
gene 1 9 44 -4.73617 0 67 -4.73617 1
gene 1 9 45 1.68306 0 68 1.68306 1
gene 1 9 46 -0.987081 0 69 -0.987081 1
gene 1 9 47 -1.17143 0 70 -1.17143 1
gene 1 9 48 3.64708 0 71 3.64708 1
gene 1 9 49 3.04613 0 72 3.04613 1
gene 1 10 42 -4.62072 0 73 -4.62072 1
gene 1 10 43 3.16392 0 74 3.16392 1
gene 1 10 44 -0.359089 0 75 -0.359089 1
gene 1 10 45 1.40002 0 76 1.40002 1
gene 1 10 46 2.14407 0 77 2.14407 1
gene 1 10 47 2.28939 0 78 2.28939 1
gene 1 10 48 -2.83344 0 79 -2.83344 1
gene 1 10 49 0.100673 0 80 0.100673 1
gene 1 11 42 1.21774 0 81 1.21774 1
gene 1 11 43 -3.65676 0 82 -3.65676 1
gene 1 11 44 -1.90844 0 83 -1.90844 1
gene 1 11 45 -0.370305 0 84 -0.370305 1
gene 1 11 46 -0.266471 0 85 -0.266471 1
gene 1 11 47 -3.49746 0 86 -3.49746 1
gene 1 11 48 -0.567224 0 87 -0.567224 1
gene 1 11 49 3.78338 0 88 3.78338 1
gene 1 12 42 1.35417 0 89 1.35417 1
gene 1 12 43 3.37632 0 90 3.37632 1
gene 1 12 44 -0.91684 0 91 -0.91684 1
gene 1 12 45 -0.384303 0 92 -0.384303 1
gene 1 12 46 -1.38795 0 93 -1.38795 1
gene 1 12 47 -2.84541 0 94 -2.84541 1
gene 1 12 48 -1.92205 0 95 -1.92205 1
gene 1 12 49 1.19534 0 96 1.19534 1
gene 1 13 42 -2.20409 0 97 -2.20409 1
gene 1 13 43 -2.05912 0 98 -2.05912 1
gene 1 13 44 2.35271 0 99 2.35271 1
gene 1 13 45 -0.212779 0 100 -0.212779 1
gene 1 13 46 -2.97653 0 101 -2.97653 1
gene 1 13 47 -1.54804 0 102 -1.54804 1
gene 1 13 48 0.295617 0 103 0.295617 1
gene 1 13 49 0.165566 0 104 0.165566 1
gene 1 14 42 0.986475 0 105 0.986475 1
gene 1 14 43 1.05379 0 106 1.05379 1
gene 1 14 44 -0.430969 0 107 -0.430969 1
gene 1 14 45 -0.340328 0 108 -0.340328 1
gene 1 14 46 1.25226 0 109 1.25226 1
gene 1 14 47 -0.0701529 0 110 -0.0701529 1
gene 1 14 48 -3.84389 0 111 -3.84389 1
gene 1 14 49 -1.73618 0 112 -1.73618 1
gene 1 15 42 1.83143 0 113 1.83143 1
gene 1 15 43 0.500046 0 114 0.500046 1
gene 1 15 44 -0.395319 0 115 -0.395319 1
gene 1 15 45 0.378984 0 116 0.378984 1
gene 1 15 46 2.97657 0 117 2.97657 1
gene 1 15 47 1.24014 0 118 1.24014 1
gene 1 15 48 2.29537 0 119 2.29537 1
gene 1 15 49 2.08966 0 120 2.08966 1
gene 1 16 42 -4.56769 0 121 -4.56769 1
gene 1 16 43 0.467104 0 122 0.467104 1
gene 1 16 44 1.68928 0 123 1.68928 1
gene 1 16 45 -0.678142 0 124 -0.678142 1
gene 1 16 46 -0.86792 0 125 -0.86792 1
gene 1 16 47 1.35974 0 126 1.35974 1
gene 1 16 48 1.51157 0 127 1.51157 1
gene 1 16 49 -0.374605 0 128 -0.374605 1
gene 1 17 42 -0.924992 0 129 -0.924992 1
gene 1 17 43 -0.172734 0 130 -0.172734 1
gene 1 17 44 1.90841 0 131 1.90841 1
gene 1 17 45 1.10914 0 132 1.10914 1
gene 1 17 46 1.54237 0 133 1.54237 1
gene 1 17 47 0.106076 0 134 0.106076 1
gene 1 17 48 -3.29898 0 135 -3.29898 1
gene 1 17 49 0.0792872 0 136 0.0792872 1
gene 1 18 42 -0.751723 0 137 -0.751723 1
gene 1 18 43 -0.557194 0 138 -0.557194 1
gene 1 18 44 2.49677 0 139 2.49677 1
gene 1 18 45 -1.58293 0 140 -1.58293 1
gene 1 18 46 -0.665727 0 141 -0.665727 1
gene 1 18 47 0.200221 0 142 0.200221 1
gene 1 18 48 -3.02421 0 143 -3.02421 1
gene 1 18 49 3.65651 0 144 3.65651 1
gene 1 19 42 1.69575 0 145 1.69575 1
gene 1 19 43 1.26367 0 146 1.26367 1
gene 1 19 44 -0.923197 0 147 -0.923197 1
gene 1 19 45 1.44426 0 148 1.44426 1
gene 1 19 46 1.69138 0 149 1.69138 1
gene 1 19 47 -0.00188525 0 150 -0.00188525 1
gene 1 19 48 3.50905 0 151 3.50905 1
gene 1 19 49 1.44464 0 152 1.44464 1
gene 1 20 42 -0.465592 0 153 -0.465592 1
gene 1 20 43 -0.566195 0 154 -0.566195 1
gene 1 20 44 -3.24657 0 155 -3.24657 1
gene 1 20 45 3.95218 0 156 3.95218 1
gene 1 20 46 -0.476404 0 157 -0.476404 1
gene 1 20 47 -2.78413 0 158 -2.78413 1
gene 1 20 48 -1.32374 0 159 -1.32374 1
gene 1 20 49 0.0925084 0 160 0.0925084 1
gene 1 21 42 -0.951725 0 161 -0.951725 1
gene 1 21 43 -1.7169 0 162 -1.7169 1
gene 1 21 44 1.36844 0 163 1.36844 1
gene 1 21 45 -0.422653 0 164 -0.422653 1
gene 1 21 46 1.375 0 165 1.375 1
gene 1 21 47 1.62622 0 166 1.62622 1
gene 1 21 48 1.62543 0 167 1.62543 1
gene 1 21 49 0.278137 0 168 0.278137 1
gene 1 22 42 -5 0 169 -5 1
gene 1 22 43 -2.98996 0 170 -2.98996 1
gene 1 22 44 -3.68754 0 171 -3.68754 1
gene 1 22 45 4.18445 0 172 4.18445 1
gene 1 22 46 -0.899674 0 173 -0.899674 1
gene 1 22 47 -3.31946 0 174 -3.31946 1
gene 1 22 48 -5 0 175 -5 1
gene 1 22 49 -1.88279 0 176 -1.88279 1
gene 1 23 42 -2.43825 0 177 -2.43825 1
gene 1 23 43 0.45432 0 178 0.45432 1
gene 1 23 44 -1.78296 0 179 -1.78296 1
gene 1 23 45 -1.90774 0 180 -1.90774 1
gene 1 23 46 -1.2752 0 181 -1.2752 1
gene 1 23 47 -0.537871 0 182 -0.537871 1
gene 1 23 48 0.276762 0 183 0.276762 1
gene 1 23 49 -3.53984 0 184 -3.53984 1
gene 1 24 42 0.805286 0 185 0.805286 1
gene 1 24 43 0.572108 0 186 0.572108 1
gene 1 24 44 5 0 187 5 1
gene 1 24 45 -3.16846 0 188 -3.16846 1
gene 1 24 46 -2.99407 0 189 -2.99407 1
gene 1 24 47 -0.64529 0 190 -0.64529 1
gene 1 24 48 0.721167 0 191 0.721167 1
gene 1 24 49 0.918132 0 192 0.918132 1
gene 1 25 42 0.757367 0 193 0.757367 1
gene 1 25 43 -0.614236 0 194 -0.614236 1
gene 1 25 44 -1.10001 0 195 -1.10001 1
gene 1 25 45 -0.723573 0 196 -0.723573 1
gene 1 25 46 -0.659766 0 197 -0.659766 1
gene 1 25 47 -1.23908 0 198 -1.23908 1
gene 1 25 48 -1.17789 0 199 -1.17789 1
gene 1 25 49 -3.59898 0 200 -3.59898 1
gene 1 26 42 2.05015 0 201 2.05015 1
gene 1 26 43 0.484824 0 202 0.484824 1
gene 1 26 44 -0.0348278 0 203 -0.0348278 1
gene 1 26 45 1.86615 0 204 1.86615 1
gene 1 26 46 -1.51817 0 205 -1.51817 1
gene 1 26 47 -4.20222 0 206 -4.20222 1
gene 1 26 48 0.724186 0 207 0.724186 1
gene 1 26 49 1.49328 0 208 1.49328 1
gene 1 27 42 2.36164 0 209 2.36164 1
gene 1 27 43 1.28953 0 210 1.28953 1
gene 1 27 44 2.43217 0 211 2.43217 1
gene 1 27 45 0.549907 0 212 0.549907 1
gene 1 27 46 0.591938 0 213 0.591938 1
gene 1 27 47 1.61118 0 214 1.61118 1
gene 1 27 48 0.0516556 0 215 0.0516556 1
gene 1 27 49 1.17353 0 216 1.17353 1
gene 1 28 42 -5 0 217 -5 1
gene 1 28 43 -0.251756 0 218 -0.251756 1
gene 1 28 44 -2.16516 0 219 -2.16516 1
gene 1 28 45 0.602966 0 220 0.602966 1
gene 1 28 46 -0.565805 0 221 -0.565805 1
gene 1 28 47 -5 0 222 -5 1
gene 1 28 48 -2.14857 0 223 -2.14857 1
gene 1 28 49 -1.33831 0 224 -1.33831 1
gene 1 29 42 0.504329 0 225 0.504329 1
gene 1 29 43 1.40964 0 226 1.40964 1
gene 1 29 44 -0.7912 0 227 -0.7912 1
gene 1 29 45 3.38941 0 228 3.38941 1
gene 1 29 46 -0.987837 0 229 -0.987837 1
gene 1 29 47 -0.958897 0 230 -0.958897 1
gene 1 29 48 -0.610774 0 231 -0.610774 1
gene 1 29 49 -1.73672 0 232 -1.73672 1
gene 1 30 42 3.73468 0 233 3.73468 1
gene 1 30 43 0.0162404 0 234 0.0162404 1
gene 1 30 44 -2.26837 0 235 -2.26837 1
gene 1 30 45 1.80007 0 236 1.80007 1
gene 1 30 46 3.22596 0 237 3.22596 1
gene 1 30 47 3.60799 0 238 3.60799 1
gene 1 30 48 -5 0 239 -5 1
gene 1 30 49 -2.17506 0 240 -2.17506 1
gene 1 31 42 2.44822 0 241 2.44822 1
gene 1 31 43 -2.90967 0 242 -2.90967 1
gene 1 31 44 0.730534 0 243 0.730534 1
gene 1 31 45 1.81732 0 244 1.81732 1
gene 1 31 46 -0.285443 0 245 -0.285443 1
gene 1 31 47 -2.795 0 246 -2.795 1
gene 1 31 48 1.10319 0 247 1.10319 1
gene 1 31 49 0.380916 0 248 0.380916 1
gene 1 32 42 -1.10939 0 249 -1.10939 1
gene 1 32 43 0.180808 0 250 0.180808 1
gene 1 32 44 0.357529 0 251 0.357529 1
gene 1 32 45 -0.549019 0 252 -0.549019 1
gene 1 32 46 3.46475 0 253 3.46475 1
gene 1 32 47 1.70469 0 254 1.70469 1
gene 1 32 48 -3.55952 0 255 -3.55952 1
gene 1 32 49 3.04624 0 256 3.04624 1
gene 1 33 42 -1.70238 0 257 -1.70238 1
gene 1 33 43 -1.81063 0 258 -1.81063 1
gene 1 33 44 0.419478 0 259 0.419478 1
gene 1 33 45 0.676535 0 260 0.676535 1
gene 1 33 46 -3.76945 0 261 -3.76945 1
gene 1 33 47 3.79125 0 262 3.79125 1
gene 1 33 48 0.515449 0 263 0.515449 1
gene 1 33 49 1.06701 0 264 1.06701 1
gene 1 34 42 -1.5206 0 265 -1.5206 1
gene 1 34 43 -4.93607 0 266 -4.93607 1
gene 1 34 44 -0.0993768 0 267 -0.0993768 1
gene 1 34 45 -0.960319 0 268 -0.960319 1
gene 1 34 46 1.98791 0 269 1.98791 1
gene 1 34 47 -0.837184 0 270 -0.837184 1
gene 1 34 48 -1.18688 0 271 -1.18688 1
gene 1 34 49 0.930879 0 272 0.930879 1
gene 1 35 42 0.406851 0 273 0.406851 1
gene 1 35 43 -0.446922 0 274 -0.446922 1
gene 1 35 44 -0.581358 0 275 -0.581358 1
gene 1 35 45 -0.99855 0 276 -0.99855 1
gene 1 35 46 0.804749 0 277 0.804749 1
gene 1 35 47 -0.679282 0 278 -0.679282 1
gene 1 35 48 1.83973 0 279 1.83973 1
gene 1 35 49 -1.21884 0 280 -1.21884 1
gene 1 36 42 0.255955 0 281 0.255955 1
gene 1 36 43 0.78242 0 282 0.78242 1
gene 1 36 44 -0.860265 0 283 -0.860265 1
gene 1 36 45 -1.04923 0 284 -1.04923 1
gene 1 36 46 0.649705 0 285 0.649705 1
gene 1 36 47 0.0857184 0 286 0.0857184 1
gene 1 36 48 0.794942 0 287 0.794942 1
gene 1 36 49 1.30162 0 288 1.30162 1
gene 1 37 42 1.65637 0 289 1.65637 1
gene 1 37 43 -1.9982 0 290 -1.9982 1
gene 1 37 44 -1.35543 0 291 -1.35543 1
gene 1 37 45 2.50163 0 292 2.50163 1
gene 1 37 46 -3.59478 0 293 -3.59478 1
gene 1 37 47 1.02775 0 294 1.02775 1
gene 1 37 48 1.07721 0 295 1.07721 1
gene 1 37 49 0.818522 0 296 0.818522 1
gene 1 38 42 0.859726 0 297 0.859726 1
gene 1 38 43 -2.20755 0 298 -2.20755 1
gene 1 38 44 -0.484654 0 299 -0.484654 1
gene 1 38 45 0.34921 0 300 0.34921 1
gene 1 38 46 -1.81654 0 301 -1.81654 1
gene 1 38 47 1.03663 0 302 1.03663 1
gene 1 38 48 -0.240097 0 303 -0.240097 1
gene 1 38 49 0.745639 0 304 0.745639 1
gene 1 39 42 -0.761742 0 305 -0.761742 1
gene 1 39 43 0.518683 0 306 0.518683 1
gene 1 39 44 -0.347704 0 307 -0.347704 1
gene 1 39 45 0.252395 0 308 0.252395 1
gene 1 39 46 -0.767176 0 309 -0.767176 1
gene 1 39 47 0.228579 0 310 0.228579 1
gene 1 39 48 -0.0331408 0 311 -0.0331408 1
gene 1 39 49 -0.88545 0 312 -0.88545 1
gene 1 40 42 0.639204 0 313 0.639204 1
gene 1 40 43 0.379233 0 314 0.379233 1
gene 1 40 44 -0.823693 0 315 -0.823693 1
gene 1 40 45 -0.665119 0 316 -0.665119 1
gene 1 40 46 -0.72649 0 317 -0.72649 1
gene 1 40 47 0.257688 0 318 0.257688 1
gene 1 40 48 0.0134789 0 319 0.0134789 1
gene 1 40 49 -2.38219 0 320 -2.38219 1
gene 1 41 42 -0.124395 0 321 -0.124395 1
gene 1 41 43 3.59355 0 322 3.59355 1
gene 1 41 44 0.291578 0 323 0.291578 1
gene 1 41 45 0.0521258 0 324 0.0521258 1
gene 1 41 46 0.0873276 0 325 0.0873276 1
gene 1 41 47 1.3057 0 326 1.3057 1
gene 1 41 48 0.350122 0 327 0.350122 1
gene 1 41 49 0.332773 0 328 0.332773 1
genomeend 0


