/* Organism #5 Fitness: -5903.980000 Time: 0 */
genomestart 5
trait 1 0.281420 0.207179 0.000000 0.000000 0.000000 0.000000 0.700840 0.475885 
node 1 1 1 1
node 2 1 1 1
node 3 1 1 1
node 4 1 1 1
node 5 1 1 1
node 6 1 1 1
node 7 1 1 1
node 8 1 1 1
node 9 1 1 1
node 10 1 1 1
node 11 1 1 1
node 12 1 1 1
node 13 1 1 1
node 14 1 1 1
node 15 1 1 1
node 16 1 1 1
node 17 1 1 1
node 18 1 1 1
node 19 1 1 1
node 20 1 1 1
node 21 1 1 1
node 22 1 1 1
node 23 1 1 1
node 24 1 1 1
node 25 1 1 1
node 26 1 1 1
node 27 1 1 1
node 28 1 1 1
node 29 1 1 1
node 30 1 1 1
node 31 1 1 1
node 32 1 1 1
node 33 1 1 1
node 34 1 1 1
node 35 1 1 1
node 36 1 1 1
node 37 1 1 1
node 38 1 1 1
node 39 1 1 1
node 40 1 1 1
node 41 1 1 3
node 42 1 0 2
node 43 1 0 2
node 44 1 0 2
node 45 1 0 2
node 46 1 0 2
node 47 1 0 2
node 48 1 0 2
node 49 1 0 2
gene 1 1 42 -2.39895 0 1 -2.39895 1
gene 1 1 43 0.0957506 0 2 0.0957506 1
gene 1 1 44 0.571245 0 3 0.571245 1
gene 1 1 45 0.203369 0 4 0.203369 1
gene 1 1 46 0.289124 0 5 0.289124 1
gene 1 1 47 0.875133 0 6 0.875133 1
gene 1 1 48 -0.283196 0 7 -0.283196 1
gene 1 1 49 4.52779 0 8 4.52779 1
gene 1 2 42 -3.60845 0 9 -3.60845 1
gene 1 2 43 0.176724 0 10 0.176724 1
gene 1 2 44 -0.805135 0 11 -0.805135 1
gene 1 2 45 -0.158595 0 12 -0.158595 1
gene 1 2 46 -3.77781 0 13 -3.77781 1
gene 1 2 47 3.10814 0 14 3.10814 1
gene 1 2 48 3.80418 0 15 3.80418 1
gene 1 2 49 -2.14348 0 16 -2.14348 1
gene 1 3 42 -1.01142 0 17 -1.01142 1
gene 1 3 43 -0.345757 0 18 -0.345757 1
gene 1 3 44 1.64593 0 19 1.64593 1
gene 1 3 45 -0.874015 0 20 -0.874015 1
gene 1 3 46 3.07677 0 21 3.07677 1
gene 1 3 47 -1.46251 0 22 -1.46251 1
gene 1 3 48 1.85399 0 23 1.85399 1
gene 1 3 49 -0.58218 0 24 -0.58218 1
gene 1 4 42 3.48198 0 25 3.48198 1
gene 1 4 43 3.0088 0 26 3.0088 1
gene 1 4 44 -0.721697 0 27 -0.721697 1
gene 1 4 45 -1.17867 0 28 -1.17867 1
gene 1 4 46 5 0 29 5 1
gene 1 4 47 -1.22492 0 30 -1.22492 1
gene 1 4 48 1.54707 0 31 1.54707 1
gene 1 4 49 2.29197 0 32 2.29197 1
gene 1 5 42 4.86547 0 33 4.86547 1
gene 1 5 43 1.04492 0 34 1.04492 1
gene 1 5 44 1.63781 0 35 1.63781 1
gene 1 5 45 -3.10331 0 36 -3.10331 1
gene 1 5 46 -1.19297 0 37 -1.19297 1
gene 1 5 47 -2.32973 0 38 -2.32973 1
gene 1 5 48 2.59492 0 39 2.59492 1
gene 1 5 49 1.47478 0 40 1.47478 1
gene 1 6 42 1.1506 0 41 1.1506 1
gene 1 6 43 4.06277 0 42 4.06277 1
gene 1 6 44 -1.454 0 43 -1.454 1
gene 1 6 45 0.292985 0 44 0.292985 1
gene 1 6 46 -2.33344 0 45 -2.33344 1
gene 1 6 47 -0.00109793 0 46 -0.00109793 1
gene 1 6 48 -2.0311 0 47 -2.0311 1
gene 1 6 49 -4.80232 0 48 -4.80232 1
gene 1 7 42 2.10108 0 49 2.10108 1
gene 1 7 43 0.61529 0 50 0.61529 1
gene 1 7 44 -1.25777 0 51 -1.25777 1
gene 1 7 45 0.183083 0 52 0.183083 1
gene 1 7 46 -1.57334 0 53 -1.57334 1
gene 1 7 47 -0.881604 0 54 -0.881604 1
gene 1 7 48 0.687185 0 55 0.687185 1
gene 1 7 49 4.48541 0 56 4.48541 1
gene 1 8 42 2.23171 0 57 2.23171 1
gene 1 8 43 0.901472 0 58 0.901472 1
gene 1 8 44 -0.633849 0 59 -0.633849 1
gene 1 8 45 1.17399 0 60 1.17399 1
gene 1 8 46 1.39698 0 61 1.39698 1
gene 1 8 47 5 0 62 5 1
gene 1 8 48 -2.16665 0 63 -2.16665 1
gene 1 8 49 0.975057 0 64 0.975057 1
gene 1 9 42 1.07673 0 65 1.07673 1
gene 1 9 43 1.90941 0 66 1.90941 1
gene 1 9 44 -5 0 67 -5 1
gene 1 9 45 1.28724 0 68 1.28724 1
gene 1 9 46 0.568387 0 69 0.568387 1
gene 1 9 47 0.541853 0 70 0.541853 1
gene 1 9 48 -1.05903 0 71 -1.05903 1
gene 1 9 49 -0.0777952 0 72 -0.0777952 1
gene 1 10 42 -4.66602 0 73 -4.66602 1
gene 1 10 43 -0.896379 0 74 -0.896379 1
gene 1 10 44 1.35386 0 75 1.35386 1
gene 1 10 45 3.76254 0 76 3.76254 1
gene 1 10 46 -1.09514 0 77 -1.09514 1
gene 1 10 47 -1.69437 0 78 -1.69437 1
gene 1 10 48 -2.75315 0 79 -2.75315 1
gene 1 10 49 -3.06489 0 80 -3.06489 1
gene 1 11 42 1.79563 0 81 1.79563 1
gene 1 11 43 5 0 82 5 1
gene 1 11 44 -5 0 83 -5 1
gene 1 11 45 4.61014 0 84 4.61014 1
gene 1 11 46 2.01803 0 85 2.01803 1
gene 1 11 47 0.450266 0 86 0.450266 1
gene 1 11 48 -3.85054 0 87 -3.85054 1
gene 1 11 49 1.11564 0 88 1.11564 1
gene 1 12 42 1.02907 0 89 1.02907 1
gene 1 12 43 2.97826 0 90 2.97826 1
gene 1 12 44 2.19858 0 91 2.19858 1
gene 1 12 45 0.0242383 0 92 0.0242383 1
gene 1 12 46 1.58595 0 93 1.58595 1
gene 1 12 47 -0.148073 0 94 -0.148073 1
gene 1 12 48 0.434444 0 95 0.434444 1
gene 1 12 49 0.97018 0 96 0.97018 1
gene 1 13 42 3.13951 0 97 3.13951 1
gene 1 13 43 -0.920942 0 98 -0.920942 1
gene 1 13 44 1.18968 0 99 1.18968 1
gene 1 13 45 -0.103965 0 100 -0.103965 1
gene 1 13 46 -3.87449 0 101 -3.87449 1
gene 1 13 47 2.06508 0 102 2.06508 1
gene 1 13 48 -0.0583871 0 103 -0.0583871 1
gene 1 13 49 1.2492 0 104 1.2492 1
gene 1 14 42 -3.77465 0 105 -3.77465 1
gene 1 14 43 3.3342 0 106 3.3342 1
gene 1 14 44 0.0187739 0 107 0.0187739 1
gene 1 14 45 -0.01578 0 108 -0.01578 1
gene 1 14 46 -1.319 0 109 -1.319 1
gene 1 14 47 3.24422 0 110 3.24422 1
gene 1 14 48 3.17174 0 111 3.17174 1
gene 1 14 49 -3.14829 0 112 -3.14829 1
gene 1 15 42 0.309504 0 113 0.309504 1
gene 1 15 43 -0.955139 0 114 -0.955139 1
gene 1 15 44 -2.88907 0 115 -2.88907 1
gene 1 15 45 -0.465799 0 116 -0.465799 1
gene 1 15 46 -5 0 117 -5 1
gene 1 15 47 2.31044 0 118 2.31044 1
gene 1 15 48 -0.98654 0 119 -0.98654 1
gene 1 15 49 1.59435 0 120 1.59435 1
gene 1 16 42 0.497667 0 121 0.497667 1
gene 1 16 43 5 0 122 5 1
gene 1 16 44 2.20306 0 123 2.20306 1
gene 1 16 45 0.982524 0 124 0.982524 1
gene 1 16 46 -0.888601 0 125 -0.888601 1
gene 1 16 47 -3.73439 0 126 -3.73439 1
gene 1 16 48 3.58182 0 127 3.58182 1
gene 1 16 49 -2.19039 0 128 -2.19039 1
gene 1 17 42 0.701559 0 129 0.701559 1
gene 1 17 43 5 0 130 5 1
gene 1 17 44 -3.47286 0 131 -3.47286 1
gene 1 17 45 4.30369 0 132 4.30369 1
gene 1 17 46 2.15358 0 133 2.15358 1
gene 1 17 47 -3.65307 0 134 -3.65307 1
gene 1 17 48 1.16791 0 135 1.16791 1
gene 1 17 49 -1.5512 0 136 -1.5512 1
gene 1 18 42 -1.10853 0 137 -1.10853 1
gene 1 18 43 -0.690296 0 138 -0.690296 1
gene 1 18 44 -0.608535 0 139 -0.608535 1
gene 1 18 45 -1.60895 0 140 -1.60895 1
gene 1 18 46 -1.64462 0 141 -1.64462 1
gene 1 18 47 0.401884 0 142 0.401884 1
gene 1 18 48 -2.71952 0 143 -2.71952 1
gene 1 18 49 4.80207 0 144 4.80207 1
gene 1 19 42 -0.789707 0 145 -0.789707 1
gene 1 19 43 -0.832813 0 146 -0.832813 1
gene 1 19 44 -0.299376 0 147 -0.299376 1
gene 1 19 45 -0.478551 0 148 -0.478551 1
gene 1 19 46 2.92391 0 149 2.92391 1
gene 1 19 47 1.97578 0 150 1.97578 1
gene 1 19 48 1.80149 0 151 1.80149 1
gene 1 19 49 -0.550259 0 152 -0.550259 1
gene 1 20 42 -0.752799 0 153 -0.752799 1
gene 1 20 43 4.39384 0 154 4.39384 1
gene 1 20 44 -2.9722 0 155 -2.9722 1
gene 1 20 45 0.649726 0 156 0.649726 1
gene 1 20 46 -0.319446 0 157 -0.319446 1
gene 1 20 47 -1.78054 0 158 -1.78054 1
gene 1 20 48 1.51414 0 159 1.51414 1
gene 1 20 49 0.393767 0 160 0.393767 1
gene 1 21 42 2.6286 0 161 2.6286 1
gene 1 21 43 0.0553472 0 162 0.0553472 1
gene 1 21 44 3.42358 0 163 3.42358 1
gene 1 21 45 -1.13406 0 164 -1.13406 1
gene 1 21 46 -0.94949 0 165 -0.94949 1
gene 1 21 47 1.33998 0 166 1.33998 1
gene 1 21 48 -2.42242 0 167 -2.42242 1
gene 1 21 49 -3.89095 0 168 -3.89095 1
gene 1 22 42 -0.355752 0 169 -0.355752 1
gene 1 22 43 0.956554 0 170 0.956554 1
gene 1 22 44 -4.25949 0 171 -4.25949 1
gene 1 22 45 2.31602 0 172 2.31602 1
gene 1 22 46 -0.492273 0 173 -0.492273 1
gene 1 22 47 -1.498 0 174 -1.498 1
gene 1 22 48 -3.21458 0 175 -3.21458 1
gene 1 22 49 2.17425 0 176 2.17425 1
gene 1 23 42 -1.33861 0 177 -1.33861 1
gene 1 23 43 -2.0418 0 178 -2.0418 1
gene 1 23 44 2.12969 0 179 2.12969 1
gene 1 23 45 2.23289 0 180 2.23289 1
gene 1 23 46 2.23364 0 181 2.23364 1
gene 1 23 47 4.21624 0 182 4.21624 1
gene 1 23 48 1.12334 0 183 1.12334 1
gene 1 23 49 2.94114 0 184 2.94114 1
gene 1 24 42 3.83211 0 185 3.83211 1
gene 1 24 43 -1.2131 0 186 -1.2131 1
gene 1 24 44 3.5673 0 187 3.5673 1
gene 1 24 45 -3.56018 0 188 -3.56018 1
gene 1 24 46 -0.337821 0 189 -0.337821 1
gene 1 24 47 2.77006 0 190 2.77006 1
gene 1 24 48 1.43591 0 191 1.43591 1
gene 1 24 49 3.21972 0 192 3.21972 1
gene 1 25 42 0.867557 0 193 0.867557 1
gene 1 25 43 -2.28647 0 194 -2.28647 1
gene 1 25 44 -2.11833 0 195 -2.11833 1
gene 1 25 45 3.65238 0 196 3.65238 1
gene 1 25 46 -5 0 197 -5 1
gene 1 25 47 -3.96762 0 198 -3.96762 1
gene 1 25 48 0.0847859 0 199 0.0847859 1
gene 1 25 49 1.83045 0 200 1.83045 1
gene 1 26 42 0.981207 0 201 0.981207 1
gene 1 26 43 -2.43937 0 202 -2.43937 1
gene 1 26 44 1.6389 0 203 1.6389 1
gene 1 26 45 -2.03917 0 204 -2.03917 1
gene 1 26 46 0.0941812 0 205 0.0941812 1
gene 1 26 47 -0.563854 0 206 -0.563854 1
gene 1 26 48 -0.235229 0 207 -0.235229 1
gene 1 26 49 3.37419 0 208 3.37419 1
gene 1 27 42 -2.72852 0 209 -2.72852 1
gene 1 27 43 -1.64463 0 210 -1.64463 1
gene 1 27 44 0.71735 0 211 0.71735 1
gene 1 27 45 -0.74378 0 212 -0.74378 1
gene 1 27 46 -3.07417 0 213 -3.07417 1
gene 1 27 47 -3.04193 0 214 -3.04193 1
gene 1 27 48 1.8077 0 215 1.8077 1
gene 1 27 49 0.0951637 0 216 0.0951637 1
gene 1 28 42 2.41577 0 217 2.41577 1
gene 1 28 43 1.60459 0 218 1.60459 1
gene 1 28 44 0.130844 0 219 0.130844 1
gene 1 28 45 1.23382 0 220 1.23382 1
gene 1 28 46 2.03802 0 221 2.03802 1
gene 1 28 47 -0.639355 0 222 -0.639355 1
gene 1 28 48 -0.546187 0 223 -0.546187 1
gene 1 28 49 1.02813 0 224 1.02813 1
gene 1 29 42 -2.50893 0 225 -2.50893 1
gene 1 29 43 -2.52276 0 226 -2.52276 1
gene 1 29 44 -0.422809 0 227 -0.422809 1
gene 1 29 45 3.54412 0 228 3.54412 1
gene 1 29 46 -0.76408 0 229 -0.76408 1
gene 1 29 47 4.13616 0 230 4.13616 1
gene 1 29 48 -3.52156 0 231 -3.52156 1
gene 1 29 49 -0.425934 0 232 -0.425934 1
gene 1 30 42 3.52676 0 233 3.52676 1
gene 1 30 43 2.24493 0 234 2.24493 1
gene 1 30 44 0.167384 0 235 0.167384 1
gene 1 30 45 0.59347 0 236 0.59347 1
gene 1 30 46 1.05621 0 237 1.05621 1
gene 1 30 47 3.52155 0 238 3.52155 1
gene 1 30 48 3.53039 0 239 3.53039 1
gene 1 30 49 0.384037 0 240 0.384037 1
gene 1 31 42 -1.42834 0 241 -1.42834 1
gene 1 31 43 -1.76134 0 242 -1.76134 1
gene 1 31 44 -4.40863 0 243 -4.40863 1
gene 1 31 45 -0.316128 0 244 -0.316128 1
gene 1 31 46 1.23851 0 245 1.23851 1
gene 1 31 47 1.02173 0 246 1.02173 1
gene 1 31 48 -4.15241 0 247 -4.15241 1
gene 1 31 49 2.53766 0 248 2.53766 1
gene 1 32 42 -1.05978 0 249 -1.05978 1
gene 1 32 43 -2.11976 0 250 -2.11976 1
gene 1 32 44 1.39995 0 251 1.39995 1
gene 1 32 45 2.55157 0 252 2.55157 1
gene 1 32 46 0.24699 0 253 0.24699 1
gene 1 32 47 0.00953799 0 254 0.00953799 1
gene 1 32 48 -2.15856 0 255 -2.15856 1
gene 1 32 49 2.41154 0 256 2.41154 1
gene 1 33 42 -4.52269 0 257 -4.52269 1
gene 1 33 43 4.68947 0 258 4.68947 1
gene 1 33 44 2.35787 0 259 2.35787 1
gene 1 33 45 -3.02956 0 260 -3.02956 1
gene 1 33 46 1.31871 0 261 1.31871 1
gene 1 33 47 -0.253383 0 262 -0.253383 1
gene 1 33 48 4.82216 0 263 4.82216 1
gene 1 33 49 2.52585 0 264 2.52585 1
gene 1 34 42 -1.50043 0 265 -1.50043 1
gene 1 34 43 -0.381452 0 266 -0.381452 1
gene 1 34 44 -0.996646 0 267 -0.996646 1
gene 1 34 45 0.997839 0 268 0.997839 1
gene 1 34 46 0.232851 0 269 0.232851 1
gene 1 34 47 1.41372 0 270 1.41372 1
gene 1 34 48 0.394907 0 271 0.394907 1
gene 1 34 49 0.961589 0 272 0.961589 1
gene 1 35 42 0.0297508 0 273 0.0297508 1
gene 1 35 43 -1.67942 0 274 -1.67942 1
gene 1 35 44 -0.986552 0 275 -0.986552 1
gene 1 35 45 -0.491333 0 276 -0.491333 1
gene 1 35 46 -1.76662 0 277 -1.76662 1
gene 1 35 47 -0.160927 0 278 -0.160927 1
gene 1 35 48 0.352033 0 279 0.352033 1
gene 1 35 49 1.29006 0 280 1.29006 1
gene 1 36 42 0.0132141 0 281 0.0132141 1
gene 1 36 43 -0.577337 0 282 -0.577337 1
gene 1 36 44 0.402076 0 283 0.402076 1
gene 1 36 45 0.120006 0 284 0.120006 1
gene 1 36 46 -0.183427 0 285 -0.183427 1
gene 1 36 47 0.863675 0 286 0.863675 1
gene 1 36 48 -0.631322 0 287 -0.631322 1
gene 1 36 49 -0.779381 0 288 -0.779381 1
gene 1 37 42 -0.862903 0 289 -0.862903 1
gene 1 37 43 -0.486816 0 290 -0.486816 1
gene 1 37 44 2.2597 0 291 2.2597 1
gene 1 37 45 -0.543432 0 292 -0.543432 1
gene 1 37 46 -1.03231 0 293 -1.03231 1
gene 1 37 47 -0.748127 0 294 -0.748127 1
gene 1 37 48 0.553458 0 295 0.553458 1
gene 1 37 49 -0.148339 0 296 -0.148339 1
gene 1 38 42 -0.172871 0 297 -0.172871 1
gene 1 38 43 0.250481 0 298 0.250481 1
gene 1 38 44 1.03906 0 299 1.03906 1
gene 1 38 45 0.442378 0 300 0.442378 1
gene 1 38 46 -2.87329 0 301 -2.87329 1
gene 1 38 47 0.311407 0 302 0.311407 1
gene 1 38 48 0.605072 0 303 0.605072 1
gene 1 38 49 -0.203646 0 304 -0.203646 1
gene 1 39 42 2.45709 0 305 2.45709 1
gene 1 39 43 -1.21554 0 306 -1.21554 1
gene 1 39 44 1.90069 0 307 1.90069 1
gene 1 39 45 -1.31129 0 308 -1.31129 1
gene 1 39 46 0.707016 0 309 0.707016 1
gene 1 39 47 1.97749 0 310 1.97749 1
gene 1 39 48 0.908753 0 311 0.908753 1
gene 1 39 49 -0.498437 0 312 -0.498437 1
gene 1 40 42 0.157041 0 313 0.157041 1
gene 1 40 43 0.647593 0 314 0.647593 1
gene 1 40 44 1.89632 0 315 1.89632 1
gene 1 40 45 1.02983 0 316 1.02983 1
gene 1 40 46 -1.91627 0 317 -1.91627 1
gene 1 40 47 -0.430946 0 318 -0.430946 1
gene 1 40 48 0.164313 0 319 0.164313 1
gene 1 40 49 -0.484943 0 320 -0.484943 1
gene 1 41 42 -3.3434 0 321 -3.3434 1
gene 1 41 43 3.30773 0 322 3.30773 1
gene 1 41 44 -0.460892 0 323 -0.460892 1
gene 1 41 45 0.036379 0 324 0.036379 1
gene 1 41 46 -1.37734 0 325 -1.37734 1
gene 1 41 47 -2.53497 0 326 -2.53497 1
gene 1 41 48 -1.49325 0 327 -1.49325 1
gene 1 41 49 -1.50074 0 328 -1.50074 1
genomeend 5


