/* Organism #6 Fitness: -6367.380000 Time: 0 */
genomestart 6
trait 1 0.100000 0.000000 0.000000 0.671582 0.000000 0.000000 0.000000 0.000000 
node 1 1 1 1
node 2 1 1 1
node 3 1 1 1
node 4 1 1 1
node 5 1 1 1
node 6 1 1 1
node 7 1 1 1
node 8 1 1 1
node 9 1 1 1
node 10 1 1 1
node 11 1 1 1
node 12 1 1 1
node 13 1 1 1
node 14 1 1 1
node 15 1 1 1
node 16 1 1 1
node 17 1 1 1
node 18 1 1 1
node 19 1 1 1
node 20 1 1 1
node 21 1 1 1
node 22 1 1 1
node 23 1 1 1
node 24 1 1 1
node 25 1 1 1
node 26 1 1 1
node 27 1 1 1
node 28 1 1 1
node 29 1 1 1
node 30 1 1 1
node 31 1 1 1
node 32 1 1 1
node 33 1 1 1
node 34 1 1 1
node 35 1 1 1
node 36 1 1 1
node 37 1 1 1
node 38 1 1 1
node 39 1 1 1
node 40 1 1 1
node 41 1 1 3
node 42 1 0 2
node 43 1 0 2
node 44 1 0 2
node 45 1 0 2
node 46 1 0 2
node 47 1 0 2
node 48 1 0 2
node 49 1 0 2
gene 1 1 42 3.48959 0 1 3.48959 1
gene 1 1 43 -0.430927 0 2 -0.430927 1
gene 1 1 44 0.509511 0 3 0.509511 1
gene 1 1 45 -0.0256171 0 4 -0.0256171 1
gene 1 1 46 -0.245581 0 5 -0.245581 1
gene 1 1 47 0.781404 0 6 0.781404 1
gene 1 1 48 0.957105 0 7 0.957105 1
gene 1 1 49 1.94425 0 8 1.94425 1
gene 1 2 42 0.316585 0 9 0.316585 1
gene 1 2 43 0.262717 0 10 0.262717 1
gene 1 2 44 -3.46535 0 11 -3.46535 1
gene 1 2 45 -3.62248 0 12 -3.62248 1
gene 1 2 46 -1.63658 0 13 -1.63658 1
gene 1 2 47 -1.64511 0 14 -1.64511 1
gene 1 2 48 2.2342 0 15 2.2342 1
gene 1 2 49 1.31418 0 16 1.31418 1
gene 1 3 42 -0.448906 0 17 -0.448906 1
gene 1 3 43 2.61653 0 18 2.61653 1
gene 1 3 44 4.48283 0 19 4.48283 1
gene 1 3 45 -0.2491 0 20 -0.2491 1
gene 1 3 46 -1.83428 0 21 -1.83428 1
gene 1 3 47 -0.472789 0 22 -0.472789 1
gene 1 3 48 2.61773 0 23 2.61773 1
gene 1 3 49 1.33721 0 24 1.33721 1
gene 1 4 42 -2.04121 0 25 -2.04121 1
gene 1 4 43 1.55651 0 26 1.55651 1
gene 1 4 44 3.77465 0 27 3.77465 1
gene 1 4 45 0.582234 0 28 0.582234 1
gene 1 4 46 0.381811 0 29 0.381811 1
gene 1 4 47 2.09346 0 30 2.09346 1
gene 1 4 48 0.258033 0 31 0.258033 1
gene 1 4 49 1.05671 0 32 1.05671 1
gene 1 5 42 -0.356076 0 33 -0.356076 1
gene 1 5 43 0.262728 0 34 0.262728 1
gene 1 5 44 3.52805 0 35 3.52805 1
gene 1 5 45 2.04561 0 36 2.04561 1
gene 1 5 46 3.39149 0 37 3.39149 1
gene 1 5 47 3.98538 0 38 3.98538 1
gene 1 5 48 -0.337169 0 39 -0.337169 1
gene 1 5 49 1.82692 0 40 1.82692 1
gene 1 6 42 0.280412 0 41 0.280412 1
gene 1 6 43 -0.685674 0 42 -0.685674 1
gene 1 6 44 1.08933 0 43 1.08933 1
gene 1 6 45 0.054821 0 44 0.054821 1
gene 1 6 46 0.667934 0 45 0.667934 1
gene 1 6 47 2.30825 0 46 2.30825 1
gene 1 6 48 -1.39926 0 47 -1.39926 1
gene 1 6 49 -3.85504 0 48 -3.85504 1
gene 1 7 42 0.488217 0 49 0.488217 1
gene 1 7 43 -1.842 0 50 -1.842 1
gene 1 7 44 -3.2317 0 51 -3.2317 1
gene 1 7 45 -0.99672 0 52 -0.99672 1
gene 1 7 46 1.46426 0 53 1.46426 1
gene 1 7 47 1.49223 0 54 1.49223 1
gene 1 7 48 -3.05594 0 55 -3.05594 1
gene 1 7 49 3.40186 0 56 3.40186 1
gene 1 8 42 -0.382903 0 57 -0.382903 1
gene 1 8 43 -0.816663 0 58 -0.816663 1
gene 1 8 44 0.308202 0 59 0.308202 1
gene 1 8 45 -0.0608494 0 60 -0.0608494 1
gene 1 8 46 1.54671 0 61 1.54671 1
gene 1 8 47 -1.63614 0 62 -1.63614 1
gene 1 8 48 -2.93196 0 63 -2.93196 1
gene 1 8 49 -1.23105 0 64 -1.23105 1
gene 1 9 42 -2.65576 0 65 -2.65576 1
gene 1 9 43 0.674863 0 66 0.674863 1
gene 1 9 44 -4.81941 0 67 -4.81941 1
gene 1 9 45 4.84325 0 68 4.84325 1
gene 1 9 46 -0.583992 0 69 -0.583992 1
gene 1 9 47 0.238582 0 70 0.238582 1
gene 1 9 48 5 0 71 5 1
gene 1 9 49 0.385035 0 72 0.385035 1
gene 1 10 42 2.67017 0 73 2.67017 1
gene 1 10 43 -0.291024 0 74 -0.291024 1
gene 1 10 44 -1.53835 0 75 -1.53835 1
gene 1 10 45 0.0217435 0 76 0.0217435 1
gene 1 10 46 -1.51878 0 77 -1.51878 1
gene 1 10 47 -0.838826 0 78 -0.838826 1
gene 1 10 48 -2.38091 0 79 -2.38091 1
gene 1 10 49 -1.4101 0 80 -1.4101 1
gene 1 11 42 -0.263554 0 81 -0.263554 1
gene 1 11 43 -1.96065 0 82 -1.96065 1
gene 1 11 44 -0.264765 0 83 -0.264765 1
gene 1 11 45 2.45806 0 84 2.45806 1
gene 1 11 46 -0.859052 0 85 -0.859052 1
gene 1 11 47 -1.57157 0 86 -1.57157 1
gene 1 11 48 -0.760648 0 87 -0.760648 1
gene 1 11 49 -0.339656 0 88 -0.339656 1
gene 1 12 42 0.86452 0 89 0.86452 1
gene 1 12 43 5 0 90 5 1
gene 1 12 44 0.804933 0 91 0.804933 1
gene 1 12 45 0.508871 0 92 0.508871 1
gene 1 12 46 2.12601 0 93 2.12601 1
gene 1 12 47 -1.51631 0 94 -1.51631 1
gene 1 12 48 2.626 0 95 2.626 1
gene 1 12 49 -3.80476 0 96 -3.80476 1
gene 1 13 42 -0.832325 0 97 -0.832325 1
gene 1 13 43 -0.331826 0 98 -0.331826 1
gene 1 13 44 1.04918 0 99 1.04918 1
gene 1 13 45 -0.0703688 0 100 -0.0703688 1
gene 1 13 46 -0.0071295 0 101 -0.0071295 1
gene 1 13 47 3.94087 0 102 3.94087 1
gene 1 13 48 -0.501448 0 103 -0.501448 1
gene 1 13 49 -2.49292 0 104 -2.49292 1
gene 1 14 42 0.63573 0 105 0.63573 1
gene 1 14 43 -1.44137 0 106 -1.44137 1
gene 1 14 44 -2.51708 0 107 -2.51708 1
gene 1 14 45 -0.603498 0 108 -0.603498 1
gene 1 14 46 -0.430412 0 109 -0.430412 1
gene 1 14 47 -4.52494 0 110 -4.52494 1
gene 1 14 48 -3.85272 0 111 -3.85272 1
gene 1 14 49 -0.773581 0 112 -0.773581 1
gene 1 15 42 -0.368855 0 113 -0.368855 1
gene 1 15 43 -0.0917855 0 114 -0.0917855 1
gene 1 15 44 -0.241185 0 115 -0.241185 1
gene 1 15 45 -2.87178 0 116 -2.87178 1
gene 1 15 46 -0.0103051 0 117 -0.0103051 1
gene 1 15 47 2.51953 0 118 2.51953 1
gene 1 15 48 -0.150384 0 119 -0.150384 1
gene 1 15 49 -4.85209 0 120 -4.85209 1
gene 1 16 42 0.521287 0 121 0.521287 1
gene 1 16 43 0.821113 0 122 0.821113 1
gene 1 16 44 1.5039 0 123 1.5039 1
gene 1 16 45 0.37992 0 124 0.37992 1
gene 1 16 46 -0.250487 0 125 -0.250487 1
gene 1 16 47 -0.769358 0 126 -0.769358 1
gene 1 16 48 -0.231226 0 127 -0.231226 1
gene 1 16 49 -0.511082 0 128 -0.511082 1
gene 1 17 42 -1.18051 0 129 -1.18051 1
gene 1 17 43 -3.15226 0 130 -3.15226 1
gene 1 17 44 -5 0 131 -5 1
gene 1 17 45 -1.78017 0 132 -1.78017 1
gene 1 17 46 -0.72316 0 133 -0.72316 1
gene 1 17 47 -1.4975 0 134 -1.4975 1
gene 1 17 48 0.0966325 0 135 0.0966325 1
gene 1 17 49 0.0576541 0 136 0.0576541 1
gene 1 18 42 -3.32403 0 137 -3.32403 1
gene 1 18 43 0.894602 0 138 0.894602 1
gene 1 18 44 1.73725 0 139 1.73725 1
gene 1 18 45 -0.751753 0 140 -0.751753 1
gene 1 18 46 0.178065 0 141 0.178065 1
gene 1 18 47 2.33407 0 142 2.33407 1
gene 1 18 48 3.98929 0 143 3.98929 1
gene 1 18 49 3.71817 0 144 3.71817 1
gene 1 19 42 -1.88876 0 145 -1.88876 1
gene 1 19 43 0.113122 0 146 0.113122 1
gene 1 19 44 -2.95148 0 147 -2.95148 1
gene 1 19 45 0.850176 0 148 0.850176 1
gene 1 19 46 -0.272269 0 149 -0.272269 1
gene 1 19 47 -1.14235 0 150 -1.14235 1
gene 1 19 48 0.354011 0 151 0.354011 1
gene 1 19 49 0.202809 0 152 0.202809 1
gene 1 20 42 3.06809 0 153 3.06809 1
gene 1 20 43 1.33489 0 154 1.33489 1
gene 1 20 44 -0.975199 0 155 -0.975199 1
gene 1 20 45 5 0 156 5 1
gene 1 20 46 -3.13742 0 157 -3.13742 1
gene 1 20 47 0.578581 0 158 0.578581 1
gene 1 20 48 0.993581 0 159 0.993581 1
gene 1 20 49 1.31587 0 160 1.31587 1
gene 1 21 42 4.33656 0 161 4.33656 1
gene 1 21 43 -2.53232 0 162 -2.53232 1
gene 1 21 44 -2.02029 0 163 -2.02029 1
gene 1 21 45 -1.52758 0 164 -1.52758 1
gene 1 21 46 -0.518656 0 165 -0.518656 1
gene 1 21 47 0.125825 0 166 0.125825 1
gene 1 21 48 -2.49843 0 167 -2.49843 1
gene 1 21 49 0.629335 0 168 0.629335 1
gene 1 22 42 -1.18488 0 169 -1.18488 1
gene 1 22 43 -0.219867 0 170 -0.219867 1
gene 1 22 44 -4.80379 0 171 -4.80379 1
gene 1 22 45 -2.7745 0 172 -2.7745 1
gene 1 22 46 0.305263 0 173 0.305263 1
gene 1 22 47 -1.61251 0 174 -1.61251 1
gene 1 22 48 -2.30821 0 175 -2.30821 1
gene 1 22 49 -3.77087 0 176 -3.77087 1
gene 1 23 42 0.804599 0 177 0.804599 1
gene 1 23 43 1.99659 0 178 1.99659 1
gene 1 23 44 -3.1046 0 179 -3.1046 1
gene 1 23 45 3.45992 0 180 3.45992 1
gene 1 23 46 -1.3106 0 181 -1.3106 1
gene 1 23 47 -1.17717 0 182 -1.17717 1
gene 1 23 48 0.767727 0 183 0.767727 1
gene 1 23 49 -0.96097 0 184 -0.96097 1
gene 1 24 42 -1.20092 0 185 -1.20092 1
gene 1 24 43 0.724039 0 186 0.724039 1
gene 1 24 44 5 0 187 5 1
gene 1 24 45 -4.38923 0 188 -4.38923 1
gene 1 24 46 1.5152 0 189 1.5152 1
gene 1 24 47 1.71445 0 190 1.71445 1
gene 1 24 48 -1.30103 0 191 -1.30103 1
gene 1 24 49 0.400487 0 192 0.400487 1
gene 1 25 42 -1.03573 0 193 -1.03573 1
gene 1 25 43 -5 0 194 -5 1
gene 1 25 44 -0.333135 0 195 -0.333135 1
gene 1 25 45 0.599638 0 196 0.599638 1
gene 1 25 46 -0.547131 0 197 -0.547131 1
gene 1 25 47 0.173926 0 198 0.173926 1
gene 1 25 48 0.56841 0 199 0.56841 1
gene 1 25 49 0.869512 0 200 0.869512 1
gene 1 26 42 -0.688242 0 201 -0.688242 1
gene 1 26 43 0.819653 0 202 0.819653 1
gene 1 26 44 -0.487604 0 203 -0.487604 1
gene 1 26 45 -1.82623 0 204 -1.82623 1
gene 1 26 46 -1.27436 0 205 -1.27436 1
gene 1 26 47 -0.0524924 0 206 -0.0524924 1
gene 1 26 48 4.02734 0 207 4.02734 1
gene 1 26 49 2.6458 0 208 2.6458 1
gene 1 27 42 2.0759 0 209 2.0759 1
gene 1 27 43 -0.871626 0 210 -0.871626 1
gene 1 27 44 -4.22494 0 211 -4.22494 1
gene 1 27 45 1.82733 0 212 1.82733 1
gene 1 27 46 -0.0803588 0 213 -0.0803588 1
gene 1 27 47 -3.9044 0 214 -3.9044 1
gene 1 27 48 0.861126 0 215 0.861126 1
gene 1 27 49 -3.98171 0 216 -3.98171 1
gene 1 28 42 0.723112 0 217 0.723112 1
gene 1 28 43 -2.22215 0 218 -2.22215 1
gene 1 28 44 -1.94094 0 219 -1.94094 1
gene 1 28 45 -4.23104 0 220 -4.23104 1
gene 1 28 46 -4.21688 0 221 -4.21688 1
gene 1 28 47 0.81704 0 222 0.81704 1
gene 1 28 48 2.26323 0 223 2.26323 1
gene 1 28 49 -0.32463 0 224 -0.32463 1
gene 1 29 42 2.50213 0 225 2.50213 1
gene 1 29 43 1.2142 0 226 1.2142 1
gene 1 29 44 0.342444 0 227 0.342444 1
gene 1 29 45 1.17502 0 228 1.17502 1
gene 1 29 46 0.643464 0 229 0.643464 1
gene 1 29 47 -0.937025 0 230 -0.937025 1
gene 1 29 48 2.60637 0 231 2.60637 1
gene 1 29 49 -3.02711 0 232 -3.02711 1
gene 1 30 42 1.64002 0 233 1.64002 1
gene 1 30 43 0.860144 0 234 0.860144 1
gene 1 30 44 1.34438 0 235 1.34438 1
gene 1 30 45 4.46997 0 236 4.46997 1
gene 1 30 46 -0.450684 0 237 -0.450684 1
gene 1 30 47 0.778803 0 238 0.778803 1
gene 1 30 48 -0.842549 0 239 -0.842549 1
gene 1 30 49 1.9967 0 240 1.9967 1
gene 1 31 42 -0.674867 0 241 -0.674867 1
gene 1 31 43 -0.326576 0 242 -0.326576 1
gene 1 31 44 -1.05623 0 243 -1.05623 1
gene 1 31 45 -0.387257 0 244 -0.387257 1
gene 1 31 46 2.26496 0 245 2.26496 1
gene 1 31 47 -0.539807 0 246 -0.539807 1
gene 1 31 48 -0.696917 0 247 -0.696917 1
gene 1 31 49 -2.59698 0 248 -2.59698 1
gene 1 32 42 -3.62265 0 249 -3.62265 1
gene 1 32 43 0.166032 0 250 0.166032 1
gene 1 32 44 -1.57684 0 251 -1.57684 1
gene 1 32 45 0.164476 0 252 0.164476 1
gene 1 32 46 -0.730204 0 253 -0.730204 1
gene 1 32 47 0.195505 0 254 0.195505 1
gene 1 32 48 0.460124 0 255 0.460124 1
gene 1 32 49 -0.0192063 0 256 -0.0192063 1
gene 1 33 42 0.0915144 0 257 0.0915144 1
gene 1 33 43 -0.742759 0 258 -0.742759 1
gene 1 33 44 2.55948 0 259 2.55948 1
gene 1 33 45 -3.12948 0 260 -3.12948 1
gene 1 33 46 -3.57655 0 261 -3.57655 1
gene 1 33 47 4.96741 0 262 4.96741 1
gene 1 33 48 0.154859 0 263 0.154859 1
gene 1 33 49 1.30423 0 264 1.30423 1
gene 1 34 42 0.272201 0 265 0.272201 1
gene 1 34 43 0.210193 0 266 0.210193 1
gene 1 34 44 -0.070813 0 267 -0.070813 1
gene 1 34 45 0.141508 0 268 0.141508 1
gene 1 34 46 0.536201 0 269 0.536201 1
gene 1 34 47 0.147665 0 270 0.147665 1
gene 1 34 48 2.09599 0 271 2.09599 1
gene 1 34 49 -0.367064 0 272 -0.367064 1
gene 1 35 42 -0.14489 0 273 -0.14489 1
gene 1 35 43 -0.0364528 0 274 -0.0364528 1
gene 1 35 44 0.247621 0 275 0.247621 1
gene 1 35 45 -0.0604671 0 276 -0.0604671 1
gene 1 35 46 1.15692 0 277 1.15692 1
gene 1 35 47 0.936877 0 278 0.936877 1
gene 1 35 48 -0.472182 0 279 -0.472182 1
gene 1 35 49 0.225741 0 280 0.225741 1
gene 1 36 42 -1.11063 0 281 -1.11063 1
gene 1 36 43 -0.555338 0 282 -0.555338 1
gene 1 36 44 -0.524199 0 283 -0.524199 1
gene 1 36 45 1.71828 0 284 1.71828 1
gene 1 36 46 2.0724 0 285 2.0724 1
gene 1 36 47 0.00637708 0 286 0.00637708 1
gene 1 36 48 -2.08324 0 287 -2.08324 1
gene 1 36 49 0.0681243 0 288 0.0681243 1
gene 1 37 42 1.46378 0 289 1.46378 1
gene 1 37 43 1.47722 0 290 1.47722 1
gene 1 37 44 -0.724161 0 291 -0.724161 1
gene 1 37 45 0.140407 0 292 0.140407 1
gene 1 37 46 0.854089 0 293 0.854089 1
gene 1 37 47 0.985106 0 294 0.985106 1
gene 1 37 48 0.588309 0 295 0.588309 1
gene 1 37 49 -0.0902326 0 296 -0.0902326 1
gene 1 38 42 -0.329469 0 297 -0.329469 1
gene 1 38 43 -0.856265 0 298 -0.856265 1
gene 1 38 44 0.559015 0 299 0.559015 1
gene 1 38 45 0.0927941 0 300 0.0927941 1
gene 1 38 46 1.04206 0 301 1.04206 1
gene 1 38 47 -0.948175 0 302 -0.948175 1
gene 1 38 48 1.89917 0 303 1.89917 1
gene 1 38 49 2.25081 0 304 2.25081 1
gene 1 39 42 -1.60856 0 305 -1.60856 1
gene 1 39 43 0.12191 0 306 0.12191 1
gene 1 39 44 -0.910544 0 307 -0.910544 1
gene 1 39 45 0.927697 0 308 0.927697 1
gene 1 39 46 1.58626 0 309 1.58626 1
gene 1 39 47 -0.821626 0 310 -0.821626 1
gene 1 39 48 -0.431809 0 311 -0.431809 1
gene 1 39 49 0.833142 0 312 0.833142 1
gene 1 40 42 -0.66208 0 313 -0.66208 1
gene 1 40 43 -0.893187 0 314 -0.893187 1
gene 1 40 44 0.168657 0 315 0.168657 1
gene 1 40 45 0.45812 0 316 0.45812 1
gene 1 40 46 1.20215 0 317 1.20215 1
gene 1 40 47 0.698481 0 318 0.698481 1
gene 1 40 48 0.206943 0 319 0.206943 1
gene 1 40 49 -1.36052 0 320 -1.36052 1
gene 1 41 42 -1.16088 0 321 -1.16088 1
gene 1 41 43 2.3617 0 322 2.3617 1
gene 1 41 44 -0.142877 0 323 -0.142877 1
gene 1 41 45 0.0702942 0 324 0.0702942 1
gene 1 41 46 0.646526 0 325 0.646526 1
gene 1 41 47 -0.871879 0 326 -0.871879 1
gene 1 41 48 2.99639 0 327 2.99639 1
gene 1 41 49 -0.535255 0 328 -0.535255 1
genomeend 6


