/* Organism #0 Fitness: -5339.850000 Time: 0 */
genomestart 0
trait 1 0.100000 0.000000 0.000000 0.000000 0.000000 0.000000 0.000000 0.000000 
node 1 1 1 1
node 2 1 1 1
node 3 1 1 1
node 4 1 1 1
node 5 1 1 1
node 6 1 1 1
node 7 1 1 1
node 8 1 1 1
node 9 1 1 1
node 10 1 1 1
node 11 1 1 1
node 12 1 1 1
node 13 1 1 1
node 14 1 1 1
node 15 1 1 1
node 16 1 1 1
node 17 1 1 1
node 18 1 1 1
node 19 1 1 1
node 20 1 1 1
node 21 1 1 1
node 22 1 1 1
node 23 1 1 1
node 24 1 1 1
node 25 1 1 1
node 26 1 1 1
node 27 1 1 1
node 28 1 1 1
node 29 1 1 1
node 30 1 1 1
node 31 1 1 1
node 32 1 1 1
node 33 1 1 1
node 34 1 1 1
node 35 1 1 1
node 36 1 1 1
node 37 1 1 1
node 38 1 1 1
node 39 1 1 1
node 40 1 1 1
node 41 1 1 3
node 42 1 0 2
node 43 1 0 2
node 44 1 0 2
node 45 1 0 2
node 46 1 0 2
node 47 1 0 2
node 48 1 0 2
node 49 1 0 2
gene 1 1 42 4.55373 0 1 4.55373 1
gene 1 1 43 -1.10796 0 2 -1.10796 1
gene 1 1 44 -1.28202 0 3 -1.28202 1
gene 1 1 45 0.0566743 0 4 0.0566743 1
gene 1 1 46 -1.30678 0 5 -1.30678 1
gene 1 1 47 -3.06488 0 6 -3.06488 1
gene 1 1 48 -3.17561 0 7 -3.17561 1
gene 1 1 49 -4.25666 0 8 -4.25666 1
gene 1 2 42 -1.97216 0 9 -1.97216 1
gene 1 2 43 1.11526 0 10 1.11526 1
gene 1 2 44 -1.48315 0 11 -1.48315 1
gene 1 2 45 0.170663 0 12 0.170663 1
gene 1 2 46 0.145907 0 13 0.145907 1
gene 1 2 47 2.11554 0 14 2.11554 1
gene 1 2 48 -0.788757 0 15 -0.788757 1
gene 1 2 49 -0.954208 0 16 -0.954208 1
gene 1 3 42 -0.828067 0 17 -0.828067 1
gene 1 3 43 -1.49293 0 18 -1.49293 1
gene 1 3 44 2.58547 0 19 2.58547 1
gene 1 3 45 0.394924 0 20 0.394924 1
gene 1 3 46 -0.720818 0 21 -0.720818 1
gene 1 3 47 1.61408 0 22 1.61408 1
gene 1 3 48 1.86606 0 23 1.86606 1
gene 1 3 49 -5 0 24 -5 1
gene 1 4 42 1.06299 0 25 1.06299 1
gene 1 4 43 -0.99787 0 26 -0.99787 1
gene 1 4 44 -2.35556 0 27 -2.35556 1
gene 1 4 45 1.01414 0 28 1.01414 1
gene 1 4 46 0.282091 0 29 0.282091 1
gene 1 4 47 2.02801 0 30 2.02801 1
gene 1 4 48 0.25246 0 31 0.25246 1
gene 1 4 49 1.57758 0 32 1.57758 1
gene 1 5 42 2.65374 0 33 2.65374 1
gene 1 5 43 -0.84033 0 34 -0.84033 1
gene 1 5 44 -2.33082 0 35 -2.33082 1
gene 1 5 45 -0.341034 0 36 -0.341034 1
gene 1 5 46 2.28277 0 37 2.28277 1
gene 1 5 47 -2.34274 0 38 -2.34274 1
gene 1 5 48 0.891965 0 39 0.891965 1
gene 1 5 49 -2.47706 0 40 -2.47706 1
gene 1 6 42 -1.46923 0 41 -1.46923 1
gene 1 6 43 -3.3347 0 42 -3.3347 1
gene 1 6 44 -0.208321 0 43 -0.208321 1
gene 1 6 45 -0.410975 0 44 -0.410975 1
gene 1 6 46 3.25914 0 45 3.25914 1
gene 1 6 47 -3.78787 0 46 -3.78787 1
gene 1 6 48 1.31956 0 47 1.31956 1
gene 1 6 49 0.461255 0 48 0.461255 1
gene 1 7 42 -4.56542 0 49 -4.56542 1
gene 1 7 43 -0.880059 0 50 -0.880059 1
gene 1 7 44 -2.19749 0 51 -2.19749 1
gene 1 7 45 4.46416 0 52 4.46416 1
gene 1 7 46 -1.4974 0 53 -1.4974 1
gene 1 7 47 0.839164 0 54 0.839164 1
gene 1 7 48 1.87274 0 55 1.87274 1
gene 1 7 49 -3.58721 0 56 -3.58721 1
gene 1 8 42 1.18022 0 57 1.18022 1
gene 1 8 43 -0.508851 0 58 -0.508851 1
gene 1 8 44 0.453487 0 59 0.453487 1
gene 1 8 45 0.244739 0 60 0.244739 1
gene 1 8 46 1.32094 0 61 1.32094 1
gene 1 8 47 1.9846 0 62 1.9846 1
gene 1 8 48 -1.25226 0 63 -1.25226 1
gene 1 8 49 -2.65397 0 64 -2.65397 1
gene 1 9 42 -2.91358 0 65 -2.91358 1
gene 1 9 43 5 0 66 5 1
gene 1 9 44 -2.19174 0 67 -2.19174 1
gene 1 9 45 1.80181 0 68 1.80181 1
gene 1 9 46 -0.024108 0 69 -0.024108 1
gene 1 9 47 0.175611 0 70 0.175611 1
gene 1 9 48 -3.05898 0 71 -3.05898 1
gene 1 9 49 -2.24006 0 72 -2.24006 1
gene 1 10 42 -4.04526 0 73 -4.04526 1
gene 1 10 43 0.511093 0 74 0.511093 1
gene 1 10 44 -1.35115 0 75 -1.35115 1
gene 1 10 45 5 0 76 5 1
gene 1 10 46 -1.99704 0 77 -1.99704 1
gene 1 10 47 0.0577435 0 78 0.0577435 1
gene 1 10 48 -1.19143 0 79 -1.19143 1
gene 1 10 49 -4.13542 0 80 -4.13542 1
gene 1 11 42 -1.51643 0 81 -1.51643 1
gene 1 11 43 0.00542028 0 82 0.00542028 1
gene 1 11 44 0.175737 0 83 0.175737 1
gene 1 11 45 -1.63452 0 84 -1.63452 1
gene 1 11 46 0.588326 0 85 0.588326 1
gene 1 11 47 3.9544 0 86 3.9544 1
gene 1 11 48 2.88918 0 87 2.88918 1
gene 1 11 49 1.10445 0 88 1.10445 1
gene 1 12 42 0.472952 0 89 0.472952 1
gene 1 12 43 -0.986133 0 90 -0.986133 1
gene 1 12 44 1.65566 0 91 1.65566 1
gene 1 12 45 1.13017 0 92 1.13017 1
gene 1 12 46 -4.3023 0 93 -4.3023 1
gene 1 12 47 -0.627093 0 94 -0.627093 1
gene 1 12 48 1.27476 0 95 1.27476 1
gene 1 12 49 0.516408 0 96 0.516408 1
gene 1 13 42 0.83161 0 97 0.83161 1
gene 1 13 43 -1.05489 0 98 -1.05489 1
gene 1 13 44 0.742656 0 99 0.742656 1
gene 1 13 45 -1.84796 0 100 -1.84796 1
gene 1 13 46 -0.288471 0 101 -0.288471 1
gene 1 13 47 -4.17774 0 102 -4.17774 1
gene 1 13 48 -1.03886 0 103 -1.03886 1
gene 1 13 49 -3.7265 0 104 -3.7265 1
gene 1 14 42 0.384965 0 105 0.384965 1
gene 1 14 43 3.22119 0 106 3.22119 1
gene 1 14 44 0.0387971 0 107 0.0387971 1
gene 1 14 45 0.634939 0 108 0.634939 1
gene 1 14 46 -3.9056 0 109 -3.9056 1
gene 1 14 47 1.13609 0 110 1.13609 1
gene 1 14 48 4.53667 0 111 4.53667 1
gene 1 14 49 -0.994791 0 112 -0.994791 1
gene 1 15 42 1.51442 0 113 1.51442 1
gene 1 15 43 0.644242 0 114 0.644242 1
gene 1 15 44 -0.0809111 0 115 -0.0809111 1
gene 1 15 45 1.94887 0 116 1.94887 1
gene 1 15 46 -2.00927 0 117 -2.00927 1
gene 1 15 47 -0.960189 0 118 -0.960189 1
gene 1 15 48 -0.512406 0 119 -0.512406 1
gene 1 15 49 -0.777583 0 120 -0.777583 1
gene 1 16 42 -1.07979 0 121 -1.07979 1
gene 1 16 43 -1.77477 0 122 -1.77477 1
gene 1 16 44 3.08023 0 123 3.08023 1
gene 1 16 45 1.85708 0 124 1.85708 1
gene 1 16 46 -1.78772 0 125 -1.78772 1
gene 1 16 47 -2.79 0 126 -2.79 1
gene 1 16 48 1.02321 0 127 1.02321 1
gene 1 16 49 -2.1667 0 128 -2.1667 1
gene 1 17 42 -3.85915 0 129 -3.85915 1
gene 1 17 43 1.19623 0 130 1.19623 1
gene 1 17 44 0.030094 0 131 0.030094 1
gene 1 17 45 -4.24864 0 132 -4.24864 1
gene 1 17 46 -1.8693 0 133 -1.8693 1
gene 1 17 47 4.22662 0 134 4.22662 1
gene 1 17 48 1.35513 0 135 1.35513 1
gene 1 17 49 -2.32351 0 136 -2.32351 1
gene 1 18 42 -2.21481 0 137 -2.21481 1
gene 1 18 43 0.419216 0 138 0.419216 1
gene 1 18 44 -3.86421 0 139 -3.86421 1
gene 1 18 45 1.35176 0 140 1.35176 1
gene 1 18 46 -2.11158 0 141 -2.11158 1
gene 1 18 47 4.80728 0 142 4.80728 1
gene 1 18 48 1.24411 0 143 1.24411 1
gene 1 18 49 -4.29117 0 144 -4.29117 1
gene 1 19 42 3.53891 0 145 3.53891 1
gene 1 19 43 -3.67966 0 146 -3.67966 1
gene 1 19 44 -1.12994 0 147 -1.12994 1
gene 1 19 45 -1.68163 0 148 -1.68163 1
gene 1 19 46 -1.05428 0 149 -1.05428 1
gene 1 19 47 -1.29706 0 150 -1.29706 1
gene 1 19 48 -0.272906 0 151 -0.272906 1
gene 1 19 49 -1.06209 0 152 -1.06209 1
gene 1 20 42 0.94595 0 153 0.94595 1
gene 1 20 43 -2.30682 0 154 -2.30682 1
gene 1 20 44 1.6335 0 155 1.6335 1
gene 1 20 45 1.66499 0 156 1.66499 1
gene 1 20 46 1.15633 0 157 1.15633 1
gene 1 20 47 1.67099 0 158 1.67099 1
gene 1 20 48 2.34094 0 159 2.34094 1
gene 1 20 49 -1.99159 0 160 -1.99159 1
gene 1 21 42 5 0 161 5 1
gene 1 21 43 -3.12599 0 162 -3.12599 1
gene 1 21 44 -2.58318 0 163 -2.58318 1
gene 1 21 45 1.13143 0 164 1.13143 1
gene 1 21 46 2.58843 0 165 2.58843 1
gene 1 21 47 -0.534606 0 166 -0.534606 1
gene 1 21 48 -3.36858 0 167 -3.36858 1
gene 1 21 49 5 0 168 5 1
gene 1 22 42 -0.710866 0 169 -0.710866 1
gene 1 22 43 1.05653 0 170 1.05653 1
gene 1 22 44 -1.97282 0 171 -1.97282 1
gene 1 22 45 1.09448 0 172 1.09448 1
gene 1 22 46 -1.60313 0 173 -1.60313 1
gene 1 22 47 -1.83722 0 174 -1.83722 1
gene 1 22 48 2.63375 0 175 2.63375 1
gene 1 22 49 -3.84229 0 176 -3.84229 1
gene 1 23 42 -4.94917 0 177 -4.94917 1
gene 1 23 43 3.31163 0 178 3.31163 1
gene 1 23 44 1.74126 0 179 1.74126 1
gene 1 23 45 1.55469 0 180 1.55469 1
gene 1 23 46 1.84708 0 181 1.84708 1
gene 1 23 47 2.71157 0 182 2.71157 1
gene 1 23 48 2.78685 0 183 2.78685 1
gene 1 23 49 -2.20247 0 184 -2.20247 1
gene 1 24 42 2.95341 0 185 2.95341 1
gene 1 24 43 0.184093 0 186 0.184093 1
gene 1 24 44 1.71019 0 187 1.71019 1
gene 1 24 45 1.01137 0 188 1.01137 1
gene 1 24 46 2.55319 0 189 2.55319 1
gene 1 24 47 -0.0750543 0 190 -0.0750543 1
gene 1 24 48 -2.84747 0 191 -2.84747 1
gene 1 24 49 -2.49484 0 192 -2.49484 1
gene 1 25 42 0.209491 0 193 0.209491 1
gene 1 25 43 -0.434972 0 194 -0.434972 1
gene 1 25 44 0.453943 0 195 0.453943 1
gene 1 25 45 3.02598 0 196 3.02598 1
gene 1 25 46 2.70123 0 197 2.70123 1
gene 1 25 47 -3.07988 0 198 -3.07988 1
gene 1 25 48 0.43208 0 199 0.43208 1
gene 1 25 49 -4.3429 0 200 -4.3429 1
gene 1 26 42 3.09859 0 201 3.09859 1
gene 1 26 43 2.9366 0 202 2.9366 1
gene 1 26 44 3.21187 0 203 3.21187 1
gene 1 26 45 -0.887913 0 204 -0.887913 1
gene 1 26 46 -0.275009 0 205 -0.275009 1
gene 1 26 47 -2.94698 0 206 -2.94698 1
gene 1 26 48 1.4059 0 207 1.4059 1
gene 1 26 49 0.20964 0 208 0.20964 1
gene 1 27 42 -2.81722 0 209 -2.81722 1
gene 1 27 43 0.9392 0 210 0.9392 1
gene 1 27 44 3.37333 0 211 3.37333 1
gene 1 27 45 1.75153 0 212 1.75153 1
gene 1 27 46 0.000978979 0 213 0.000978979 1
gene 1 27 47 -1.82242 0 214 -1.82242 1
gene 1 27 48 1.30822 0 215 1.30822 1
gene 1 27 49 2.45323 0 216 2.45323 1
gene 1 28 42 -1.72118 0 217 -1.72118 1
gene 1 28 43 1.30985 0 218 1.30985 1
gene 1 28 44 -3.30836 0 219 -3.30836 1
gene 1 28 45 -0.941128 0 220 -0.941128 1
gene 1 28 46 -4.46487 0 221 -4.46487 1
gene 1 28 47 -0.950732 0 222 -0.950732 1
gene 1 28 48 -4.29993 0 223 -4.29993 1
gene 1 28 49 0.97049 0 224 0.97049 1
gene 1 29 42 2.1646 0 225 2.1646 1
gene 1 29 43 2.95803 0 226 2.95803 1
gene 1 29 44 -1.9628 0 227 -1.9628 1
gene 1 29 45 -1.30743 0 228 -1.30743 1
gene 1 29 46 -2.74792 0 229 -2.74792 1
gene 1 29 47 0.0135125 0 230 0.0135125 1
gene 1 29 48 0.882404 0 231 0.882404 1
gene 1 29 49 2.63685 0 232 2.63685 1
gene 1 30 42 -1.2221 0 233 -1.2221 1
gene 1 30 43 1.90067 0 234 1.90067 1
gene 1 30 44 -1.08473 0 235 -1.08473 1
gene 1 30 45 0.033633 0 236 0.033633 1
gene 1 30 46 0.529368 0 237 0.529368 1
gene 1 30 47 -1.45754 0 238 -1.45754 1
gene 1 30 48 3.2367 0 239 3.2367 1
gene 1 30 49 2.97265 0 240 2.97265 1
gene 1 31 42 -1.07303 0 241 -1.07303 1
gene 1 31 43 2.45898 0 242 2.45898 1
gene 1 31 44 1.55827 0 243 1.55827 1
gene 1 31 45 3.44039 0 244 3.44039 1
gene 1 31 46 -0.167996 0 245 -0.167996 1
gene 1 31 47 3.17243 0 246 3.17243 1
gene 1 31 48 0.746595 0 247 0.746595 1
gene 1 31 49 3.22691 0 248 3.22691 1
gene 1 32 42 -3.90351 0 249 -3.90351 1
gene 1 32 43 -2.71357 0 250 -2.71357 1
gene 1 32 44 -0.251036 0 251 -0.251036 1
gene 1 32 45 0.212547 0 252 0.212547 1
gene 1 32 46 -3.12012 0 253 -3.12012 1
gene 1 32 47 -1.79106 0 254 -1.79106 1
gene 1 32 48 -1.51652 0 255 -1.51652 1
gene 1 32 49 0.271685 0 256 0.271685 1
gene 1 33 42 3.2272 0 257 3.2272 1
gene 1 33 43 -0.281676 0 258 -0.281676 1
gene 1 33 44 0.621475 0 259 0.621475 1
gene 1 33 45 -1.65717 0 260 -1.65717 1
gene 1 33 46 0.0871227 0 261 0.0871227 1
gene 1 33 47 3.46659 0 262 3.46659 1
gene 1 33 48 4.12505 0 263 4.12505 1
gene 1 33 49 -0.784259 0 264 -0.784259 1
gene 1 34 42 0.50391 0 265 0.50391 1
gene 1 34 43 -0.900384 0 266 -0.900384 1
gene 1 34 44 0.292895 0 267 0.292895 1
gene 1 34 45 -0.514729 0 268 -0.514729 1
gene 1 34 46 -0.39626 0 269 -0.39626 1
gene 1 34 47 -0.836776 0 270 -0.836776 1
gene 1 34 48 1.59237 0 271 1.59237 1
gene 1 34 49 -0.986429 0 272 -0.986429 1
gene 1 35 42 -0.372239 0 273 -0.372239 1
gene 1 35 43 -0.955743 0 274 -0.955743 1
gene 1 35 44 0.62436 0 275 0.62436 1
gene 1 35 45 0.884169 0 276 0.884169 1
gene 1 35 46 -0.587912 0 277 -0.587912 1
gene 1 35 47 0.651068 0 278 0.651068 1
gene 1 35 48 -0.543989 0 279 -0.543989 1
gene 1 35 49 -0.600238 0 280 -0.600238 1
gene 1 36 42 0.377492 0 281 0.377492 1
gene 1 36 43 0.335508 0 282 0.335508 1
gene 1 36 44 1.12397 0 283 1.12397 1
gene 1 36 45 0.303905 0 284 0.303905 1
gene 1 36 46 0.48977 0 285 0.48977 1
gene 1 36 47 -1.37633 0 286 -1.37633 1
gene 1 36 48 -0.0598121 0 287 -0.0598121 1
gene 1 36 49 -0.148308 0 288 -0.148308 1
gene 1 37 42 -0.152929 0 289 -0.152929 1
gene 1 37 43 -0.223569 0 290 -0.223569 1
gene 1 37 44 0.580237 0 291 0.580237 1
gene 1 37 45 -1.42877 0 292 -1.42877 1
gene 1 37 46 2.22134 0 293 2.22134 1
gene 1 37 47 0.0314506 0 294 0.0314506 1
gene 1 37 48 0.674174 0 295 0.674174 1
gene 1 37 49 1.15077 0 296 1.15077 1
gene 1 38 42 -0.601043 0 297 -0.601043 1
gene 1 38 43 -0.57043 0 298 -0.57043 1
gene 1 38 44 0.680752 0 299 0.680752 1
gene 1 38 45 -0.379634 0 300 -0.379634 1
gene 1 38 46 -0.52159 0 301 -0.52159 1
gene 1 38 47 1.4759 0 302 1.4759 1
gene 1 38 48 1.15256 0 303 1.15256 1
gene 1 38 49 -0.327096 0 304 -0.327096 1
gene 1 39 42 0.589275 0 305 0.589275 1
gene 1 39 43 0.388834 0 306 0.388834 1
gene 1 39 44 -0.209958 0 307 -0.209958 1
gene 1 39 45 0.0266341 0 308 0.0266341 1
gene 1 39 46 -0.546905 0 309 -0.546905 1
gene 1 39 47 0.064764 0 310 0.064764 1
gene 1 39 48 0.151761 0 311 0.151761 1
gene 1 39 49 0.265334 0 312 0.265334 1
gene 1 40 42 -0.337945 0 313 -0.337945 1
gene 1 40 43 1.30684 0 314 1.30684 1
gene 1 40 44 -1.42019 0 315 -1.42019 1
gene 1 40 45 2.70492 0 316 2.70492 1
gene 1 40 46 1.75462 0 317 1.75462 1
gene 1 40 47 -0.315463 0 318 -0.315463 1
gene 1 40 48 0.807215 0 319 0.807215 1
gene 1 40 49 -0.17221 0 320 -0.17221 1
gene 1 41 42 -0.374701 0 321 -0.374701 1
gene 1 41 43 0.325705 0 322 0.325705 1
gene 1 41 44 -1.99613 0 323 -1.99613 1
gene 1 41 45 0.216032 0 324 0.216032 1
gene 1 41 46 0.995932 0 325 0.995932 1
gene 1 41 47 -0.206763 0 326 -0.206763 1
gene 1 41 48 -0.0212338 0 327 -0.0212338 1
gene 1 41 49 -3.88645 0 328 -3.88645 1
genomeend 0


