/* Organism #1 Fitness: 36.580000 Time: 0 */
genomestart 1
trait 1 0.683489 0.000000 0.000000 0.000000 0.000000 0.665232 0.000000 0.000000 
node 1 1 1 1
node 2 1 1 1
node 3 1 1 1
node 4 1 1 1
node 5 1 1 1
node 6 1 1 1
node 7 1 1 1
node 8 1 1 1
node 9 1 1 1
node 10 1 1 1
node 11 1 1 1
node 12 1 1 1
node 13 1 1 1
node 14 1 1 1
node 15 1 1 1
node 16 1 1 1
node 17 1 1 1
node 18 1 1 1
node 19 1 1 1
node 20 1 1 1
node 21 1 1 1
node 22 1 1 1
node 23 1 1 1
node 24 1 1 1
node 25 1 1 1
node 26 1 1 1
node 27 1 1 1
node 28 1 1 1
node 29 1 1 1
node 30 1 1 1
node 31 1 1 1
node 32 1 1 1
node 33 1 1 1
node 34 1 1 1
node 35 1 1 1
node 36 1 1 1
node 37 1 1 1
node 38 1 1 1
node 39 1 1 1
node 40 1 1 1
node 41 1 1 3
node 42 1 0 2
node 43 1 0 2
node 44 1 0 2
node 45 1 0 2
node 46 1 0 2
node 47 1 0 2
node 48 1 0 2
node 49 1 0 2
gene 1 1 42 -3.60794 0 1 -3.60794 1
gene 1 1 43 3.57767 0 2 3.57767 1
gene 1 1 44 1.97166 0 3 1.97166 1
gene 1 1 45 -0.41907 0 4 -0.41907 1
gene 1 1 46 1.72817 0 5 1.72817 1
gene 1 1 47 -0.833441 0 6 -0.833441 1
gene 1 1 48 1.33825 0 7 1.33825 1
gene 1 1 49 -0.507369 0 8 -0.507369 1
gene 1 2 42 -0.622064 0 9 -0.622064 1
gene 1 2 43 -0.634592 0 10 -0.634592 1
gene 1 2 44 0.314664 0 11 0.314664 1
gene 1 2 45 -1.76925 0 12 -1.76925 1
gene 1 2 46 0.388675 0 13 0.388675 1
gene 1 2 47 5 0 14 5 1
gene 1 2 48 -0.715251 0 15 -0.715251 1
gene 1 2 49 2.32295 0 16 2.32295 1
gene 1 3 42 -0.655209 0 17 -0.655209 1
gene 1 3 43 -1.30684 0 18 -1.30684 1
gene 1 3 44 1.14211 0 19 1.14211 1
gene 1 3 45 -0.356 0 20 -0.356 1
gene 1 3 46 2.70621 0 21 2.70621 1
gene 1 3 47 -0.30902 0 22 -0.30902 1
gene 1 3 48 1.06897 0 23 1.06897 1
gene 1 3 49 -0.0129078 0 24 -0.0129078 1
gene 1 4 42 -1.14785 0 25 -1.14785 1
gene 1 4 43 -1.61906 0 26 -1.61906 1
gene 1 4 44 -3.65523 0 27 -3.65523 1
gene 1 4 45 1.05939 0 28 1.05939 1
gene 1 4 46 -0.168734 0 29 -0.168734 1
gene 1 4 47 -2.29489 0 30 -2.29489 1
gene 1 4 48 1.82492 0 31 1.82492 1
gene 1 4 49 -1.65113 0 32 -1.65113 1
gene 1 5 42 0.273921 0 33 0.273921 1
gene 1 5 43 -5 0 34 -5 1
gene 1 5 44 -2.96293 0 35 -2.96293 1
gene 1 5 45 3.14738 0 36 3.14738 1
gene 1 5 46 -1.8826 0 37 -1.8826 1
gene 1 5 47 -1.15603 0 38 -1.15603 1
gene 1 5 48 0.106861 0 39 0.106861 1
gene 1 5 49 1.7351 0 40 1.7351 1
gene 1 6 42 -1.85766 0 41 -1.85766 1
gene 1 6 43 -2.2791 0 42 -2.2791 1
gene 1 6 44 0.208063 0 43 0.208063 1
gene 1 6 45 -0.338675 0 44 -0.338675 1
gene 1 6 46 -2.07588 0 45 -2.07588 1
gene 1 6 47 0.0423008 0 46 0.0423008 1
gene 1 6 48 1.65484 0 47 1.65484 1
gene 1 6 49 0.195289 0 48 0.195289 1
gene 1 7 42 -0.509401 0 49 -0.509401 1
gene 1 7 43 1.07712 0 50 1.07712 1
gene 1 7 44 -0.918653 0 51 -0.918653 1
gene 1 7 45 4.13707 0 52 4.13707 1
gene 1 7 46 -0.16511 0 53 -0.16511 1
gene 1 7 47 3.62828 0 54 3.62828 1
gene 1 7 48 -1.13833 0 55 -1.13833 1
gene 1 7 49 0.475139 0 56 0.475139 1
gene 1 8 42 -3.10732 0 57 -3.10732 1
gene 1 8 43 1.43514 0 58 1.43514 1
gene 1 8 44 0.691207 0 59 0.691207 1
gene 1 8 45 -1.19857 0 60 -1.19857 1
gene 1 8 46 -0.00423958 0 61 -0.00423958 1
gene 1 8 47 -1.41329 0 62 -1.41329 1
gene 1 8 48 -1.07479 0 63 -1.07479 1
gene 1 8 49 -0.799624 0 64 -0.799624 1
gene 1 9 42 -0.452663 0 65 -0.452663 1
gene 1 9 43 -0.504372 0 66 -0.504372 1
gene 1 9 44 -0.515965 0 67 -0.515965 1
gene 1 9 45 0.900771 0 68 0.900771 1
gene 1 9 46 3.53382 0 69 3.53382 1
gene 1 9 47 0.155937 0 70 0.155937 1
gene 1 9 48 0.721263 0 71 0.721263 1
gene 1 9 49 1.28748 0 72 1.28748 1
gene 1 10 42 -4.31953 0 73 -4.31953 1
gene 1 10 43 0.467777 0 74 0.467777 1
gene 1 10 44 -1.48879 0 75 -1.48879 1
gene 1 10 45 -0.0804844 0 76 -0.0804844 1
gene 1 10 46 -0.907513 0 77 -0.907513 1
gene 1 10 47 0.403727 0 78 0.403727 1
gene 1 10 48 2.51675 0 79 2.51675 1
gene 1 10 49 3.9086 0 80 3.9086 1
gene 1 11 42 0.972565 0 81 0.972565 1
gene 1 11 43 -0.147679 0 82 -0.147679 1
gene 1 11 44 -1.01847 0 83 -1.01847 1
gene 1 11 45 -1.2005 0 84 -1.2005 1
gene 1 11 46 2.03423 0 85 2.03423 1
gene 1 11 47 3.94802 0 86 3.94802 1
gene 1 11 48 0.321893 0 87 0.321893 1
gene 1 11 49 -1.99596 0 88 -1.99596 1
gene 1 12 42 -1.14979 0 89 -1.14979 1
gene 1 12 43 -1.13247 0 90 -1.13247 1
gene 1 12 44 -4.42864 0 91 -4.42864 1
gene 1 12 45 0.79473 0 92 0.79473 1
gene 1 12 46 -1.84928 0 93 -1.84928 1
gene 1 12 47 0.719701 0 94 0.719701 1
gene 1 12 48 3.56425 0 95 3.56425 1
gene 1 12 49 2.71991 0 96 2.71991 1
gene 1 13 42 1.09896 0 97 1.09896 1
gene 1 13 43 0.194628 0 98 0.194628 1
gene 1 13 44 0.517177 0 99 0.517177 1
gene 1 13 45 -0.43919 0 100 -0.43919 1
gene 1 13 46 -3.57644 0 101 -3.57644 1
gene 1 13 47 5 0 102 5 1
gene 1 13 48 -0.405049 0 103 -0.405049 1
gene 1 13 49 -3.14747 0 104 -3.14747 1
gene 1 14 42 0.202739 0 105 0.202739 1
gene 1 14 43 3.84703 0 106 3.84703 1
gene 1 14 44 -3.15362 0 107 -3.15362 1
gene 1 14 45 3.69275 0 108 3.69275 1
gene 1 14 46 -1.90814 0 109 -1.90814 1
gene 1 14 47 2.72289 0 110 2.72289 1
gene 1 14 48 0.867413 0 111 0.867413 1
gene 1 14 49 0.0330119 0 112 0.0330119 1
gene 1 15 42 0.128015 0 113 0.128015 1
gene 1 15 43 0.387534 0 114 0.387534 1
gene 1 15 44 2.56415 0 115 2.56415 1
gene 1 15 45 0.635426 0 116 0.635426 1
gene 1 15 46 -4.98729 0 117 -4.98729 1
gene 1 15 47 -0.576606 0 118 -0.576606 1
gene 1 15 48 -0.199746 0 119 -0.199746 1
gene 1 15 49 -3.2362 0 120 -3.2362 1
gene 1 16 42 1.92302 0 121 1.92302 1
gene 1 16 43 -1.02135 0 122 -1.02135 1
gene 1 16 44 -0.92165 0 123 -0.92165 1
gene 1 16 45 -0.136951 0 124 -0.136951 1
gene 1 16 46 0.168787 0 125 0.168787 1
gene 1 16 47 2.31639 0 126 2.31639 1
gene 1 16 48 -0.381621 0 127 -0.381621 1
gene 1 16 49 -0.848619 0 128 -0.848619 1
gene 1 17 42 -0.270463 0 129 -0.270463 1
gene 1 17 43 -0.357447 0 130 -0.357447 1
gene 1 17 44 -3.29932 0 131 -3.29932 1
gene 1 17 45 1.77464 0 132 1.77464 1
gene 1 17 46 0.685766 0 133 0.685766 1
gene 1 17 47 -4.523 0 134 -4.523 1
gene 1 17 48 1.87143 0 135 1.87143 1
gene 1 17 49 -2.8872 0 136 -2.8872 1
gene 1 18 42 -1.71502 0 137 -1.71502 1
gene 1 18 43 -3.09257 0 138 -3.09257 1
gene 1 18 44 1.6193 0 139 1.6193 1
gene 1 18 45 3.18151 0 140 3.18151 1
gene 1 18 46 0.0511227 0 141 0.0511227 1
gene 1 18 47 0.0739942 0 142 0.0739942 1
gene 1 18 48 1.09493 0 143 1.09493 1
gene 1 18 49 1.22565 0 144 1.22565 1
gene 1 19 42 -2.76687 0 145 -2.76687 1
gene 1 19 43 0.63623 0 146 0.63623 1
gene 1 19 44 -3.99107 0 147 -3.99107 1
gene 1 19 45 -1.3286 0 148 -1.3286 1
gene 1 19 46 -0.493564 0 149 -0.493564 1
gene 1 19 47 -0.658013 0 150 -0.658013 1
gene 1 19 48 3.73612 0 151 3.73612 1
gene 1 19 49 0.0364882 0 152 0.0364882 1
gene 1 20 42 3.4696 0 153 3.4696 1
gene 1 20 43 0.0390327 0 154 0.0390327 1
gene 1 20 44 1.87385 0 155 1.87385 1
gene 1 20 45 1.40233 0 156 1.40233 1
gene 1 20 46 1.90967 0 157 1.90967 1
gene 1 20 47 0.271537 0 158 0.271537 1
gene 1 20 48 1.50972 0 159 1.50972 1
gene 1 20 49 0.94935 0 160 0.94935 1
gene 1 21 42 0.800637 0 161 0.800637 1
gene 1 21 43 0.479862 0 162 0.479862 1
gene 1 21 44 1.23971 0 163 1.23971 1
gene 1 21 45 0.903244 0 164 0.903244 1
gene 1 21 46 0.172767 0 165 0.172767 1
gene 1 21 47 -0.407857 0 166 -0.407857 1
gene 1 21 48 2.24309 0 167 2.24309 1
gene 1 21 49 0.412642 0 168 0.412642 1
gene 1 22 42 3.08838 0 169 3.08838 1
gene 1 22 43 -0.964087 0 170 -0.964087 1
gene 1 22 44 0.00242375 0 171 0.00242375 1
gene 1 22 45 -0.406529 0 172 -0.406529 1
gene 1 22 46 -0.090563 0 173 -0.090563 1
gene 1 22 47 -0.39778 0 174 -0.39778 1
gene 1 22 48 2.22762 0 175 2.22762 1
gene 1 22 49 -0.107228 0 176 -0.107228 1
gene 1 23 42 0.187648 0 177 0.187648 1
gene 1 23 43 -2.13385 0 178 -2.13385 1
gene 1 23 44 -4.83631 0 179 -4.83631 1
gene 1 23 45 -0.327994 0 180 -0.327994 1
gene 1 23 46 -1.75918 0 181 -1.75918 1
gene 1 23 47 3.63963 0 182 3.63963 1
gene 1 23 48 0.222949 0 183 0.222949 1
gene 1 23 49 -5 0 184 -5 1
gene 1 24 42 1.72328 0 185 1.72328 1
gene 1 24 43 -0.919299 0 186 -0.919299 1
gene 1 24 44 0.625463 0 187 0.625463 1
gene 1 24 45 -2.29051 0 188 -2.29051 1
gene 1 24 46 1.0161 0 189 1.0161 1
gene 1 24 47 2.32605 0 190 2.32605 1
gene 1 24 48 -2.53192 0 191 -2.53192 1
gene 1 24 49 4.00667 0 192 4.00667 1
gene 1 25 42 -1.38867 0 193 -1.38867 1
gene 1 25 43 -2.17376 0 194 -2.17376 1
gene 1 25 44 0.447111 0 195 0.447111 1
gene 1 25 45 -4.15208 0 196 -4.15208 1
gene 1 25 46 1.7393 0 197 1.7393 1
gene 1 25 47 -1.00478 0 198 -1.00478 1
gene 1 25 48 -0.0747948 0 199 -0.0747948 1
gene 1 25 49 3.26987 0 200 3.26987 1
gene 1 26 42 -3.20025 0 201 -3.20025 1
gene 1 26 43 -1.96988 0 202 -1.96988 1
gene 1 26 44 -3.22885 0 203 -3.22885 1
gene 1 26 45 2.62486 0 204 2.62486 1
gene 1 26 46 -0.597044 0 205 -0.597044 1
gene 1 26 47 0.776128 0 206 0.776128 1
gene 1 26 48 -0.311138 0 207 -0.311138 1
gene 1 26 49 -0.530837 0 208 -0.530837 1
gene 1 27 42 -0.26123 0 209 -0.26123 1
gene 1 27 43 -0.628289 0 210 -0.628289 1
gene 1 27 44 -1.4269 0 211 -1.4269 1
gene 1 27 45 -2.28883 0 212 -2.28883 1
gene 1 27 46 0.934802 0 213 0.934802 1
gene 1 27 47 0.698073 0 214 0.698073 1
gene 1 27 48 -2.07009 0 215 -2.07009 1
gene 1 27 49 -0.0972974 0 216 -0.0972974 1
gene 1 28 42 0.945411 0 217 0.945411 1
gene 1 28 43 2.25415 0 218 2.25415 1
gene 1 28 44 1.55618 0 219 1.55618 1
gene 1 28 45 0.426543 0 220 0.426543 1
gene 1 28 46 0.772887 0 221 0.772887 1
gene 1 28 47 1.91703 0 222 1.91703 1
gene 1 28 48 4.28392 0 223 4.28392 1
gene 1 28 49 -0.670302 0 224 -0.670302 1
gene 1 29 42 -0.910045 0 225 -0.910045 1
gene 1 29 43 3.84743 0 226 3.84743 1
gene 1 29 44 1.90847 0 227 1.90847 1
gene 1 29 45 0.502563 0 228 0.502563 1
gene 1 29 46 -3.63487 0 229 -3.63487 1
gene 1 29 47 -0.415096 0 230 -0.415096 1
gene 1 29 48 2.19395 0 231 2.19395 1
gene 1 29 49 0.829967 0 232 0.829967 1
gene 1 30 42 0.317906 0 233 0.317906 1
gene 1 30 43 0.448309 0 234 0.448309 1
gene 1 30 44 0.954193 0 235 0.954193 1
gene 1 30 45 -0.109599 0 236 -0.109599 1
gene 1 30 46 0.0230695 0 237 0.0230695 1
gene 1 30 47 1.6389 0 238 1.6389 1
gene 1 30 48 -0.58028 0 239 -0.58028 1
gene 1 30 49 4.4853 0 240 4.4853 1
gene 1 31 42 -0.265735 0 241 -0.265735 1
gene 1 31 43 1.55523 0 242 1.55523 1
gene 1 31 44 -1.86493 0 243 -1.86493 1
gene 1 31 45 -1.47164 0 244 -1.47164 1
gene 1 31 46 -2.51911 0 245 -2.51911 1
gene 1 31 47 -1.20334 0 246 -1.20334 1
gene 1 31 48 0.817446 0 247 0.817446 1
gene 1 31 49 -4.52112 0 248 -4.52112 1
gene 1 32 42 -2.51025 0 249 -2.51025 1
gene 1 32 43 -4.34186 0 250 -4.34186 1
gene 1 32 44 0.399901 0 251 0.399901 1
gene 1 32 45 1.25758 0 252 1.25758 1
gene 1 32 46 1.612 0 253 1.612 1
gene 1 32 47 0.0241487 0 254 0.0241487 1
gene 1 32 48 -0.641326 0 255 -0.641326 1
gene 1 32 49 -0.101982 0 256 -0.101982 1
gene 1 33 42 -1.48108 0 257 -1.48108 1
gene 1 33 43 -0.550389 0 258 -0.550389 1
gene 1 33 44 -1.22509 0 259 -1.22509 1
gene 1 33 45 -0.0720813 0 260 -0.0720813 1
gene 1 33 46 -2.6428 0 261 -2.6428 1
gene 1 33 47 2.98317 0 262 2.98317 1
gene 1 33 48 2.61297 0 263 2.61297 1
gene 1 33 49 0.0961667 0 264 0.0961667 1
gene 1 34 42 0.962176 0 265 0.962176 1
gene 1 34 43 0.952159 0 266 0.952159 1
gene 1 34 44 0.0110253 0 267 0.0110253 1
gene 1 34 45 0.410257 0 268 0.410257 1
gene 1 34 46 -0.914663 0 269 -0.914663 1
gene 1 34 47 -0.1161 0 270 -0.1161 1
gene 1 34 48 4.91416 0 271 4.91416 1
gene 1 34 49 -0.37763 0 272 -0.37763 1
gene 1 35 42 -0.0105863 0 273 -0.0105863 1
gene 1 35 43 0.0738882 0 274 0.0738882 1
gene 1 35 44 -0.365076 0 275 -0.365076 1
gene 1 35 45 0.538724 0 276 0.538724 1
gene 1 35 46 -0.596196 0 277 -0.596196 1
gene 1 35 47 0.156771 0 278 0.156771 1
gene 1 35 48 0.924885 0 279 0.924885 1
gene 1 35 49 -1.64448 0 280 -1.64448 1
gene 1 36 42 0.49333 0 281 0.49333 1
gene 1 36 43 -1.31832 0 282 -1.31832 1
gene 1 36 44 0.623388 0 283 0.623388 1
gene 1 36 45 -1.05494 0 284 -1.05494 1
gene 1 36 46 0.447199 0 285 0.447199 1
gene 1 36 47 -0.0950601 0 286 -0.0950601 1
gene 1 36 48 0.932012 0 287 0.932012 1
gene 1 36 49 1.40042 0 288 1.40042 1
gene 1 37 42 1.74693 0 289 1.74693 1
gene 1 37 43 0.897349 0 290 0.897349 1
gene 1 37 44 -2.81005 0 291 -2.81005 1
gene 1 37 45 -0.883689 0 292 -0.883689 1
gene 1 37 46 -0.156651 0 293 -0.156651 1
gene 1 37 47 -1.31093 0 294 -1.31093 1
gene 1 37 48 -0.194711 0 295 -0.194711 1
gene 1 37 49 -1.08703 0 296 -1.08703 1
gene 1 38 42 -0.993569 0 297 -0.993569 1
gene 1 38 43 2.75557 0 298 2.75557 1
gene 1 38 44 0.0779975 0 299 0.0779975 1
gene 1 38 45 0.75828 0 300 0.75828 1
gene 1 38 46 -1.68537 0 301 -1.68537 1
gene 1 38 47 0.429498 0 302 0.429498 1
gene 1 38 48 -2.09825 0 303 -2.09825 1
gene 1 38 49 -1.43034 0 304 -1.43034 1
gene 1 39 42 -0.596821 0 305 -0.596821 1
gene 1 39 43 -0.174594 0 306 -0.174594 1
gene 1 39 44 -0.79104 0 307 -0.79104 1
gene 1 39 45 -0.287884 0 308 -0.287884 1
gene 1 39 46 0.323551 0 309 0.323551 1
gene 1 39 47 -0.120016 0 310 -0.120016 1
gene 1 39 48 -0.597019 0 311 -0.597019 1
gene 1 39 49 -1.92705 0 312 -1.92705 1
gene 1 40 42 -2.19554 0 313 -2.19554 1
gene 1 40 43 0.254304 0 314 0.254304 1
gene 1 40 44 1.76979 0 315 1.76979 1
gene 1 40 45 0.0861839 0 316 0.0861839 1
gene 1 40 46 1.71858 0 317 1.71858 1
gene 1 40 47 1.3002 0 318 1.3002 1
gene 1 40 48 -0.94726 0 319 -0.94726 1
gene 1 40 49 -0.517031 0 320 -0.517031 1
gene 1 41 42 -4.19046 0 321 -4.19046 1
gene 1 41 43 2.15663 0 322 2.15663 1
gene 1 41 44 -1.17927 0 323 -1.17927 1
gene 1 41 45 2.84051 0 324 2.84051 1
gene 1 41 46 -0.343041 0 325 -0.343041 1
gene 1 41 47 0.0284107 0 326 0.0284107 1
gene 1 41 48 -0.505474 0 327 -0.505474 1
gene 1 41 49 -0.427017 0 328 -0.427017 1
genomeend 1


