/* Organism #0 Fitness: 37.540000 Time: 0 */
genomestart 0
trait 1 0.364060 0.393018 0.843730 0.000000 0.000000 0.008257 0.384775 0.000000 
node 1 1 1 1
node 2 1 1 1
node 3 1 1 1
node 4 1 1 1
node 5 1 1 1
node 6 1 1 1
node 7 1 1 1
node 8 1 1 1
node 9 1 1 1
node 10 1 1 1
node 11 1 1 1
node 12 1 1 1
node 13 1 1 1
node 14 1 1 1
node 15 1 1 1
node 16 1 1 1
node 17 1 1 1
node 18 1 1 1
node 19 1 1 1
node 20 1 1 1
node 21 1 1 1
node 22 1 1 1
node 23 1 1 1
node 24 1 1 1
node 25 1 1 1
node 26 1 1 1
node 27 1 1 1
node 28 1 1 1
node 29 1 1 1
node 30 1 1 1
node 31 1 1 1
node 32 1 1 1
node 33 1 1 1
node 34 1 1 1
node 35 1 1 1
node 36 1 1 1
node 37 1 1 1
node 38 1 1 1
node 39 1 1 1
node 40 1 1 1
node 41 1 1 3
node 42 1 0 2
node 43 1 0 2
node 44 1 0 2
node 45 1 0 2
node 46 1 0 2
node 47 1 0 2
node 48 1 0 2
node 49 1 0 2
gene 1 1 42 -4.77229 0 1 -4.77229 1
gene 1 1 43 1.6247 0 2 1.6247 1
gene 1 1 44 -4.10784 0 3 -4.10784 1
gene 1 1 45 4.25864 0 4 4.25864 1
gene 1 1 46 3.16439 0 5 3.16439 1
gene 1 1 47 3.13432 0 6 3.13432 1
gene 1 1 48 0.532131 0 7 0.532131 1
gene 1 1 49 0.986498 0 8 0.986498 1
gene 1 2 42 3.9454 0 9 3.9454 1
gene 1 2 43 0.377457 0 10 0.377457 1
gene 1 2 44 -4.89086 0 11 -4.89086 1
gene 1 2 45 0.280025 0 12 0.280025 1
gene 1 2 46 3.57893 0 13 3.57893 1
gene 1 2 47 -2.59723 0 14 -2.59723 1
gene 1 2 48 -2.39986 0 15 -2.39986 1
gene 1 2 49 -2.36641 0 16 -2.36641 1
gene 1 3 42 1.66357 0 17 1.66357 1
gene 1 3 43 -2.70081 0 18 -2.70081 1
gene 1 3 44 2.78101 0 19 2.78101 1
gene 1 3 45 0.912319 0 20 0.912319 1
gene 1 3 46 3.29801 0 21 3.29801 1
gene 1 3 47 0.571849 0 22 0.571849 1
gene 1 3 48 4.2716 0 23 4.2716 1
gene 1 3 49 -1.60822 0 24 -1.60822 1
gene 1 4 42 2.86411 0 25 2.86411 1
gene 1 4 43 0.457214 0 26 0.457214 1
gene 1 4 44 5 0 27 5 1
gene 1 4 45 -5 0 28 -5 1
gene 1 4 46 -0.351862 0 29 -0.351862 1
gene 1 4 47 -1.93225 0 30 -1.93225 1
gene 1 4 48 -0.298261 0 31 -0.298261 1
gene 1 4 49 2.89249 0 32 2.89249 1
gene 1 5 42 3.98244 0 33 3.98244 1
gene 1 5 43 -0.354841 0 34 -0.354841 1
gene 1 5 44 4.64571 0 35 4.64571 1
gene 1 5 45 2.90268 0 36 2.90268 1
gene 1 5 46 -2.28725 0 37 -2.28725 1
gene 1 5 47 -0.174656 0 38 -0.174656 1
gene 1 5 48 -1.05218 0 39 -1.05218 1
gene 1 5 49 1.59605 0 40 1.59605 1
gene 1 6 42 2.87167 0 41 2.87167 1
gene 1 6 43 -0.300262 0 42 -0.300262 1
gene 1 6 44 1.97834 0 43 1.97834 1
gene 1 6 45 -4.58052 0 44 -4.58052 1
gene 1 6 46 -3.64296 0 45 -3.64296 1
gene 1 6 47 -1.65735 0 46 -1.65735 1
gene 1 6 48 1.37002 0 47 1.37002 1
gene 1 6 49 -0.588062 0 48 -0.588062 1
gene 1 7 42 1.30328 0 49 1.30328 1
gene 1 7 43 1.05243 0 50 1.05243 1
gene 1 7 44 1.37431 0 51 1.37431 1
gene 1 7 45 3.13275 0 52 3.13275 1
gene 1 7 46 2.33015 0 53 2.33015 1
gene 1 7 47 0.464243 0 54 0.464243 1
gene 1 7 48 -2.72561 0 55 -2.72561 1
gene 1 7 49 1.81299 0 56 1.81299 1
gene 1 8 42 -1.45184 0 57 -1.45184 1
gene 1 8 43 -5 0 58 -5 1
gene 1 8 44 -2.87524 0 59 -2.87524 1
gene 1 8 45 -3.18556 0 60 -3.18556 1
gene 1 8 46 0.188836 0 61 0.188836 1
gene 1 8 47 1.28975 0 62 1.28975 1
gene 1 8 48 4.61254 0 63 4.61254 1
gene 1 8 49 3.77301 0 64 3.77301 1
gene 1 9 42 2.93172 0 65 2.93172 1
gene 1 9 43 -2.88062 0 66 -2.88062 1
gene 1 9 44 -0.119946 0 67 -0.119946 1
gene 1 9 45 -1.78804 0 68 -1.78804 1
gene 1 9 46 2.6663 0 69 2.6663 1
gene 1 9 47 1.617 0 70 1.617 1
gene 1 9 48 -3.31713 0 71 -3.31713 1
gene 1 9 49 -0.45051 0 72 -0.45051 1
gene 1 10 42 2.86548 0 73 2.86548 1
gene 1 10 43 -3.58041 0 74 -3.58041 1
gene 1 10 44 0.658224 0 75 0.658224 1
gene 1 10 45 -3.48387 0 76 -3.48387 1
gene 1 10 46 -2.17813 0 77 -2.17813 1
gene 1 10 47 -1.841 0 78 -1.841 1
gene 1 10 48 3.49675 0 79 3.49675 1
gene 1 10 49 -3.2664 0 80 -3.2664 1
gene 1 11 42 -5 0 81 -5 1
gene 1 11 43 0.0288637 0 82 0.0288637 1
gene 1 11 44 -2.91051 0 83 -2.91051 1
gene 1 11 45 0.330783 0 84 0.330783 1
gene 1 11 46 -0.929243 0 85 -0.929243 1
gene 1 11 47 0.501838 0 86 0.501838 1
gene 1 11 48 -1.01031 0 87 -1.01031 1
gene 1 11 49 -1.15544 0 88 -1.15544 1
gene 1 12 42 1.55846 0 89 1.55846 1
gene 1 12 43 -2.08571 0 90 -2.08571 1
gene 1 12 44 -0.732957 0 91 -0.732957 1
gene 1 12 45 -2.44124 0 92 -2.44124 1
gene 1 12 46 -0.395584 0 93 -0.395584 1
gene 1 12 47 1.03503 0 94 1.03503 1
gene 1 12 48 -5 0 95 -5 1
gene 1 12 49 2.50123 0 96 2.50123 1
gene 1 13 42 -4.16194 0 97 -4.16194 1
gene 1 13 43 -2.89841 0 98 -2.89841 1
gene 1 13 44 0.309927 0 99 0.309927 1
gene 1 13 45 2.41032 0 100 2.41032 1
gene 1 13 46 0.839445 0 101 0.839445 1
gene 1 13 47 0.102642 0 102 0.102642 1
gene 1 13 48 -0.760548 0 103 -0.760548 1
gene 1 13 49 -0.58564 0 104 -0.58564 1
gene 1 14 42 -0.400321 0 105 -0.400321 1
gene 1 14 43 -2.74236 0 106 -2.74236 1
gene 1 14 44 -1.89489 0 107 -1.89489 1
gene 1 14 45 -1.29748 0 108 -1.29748 1
gene 1 14 46 -3.19624 0 109 -3.19624 1
gene 1 14 47 4.65953 0 110 4.65953 1
gene 1 14 48 -1.32273 0 111 -1.32273 1
gene 1 14 49 0.789356 0 112 0.789356 1
gene 1 15 42 -0.202317 0 113 -0.202317 1
gene 1 15 43 0.240897 0 114 0.240897 1
gene 1 15 44 0.894824 0 115 0.894824 1
gene 1 15 45 0.936584 0 116 0.936584 1
gene 1 15 46 -2.00167 0 117 -2.00167 1
gene 1 15 47 5 0 118 5 1
gene 1 15 48 0.983344 0 119 0.983344 1
gene 1 15 49 2.5187 0 120 2.5187 1
gene 1 16 42 1.59054 0 121 1.59054 1
gene 1 16 43 -0.382882 0 122 -0.382882 1
gene 1 16 44 3.82608 0 123 3.82608 1
gene 1 16 45 -3.76131 0 124 -3.76131 1
gene 1 16 46 -4.5701 0 125 -4.5701 1
gene 1 16 47 4.87324 0 126 4.87324 1
gene 1 16 48 1.18582 0 127 1.18582 1
gene 1 16 49 1.00751 0 128 1.00751 1
gene 1 17 42 -4.05428 0 129 -4.05428 1
gene 1 17 43 1.17511 0 130 1.17511 1
gene 1 17 44 -0.23296 0 131 -0.23296 1
gene 1 17 45 -0.59336 0 132 -0.59336 1
gene 1 17 46 -3.19124 0 133 -3.19124 1
gene 1 17 47 -3.37644 0 134 -3.37644 1
gene 1 17 48 4.37597 0 135 4.37597 1
gene 1 17 49 3.02658 0 136 3.02658 1
gene 1 18 42 1.81421 0 137 1.81421 1
gene 1 18 43 2.22312 0 138 2.22312 1
gene 1 18 44 3.8304 0 139 3.8304 1
gene 1 18 45 4.71709 0 140 4.71709 1
gene 1 18 46 -1.90277 0 141 -1.90277 1
gene 1 18 47 -1.32337 0 142 -1.32337 1
gene 1 18 48 3.5451 0 143 3.5451 1
gene 1 18 49 0.917518 0 144 0.917518 1
gene 1 19 42 3.43003 0 145 3.43003 1
gene 1 19 43 -4.66808 0 146 -4.66808 1
gene 1 19 44 -1.42046 0 147 -1.42046 1
gene 1 19 45 -0.86887 0 148 -0.86887 1
gene 1 19 46 0.463239 0 149 0.463239 1
gene 1 19 47 2.22585 0 150 2.22585 1
gene 1 19 48 1.29365 0 151 1.29365 1
gene 1 19 49 3.23716 0 152 3.23716 1
gene 1 20 42 0.429587 0 153 0.429587 1
gene 1 20 43 0.567027 0 154 0.567027 1
gene 1 20 44 0.016087 0 155 0.016087 1
gene 1 20 45 -3.66887 0 156 -3.66887 1
gene 1 20 46 2.1079 0 157 2.1079 1
gene 1 20 47 4.09298 0 158 4.09298 1
gene 1 20 48 4.66531 0 159 4.66531 1
gene 1 20 49 -0.324446 0 160 -0.324446 1
gene 1 21 42 -1.93911 0 161 -1.93911 1
gene 1 21 43 4.95192 0 162 4.95192 1
gene 1 21 44 0.694989 0 163 0.694989 1
gene 1 21 45 -0.513309 0 164 -0.513309 1
gene 1 21 46 0.147888 0 165 0.147888 1
gene 1 21 47 2.44195 0 166 2.44195 1
gene 1 21 48 0.79354 0 167 0.79354 1
gene 1 21 49 -4.85473 0 168 -4.85473 1
gene 1 22 42 1.28991 0 169 1.28991 1
gene 1 22 43 0.546885 0 170 0.546885 1
gene 1 22 44 -0.445437 0 171 -0.445437 1
gene 1 22 45 0.370129 0 172 0.370129 1
gene 1 22 46 -0.794446 0 173 -0.794446 1
gene 1 22 47 4.18146 0 174 4.18146 1
gene 1 22 48 -4.22039 0 175 -4.22039 1
gene 1 22 49 -0.692615 0 176 -0.692615 1
gene 1 23 42 -0.27882 0 177 -0.27882 1
gene 1 23 43 -4.3379 0 178 -4.3379 1
gene 1 23 44 -0.978613 0 179 -0.978613 1
gene 1 23 45 2.76353 0 180 2.76353 1
gene 1 23 46 -1.57158 0 181 -1.57158 1
gene 1 23 47 -3.75551 0 182 -3.75551 1
gene 1 23 48 3.72513 0 183 3.72513 1
gene 1 23 49 -5 0 184 -5 1
gene 1 24 42 -3.3567 0 185 -3.3567 1
gene 1 24 43 1.7454 0 186 1.7454 1
gene 1 24 44 -0.182815 0 187 -0.182815 1
gene 1 24 45 -1.87195 0 188 -1.87195 1
gene 1 24 46 0.590201 0 189 0.590201 1
gene 1 24 47 -0.335387 0 190 -0.335387 1
gene 1 24 48 -4.41947 0 191 -4.41947 1
gene 1 24 49 -1.56509 0 192 -1.56509 1
gene 1 25 42 1.03019 0 193 1.03019 1
gene 1 25 43 0.756356 0 194 0.756356 1
gene 1 25 44 -2.23169 0 195 -2.23169 1
gene 1 25 45 0.711957 0 196 0.711957 1
gene 1 25 46 1.09763 0 197 1.09763 1
gene 1 25 47 3.54974 0 198 3.54974 1
gene 1 25 48 0.154798 0 199 0.154798 1
gene 1 25 49 -3.61579 0 200 -3.61579 1
gene 1 26 42 -3.01968 0 201 -3.01968 1
gene 1 26 43 -3.67475 0 202 -3.67475 1
gene 1 26 44 -2.40061 0 203 -2.40061 1
gene 1 26 45 4.61497 0 204 4.61497 1
gene 1 26 46 -0.041428 0 205 -0.041428 1
gene 1 26 47 -1.23508 0 206 -1.23508 1
gene 1 26 48 -1.19096 0 207 -1.19096 1
gene 1 26 49 0.148416 0 208 0.148416 1
gene 1 27 42 1.74948 0 209 1.74948 1
gene 1 27 43 1.74892 0 210 1.74892 1
gene 1 27 44 2.05831 0 211 2.05831 1
gene 1 27 45 -1.7072 0 212 -1.7072 1
gene 1 27 46 1.24665 0 213 1.24665 1
gene 1 27 47 -3.32911 0 214 -3.32911 1
gene 1 27 48 -0.186809 0 215 -0.186809 1
gene 1 27 49 4.06331 0 216 4.06331 1
gene 1 28 42 -1.08866 0 217 -1.08866 1
gene 1 28 43 3.42212 0 218 3.42212 1
gene 1 28 44 2.58253 0 219 2.58253 1
gene 1 28 45 -2.78307 0 220 -2.78307 1
gene 1 28 46 1.69856 0 221 1.69856 1
gene 1 28 47 4.17839 0 222 4.17839 1
gene 1 28 48 1.29599 0 223 1.29599 1
gene 1 28 49 2.83154 0 224 2.83154 1
gene 1 29 42 2.86303 0 225 2.86303 1
gene 1 29 43 0.97388 0 226 0.97388 1
gene 1 29 44 4.05006 0 227 4.05006 1
gene 1 29 45 -4.02392 0 228 -4.02392 1
gene 1 29 46 -0.246439 0 229 -0.246439 1
gene 1 29 47 -3.50264 0 230 -3.50264 1
gene 1 29 48 3.68588 0 231 3.68588 1
gene 1 29 49 0.82874 0 232 0.82874 1
gene 1 30 42 -0.231254 0 233 -0.231254 1
gene 1 30 43 -0.323403 0 234 -0.323403 1
gene 1 30 44 0.976249 0 235 0.976249 1
gene 1 30 45 0.951589 0 236 0.951589 1
gene 1 30 46 -0.762519 0 237 -0.762519 1
gene 1 30 47 -3.32316 0 238 -3.32316 1
gene 1 30 48 -0.558614 0 239 -0.558614 1
gene 1 30 49 -1.68088 0 240 -1.68088 1
gene 1 31 42 3.922 0 241 3.922 1
gene 1 31 43 2.80347 0 242 2.80347 1
gene 1 31 44 0.083989 0 243 0.083989 1
gene 1 31 45 1.33118 0 244 1.33118 1
gene 1 31 46 2.16107 0 245 2.16107 1
gene 1 31 47 -2.21242 0 246 -2.21242 1
gene 1 31 48 2.56527 0 247 2.56527 1
gene 1 31 49 2.31797 0 248 2.31797 1
gene 1 32 42 1.67663 0 249 1.67663 1
gene 1 32 43 -0.416564 0 250 -0.416564 1
gene 1 32 44 0.877511 0 251 0.877511 1
gene 1 32 45 -0.542888 0 252 -0.542888 1
gene 1 32 46 -2.8832 0 253 -2.8832 1
gene 1 32 47 2.18645 0 254 2.18645 1
gene 1 32 48 -0.0690919 0 255 -0.0690919 1
gene 1 32 49 2.38074 0 256 2.38074 1
gene 1 33 42 0.826955 0 257 0.826955 1
gene 1 33 43 -1.20944 0 258 -1.20944 1
gene 1 33 44 -0.16826 0 259 -0.16826 1
gene 1 33 45 -4.49102 0 260 -4.49102 1
gene 1 33 46 2.45794 0 261 2.45794 1
gene 1 33 47 4.33552 0 262 4.33552 1
gene 1 33 48 -3.71037 0 263 -3.71037 1
gene 1 33 49 -1.33604 0 264 -1.33604 1
gene 1 34 42 -0.464635 0 265 -0.464635 1
gene 1 34 43 -0.341051 0 266 -0.341051 1
gene 1 34 44 -0.888109 0 267 -0.888109 1
gene 1 34 45 0.509197 0 268 0.509197 1
gene 1 34 46 0.511361 0 269 0.511361 1
gene 1 34 47 -0.676796 0 270 -0.676796 1
gene 1 34 48 0.42401 0 271 0.42401 1
gene 1 34 49 1.41312 0 272 1.41312 1
gene 1 35 42 -0.570293 0 273 -0.570293 1
gene 1 35 43 -0.484523 0 274 -0.484523 1
gene 1 35 44 -1.5075 0 275 -1.5075 1
gene 1 35 45 0.78339 0 276 0.78339 1
gene 1 35 46 -0.176871 0 277 -0.176871 1
gene 1 35 47 1.05895 0 278 1.05895 1
gene 1 35 48 0.516704 0 279 0.516704 1
gene 1 35 49 -1.48529 0 280 -1.48529 1
gene 1 36 42 -0.910037 0 281 -0.910037 1
gene 1 36 43 1.04112 0 282 1.04112 1
gene 1 36 44 -0.0919957 0 283 -0.0919957 1
gene 1 36 45 0.211635 0 284 0.211635 1
gene 1 36 46 -0.0485332 0 285 -0.0485332 1
gene 1 36 47 0.76135 0 286 0.76135 1
gene 1 36 48 0.528313 0 287 0.528313 1
gene 1 36 49 0.189667 0 288 0.189667 1
gene 1 37 42 -1.12498 0 289 -1.12498 1
gene 1 37 43 -0.520793 0 290 -0.520793 1
gene 1 37 44 -0.154128 0 291 -0.154128 1
gene 1 37 45 0.247069 0 292 0.247069 1
gene 1 37 46 -0.154762 0 293 -0.154762 1
gene 1 37 47 0.463008 0 294 0.463008 1
gene 1 37 48 -0.984237 0 295 -0.984237 1
gene 1 37 49 0.145316 0 296 0.145316 1
gene 1 38 42 -0.403282 0 297 -0.403282 1
gene 1 38 43 -3.24182 0 298 -3.24182 1
gene 1 38 44 0.927445 0 299 0.927445 1
gene 1 38 45 -0.184776 0 300 -0.184776 1
gene 1 38 46 0.304115 0 301 0.304115 1
gene 1 38 47 -1.95227 0 302 -1.95227 1
gene 1 38 48 -0.798955 0 303 -0.798955 1
gene 1 38 49 0.731408 0 304 0.731408 1
gene 1 39 42 0.0189686 0 305 0.0189686 1
gene 1 39 43 0.292617 0 306 0.292617 1
gene 1 39 44 -0.758295 0 307 -0.758295 1
gene 1 39 45 0.246292 0 308 0.246292 1
gene 1 39 46 -0.722124 0 309 -0.722124 1
gene 1 39 47 -0.329968 0 310 -0.329968 1
gene 1 39 48 1.72092 0 311 1.72092 1
gene 1 39 49 -0.226261 0 312 -0.226261 1
gene 1 40 42 0.839285 0 313 0.839285 1
gene 1 40 43 -0.791466 0 314 -0.791466 1
gene 1 40 44 -0.0907679 0 315 -0.0907679 1
gene 1 40 45 0.265291 0 316 0.265291 1
gene 1 40 46 -0.495395 0 317 -0.495395 1
gene 1 40 47 0.460907 0 318 0.460907 1
gene 1 40 48 -0.205068 0 319 -0.205068 1
gene 1 40 49 0.912548 0 320 0.912548 1
gene 1 41 42 4.29393 0 321 4.29393 1
gene 1 41 43 -1.66415 0 322 -1.66415 1
gene 1 41 44 3.93514 0 323 3.93514 1
gene 1 41 45 -1.14831 0 324 -1.14831 1
gene 1 41 46 0.288819 0 325 0.288819 1
gene 1 41 47 0.432606 0 326 0.432606 1
gene 1 41 48 -0.705642 0 327 -0.705642 1
gene 1 41 49 -2.18047 0 328 -2.18047 1
genomeend 0


