/* Organism #0 Fitness: 27.060000 Time: 0 */
genomestart 0
trait 1 0.934436 0.629295 0.000000 0.000000 0.000000 0.000000 0.000000 0.000000 
node 1 1 1 1
node 2 1 1 1
node 3 1 1 1
node 4 1 1 1
node 5 1 1 1
node 6 1 1 1
node 7 1 1 1
node 8 1 1 1
node 9 1 1 1
node 10 1 1 1
node 11 1 1 1
node 12 1 1 1
node 13 1 1 1
node 14 1 1 1
node 15 1 1 1
node 16 1 1 1
node 17 1 1 1
node 18 1 1 1
node 19 1 1 1
node 20 1 1 1
node 21 1 1 1
node 22 1 1 1
node 23 1 1 1
node 24 1 1 1
node 25 1 1 1
node 26 1 1 1
node 27 1 1 1
node 28 1 1 1
node 29 1 1 1
node 30 1 1 1
node 31 1 1 1
node 32 1 1 1
node 33 1 1 1
node 34 1 1 1
node 35 1 1 1
node 36 1 1 1
node 37 1 1 1
node 38 1 1 1
node 39 1 1 1
node 40 1 1 1
node 41 1 1 3
node 42 1 0 2
node 43 1 0 2
node 44 1 0 2
node 45 1 0 2
node 46 1 0 2
node 47 1 0 2
node 48 1 0 2
node 49 1 0 2
gene 1 1 42 -0.867055 0 1 -0.867055 1
gene 1 1 43 3.47087 0 2 3.47087 1
gene 1 1 44 0.988972 0 3 0.988972 1
gene 1 1 45 -3.42908 0 4 -3.42908 1
gene 1 1 46 0.152929 0 5 0.152929 1
gene 1 1 47 1.57245 0 6 1.57245 1
gene 1 1 48 -5 0 7 -5 1
gene 1 1 49 1.03099 0 8 1.03099 1
gene 1 2 42 0.386918 0 9 0.386918 1
gene 1 2 43 -0.600901 0 10 -0.600901 1
gene 1 2 44 -2.31362 0 11 -2.31362 1
gene 1 2 45 1.11283 0 12 1.11283 1
gene 1 2 46 4.06042 0 13 4.06042 1
gene 1 2 47 -0.260984 0 14 -0.260984 1
gene 1 2 48 -0.503147 0 15 -0.503147 1
gene 1 2 49 -1.36747 0 16 -1.36747 1
gene 1 3 42 -0.908798 0 17 -0.908798 1
gene 1 3 43 4.14566 0 18 4.14566 1
gene 1 3 44 -0.60377 0 19 -0.60377 1
gene 1 3 45 -0.424153 0 20 -0.424153 1
gene 1 3 46 -1.56913 0 21 -1.56913 1
gene 1 3 47 -0.866521 0 22 -0.866521 1
gene 1 3 48 0.832135 0 23 0.832135 1
gene 1 3 49 0.815373 0 24 0.815373 1
gene 1 4 42 -0.114857 0 25 -0.114857 1
gene 1 4 43 1.48985 0 26 1.48985 1
gene 1 4 44 5 0 27 5 1
gene 1 4 45 -2.18367 0 28 -2.18367 1
gene 1 4 46 0.160552 0 29 0.160552 1
gene 1 4 47 1.34585 0 30 1.34585 1
gene 1 4 48 0.33613 0 31 0.33613 1
gene 1 4 49 -0.303209 0 32 -0.303209 1
gene 1 5 42 -0.978582 0 33 -0.978582 1
gene 1 5 43 0.36851 0 34 0.36851 1
gene 1 5 44 5 0 35 5 1
gene 1 5 45 -3.56324 0 36 -3.56324 1
gene 1 5 46 5 0 37 5 1
gene 1 5 47 -1.7837 0 38 -1.7837 1
gene 1 5 48 0.205392 0 39 0.205392 1
gene 1 5 49 -3.10744 0 40 -3.10744 1
gene 1 6 42 -1.32491 0 41 -1.32491 1
gene 1 6 43 1.13249 0 42 1.13249 1
gene 1 6 44 0.845419 0 43 0.845419 1
gene 1 6 45 -0.54661 0 44 -0.54661 1
gene 1 6 46 -1.49709 0 45 -1.49709 1
gene 1 6 47 0.420616 0 46 0.420616 1
gene 1 6 48 2.25993 0 47 2.25993 1
gene 1 6 49 -2.28768 0 48 -2.28768 1
gene 1 7 42 -0.999931 0 49 -0.999931 1
gene 1 7 43 2.66997 0 50 2.66997 1
gene 1 7 44 -2.65182 0 51 -2.65182 1
gene 1 7 45 -0.472948 0 52 -0.472948 1
gene 1 7 46 5 0 53 5 1
gene 1 7 47 -1.26631 0 54 -1.26631 1
gene 1 7 48 2.63137 0 55 2.63137 1
gene 1 7 49 1.67418 0 56 1.67418 1
gene 1 8 42 1.06604 0 57 1.06604 1
gene 1 8 43 0.719248 0 58 0.719248 1
gene 1 8 44 -1.00994 0 59 -1.00994 1
gene 1 8 45 1.3115 0 60 1.3115 1
gene 1 8 46 5 0 61 5 1
gene 1 8 47 -0.0978509 0 62 -0.0978509 1
gene 1 8 48 -0.283786 0 63 -0.283786 1
gene 1 8 49 0.829399 0 64 0.829399 1
gene 1 9 42 -0.404912 0 65 -0.404912 1
gene 1 9 43 0.0430138 0 66 0.0430138 1
gene 1 9 44 -1.07027 0 67 -1.07027 1
gene 1 9 45 -0.727496 0 68 -0.727496 1
gene 1 9 46 -0.343884 0 69 -0.343884 1
gene 1 9 47 4.48683 0 70 4.48683 1
gene 1 9 48 -1.1243 0 71 -1.1243 1
gene 1 9 49 1.9055 0 72 1.9055 1
gene 1 10 42 0.447641 0 73 0.447641 1
gene 1 10 43 -0.0836002 0 74 -0.0836002 1
gene 1 10 44 0.243579 0 75 0.243579 1
gene 1 10 45 1.52303 0 76 1.52303 1
gene 1 10 46 3.6708 0 77 3.6708 1
gene 1 10 47 2.95781 0 78 2.95781 1
gene 1 10 48 -0.795533 0 79 -0.795533 1
gene 1 10 49 -2.16673 0 80 -2.16673 1
gene 1 11 42 0.234996 0 81 0.234996 1
gene 1 11 43 -0.242598 0 82 -0.242598 1
gene 1 11 44 0.418305 0 83 0.418305 1
gene 1 11 45 0.98682 0 84 0.98682 1
gene 1 11 46 -3.04161 0 85 -3.04161 1
gene 1 11 47 0.147742 0 86 0.147742 1
gene 1 11 48 -0.512953 0 87 -0.512953 1
gene 1 11 49 -0.410283 0 88 -0.410283 1
gene 1 12 42 -4.72857 0 89 -4.72857 1
gene 1 12 43 -0.936317 0 90 -0.936317 1
gene 1 12 44 -0.552086 0 91 -0.552086 1
gene 1 12 45 -3.33988 0 92 -3.33988 1
gene 1 12 46 -3.10498 0 93 -3.10498 1
gene 1 12 47 -0.145293 0 94 -0.145293 1
gene 1 12 48 -0.57303 0 95 -0.57303 1
gene 1 12 49 0.241954 0 96 0.241954 1
gene 1 13 42 -1.18083 0 97 -1.18083 1
gene 1 13 43 2.22964 0 98 2.22964 1
gene 1 13 44 3.97285 0 99 3.97285 1
gene 1 13 45 4.09263 0 100 4.09263 1
gene 1 13 46 0.899879 0 101 0.899879 1
gene 1 13 47 -0.16502 0 102 -0.16502 1
gene 1 13 48 0.508059 0 103 0.508059 1
gene 1 13 49 -0.423671 0 104 -0.423671 1
gene 1 14 42 -1.90721 0 105 -1.90721 1
gene 1 14 43 -1.41148 0 106 -1.41148 1
gene 1 14 44 1.69985 0 107 1.69985 1
gene 1 14 45 -3.3851 0 108 -3.3851 1
gene 1 14 46 -2.04122 0 109 -2.04122 1
gene 1 14 47 0.890453 0 110 0.890453 1
gene 1 14 48 0.775168 0 111 0.775168 1
gene 1 14 49 1.76231 0 112 1.76231 1
gene 1 15 42 -0.0417367 0 113 -0.0417367 1
gene 1 15 43 0.762392 0 114 0.762392 1
gene 1 15 44 -1.71132 0 115 -1.71132 1
gene 1 15 45 4.11084 0 116 4.11084 1
gene 1 15 46 1.18878 0 117 1.18878 1
gene 1 15 47 -0.289137 0 118 -0.289137 1
gene 1 15 48 0.92921 0 119 0.92921 1
gene 1 15 49 -0.149658 0 120 -0.149658 1
gene 1 16 42 0.274113 0 121 0.274113 1
gene 1 16 43 0.751528 0 122 0.751528 1
gene 1 16 44 -0.658387 0 123 -0.658387 1
gene 1 16 45 1.4803 0 124 1.4803 1
gene 1 16 46 -0.780585 0 125 -0.780585 1
gene 1 16 47 0.940212 0 126 0.940212 1
gene 1 16 48 -0.159301 0 127 -0.159301 1
gene 1 16 49 -4.08381 0 128 -4.08381 1
gene 1 17 42 -2.36137 0 129 -2.36137 1
gene 1 17 43 -1.14925 0 130 -1.14925 1
gene 1 17 44 3.48737 0 131 3.48737 1
gene 1 17 45 0.0417677 0 132 0.0417677 1
gene 1 17 46 -0.863095 0 133 -0.863095 1
gene 1 17 47 5 0 134 5 1
gene 1 17 48 1.18318 0 135 1.18318 1
gene 1 17 49 -3.91783 0 136 -3.91783 1
gene 1 18 42 -0.930329 0 137 -0.930329 1
gene 1 18 43 3.57809 0 138 3.57809 1
gene 1 18 44 0.573378 0 139 0.573378 1
gene 1 18 45 4.85308 0 140 4.85308 1
gene 1 18 46 1.25378 0 141 1.25378 1
gene 1 18 47 0.807311 0 142 0.807311 1
gene 1 18 48 0.371678 0 143 0.371678 1
gene 1 18 49 -0.665486 0 144 -0.665486 1
gene 1 19 42 3.07563 0 145 3.07563 1
gene 1 19 43 -0.0498466 0 146 -0.0498466 1
gene 1 19 44 -3.61564 0 147 -3.61564 1
gene 1 19 45 0.45905 0 148 0.45905 1
gene 1 19 46 -0.957509 0 149 -0.957509 1
gene 1 19 47 -2.01043 0 150 -2.01043 1
gene 1 19 48 0.635708 0 151 0.635708 1
gene 1 19 49 0.671973 0 152 0.671973 1
gene 1 20 42 0.316946 0 153 0.316946 1
gene 1 20 43 -0.839778 0 154 -0.839778 1
gene 1 20 44 -3.09435 0 155 -3.09435 1
gene 1 20 45 0.0803112 0 156 0.0803112 1
gene 1 20 46 -0.895559 0 157 -0.895559 1
gene 1 20 47 1.09566 0 158 1.09566 1
gene 1 20 48 2.16136 0 159 2.16136 1
gene 1 20 49 -0.565134 0 160 -0.565134 1
gene 1 21 42 0.454991 0 161 0.454991 1
gene 1 21 43 -5 0 162 -5 1
gene 1 21 44 0.261029 0 163 0.261029 1
gene 1 21 45 0.646467 0 164 0.646467 1
gene 1 21 46 -1.91627 0 165 -1.91627 1
gene 1 21 47 -2.14003 0 166 -2.14003 1
gene 1 21 48 2.6617 0 167 2.6617 1
gene 1 21 49 3.64219 0 168 3.64219 1
gene 1 22 42 -2.74211 0 169 -2.74211 1
gene 1 22 43 0.0148004 0 170 0.0148004 1
gene 1 22 44 0.389235 0 171 0.389235 1
gene 1 22 45 0.45594 0 172 0.45594 1
gene 1 22 46 -1.10563 0 173 -1.10563 1
gene 1 22 47 -0.879405 0 174 -0.879405 1
gene 1 22 48 0.185447 0 175 0.185447 1
gene 1 22 49 -0.841409 0 176 -0.841409 1
gene 1 23 42 -1.73135 0 177 -1.73135 1
gene 1 23 43 4.0663 0 178 4.0663 1
gene 1 23 44 -0.0966398 0 179 -0.0966398 1
gene 1 23 45 -1.9307 0 180 -1.9307 1
gene 1 23 46 -0.749102 0 181 -0.749102 1
gene 1 23 47 0.447411 0 182 0.447411 1
gene 1 23 48 0.942494 0 183 0.942494 1
gene 1 23 49 -0.156118 0 184 -0.156118 1
gene 1 24 42 -3.15325 0 185 -3.15325 1
gene 1 24 43 0.0622859 0 186 0.0622859 1
gene 1 24 44 0.0409053 0 187 0.0409053 1
gene 1 24 45 -0.463367 0 188 -0.463367 1
gene 1 24 46 0.353916 0 189 0.353916 1
gene 1 24 47 -1.11598 0 190 -1.11598 1
gene 1 24 48 1.82856 0 191 1.82856 1
gene 1 24 49 -0.436351 0 192 -0.436351 1
gene 1 25 42 -2.29544 0 193 -2.29544 1
gene 1 25 43 2.2605 0 194 2.2605 1
gene 1 25 44 -1.14084 0 195 -1.14084 1
gene 1 25 45 -3.433 0 196 -3.433 1
gene 1 25 46 -0.372227 0 197 -0.372227 1
gene 1 25 47 -0.287515 0 198 -0.287515 1
gene 1 25 48 1.18937 0 199 1.18937 1
gene 1 25 49 4.18931 0 200 4.18931 1
gene 1 26 42 -1.05756 0 201 -1.05756 1
gene 1 26 43 -2.23911 0 202 -2.23911 1
gene 1 26 44 -3.99311 0 203 -3.99311 1
gene 1 26 45 -0.885163 0 204 -0.885163 1
gene 1 26 46 -5 0 205 -5 1
gene 1 26 47 0.33364 0 206 0.33364 1
gene 1 26 48 0.798894 0 207 0.798894 1
gene 1 26 49 2.37556 0 208 2.37556 1
gene 1 27 42 1.61778 0 209 1.61778 1
gene 1 27 43 -0.415682 0 210 -0.415682 1
gene 1 27 44 -2.33917 0 211 -2.33917 1
gene 1 27 45 1.55711 0 212 1.55711 1
gene 1 27 46 -1.29793 0 213 -1.29793 1
gene 1 27 47 0.371076 0 214 0.371076 1
gene 1 27 48 -1.80831 0 215 -1.80831 1
gene 1 27 49 0.0169919 0 216 0.0169919 1
gene 1 28 42 -0.808464 0 217 -0.808464 1
gene 1 28 43 -0.630188 0 218 -0.630188 1
gene 1 28 44 2.16717 0 219 2.16717 1
gene 1 28 45 -0.0752926 0 220 -0.0752926 1
gene 1 28 46 -0.283991 0 221 -0.283991 1
gene 1 28 47 3.92496 0 222 3.92496 1
gene 1 28 48 -0.981178 0 223 -0.981178 1
gene 1 28 49 -0.0772663 0 224 -0.0772663 1
gene 1 29 42 -0.59447 0 225 -0.59447 1
gene 1 29 43 0.0821255 0 226 0.0821255 1
gene 1 29 44 -0.733664 0 227 -0.733664 1
gene 1 29 45 -1.43111 0 228 -1.43111 1
gene 1 29 46 3.80878 0 229 3.80878 1
gene 1 29 47 -4.14211 0 230 -4.14211 1
gene 1 29 48 2.1685 0 231 2.1685 1
gene 1 29 49 -0.468069 0 232 -0.468069 1
gene 1 30 42 -0.906686 0 233 -0.906686 1
gene 1 30 43 0.204113 0 234 0.204113 1
gene 1 30 44 -1.35624 0 235 -1.35624 1
gene 1 30 45 3.31898 0 236 3.31898 1
gene 1 30 46 0.413512 0 237 0.413512 1
gene 1 30 47 -3.8864 0 238 -3.8864 1
gene 1 30 48 -1.66797 0 239 -1.66797 1
gene 1 30 49 -1.675 0 240 -1.675 1
gene 1 31 42 -0.588395 0 241 -0.588395 1
gene 1 31 43 -0.206261 0 242 -0.206261 1
gene 1 31 44 -0.823805 0 243 -0.823805 1
gene 1 31 45 0.636889 0 244 0.636889 1
gene 1 31 46 2.41163 0 245 2.41163 1
gene 1 31 47 -1.67261 0 246 -1.67261 1
gene 1 31 48 1.64944 0 247 1.64944 1
gene 1 31 49 1.42287 0 248 1.42287 1
gene 1 32 42 -1.33643 0 249 -1.33643 1
gene 1 32 43 0.41917 0 250 0.41917 1
gene 1 32 44 0.383959 0 251 0.383959 1
gene 1 32 45 -2.06898 0 252 -2.06898 1
gene 1 32 46 0.707575 0 253 0.707575 1
gene 1 32 47 0.884784 0 254 0.884784 1
gene 1 32 48 2.22547 0 255 2.22547 1
gene 1 32 49 0.0995708 0 256 0.0995708 1
gene 1 33 42 0.769713 0 257 0.769713 1
gene 1 33 43 0.709421 0 258 0.709421 1
gene 1 33 44 -2.49984 0 259 -2.49984 1
gene 1 33 45 -3.75011 0 260 -3.75011 1
gene 1 33 46 -0.741773 0 261 -0.741773 1
gene 1 33 47 0.778898 0 262 0.778898 1
gene 1 33 48 -0.164447 0 263 -0.164447 1
gene 1 33 49 0.869993 0 264 0.869993 1
gene 1 34 42 0.964731 0 265 0.964731 1
gene 1 34 43 0.708285 0 266 0.708285 1
gene 1 34 44 -0.656834 0 267 -0.656834 1
gene 1 34 45 -0.693371 0 268 -0.693371 1
gene 1 34 46 2.215 0 269 2.215 1
gene 1 34 47 -1.06742 0 270 -1.06742 1
gene 1 34 48 -0.311189 0 271 -0.311189 1
gene 1 34 49 -0.475046 0 272 -0.475046 1
gene 1 35 42 -1.26188 0 273 -1.26188 1
gene 1 35 43 0.419646 0 274 0.419646 1
gene 1 35 44 2.16 0 275 2.16 1
gene 1 35 45 0.129293 0 276 0.129293 1
gene 1 35 46 -0.461059 0 277 -0.461059 1
gene 1 35 47 -1.28478 0 278 -1.28478 1
gene 1 35 48 -0.199785 0 279 -0.199785 1
gene 1 35 49 0.020973 0 280 0.020973 1
gene 1 36 42 0.541244 0 281 0.541244 1
gene 1 36 43 0.573003 0 282 0.573003 1
gene 1 36 44 0.802683 0 283 0.802683 1
gene 1 36 45 -0.248873 0 284 -0.248873 1
gene 1 36 46 -0.416409 0 285 -0.416409 1
gene 1 36 47 1.47859 0 286 1.47859 1
gene 1 36 48 2.73232 0 287 2.73232 1
gene 1 36 49 -0.406777 0 288 -0.406777 1
gene 1 37 42 -1.10191 0 289 -1.10191 1
gene 1 37 43 0.261578 0 290 0.261578 1
gene 1 37 44 -0.923431 0 291 -0.923431 1
gene 1 37 45 0.602554 0 292 0.602554 1
gene 1 37 46 0.408389 0 293 0.408389 1
gene 1 37 47 1.82862 0 294 1.82862 1
gene 1 37 48 0.476136 0 295 0.476136 1
gene 1 37 49 -0.452007 0 296 -0.452007 1
gene 1 38 42 -0.0296646 0 297 -0.0296646 1
gene 1 38 43 2.23174 0 298 2.23174 1
gene 1 38 44 0.0549204 0 299 0.0549204 1
gene 1 38 45 -1.39824 0 300 -1.39824 1
gene 1 38 46 0.17318 0 301 0.17318 1
gene 1 38 47 1.97835 0 302 1.97835 1
gene 1 38 48 -2.90889 0 303 -2.90889 1
gene 1 38 49 0.166899 0 304 0.166899 1
gene 1 39 42 -0.527424 0 305 -0.527424 1
gene 1 39 43 -1.77209 0 306 -1.77209 1
gene 1 39 44 0.62563 0 307 0.62563 1
gene 1 39 45 1.0354 0 308 1.0354 1
gene 1 39 46 -0.512262 0 309 -0.512262 1
gene 1 39 47 0.876235 0 310 0.876235 1
gene 1 39 48 0.0718543 0 311 0.0718543 1
gene 1 39 49 0.306628 0 312 0.306628 1
gene 1 40 42 -0.832805 0 313 -0.832805 1
gene 1 40 43 -1.24315 0 314 -1.24315 1
gene 1 40 44 0.376904 0 315 0.376904 1
gene 1 40 45 -0.378574 0 316 -0.378574 1
gene 1 40 46 -2.11477 0 317 -2.11477 1
gene 1 40 47 -0.0272385 0 318 -0.0272385 1
gene 1 40 48 0.198217 0 319 0.198217 1
gene 1 40 49 0.215209 0 320 0.215209 1
gene 1 41 42 -1.87409 0 321 -1.87409 1
gene 1 41 43 0.473092 0 322 0.473092 1
gene 1 41 44 -1.63539 0 323 -1.63539 1
gene 1 41 45 2.78476 0 324 2.78476 1
gene 1 41 46 -0.482942 0 325 -0.482942 1
gene 1 41 47 -0.572752 0 326 -0.572752 1
gene 1 41 48 0.943685 0 327 0.943685 1
gene 1 41 49 0.802003 0 328 0.802003 1
genomeend 0


