/* Organism #1 Fitness: 36.810000 Time: 0 */
genomestart 1
trait 1 0.100000 0.000000 0.000000 0.000000 0.000000 0.000000 0.000000 0.000000 
node 1 1 1 1
node 2 1 1 1
node 3 1 1 1
node 4 1 1 1
node 5 1 1 1
node 6 1 1 1
node 7 1 1 1
node 8 1 1 1
node 9 1 1 1
node 10 1 1 1
node 11 1 1 1
node 12 1 1 1
node 13 1 1 1
node 14 1 1 1
node 15 1 1 1
node 16 1 1 1
node 17 1 1 1
node 18 1 1 1
node 19 1 1 1
node 20 1 1 1
node 21 1 1 1
node 22 1 1 1
node 23 1 1 1
node 24 1 1 1
node 25 1 1 1
node 26 1 1 1
node 27 1 1 1
node 28 1 1 1
node 29 1 1 1
node 30 1 1 1
node 31 1 1 1
node 32 1 1 1
node 33 1 1 1
node 34 1 1 1
node 35 1 1 1
node 36 1 1 1
node 37 1 1 1
node 38 1 1 1
node 39 1 1 1
node 40 1 1 1
node 41 1 1 3
node 42 1 0 2
node 43 1 0 2
node 44 1 0 2
node 45 1 0 2
node 46 1 0 2
node 47 1 0 2
node 48 1 0 2
node 49 1 0 2
gene 1 1 42 0.0923266 0 1 0.0923266 1
gene 1 1 43 -1.83678 0 2 -1.83678 1
gene 1 1 44 0.179718 0 3 0.179718 1
gene 1 1 45 -1.73575 0 4 -1.73575 1
gene 1 1 46 -0.337522 0 5 -0.337522 1
gene 1 1 47 -0.0870194 0 6 -0.0870194 1
gene 1 1 48 -2.22741 0 7 -2.22741 1
gene 1 1 49 -0.895472 0 8 -0.895472 1
gene 1 2 42 -0.272498 0 9 -0.272498 1
gene 1 2 43 0.348972 0 10 0.348972 1
gene 1 2 44 -0.944745 0 11 -0.944745 1
gene 1 2 45 0.821983 0 12 0.821983 1
gene 1 2 46 -0.482842 0 13 -0.482842 1
gene 1 2 47 -0.908243 0 14 -0.908243 1
gene 1 2 48 0.232292 0 15 0.232292 1
gene 1 2 49 -1.93621 0 16 -1.93621 1
gene 1 3 42 1.8505 0 17 1.8505 1
gene 1 3 43 0.277092 0 18 0.277092 1
gene 1 3 44 1.0354 0 19 1.0354 1
gene 1 3 45 1.3646 0 20 1.3646 1
gene 1 3 46 -3.12369 0 21 -3.12369 1
gene 1 3 47 1.10116 0 22 1.10116 1
gene 1 3 48 0.86675 0 23 0.86675 1
gene 1 3 49 0.135359 0 24 0.135359 1
gene 1 4 42 4.08946 0 25 4.08946 1
gene 1 4 43 -1.40074 0 26 -1.40074 1
gene 1 4 44 1.12658 0 27 1.12658 1
gene 1 4 45 -1.32386 0 28 -1.32386 1
gene 1 4 46 -0.205883 0 29 -0.205883 1
gene 1 4 47 3.23489 0 30 3.23489 1
gene 1 4 48 0.936422 0 31 0.936422 1
gene 1 4 49 0.71506 0 32 0.71506 1
gene 1 5 42 4.84661 0 33 4.84661 1
gene 1 5 43 -4.08965 0 34 -4.08965 1
gene 1 5 44 1.96482 0 35 1.96482 1
gene 1 5 45 2.73047 0 36 2.73047 1
gene 1 5 46 1.87571 0 37 1.87571 1
gene 1 5 47 0.0692604 0 38 0.0692604 1
gene 1 5 48 -1.86288 0 39 -1.86288 1
gene 1 5 49 2.84527 0 40 2.84527 1
gene 1 6 42 0.586369 0 41 0.586369 1
gene 1 6 43 1.05875 0 42 1.05875 1
gene 1 6 44 0.220539 0 43 0.220539 1
gene 1 6 45 3.5997 0 44 3.5997 1
gene 1 6 46 0.125223 0 45 0.125223 1
gene 1 6 47 1.475 0 46 1.475 1
gene 1 6 48 -0.420355 0 47 -0.420355 1
gene 1 6 49 0.653417 0 48 0.653417 1
gene 1 7 42 -3.56265 0 49 -3.56265 1
gene 1 7 43 0.925359 0 50 0.925359 1
gene 1 7 44 -0.350225 0 51 -0.350225 1
gene 1 7 45 -0.327385 0 52 -0.327385 1
gene 1 7 46 1.71885 0 53 1.71885 1
gene 1 7 47 1.06438 0 54 1.06438 1
gene 1 7 48 -0.519619 0 55 -0.519619 1
gene 1 7 49 -0.830806 0 56 -0.830806 1
gene 1 8 42 -0.358648 0 57 -0.358648 1
gene 1 8 43 0.557222 0 58 0.557222 1
gene 1 8 44 0.0265243 0 59 0.0265243 1
gene 1 8 45 -1.2696 0 60 -1.2696 1
gene 1 8 46 -2.85807 0 61 -2.85807 1
gene 1 8 47 -1.64775 0 62 -1.64775 1
gene 1 8 48 -1.22461 0 63 -1.22461 1
gene 1 8 49 1.41728 0 64 1.41728 1
gene 1 9 42 1.05765 0 65 1.05765 1
gene 1 9 43 0.367582 0 66 0.367582 1
gene 1 9 44 1.2734 0 67 1.2734 1
gene 1 9 45 -0.445014 0 68 -0.445014 1
gene 1 9 46 -0.126626 0 69 -0.126626 1
gene 1 9 47 -0.824303 0 70 -0.824303 1
gene 1 9 48 1.00862 0 71 1.00862 1
gene 1 9 49 -1.2614 0 72 -1.2614 1
gene 1 10 42 2.80271 0 73 2.80271 1
gene 1 10 43 1.224 0 74 1.224 1
gene 1 10 44 1.42595 0 75 1.42595 1
gene 1 10 45 2.56723 0 76 2.56723 1
gene 1 10 46 -0.788743 0 77 -0.788743 1
gene 1 10 47 0.527213 0 78 0.527213 1
gene 1 10 48 -1.01306 0 79 -1.01306 1
gene 1 10 49 -0.673099 0 80 -0.673099 1
gene 1 11 42 -3.32252 0 81 -3.32252 1
gene 1 11 43 -0.273523 0 82 -0.273523 1
gene 1 11 44 -2.26581 0 83 -2.26581 1
gene 1 11 45 1.3385 0 84 1.3385 1
gene 1 11 46 -0.287215 0 85 -0.287215 1
gene 1 11 47 -0.722316 0 86 -0.722316 1
gene 1 11 48 -1.19228 0 87 -1.19228 1
gene 1 11 49 0.126135 0 88 0.126135 1
gene 1 12 42 0.574205 0 89 0.574205 1
gene 1 12 43 -1.35957 0 90 -1.35957 1
gene 1 12 44 0.62746 0 91 0.62746 1
gene 1 12 45 -0.538826 0 92 -0.538826 1
gene 1 12 46 -3.53691 0 93 -3.53691 1
gene 1 12 47 -1.23056 0 94 -1.23056 1
gene 1 12 48 0.402263 0 95 0.402263 1
gene 1 12 49 2.55387 0 96 2.55387 1
gene 1 13 42 0.469355 0 97 0.469355 1
gene 1 13 43 1.75263 0 98 1.75263 1
gene 1 13 44 -1.2996 0 99 -1.2996 1
gene 1 13 45 1.27001 0 100 1.27001 1
gene 1 13 46 -0.68907 0 101 -0.68907 1
gene 1 13 47 -0.0826693 0 102 -0.0826693 1
gene 1 13 48 1.10895 0 103 1.10895 1
gene 1 13 49 -0.453879 0 104 -0.453879 1
gene 1 14 42 -1.42059 0 105 -1.42059 1
gene 1 14 43 -1.09636 0 106 -1.09636 1
gene 1 14 44 2.38416 0 107 2.38416 1
gene 1 14 45 0.319747 0 108 0.319747 1
gene 1 14 46 -1.02793 0 109 -1.02793 1
gene 1 14 47 0.710715 0 110 0.710715 1
gene 1 14 48 1.4416 0 111 1.4416 1
gene 1 14 49 -1.56681 0 112 -1.56681 1
gene 1 15 42 -0.352431 0 113 -0.352431 1
gene 1 15 43 0.0159896 0 114 0.0159896 1
gene 1 15 44 1.18018 0 115 1.18018 1
gene 1 15 45 0.913866 0 116 0.913866 1
gene 1 15 46 1.50849 0 117 1.50849 1
gene 1 15 47 0.688233 0 118 0.688233 1
gene 1 15 48 -0.915508 0 119 -0.915508 1
gene 1 15 49 0.505496 0 120 0.505496 1
gene 1 16 42 -0.65486 0 121 -0.65486 1
gene 1 16 43 -1.10234 0 122 -1.10234 1
gene 1 16 44 -0.121942 0 123 -0.121942 1
gene 1 16 45 0.292228 0 124 0.292228 1
gene 1 16 46 0.354325 0 125 0.354325 1
gene 1 16 47 2.51696 0 126 2.51696 1
gene 1 16 48 -0.706107 0 127 -0.706107 1
gene 1 16 49 1.87329 0 128 1.87329 1
gene 1 17 42 -2.83089 0 129 -2.83089 1
gene 1 17 43 -0.195527 0 130 -0.195527 1
gene 1 17 44 -0.511071 0 131 -0.511071 1
gene 1 17 45 -1.53599 0 132 -1.53599 1
gene 1 17 46 -0.0920778 0 133 -0.0920778 1
gene 1 17 47 -1.97049 0 134 -1.97049 1
gene 1 17 48 0.527096 0 135 0.527096 1
gene 1 17 49 -0.23709 0 136 -0.23709 1
gene 1 18 42 2.18035 0 137 2.18035 1
gene 1 18 43 0.511668 0 138 0.511668 1
gene 1 18 44 -0.0828803 0 139 -0.0828803 1
gene 1 18 45 2.75578 0 140 2.75578 1
gene 1 18 46 -0.21087 0 141 -0.21087 1
gene 1 18 47 1.033 0 142 1.033 1
gene 1 18 48 -4.08612 0 143 -4.08612 1
gene 1 18 49 -1.67735 0 144 -1.67735 1
gene 1 19 42 -0.2069 0 145 -0.2069 1
gene 1 19 43 2.24355 0 146 2.24355 1
gene 1 19 44 0.441983 0 147 0.441983 1
gene 1 19 45 0.0922958 0 148 0.0922958 1
gene 1 19 46 0.0437786 0 149 0.0437786 1
gene 1 19 47 -0.714573 0 150 -0.714573 1
gene 1 19 48 -0.481052 0 151 -0.481052 1
gene 1 19 49 -3.27958 0 152 -3.27958 1
gene 1 20 42 -1.1092 0 153 -1.1092 1
gene 1 20 43 3.00924 0 154 3.00924 1
gene 1 20 44 -0.32442 0 155 -0.32442 1
gene 1 20 45 1.73355 0 156 1.73355 1
gene 1 20 46 -0.468741 0 157 -0.468741 1
gene 1 20 47 -0.101481 0 158 -0.101481 1
gene 1 20 48 1.53046 0 159 1.53046 1
gene 1 20 49 -0.840766 0 160 -0.840766 1
gene 1 21 42 0.480082 0 161 0.480082 1
gene 1 21 43 -1.21475 0 162 -1.21475 1
gene 1 21 44 1.51813 0 163 1.51813 1
gene 1 21 45 2.65437 0 164 2.65437 1
gene 1 21 46 -0.914165 0 165 -0.914165 1
gene 1 21 47 0.490287 0 166 0.490287 1
gene 1 21 48 -2.42526 0 167 -2.42526 1
gene 1 21 49 1.51374 0 168 1.51374 1
gene 1 22 42 0.452958 0 169 0.452958 1
gene 1 22 43 -3.51988 0 170 -3.51988 1
gene 1 22 44 -1.8006 0 171 -1.8006 1
gene 1 22 45 0.672324 0 172 0.672324 1
gene 1 22 46 0.0280409 0 173 0.0280409 1
gene 1 22 47 -0.78109 0 174 -0.78109 1
gene 1 22 48 2.90225 0 175 2.90225 1
gene 1 22 49 -0.514568 0 176 -0.514568 1
gene 1 23 42 0.169692 0 177 0.169692 1
gene 1 23 43 -2.62006 0 178 -2.62006 1
gene 1 23 44 1.60695 0 179 1.60695 1
gene 1 23 45 -1.04517 0 180 -1.04517 1
gene 1 23 46 0.0526666 0 181 0.0526666 1
gene 1 23 47 0.279312 0 182 0.279312 1
gene 1 23 48 0.764436 0 183 0.764436 1
gene 1 23 49 3.84637 0 184 3.84637 1
gene 1 24 42 -0.658043 0 185 -0.658043 1
gene 1 24 43 0.536827 0 186 0.536827 1
gene 1 24 44 -0.171526 0 187 -0.171526 1
gene 1 24 45 0.757442 0 188 0.757442 1
gene 1 24 46 0.202218 0 189 0.202218 1
gene 1 24 47 1.11251 0 190 1.11251 1
gene 1 24 48 -0.521234 0 191 -0.521234 1
gene 1 24 49 -1.33087 0 192 -1.33087 1
gene 1 25 42 0.625069 0 193 0.625069 1
gene 1 25 43 0.160691 0 194 0.160691 1
gene 1 25 44 1.24294 0 195 1.24294 1
gene 1 25 45 0.919748 0 196 0.919748 1
gene 1 25 46 0.616482 0 197 0.616482 1
gene 1 25 47 -0.188555 0 198 -0.188555 1
gene 1 25 48 -0.907923 0 199 -0.907923 1
gene 1 25 49 -0.94848 0 200 -0.94848 1
gene 1 26 42 0.471505 0 201 0.471505 1
gene 1 26 43 0.469299 0 202 0.469299 1
gene 1 26 44 -0.00867224 0 203 -0.00867224 1
gene 1 26 45 -0.618097 0 204 -0.618097 1
gene 1 26 46 -1.76478 0 205 -1.76478 1
gene 1 26 47 0.682787 0 206 0.682787 1
gene 1 26 48 0.808693 0 207 0.808693 1
gene 1 26 49 1.84936 0 208 1.84936 1
gene 1 27 42 2.91332 0 209 2.91332 1
gene 1 27 43 0.420416 0 210 0.420416 1
gene 1 27 44 0.776119 0 211 0.776119 1
gene 1 27 45 0.812295 0 212 0.812295 1
gene 1 27 46 2.04307 0 213 2.04307 1
gene 1 27 47 -1.28801 0 214 -1.28801 1
gene 1 27 48 -2.33024 0 215 -2.33024 1
gene 1 27 49 1.45348 0 216 1.45348 1
gene 1 28 42 0.503972 0 217 0.503972 1
gene 1 28 43 -1.85677 0 218 -1.85677 1
gene 1 28 44 1.93525 0 219 1.93525 1
gene 1 28 45 2.15587 0 220 2.15587 1
gene 1 28 46 -1.04801 0 221 -1.04801 1
gene 1 28 47 0.641231 0 222 0.641231 1
gene 1 28 48 0.512318 0 223 0.512318 1
gene 1 28 49 -1.26673 0 224 -1.26673 1
gene 1 29 42 1.16807 0 225 1.16807 1
gene 1 29 43 2.56708 0 226 2.56708 1
gene 1 29 44 0.880385 0 227 0.880385 1
gene 1 29 45 0.245001 0 228 0.245001 1
gene 1 29 46 1.76838 0 229 1.76838 1
gene 1 29 47 1.20724 0 230 1.20724 1
gene 1 29 48 -1.05023 0 231 -1.05023 1
gene 1 29 49 -0.292417 0 232 -0.292417 1
gene 1 30 42 -1.05497 0 233 -1.05497 1
gene 1 30 43 -0.212081 0 234 -0.212081 1
gene 1 30 44 0.134988 0 235 0.134988 1
gene 1 30 45 1.63435 0 236 1.63435 1
gene 1 30 46 2.9042 0 237 2.9042 1
gene 1 30 47 2.69924 0 238 2.69924 1
gene 1 30 48 -4.96639 0 239 -4.96639 1
gene 1 30 49 -3.48666 0 240 -3.48666 1
gene 1 31 42 1.32544 0 241 1.32544 1
gene 1 31 43 -2.66644 0 242 -2.66644 1
gene 1 31 44 3.96381 0 243 3.96381 1
gene 1 31 45 -0.43796 0 244 -0.43796 1
gene 1 31 46 2.85663 0 245 2.85663 1
gene 1 31 47 -1.46557 0 246 -1.46557 1
gene 1 31 48 -3.22149 0 247 -3.22149 1
gene 1 31 49 -2.40399 0 248 -2.40399 1
gene 1 32 42 -1.82495 0 249 -1.82495 1
gene 1 32 43 1.00189 0 250 1.00189 1
gene 1 32 44 0.241422 0 251 0.241422 1
gene 1 32 45 -0.517835 0 252 -0.517835 1
gene 1 32 46 -0.705936 0 253 -0.705936 1
gene 1 32 47 2.44329 0 254 2.44329 1
gene 1 32 48 0.753957 0 255 0.753957 1
gene 1 32 49 -0.220433 0 256 -0.220433 1
gene 1 33 42 -0.439865 0 257 -0.439865 1
gene 1 33 43 0.965205 0 258 0.965205 1
gene 1 33 44 -0.0216221 0 259 -0.0216221 1
gene 1 33 45 0.563187 0 260 0.563187 1
gene 1 33 46 1.04987 0 261 1.04987 1
gene 1 33 47 0.203502 0 262 0.203502 1
gene 1 33 48 -1.36512 0 263 -1.36512 1
gene 1 33 49 0.78068 0 264 0.78068 1
gene 1 34 42 1.49845 0 265 1.49845 1
gene 1 34 43 -0.753598 0 266 -0.753598 1
gene 1 34 44 1.81368 0 267 1.81368 1
gene 1 34 45 -1.06426 0 268 -1.06426 1
gene 1 34 46 -1.5537 0 269 -1.5537 1
gene 1 34 47 0.992758 0 270 0.992758 1
gene 1 34 48 0.533797 0 271 0.533797 1
gene 1 34 49 -0.526974 0 272 -0.526974 1
gene 1 35 42 -0.445278 0 273 -0.445278 1
gene 1 35 43 -0.618175 0 274 -0.618175 1
gene 1 35 44 1.32863 0 275 1.32863 1
gene 1 35 45 0.951029 0 276 0.951029 1
gene 1 35 46 -0.414698 0 277 -0.414698 1
gene 1 35 47 1.40445 0 278 1.40445 1
gene 1 35 48 -2.36186 0 279 -2.36186 1
gene 1 35 49 1.29346 0 280 1.29346 1
gene 1 36 42 1.54107 0 281 1.54107 1
gene 1 36 43 1.66863 0 282 1.66863 1
gene 1 36 44 -0.417881 0 283 -0.417881 1
gene 1 36 45 -0.604093 0 284 -0.604093 1
gene 1 36 46 0.0774591 0 285 0.0774591 1
gene 1 36 47 -0.561605 0 286 -0.561605 1
gene 1 36 48 -0.858579 0 287 -0.858579 1
gene 1 36 49 -1.1718 0 288 -1.1718 1
gene 1 37 42 -0.443878 0 289 -0.443878 1
gene 1 37 43 0.363243 0 290 0.363243 1
gene 1 37 44 -1.56172 0 291 -1.56172 1
gene 1 37 45 0.473859 0 292 0.473859 1
gene 1 37 46 0.599549 0 293 0.599549 1
gene 1 37 47 -2.04331 0 294 -2.04331 1
gene 1 37 48 -0.963836 0 295 -0.963836 1
gene 1 37 49 0.320235 0 296 0.320235 1
gene 1 38 42 0.698749 0 297 0.698749 1
gene 1 38 43 -0.383178 0 298 -0.383178 1
gene 1 38 44 4.41055 0 299 4.41055 1
gene 1 38 45 0.0694125 0 300 0.0694125 1
gene 1 38 46 0.62422 0 301 0.62422 1
gene 1 38 47 -0.0746112 0 302 -0.0746112 1
gene 1 38 48 0.665239 0 303 0.665239 1
gene 1 38 49 0.0368969 0 304 0.0368969 1
gene 1 39 42 0.639141 0 305 0.639141 1
gene 1 39 43 0.226773 0 306 0.226773 1
gene 1 39 44 -0.769759 0 307 -0.769759 1
gene 1 39 45 -3.01059 0 308 -3.01059 1
gene 1 39 46 0.183302 0 309 0.183302 1
gene 1 39 47 -0.235569 0 310 -0.235569 1
gene 1 39 48 -1.15761 0 311 -1.15761 1
gene 1 39 49 0.868082 0 312 0.868082 1
gene 1 40 42 0.481484 0 313 0.481484 1
gene 1 40 43 -1.69812 0 314 -1.69812 1
gene 1 40 44 -1.36783 0 315 -1.36783 1
gene 1 40 45 0.27457 0 316 0.27457 1
gene 1 40 46 -0.0151078 0 317 -0.0151078 1
gene 1 40 47 0.430166 0 318 0.430166 1
gene 1 40 48 0.1913 0 319 0.1913 1
gene 1 40 49 3.97339 0 320 3.97339 1
gene 1 41 42 -2.1891 0 321 -2.1891 1
gene 1 41 43 1.83176 0 322 1.83176 1
gene 1 41 44 -3.27933 0 323 -3.27933 1
gene 1 41 45 3.41765 0 324 3.41765 1
gene 1 41 46 -0.649116 0 325 -0.649116 1
gene 1 41 47 1.12575 0 326 1.12575 1
gene 1 41 48 -0.973127 0 327 -0.973127 1
gene 1 41 49 -3.46278 0 328 -3.46278 1
genomeend 1


