/* Organism #8 Fitness: 35.000000 Time: 0 */
genomestart 8
trait 1 0.683489 0.000000 0.000000 0.000000 0.052716 0.665232 0.000000 0.554040 
node 1 1 1 1
node 2 1 1 1
node 3 1 1 1
node 4 1 1 1
node 5 1 1 1
node 6 1 1 1
node 7 1 1 1
node 8 1 1 1
node 9 1 1 1
node 10 1 1 1
node 11 1 1 1
node 12 1 1 1
node 13 1 1 1
node 14 1 1 1
node 15 1 1 1
node 16 1 1 1
node 17 1 1 1
node 18 1 1 1
node 19 1 1 1
node 20 1 1 1
node 21 1 1 1
node 22 1 1 1
node 23 1 1 1
node 24 1 1 1
node 25 1 1 1
node 26 1 1 1
node 27 1 1 1
node 28 1 1 1
node 29 1 1 1
node 30 1 1 1
node 31 1 1 1
node 32 1 1 1
node 33 1 1 1
node 34 1 1 1
node 35 1 1 1
node 36 1 1 1
node 37 1 1 1
node 38 1 1 1
node 39 1 1 1
node 40 1 1 1
node 41 1 1 3
node 42 1 0 2
node 43 1 0 2
node 44 1 0 2
node 45 1 0 2
node 46 1 0 2
node 47 1 0 2
node 48 1 0 2
node 49 1 0 2
gene 1 1 42 2.76991 0 1 2.76991 1
gene 1 1 43 -2.05181 0 2 -2.05181 1
gene 1 1 44 -0.540207 0 3 -0.540207 1
gene 1 1 45 3.23579 0 4 3.23579 1
gene 1 1 46 -3.84558 0 5 -3.84558 1
gene 1 1 47 -1.67561 0 6 -1.67561 1
gene 1 1 48 -1.95023 0 7 -1.95023 1
gene 1 1 49 2.64411 0 8 2.64411 1
gene 1 2 42 0.710465 0 9 0.710465 1
gene 1 2 43 2.46131 0 10 2.46131 1
gene 1 2 44 0.301302 0 11 0.301302 1
gene 1 2 45 -0.0334537 0 12 -0.0334537 1
gene 1 2 46 -0.121244 0 13 -0.121244 1
gene 1 2 47 2.64741 0 14 2.64741 1
gene 1 2 48 -0.490211 0 15 -0.490211 1
gene 1 2 49 1.73289 0 16 1.73289 1
gene 1 3 42 3.53531 0 17 3.53531 1
gene 1 3 43 -2.96261 0 18 -2.96261 1
gene 1 3 44 -0.845717 0 19 -0.845717 1
gene 1 3 45 -0.0184489 0 20 -0.0184489 1
gene 1 3 46 -0.0859406 0 21 -0.0859406 1
gene 1 3 47 0.645068 0 22 0.645068 1
gene 1 3 48 0.0687391 0 23 0.0687391 1
gene 1 3 49 -0.740346 0 24 -0.740346 1
gene 1 4 42 -1.62811 0 25 -1.62811 1
gene 1 4 43 -2.41983 0 26 -2.41983 1
gene 1 4 44 0.331871 0 27 0.331871 1
gene 1 4 45 3.62192 0 28 3.62192 1
gene 1 4 46 3.30698 0 29 3.30698 1
gene 1 4 47 -0.973529 0 30 -0.973529 1
gene 1 4 48 3.51817 0 31 3.51817 1
gene 1 4 49 -4.48781 0 32 -4.48781 1
gene 1 5 42 -1.40624 0 33 -1.40624 1
gene 1 5 43 -5 0 34 -5 1
gene 1 5 44 -0.726424 0 35 -0.726424 1
gene 1 5 45 4.09191 0 36 4.09191 1
gene 1 5 46 -1.89477 0 37 -1.89477 1
gene 1 5 47 -3.50904 0 38 -3.50904 1
gene 1 5 48 -1.21461 0 39 -1.21461 1
gene 1 5 49 -1.40224 0 40 -1.40224 1
gene 1 6 42 1.08711 0 41 1.08711 1
gene 1 6 43 -3.17814 0 42 -3.17814 1
gene 1 6 44 -0.174038 0 43 -0.174038 1
gene 1 6 45 3.31809 0 44 3.31809 1
gene 1 6 46 1.76891 0 45 1.76891 1
gene 1 6 47 3.0352 0 46 3.0352 1
gene 1 6 48 2.9017 0 47 2.9017 1
gene 1 6 49 2.17342 0 48 2.17342 1
gene 1 7 42 -1.75624 0 49 -1.75624 1
gene 1 7 43 0.355088 0 50 0.355088 1
gene 1 7 44 -4.10803 0 51 -4.10803 1
gene 1 7 45 3.55043 0 52 3.55043 1
gene 1 7 46 -4.82085 0 53 -4.82085 1
gene 1 7 47 3.27791 0 54 3.27791 1
gene 1 7 48 0.0469044 0 55 0.0469044 1
gene 1 7 49 -0.595542 0 56 -0.595542 1
gene 1 8 42 1.53094 0 57 1.53094 1
gene 1 8 43 1.10251 0 58 1.10251 1
gene 1 8 44 0.803495 0 59 0.803495 1
gene 1 8 45 1.68234 0 60 1.68234 1
gene 1 8 46 -3.43695 0 61 -3.43695 1
gene 1 8 47 2.57493 0 62 2.57493 1
gene 1 8 48 1.3736 0 63 1.3736 1
gene 1 8 49 -2.26 0 64 -2.26 1
gene 1 9 42 -0.772785 0 65 -0.772785 1
gene 1 9 43 0.101024 0 66 0.101024 1
gene 1 9 44 0.023512 0 67 0.023512 1
gene 1 9 45 -0.15298 0 68 -0.15298 1
gene 1 9 46 1.95441 0 69 1.95441 1
gene 1 9 47 2.03397 0 70 2.03397 1
gene 1 9 48 1.77345 0 71 1.77345 1
gene 1 9 49 -2.39973 0 72 -2.39973 1
gene 1 10 42 -3.49285 0 73 -3.49285 1
gene 1 10 43 -2.56958 0 74 -2.56958 1
gene 1 10 44 -1.0558 0 75 -1.0558 1
gene 1 10 45 5 0 76 5 1
gene 1 10 46 -1.50875 0 77 -1.50875 1
gene 1 10 47 -3.1529 0 78 -3.1529 1
gene 1 10 48 1.57424 0 79 1.57424 1
gene 1 10 49 0.278654 0 80 0.278654 1
gene 1 11 42 -3.92924 0 81 -3.92924 1
gene 1 11 43 2.93293 0 82 2.93293 1
gene 1 11 44 -2.74103 0 83 -2.74103 1
gene 1 11 45 4.98506 0 84 4.98506 1
gene 1 11 46 -2.01145 0 85 -2.01145 1
gene 1 11 47 -2.07518 0 86 -2.07518 1
gene 1 11 48 -1.56012 0 87 -1.56012 1
gene 1 11 49 2.08338 0 88 2.08338 1
gene 1 12 42 -1.92182 0 89 -1.92182 1
gene 1 12 43 1.59013 0 90 1.59013 1
gene 1 12 44 -2.31445 0 91 -2.31445 1
gene 1 12 45 4.09338 0 92 4.09338 1
gene 1 12 46 -0.300247 0 93 -0.300247 1
gene 1 12 47 -1.99694 0 94 -1.99694 1
gene 1 12 48 0.39369 0 95 0.39369 1
gene 1 12 49 -3.66775 0 96 -3.66775 1
gene 1 13 42 -2.18757 0 97 -2.18757 1
gene 1 13 43 2.70221 0 98 2.70221 1
gene 1 13 44 -2.11682 0 99 -2.11682 1
gene 1 13 45 -1.22472 0 100 -1.22472 1
gene 1 13 46 4.00872 0 101 4.00872 1
gene 1 13 47 -2.42856 0 102 -2.42856 1
gene 1 13 48 0.168157 0 103 0.168157 1
gene 1 13 49 -4.65258 0 104 -4.65258 1
gene 1 14 42 -1.778 0 105 -1.778 1
gene 1 14 43 3.96336 0 106 3.96336 1
gene 1 14 44 0.647202 0 107 0.647202 1
gene 1 14 45 1.54093 0 108 1.54093 1
gene 1 14 46 1.14717 0 109 1.14717 1
gene 1 14 47 -0.187657 0 110 -0.187657 1
gene 1 14 48 2.15519 0 111 2.15519 1
gene 1 14 49 -1.33578 0 112 -1.33578 1
gene 1 15 42 1.13451 0 113 1.13451 1
gene 1 15 43 1.21434 0 114 1.21434 1
gene 1 15 44 -0.165595 0 115 -0.165595 1
gene 1 15 45 1.86668 0 116 1.86668 1
gene 1 15 46 2.20293 0 117 2.20293 1
gene 1 15 47 1.4928 0 118 1.4928 1
gene 1 15 48 -0.931863 0 119 -0.931863 1
gene 1 15 49 -1.37794 0 120 -1.37794 1
gene 1 16 42 0.63269 0 121 0.63269 1
gene 1 16 43 0.157702 0 122 0.157702 1
gene 1 16 44 -1.78587 0 123 -1.78587 1
gene 1 16 45 2.88383 0 124 2.88383 1
gene 1 16 46 -1.67285 0 125 -1.67285 1
gene 1 16 47 -0.0684071 0 126 -0.0684071 1
gene 1 16 48 1.75094 0 127 1.75094 1
gene 1 16 49 -1.6901 0 128 -1.6901 1
gene 1 17 42 4.09328 0 129 4.09328 1
gene 1 17 43 1.6053 0 130 1.6053 1
gene 1 17 44 1.97257 0 131 1.97257 1
gene 1 17 45 -1.24879 0 132 -1.24879 1
gene 1 17 46 3.12164 0 133 3.12164 1
gene 1 17 47 -3.69997 0 134 -3.69997 1
gene 1 17 48 -2.12062 0 135 -2.12062 1
gene 1 17 49 -5 0 136 -5 1
gene 1 18 42 0.439786 0 137 0.439786 1
gene 1 18 43 -0.825288 0 138 -0.825288 1
gene 1 18 44 -1.16008 0 139 -1.16008 1
gene 1 18 45 4.51027 0 140 4.51027 1
gene 1 18 46 -2.45025 0 141 -2.45025 1
gene 1 18 47 -0.962044 0 142 -0.962044 1
gene 1 18 48 -1.53707 0 143 -1.53707 1
gene 1 18 49 1.69511 0 144 1.69511 1
gene 1 19 42 -1.20685 0 145 -1.20685 1
gene 1 19 43 2.22273 0 146 2.22273 1
gene 1 19 44 -1.97984 0 147 -1.97984 1
gene 1 19 45 -4.00723 0 148 -4.00723 1
gene 1 19 46 -4.76811 0 149 -4.76811 1
gene 1 19 47 -1.22298 0 150 -1.22298 1
gene 1 19 48 -1.43358 0 151 -1.43358 1
gene 1 19 49 -0.291389 0 152 -0.291389 1
gene 1 20 42 -0.0120708 0 153 -0.0120708 1
gene 1 20 43 0.528195 0 154 0.528195 1
gene 1 20 44 0.0769634 0 155 0.0769634 1
gene 1 20 45 -2.00352 0 156 -2.00352 1
gene 1 20 46 -0.659102 0 157 -0.659102 1
gene 1 20 47 5 0 158 5 1
gene 1 20 48 0.283892 0 159 0.283892 1
gene 1 20 49 -2.27449 0 160 -2.27449 1
gene 1 21 42 0.809565 0 161 0.809565 1
gene 1 21 43 1.27909 0 162 1.27909 1
gene 1 21 44 -0.585209 0 163 -0.585209 1
gene 1 21 45 -0.342451 0 164 -0.342451 1
gene 1 21 46 -0.255205 0 165 -0.255205 1
gene 1 21 47 0.489551 0 166 0.489551 1
gene 1 21 48 -0.849578 0 167 -0.849578 1
gene 1 21 49 0.406138 0 168 0.406138 1
gene 1 22 42 2.00053 0 169 2.00053 1
gene 1 22 43 0.0238965 0 170 0.0238965 1
gene 1 22 44 -3.70715 0 171 -3.70715 1
gene 1 22 45 -0.689537 0 172 -0.689537 1
gene 1 22 46 1.65665 0 173 1.65665 1
gene 1 22 47 0.620906 0 174 0.620906 1
gene 1 22 48 -3.59411 0 175 -3.59411 1
gene 1 22 49 -1.77174 0 176 -1.77174 1
gene 1 23 42 -0.593437 0 177 -0.593437 1
gene 1 23 43 -0.470185 0 178 -0.470185 1
gene 1 23 44 -3.75933 0 179 -3.75933 1
gene 1 23 45 -2.96728 0 180 -2.96728 1
gene 1 23 46 1.33805 0 181 1.33805 1
gene 1 23 47 1.33434 0 182 1.33434 1
gene 1 23 48 0.608741 0 183 0.608741 1
gene 1 23 49 -0.0319914 0 184 -0.0319914 1
gene 1 24 42 1.52654 0 185 1.52654 1
gene 1 24 43 -2.69221 0 186 -2.69221 1
gene 1 24 44 -4.5372 0 187 -4.5372 1
gene 1 24 45 0.271095 0 188 0.271095 1
gene 1 24 46 2.44606 0 189 2.44606 1
gene 1 24 47 -4.39195 0 190 -4.39195 1
gene 1 24 48 2.17101 0 191 2.17101 1
gene 1 24 49 0.02173 0 192 0.02173 1
gene 1 25 42 0.450668 0 193 0.450668 1
gene 1 25 43 1.87442 0 194 1.87442 1
gene 1 25 44 -5 0 195 -5 1
gene 1 25 45 2.36666 0 196 2.36666 1
gene 1 25 46 -3.3325 0 197 -3.3325 1
gene 1 25 47 -1.08856 0 198 -1.08856 1
gene 1 25 48 -0.564725 0 199 -0.564725 1
gene 1 25 49 -0.367114 0 200 -0.367114 1
gene 1 26 42 -1.75849 0 201 -1.75849 1
gene 1 26 43 3.89854 0 202 3.89854 1
gene 1 26 44 -2.26739 0 203 -2.26739 1
gene 1 26 45 -2.15871 0 204 -2.15871 1
gene 1 26 46 1.17713 0 205 1.17713 1
gene 1 26 47 0.798235 0 206 0.798235 1
gene 1 26 48 2.13759 0 207 2.13759 1
gene 1 26 49 0.867814 0 208 0.867814 1
gene 1 27 42 2.29952 0 209 2.29952 1
gene 1 27 43 1.22737 0 210 1.22737 1
gene 1 27 44 -1.88596 0 211 -1.88596 1
gene 1 27 45 -1.02159 0 212 -1.02159 1
gene 1 27 46 -2.2041 0 213 -2.2041 1
gene 1 27 47 1.51873 0 214 1.51873 1
gene 1 27 48 -0.386957 0 215 -0.386957 1
gene 1 27 49 -0.939258 0 216 -0.939258 1
gene 1 28 42 -4.61429 0 217 -4.61429 1
gene 1 28 43 0.51948 0 218 0.51948 1
gene 1 28 44 3.22952 0 219 3.22952 1
gene 1 28 45 -0.23925 0 220 -0.23925 1
gene 1 28 46 2.16308 0 221 2.16308 1
gene 1 28 47 0.519534 0 222 0.519534 1
gene 1 28 48 -1.29859 0 223 -1.29859 1
gene 1 28 49 -1.86938 0 224 -1.86938 1
gene 1 29 42 -2.16892 0 225 -2.16892 1
gene 1 29 43 3.23518 0 226 3.23518 1
gene 1 29 44 1.26438 0 227 1.26438 1
gene 1 29 45 -1.68016 0 228 -1.68016 1
gene 1 29 46 3.43898 0 229 3.43898 1
gene 1 29 47 -0.840136 0 230 -0.840136 1
gene 1 29 48 2.55169 0 231 2.55169 1
gene 1 29 49 3.84435 0 232 3.84435 1
gene 1 30 42 -1.5615 0 233 -1.5615 1
gene 1 30 43 2.29888 0 234 2.29888 1
gene 1 30 44 1.31001 0 235 1.31001 1
gene 1 30 45 -0.0940675 0 236 -0.0940675 1
gene 1 30 46 0.232704 0 237 0.232704 1
gene 1 30 47 4.19527 0 238 4.19527 1
gene 1 30 48 -1.34885 0 239 -1.34885 1
gene 1 30 49 2.04986 0 240 2.04986 1
gene 1 31 42 2.27393 0 241 2.27393 1
gene 1 31 43 1.49099 0 242 1.49099 1
gene 1 31 44 -0.456627 0 243 -0.456627 1
gene 1 31 45 0.798364 0 244 0.798364 1
gene 1 31 46 -2.44482 0 245 -2.44482 1
gene 1 31 47 0.859914 0 246 0.859914 1
gene 1 31 48 1.10977 0 247 1.10977 1
gene 1 31 49 -5 0 248 -5 1
gene 1 32 42 -2.72034 0 249 -2.72034 1
gene 1 32 43 -0.425399 0 250 -0.425399 1
gene 1 32 44 -0.202045 0 251 -0.202045 1
gene 1 32 45 -1.77614 0 252 -1.77614 1
gene 1 32 46 -1.06993 0 253 -1.06993 1
gene 1 32 47 2.85808 0 254 2.85808 1
gene 1 32 48 1.24795 0 255 1.24795 1
gene 1 32 49 -1.76908 0 256 -1.76908 1
gene 1 33 42 -0.245669 0 257 -0.245669 1
gene 1 33 43 -1.28518 0 258 -1.28518 1
gene 1 33 44 1.28396 0 259 1.28396 1
gene 1 33 45 -0.170986 0 260 -0.170986 1
gene 1 33 46 2.34275 0 261 2.34275 1
gene 1 33 47 0.094301 0 262 0.094301 1
gene 1 33 48 -1.18688 0 263 -1.18688 1
gene 1 33 49 -0.950583 0 264 -0.950583 1
gene 1 34 42 -0.591246 0 265 -0.591246 1
gene 1 34 43 -0.502818 0 266 -0.502818 1
gene 1 34 44 0.79297 0 267 0.79297 1
gene 1 34 45 0.875035 0 268 0.875035 1
gene 1 34 46 -1.20239 0 269 -1.20239 1
gene 1 34 47 2.36099 0 270 2.36099 1
gene 1 34 48 -0.611084 0 271 -0.611084 1
gene 1 34 49 -0.84571 0 272 -0.84571 1
gene 1 35 42 0.68404 0 273 0.68404 1
gene 1 35 43 -0.0790621 0 274 -0.0790621 1
gene 1 35 44 -0.515833 0 275 -0.515833 1
gene 1 35 45 0.350094 0 276 0.350094 1
gene 1 35 46 -0.713367 0 277 -0.713367 1
gene 1 35 47 0.547134 0 278 0.547134 1
gene 1 35 48 -4.10777 0 279 -4.10777 1
gene 1 35 49 -1.40421 0 280 -1.40421 1
gene 1 36 42 0.0737286 0 281 0.0737286 1
gene 1 36 43 0.501071 0 282 0.501071 1
gene 1 36 44 -0.409877 0 283 -0.409877 1
gene 1 36 45 0.771334 0 284 0.771334 1
gene 1 36 46 0.888731 0 285 0.888731 1
gene 1 36 47 -1.19528 0 286 -1.19528 1
gene 1 36 48 2.03018 0 287 2.03018 1
gene 1 36 49 2.23554 0 288 2.23554 1
gene 1 37 42 1.16509 0 289 1.16509 1
gene 1 37 43 0.63368 0 290 0.63368 1
gene 1 37 44 -0.795443 0 291 -0.795443 1
gene 1 37 45 0.430719 0 292 0.430719 1
gene 1 37 46 -0.883 0 293 -0.883 1
gene 1 37 47 -0.147025 0 294 -0.147025 1
gene 1 37 48 -1.33441 0 295 -1.33441 1
gene 1 37 49 -2.02494 0 296 -2.02494 1
gene 1 38 42 0.52933 0 297 0.52933 1
gene 1 38 43 -0.144333 0 298 -0.144333 1
gene 1 38 44 -0.215358 0 299 -0.215358 1
gene 1 38 45 1.33278 0 300 1.33278 1
gene 1 38 46 0.483466 0 301 0.483466 1
gene 1 38 47 1.9168 0 302 1.9168 1
gene 1 38 48 0.221653 0 303 0.221653 1
gene 1 38 49 0.316141 0 304 0.316141 1
gene 1 39 42 0.302541 0 305 0.302541 1
gene 1 39 43 0.619393 0 306 0.619393 1
gene 1 39 44 -0.339002 0 307 -0.339002 1
gene 1 39 45 0.25938 0 308 0.25938 1
gene 1 39 46 -0.686408 0 309 -0.686408 1
gene 1 39 47 -0.202647 0 310 -0.202647 1
gene 1 39 48 -0.449039 0 311 -0.449039 1
gene 1 39 49 -0.241144 0 312 -0.241144 1
gene 1 40 42 0.693896 0 313 0.693896 1
gene 1 40 43 -0.0340526 0 314 -0.0340526 1
gene 1 40 44 -0.137807 0 315 -0.137807 1
gene 1 40 45 0.0190218 0 316 0.0190218 1
gene 1 40 46 0.0776997 0 317 0.0776997 1
gene 1 40 47 1.98148 0 318 1.98148 1
gene 1 40 48 0.257435 0 319 0.257435 1
gene 1 40 49 0.105466 0 320 0.105466 1
gene 1 41 42 -3.20004 0 321 -3.20004 1
gene 1 41 43 1.97972 0 322 1.97972 1
gene 1 41 44 -0.59463 0 323 -0.59463 1
gene 1 41 45 0.0152278 0 324 0.0152278 1
gene 1 41 46 2.43452 0 325 2.43452 1
gene 1 41 47 0.682493 0 326 0.682493 1
gene 1 41 48 -1.30533 0 327 -1.30533 1
gene 1 41 49 0.567701 0 328 0.567701 1
genomeend 8


