/* Organism #3 Fitness: 28.320000 Time: 0 */
genomestart 3
trait 1 0.100000 0.605933 0.000000 0.000000 0.406247 0.000000 0.322125 0.000000 
node 1 1 1 1
node 2 1 1 1
node 3 1 1 1
node 4 1 1 1
node 5 1 1 1
node 6 1 1 1
node 7 1 1 1
node 8 1 1 1
node 9 1 1 1
node 10 1 1 1
node 11 1 1 1
node 12 1 1 1
node 13 1 1 1
node 14 1 1 1
node 15 1 1 1
node 16 1 1 1
node 17 1 1 1
node 18 1 1 1
node 19 1 1 1
node 20 1 1 1
node 21 1 1 1
node 22 1 1 1
node 23 1 1 1
node 24 1 1 1
node 25 1 1 1
node 26 1 1 1
node 27 1 1 1
node 28 1 1 1
node 29 1 1 1
node 30 1 1 1
node 31 1 1 1
node 32 1 1 1
node 33 1 1 1
node 34 1 1 1
node 35 1 1 1
node 36 1 1 1
node 37 1 1 1
node 38 1 1 1
node 39 1 1 1
node 40 1 1 1
node 41 1 1 3
node 42 1 0 2
node 43 1 0 2
node 44 1 0 2
node 45 1 0 2
node 46 1 0 2
node 47 1 0 2
node 48 1 0 2
node 49 1 0 2
gene 1 1 42 -2.03029 0 1 -2.03029 1
gene 1 1 43 2.97773 0 2 2.97773 1
gene 1 1 44 4.61885 0 3 4.61885 1
gene 1 1 45 0.728648 0 4 0.728648 1
gene 1 1 46 -0.468472 0 5 -0.468472 1
gene 1 1 47 1.06932 0 6 1.06932 1
gene 1 1 48 0.0442995 0 7 0.0442995 1
gene 1 1 49 -1.98772 0 8 -1.98772 1
gene 1 2 42 -1.95963 0 9 -1.95963 1
gene 1 2 43 -1.17694 0 10 -1.17694 1
gene 1 2 44 -3.72041 0 11 -3.72041 1
gene 1 2 45 1.77715 0 12 1.77715 1
gene 1 2 46 -3.30442 0 13 -3.30442 1
gene 1 2 47 1.95153 0 14 1.95153 1
gene 1 2 48 -4.92541 0 15 -4.92541 1
gene 1 2 49 -0.660418 0 16 -0.660418 1
gene 1 3 42 -1.63282 0 17 -1.63282 1
gene 1 3 43 2.03951 0 18 2.03951 1
gene 1 3 44 1.52926 0 19 1.52926 1
gene 1 3 45 3.22822 0 20 3.22822 1
gene 1 3 46 0.75608 0 21 0.75608 1
gene 1 3 47 1.74905 0 22 1.74905 1
gene 1 3 48 5 0 23 5 1
gene 1 3 49 1.52275 0 24 1.52275 1
gene 1 4 42 -1.46865 0 25 -1.46865 1
gene 1 4 43 3.99725 0 26 3.99725 1
gene 1 4 44 5 0 27 5 1
gene 1 4 45 2.23736 0 28 2.23736 1
gene 1 4 46 -1.1505 0 29 -1.1505 1
gene 1 4 47 -2.74294 0 30 -2.74294 1
gene 1 4 48 3.29553 0 31 3.29553 1
gene 1 4 49 0.633987 0 32 0.633987 1
gene 1 5 42 -4.01293 0 33 -4.01293 1
gene 1 5 43 -1.71701 0 34 -1.71701 1
gene 1 5 44 5 0 35 5 1
gene 1 5 45 4.60589 0 36 4.60589 1
gene 1 5 46 0.753001 0 37 0.753001 1
gene 1 5 47 0.284763 0 38 0.284763 1
gene 1 5 48 3.14849 0 39 3.14849 1
gene 1 5 49 1.68501 0 40 1.68501 1
gene 1 6 42 -2.22561 0 41 -2.22561 1
gene 1 6 43 5 0 42 5 1
gene 1 6 44 4.59969 0 43 4.59969 1
gene 1 6 45 2.56979 0 44 2.56979 1
gene 1 6 46 1.7746 0 45 1.7746 1
gene 1 6 47 1.33752 0 46 1.33752 1
gene 1 6 48 -1.02988 0 47 -1.02988 1
gene 1 6 49 -1.91921 0 48 -1.91921 1
gene 1 7 42 -4.98913 0 49 -4.98913 1
gene 1 7 43 -3.24948 0 50 -3.24948 1
gene 1 7 44 1.84982 0 51 1.84982 1
gene 1 7 45 2.24913 0 52 2.24913 1
gene 1 7 46 0.940509 0 53 0.940509 1
gene 1 7 47 5 0 54 5 1
gene 1 7 48 -2.58393 0 55 -2.58393 1
gene 1 7 49 -1.57683 0 56 -1.57683 1
gene 1 8 42 -2.21575 0 57 -2.21575 1
gene 1 8 43 -2.62959 0 58 -2.62959 1
gene 1 8 44 -0.704101 0 59 -0.704101 1
gene 1 8 45 5 0 60 5 1
gene 1 8 46 2.92842 0 61 2.92842 1
gene 1 8 47 -3.61829 0 62 -3.61829 1
gene 1 8 48 -2.57753 0 63 -2.57753 1
gene 1 8 49 0.231931 0 64 0.231931 1
gene 1 9 42 -5 0 65 -5 1
gene 1 9 43 1.46309 0 66 1.46309 1
gene 1 9 44 1.23271 0 67 1.23271 1
gene 1 9 45 0.500202 0 68 0.500202 1
gene 1 9 46 1.66581 0 69 1.66581 1
gene 1 9 47 1.04684 0 70 1.04684 1
gene 1 9 48 0.417395 0 71 0.417395 1
gene 1 9 49 2.8168 0 72 2.8168 1
gene 1 10 42 -5 0 73 -5 1
gene 1 10 43 -3.21726 0 74 -3.21726 1
gene 1 10 44 -1.02564 0 75 -1.02564 1
gene 1 10 45 4.13418 0 76 4.13418 1
gene 1 10 46 -1.19987 0 77 -1.19987 1
gene 1 10 47 -5 0 78 -5 1
gene 1 10 48 5 0 79 5 1
gene 1 10 49 -0.472843 0 80 -0.472843 1
gene 1 11 42 1.30513 0 81 1.30513 1
gene 1 11 43 1.8927 0 82 1.8927 1
gene 1 11 44 -2.07872 0 83 -2.07872 1
gene 1 11 45 0.872516 0 84 0.872516 1
gene 1 11 46 -1.70713 0 85 -1.70713 1
gene 1 11 47 -0.735037 0 86 -0.735037 1
gene 1 11 48 1.99266 0 87 1.99266 1
gene 1 11 49 -0.80097 0 88 -0.80097 1
gene 1 12 42 -3.9064 0 89 -3.9064 1
gene 1 12 43 -1.66729 0 90 -1.66729 1
gene 1 12 44 -1.01807 0 91 -1.01807 1
gene 1 12 45 2.62303 0 92 2.62303 1
gene 1 12 46 -3.51573 0 93 -3.51573 1
gene 1 12 47 1.133 0 94 1.133 1
gene 1 12 48 -0.604096 0 95 -0.604096 1
gene 1 12 49 3.43796 0 96 3.43796 1
gene 1 13 42 1.11754 0 97 1.11754 1
gene 1 13 43 0.306707 0 98 0.306707 1
gene 1 13 44 1.51524 0 99 1.51524 1
gene 1 13 45 3.22285 0 100 3.22285 1
gene 1 13 46 -3.95788 0 101 -3.95788 1
gene 1 13 47 0.780897 0 102 0.780897 1
gene 1 13 48 -2.18548 0 103 -2.18548 1
gene 1 13 49 0.193592 0 104 0.193592 1
gene 1 14 42 -2.14686 0 105 -2.14686 1
gene 1 14 43 1.30986 0 106 1.30986 1
gene 1 14 44 -2.67082 0 107 -2.67082 1
gene 1 14 45 5 0 108 5 1
gene 1 14 46 -1.79695 0 109 -1.79695 1
gene 1 14 47 -4.57752 0 110 -4.57752 1
gene 1 14 48 -1.88514 0 111 -1.88514 1
gene 1 14 49 -1.25042 0 112 -1.25042 1
gene 1 15 42 1.8896 0 113 1.8896 1
gene 1 15 43 -2.24659 0 114 -2.24659 1
gene 1 15 44 -4.27034 0 115 -4.27034 1
gene 1 15 45 2.56026 0 116 2.56026 1
gene 1 15 46 -2.92656 0 117 -2.92656 1
gene 1 15 47 -3.52222 0 118 -3.52222 1
gene 1 15 48 -0.115923 0 119 -0.115923 1
gene 1 15 49 2.2378 0 120 2.2378 1
gene 1 16 42 -2.64569 0 121 -2.64569 1
gene 1 16 43 2.97404 0 122 2.97404 1
gene 1 16 44 -0.686952 0 123 -0.686952 1
gene 1 16 45 0.833816 0 124 0.833816 1
gene 1 16 46 -4.3371 0 125 -4.3371 1
gene 1 16 47 -0.00552379 0 126 -0.00552379 1
gene 1 16 48 -3.27487 0 127 -3.27487 1
gene 1 16 49 0.94564 0 128 0.94564 1
gene 1 17 42 -2.96858 0 129 -2.96858 1
gene 1 17 43 -4.05887 0 130 -4.05887 1
gene 1 17 44 1.76978 0 131 1.76978 1
gene 1 17 45 -2.72795 0 132 -2.72795 1
gene 1 17 46 0.609027 0 133 0.609027 1
gene 1 17 47 2.39934 0 134 2.39934 1
gene 1 17 48 -2.22673 0 135 -2.22673 1
gene 1 17 49 -1.95633 0 136 -1.95633 1
gene 1 18 42 -1.45777 0 137 -1.45777 1
gene 1 18 43 2.39153 0 138 2.39153 1
gene 1 18 44 -3.21992 0 139 -3.21992 1
gene 1 18 45 0.522366 0 140 0.522366 1
gene 1 18 46 -0.0286034 0 141 -0.0286034 1
gene 1 18 47 2.83495 0 142 2.83495 1
gene 1 18 48 1.7038 0 143 1.7038 1
gene 1 18 49 -0.16147 0 144 -0.16147 1
gene 1 19 42 0.722759 0 145 0.722759 1
gene 1 19 43 -2.41727 0 146 -2.41727 1
gene 1 19 44 1.18425 0 147 1.18425 1
gene 1 19 45 -0.850911 0 148 -0.850911 1
gene 1 19 46 -0.39588 0 149 -0.39588 1
gene 1 19 47 2.3414 0 150 2.3414 1
gene 1 19 48 3.45624 0 151 3.45624 1
gene 1 19 49 -0.697054 0 152 -0.697054 1
gene 1 20 42 0.365751 0 153 0.365751 1
gene 1 20 43 -3.20693 0 154 -3.20693 1
gene 1 20 44 0.38627 0 155 0.38627 1
gene 1 20 45 -3.88593 0 156 -3.88593 1
gene 1 20 46 1.03042 0 157 1.03042 1
gene 1 20 47 0.986133 0 158 0.986133 1
gene 1 20 48 -3.45928 0 159 -3.45928 1
gene 1 20 49 -3.15571 0 160 -3.15571 1
gene 1 21 42 -1.67631 0 161 -1.67631 1
gene 1 21 43 -4.14668 0 162 -4.14668 1
gene 1 21 44 3.47684 0 163 3.47684 1
gene 1 21 45 -4.29001 0 164 -4.29001 1
gene 1 21 46 -2.53834 0 165 -2.53834 1
gene 1 21 47 0.50644 0 166 0.50644 1
gene 1 21 48 0.404014 0 167 0.404014 1
gene 1 21 49 3.34515 0 168 3.34515 1
gene 1 22 42 0.691231 0 169 0.691231 1
gene 1 22 43 1.30657 0 170 1.30657 1
gene 1 22 44 0.31587 0 171 0.31587 1
gene 1 22 45 3.73227 0 172 3.73227 1
gene 1 22 46 -0.761014 0 173 -0.761014 1
gene 1 22 47 1.95131 0 174 1.95131 1
gene 1 22 48 -3.7187 0 175 -3.7187 1
gene 1 22 49 -3.57162 0 176 -3.57162 1
gene 1 23 42 1.30254 0 177 1.30254 1
gene 1 23 43 4.12653 0 178 4.12653 1
gene 1 23 44 -2.31809 0 179 -2.31809 1
gene 1 23 45 -1.99338 0 180 -1.99338 1
gene 1 23 46 -3.66107 0 181 -3.66107 1
gene 1 23 47 1.07498 0 182 1.07498 1
gene 1 23 48 -0.590804 0 183 -0.590804 1
gene 1 23 49 -0.0590195 0 184 -0.0590195 1
gene 1 24 42 1.51155 0 185 1.51155 1
gene 1 24 43 2.11503 0 186 2.11503 1
gene 1 24 44 3.97325 0 187 3.97325 1
gene 1 24 45 3.81977 0 188 3.81977 1
gene 1 24 46 -0.467761 0 189 -0.467761 1
gene 1 24 47 1.6591 0 190 1.6591 1
gene 1 24 48 -3.30188 0 191 -3.30188 1
gene 1 24 49 -2.27776 0 192 -2.27776 1
gene 1 25 42 -1.70993 0 193 -1.70993 1
gene 1 25 43 2.86965 0 194 2.86965 1
gene 1 25 44 3.93262 0 195 3.93262 1
gene 1 25 45 -1.49219 0 196 -1.49219 1
gene 1 25 46 1.49689 0 197 1.49689 1
gene 1 25 47 -2.66505 0 198 -2.66505 1
gene 1 25 48 -5 0 199 -5 1
gene 1 25 49 -2.85765 0 200 -2.85765 1
gene 1 26 42 -2.94107 0 201 -2.94107 1
gene 1 26 43 2.38367 0 202 2.38367 1
gene 1 26 44 1.50109 0 203 1.50109 1
gene 1 26 45 -2.25792 0 204 -2.25792 1
gene 1 26 46 2.96299 0 205 2.96299 1
gene 1 26 47 -3.38248 0 206 -3.38248 1
gene 1 26 48 1.30767 0 207 1.30767 1
gene 1 26 49 -2.06204 0 208 -2.06204 1
gene 1 27 42 -1.42416 0 209 -1.42416 1
gene 1 27 43 -4.63001 0 210 -4.63001 1
gene 1 27 44 0.079208 0 211 0.079208 1
gene 1 27 45 1.4925 0 212 1.4925 1
gene 1 27 46 -2.69175 0 213 -2.69175 1
gene 1 27 47 0.0604371 0 214 0.0604371 1
gene 1 27 48 -0.0894912 0 215 -0.0894912 1
gene 1 27 49 -3.34816 0 216 -3.34816 1
gene 1 28 42 -2.65172 0 217 -2.65172 1
gene 1 28 43 1.49984 0 218 1.49984 1
gene 1 28 44 2.36032 0 219 2.36032 1
gene 1 28 45 -4.28969 0 220 -4.28969 1
gene 1 28 46 -4.14711 0 221 -4.14711 1
gene 1 28 47 1.31134 0 222 1.31134 1
gene 1 28 48 -1.14699 0 223 -1.14699 1
gene 1 28 49 3.18341 0 224 3.18341 1
gene 1 29 42 0.064843 0 225 0.064843 1
gene 1 29 43 -3.04195 0 226 -3.04195 1
gene 1 29 44 -3.29467 0 227 -3.29467 1
gene 1 29 45 0.84621 0 228 0.84621 1
gene 1 29 46 -4.12554 0 229 -4.12554 1
gene 1 29 47 -0.421242 0 230 -0.421242 1
gene 1 29 48 1.3523 0 231 1.3523 1
gene 1 29 49 1.50856 0 232 1.50856 1
gene 1 30 42 3.78869 0 233 3.78869 1
gene 1 30 43 1.04223 0 234 1.04223 1
gene 1 30 44 3.81615 0 235 3.81615 1
gene 1 30 45 -4.015 0 236 -4.015 1
gene 1 30 46 1.05122 0 237 1.05122 1
gene 1 30 47 3.42652 0 238 3.42652 1
gene 1 30 48 0.0814551 0 239 0.0814551 1
gene 1 30 49 2.93708 0 240 2.93708 1
gene 1 31 42 5 0 241 5 1
gene 1 31 43 -1.53821 0 242 -1.53821 1
gene 1 31 44 -2.16072 0 243 -2.16072 1
gene 1 31 45 4.22625 0 244 4.22625 1
gene 1 31 46 2.75796 0 245 2.75796 1
gene 1 31 47 -1.85945 0 246 -1.85945 1
gene 1 31 48 -4.47475 0 247 -4.47475 1
gene 1 31 49 3.15001 0 248 3.15001 1
gene 1 32 42 -0.260022 0 249 -0.260022 1
gene 1 32 43 1.08521 0 250 1.08521 1
gene 1 32 44 3.36665 0 251 3.36665 1
gene 1 32 45 -4.12829 0 252 -4.12829 1
gene 1 32 46 0.669584 0 253 0.669584 1
gene 1 32 47 -0.0387186 0 254 -0.0387186 1
gene 1 32 48 -1.57694 0 255 -1.57694 1
gene 1 32 49 -1.65986 0 256 -1.65986 1
gene 1 33 42 0.939853 0 257 0.939853 1
gene 1 33 43 4.55808 0 258 4.55808 1
gene 1 33 44 0.117792 0 259 0.117792 1
gene 1 33 45 -0.961873 0 260 -0.961873 1
gene 1 33 46 -4.07506 0 261 -4.07506 1
gene 1 33 47 -0.803526 0 262 -0.803526 1
gene 1 33 48 0.596829 0 263 0.596829 1
gene 1 33 49 -1.52719 0 264 -1.52719 1
gene 1 34 42 1.45048 0 265 1.45048 1
gene 1 34 43 -0.962335 0 266 -0.962335 1
gene 1 34 44 -0.518903 0 267 -0.518903 1
gene 1 34 45 -4.01702 0 268 -4.01702 1
gene 1 34 46 0.455108 0 269 0.455108 1
gene 1 34 47 -1.13543 0 270 -1.13543 1
gene 1 34 48 3.67996 0 271 3.67996 1
gene 1 34 49 -0.223317 0 272 -0.223317 1
gene 1 35 42 0.942966 0 273 0.942966 1
gene 1 35 43 0.54754 0 274 0.54754 1
gene 1 35 44 1.03379 0 275 1.03379 1
gene 1 35 45 2.86281 0 276 2.86281 1
gene 1 35 46 -0.354986 0 277 -0.354986 1
gene 1 35 47 -0.155916 0 278 -0.155916 1
gene 1 35 48 0.840226 0 279 0.840226 1
gene 1 35 49 0.865436 0 280 0.865436 1
gene 1 36 42 0.18621 0 281 0.18621 1
gene 1 36 43 0.000473262 0 282 0.000473262 1
gene 1 36 44 0.781813 0 283 0.781813 1
gene 1 36 45 0.881102 0 284 0.881102 1
gene 1 36 46 0.617981 0 285 0.617981 1
gene 1 36 47 0.798827 0 286 0.798827 1
gene 1 36 48 1.41356 0 287 1.41356 1
gene 1 36 49 2.51044 0 288 2.51044 1
gene 1 37 42 -0.0145465 0 289 -0.0145465 1
gene 1 37 43 -0.723165 0 290 -0.723165 1
gene 1 37 44 -0.165723 0 291 -0.165723 1
gene 1 37 45 -0.796999 0 292 -0.796999 1
gene 1 37 46 -1.29669 0 293 -1.29669 1
gene 1 37 47 1.07256 0 294 1.07256 1
gene 1 37 48 -2.46087 0 295 -2.46087 1
gene 1 37 49 0.136719 0 296 0.136719 1
gene 1 38 42 -1.79374 0 297 -1.79374 1
gene 1 38 43 0.465479 0 298 0.465479 1
gene 1 38 44 -0.914066 0 299 -0.914066 1
gene 1 38 45 1.00667 0 300 1.00667 1
gene 1 38 46 0.544894 0 301 0.544894 1
gene 1 38 47 -0.707753 0 302 -0.707753 1
gene 1 38 48 -0.299772 0 303 -0.299772 1
gene 1 38 49 -0.231963 0 304 -0.231963 1
gene 1 39 42 1.19007 0 305 1.19007 1
gene 1 39 43 0.148971 0 306 0.148971 1
gene 1 39 44 3.74401 0 307 3.74401 1
gene 1 39 45 -0.204121 0 308 -0.204121 1
gene 1 39 46 0.21025 0 309 0.21025 1
gene 1 39 47 0.305964 0 310 0.305964 1
gene 1 39 48 0.303707 0 311 0.303707 1
gene 1 39 49 -4.86489 0 312 -4.86489 1
gene 1 40 42 0.270355 0 313 0.270355 1
gene 1 40 43 -0.302923 0 314 -0.302923 1
gene 1 40 44 -0.290657 0 315 -0.290657 1
gene 1 40 45 -2.18996 0 316 -2.18996 1
gene 1 40 46 -1.54953 0 317 -1.54953 1
gene 1 40 47 0.70396 0 318 0.70396 1
gene 1 40 48 1.38985 0 319 1.38985 1
gene 1 40 49 -0.850166 0 320 -0.850166 1
gene 1 41 42 -1.02754 0 321 -1.02754 1
gene 1 41 43 0.723443 0 322 0.723443 1
gene 1 41 44 -1.79211 0 323 -1.79211 1
gene 1 41 45 -0.271289 0 324 -0.271289 1
gene 1 41 46 0.545081 0 325 0.545081 1
gene 1 41 47 0.756736 0 326 0.756736 1
gene 1 41 48 -0.515138 0 327 -0.515138 1
gene 1 41 49 0.721015 0 328 0.721015 1
genomeend 3


