/* Organism #1 Fitness: 37.410000 Time: 0 */
genomestart 1
trait 1 0.000000 0.000000 0.000000 0.000000 0.000000 0.370802 0.845838 0.000000 
node 1 1 1 1
node 2 1 1 1
node 3 1 1 1
node 4 1 1 1
node 5 1 1 1
node 6 1 1 1
node 7 1 1 1
node 8 1 1 1
node 9 1 1 1
node 10 1 1 1
node 11 1 1 1
node 12 1 1 1
node 13 1 1 1
node 14 1 1 1
node 15 1 1 1
node 16 1 1 1
node 17 1 1 1
node 18 1 1 1
node 19 1 1 1
node 20 1 1 1
node 21 1 1 1
node 22 1 1 1
node 23 1 1 1
node 24 1 1 1
node 25 1 1 1
node 26 1 1 1
node 27 1 1 1
node 28 1 1 1
node 29 1 1 1
node 30 1 1 1
node 31 1 1 1
node 32 1 1 1
node 33 1 1 1
node 34 1 1 1
node 35 1 1 1
node 36 1 1 1
node 37 1 1 1
node 38 1 1 1
node 39 1 1 1
node 40 1 1 1
node 41 1 1 3
node 42 1 0 2
node 43 1 0 2
node 44 1 0 2
node 45 1 0 2
node 46 1 0 2
node 47 1 0 2
node 48 1 0 2
node 49 1 0 2
gene 1 1 42 -3.57209 0 1 -3.57209 1
gene 1 1 43 1.1971 0 2 1.1971 1
gene 1 1 44 -2.43598 0 3 -2.43598 1
gene 1 1 45 0.439563 0 4 0.439563 1
gene 1 1 46 -2.59413 0 5 -2.59413 1
gene 1 1 47 -1.22979 0 6 -1.22979 1
gene 1 1 48 2.1549 0 7 2.1549 1
gene 1 1 49 0.289102 0 8 0.289102 1
gene 1 2 42 -0.242757 0 9 -0.242757 1
gene 1 2 43 -0.689928 0 10 -0.689928 1
gene 1 2 44 0.0247348 0 11 0.0247348 1
gene 1 2 45 -0.223822 0 12 -0.223822 1
gene 1 2 46 -0.617722 0 13 -0.617722 1
gene 1 2 47 1.27665 0 14 1.27665 1
gene 1 2 48 -1.30509 0 15 -1.30509 1
gene 1 2 49 0.520823 0 16 0.520823 1
gene 1 3 42 0.054613 0 17 0.054613 1
gene 1 3 43 0.202818 0 18 0.202818 1
gene 1 3 44 -1.53313 0 19 -1.53313 1
gene 1 3 45 0.289229 0 20 0.289229 1
gene 1 3 46 2.15493 0 21 2.15493 1
gene 1 3 47 -0.970069 0 22 -0.970069 1
gene 1 3 48 -3.19701 0 23 -3.19701 1
gene 1 3 49 -1.4631 0 24 -1.4631 1
gene 1 4 42 3.93064 0 25 3.93064 1
gene 1 4 43 -0.824796 0 26 -0.824796 1
gene 1 4 44 -0.190008 0 27 -0.190008 1
gene 1 4 45 4.5898 0 28 4.5898 1
gene 1 4 46 -0.742471 0 29 -0.742471 1
gene 1 4 47 -1.61684 0 30 -1.61684 1
gene 1 4 48 -0.223788 0 31 -0.223788 1
gene 1 4 49 -1.31661 0 32 -1.31661 1
gene 1 5 42 3.51702 0 33 3.51702 1
gene 1 5 43 0.0900829 0 34 0.0900829 1
gene 1 5 44 0.963626 0 35 0.963626 1
gene 1 5 45 0.115538 0 36 0.115538 1
gene 1 5 46 -1.82204 0 37 -1.82204 1
gene 1 5 47 0.396672 0 38 0.396672 1
gene 1 5 48 -0.0971588 0 39 -0.0971588 1
gene 1 5 49 -1.25135 0 40 -1.25135 1
gene 1 6 42 1.5536 0 41 1.5536 1
gene 1 6 43 1.99929 0 42 1.99929 1
gene 1 6 44 2.02043 0 43 2.02043 1
gene 1 6 45 2.09457 0 44 2.09457 1
gene 1 6 46 1.34999 0 45 1.34999 1
gene 1 6 47 -1.03266 0 46 -1.03266 1
gene 1 6 48 2.86031 0 47 2.86031 1
gene 1 6 49 0.773215 0 48 0.773215 1
gene 1 7 42 0.717299 0 49 0.717299 1
gene 1 7 43 1.15897 0 50 1.15897 1
gene 1 7 44 -0.618763 0 51 -0.618763 1
gene 1 7 45 0.915195 0 52 0.915195 1
gene 1 7 46 2.46121 0 53 2.46121 1
gene 1 7 47 -0.0816643 0 54 -0.0816643 1
gene 1 7 48 -0.421701 0 55 -0.421701 1
gene 1 7 49 -1.59446 0 56 -1.59446 1
gene 1 8 42 -4.04819 0 57 -4.04819 1
gene 1 8 43 0.789225 0 58 0.789225 1
gene 1 8 44 -1.42733 0 59 -1.42733 1
gene 1 8 45 -0.357916 0 60 -0.357916 1
gene 1 8 46 0.922799 0 61 0.922799 1
gene 1 8 47 1.16936 0 62 1.16936 1
gene 1 8 48 3.16959 0 63 3.16959 1
gene 1 8 49 1.3021 0 64 1.3021 1
gene 1 9 42 -1.92971 0 65 -1.92971 1
gene 1 9 43 -0.159718 0 66 -0.159718 1
gene 1 9 44 1.14162 0 67 1.14162 1
gene 1 9 45 0.241697 0 68 0.241697 1
gene 1 9 46 0.988704 0 69 0.988704 1
gene 1 9 47 1.62547 0 70 1.62547 1
gene 1 9 48 -1.15735 0 71 -1.15735 1
gene 1 9 49 5 0 72 5 1
gene 1 10 42 0.80053 0 73 0.80053 1
gene 1 10 43 -0.0435927 0 74 -0.0435927 1
gene 1 10 44 0.206902 0 75 0.206902 1
gene 1 10 45 -1.34889 0 76 -1.34889 1
gene 1 10 46 1.08813 0 77 1.08813 1
gene 1 10 47 -0.00433311 0 78 -0.00433311 1
gene 1 10 48 -0.213389 0 79 -0.213389 1
gene 1 10 49 -1.23723 0 80 -1.23723 1
gene 1 11 42 0.547703 0 81 0.547703 1
gene 1 11 43 -0.29329 0 82 -0.29329 1
gene 1 11 44 -1.28234 0 83 -1.28234 1
gene 1 11 45 4.30289 0 84 4.30289 1
gene 1 11 46 1.76857 0 85 1.76857 1
gene 1 11 47 -0.803551 0 86 -0.803551 1
gene 1 11 48 -2.02 0 87 -2.02 1
gene 1 11 49 2.03959 0 88 2.03959 1
gene 1 12 42 0.244392 0 89 0.244392 1
gene 1 12 43 -0.661505 0 90 -0.661505 1
gene 1 12 44 0.854656 0 91 0.854656 1
gene 1 12 45 -1.12662 0 92 -1.12662 1
gene 1 12 46 2.25409 0 93 2.25409 1
gene 1 12 47 1.26618 0 94 1.26618 1
gene 1 12 48 -0.106743 0 95 -0.106743 1
gene 1 12 49 -1.62535 0 96 -1.62535 1
gene 1 13 42 0.606672 0 97 0.606672 1
gene 1 13 43 0.819042 0 98 0.819042 1
gene 1 13 44 -4.95299 0 99 -4.95299 1
gene 1 13 45 -0.182857 0 100 -0.182857 1
gene 1 13 46 0.448174 0 101 0.448174 1
gene 1 13 47 -0.647975 0 102 -0.647975 1
gene 1 13 48 -0.450609 0 103 -0.450609 1
gene 1 13 49 1.98119 0 104 1.98119 1
gene 1 14 42 -4.6197 0 105 -4.6197 1
gene 1 14 43 0.487598 0 106 0.487598 1
gene 1 14 44 -0.927772 0 107 -0.927772 1
gene 1 14 45 1.83592 0 108 1.83592 1
gene 1 14 46 0.186584 0 109 0.186584 1
gene 1 14 47 0.0293202 0 110 0.0293202 1
gene 1 14 48 0.125109 0 111 0.125109 1
gene 1 14 49 0.217101 0 112 0.217101 1
gene 1 15 42 -0.559216 0 113 -0.559216 1
gene 1 15 43 -1.34735 0 114 -1.34735 1
gene 1 15 44 -0.648575 0 115 -0.648575 1
gene 1 15 45 0.353194 0 116 0.353194 1
gene 1 15 46 -1.05762 0 117 -1.05762 1
gene 1 15 47 0.686608 0 118 0.686608 1
gene 1 15 48 -0.317651 0 119 -0.317651 1
gene 1 15 49 0.38165 0 120 0.38165 1
gene 1 16 42 -1.21238 0 121 -1.21238 1
gene 1 16 43 -0.126524 0 122 -0.126524 1
gene 1 16 44 0.31634 0 123 0.31634 1
gene 1 16 45 2.64409 0 124 2.64409 1
gene 1 16 46 1.99604 0 125 1.99604 1
gene 1 16 47 1.06054 0 126 1.06054 1
gene 1 16 48 0.153402 0 127 0.153402 1
gene 1 16 49 1.79833 0 128 1.79833 1
gene 1 17 42 -0.747847 0 129 -0.747847 1
gene 1 17 43 -0.943031 0 130 -0.943031 1
gene 1 17 44 1.71164 0 131 1.71164 1
gene 1 17 45 -0.958049 0 132 -0.958049 1
gene 1 17 46 -0.341389 0 133 -0.341389 1
gene 1 17 47 -0.131152 0 134 -0.131152 1
gene 1 17 48 -0.378691 0 135 -0.378691 1
gene 1 17 49 -0.00681005 0 136 -0.00681005 1
gene 1 18 42 -1.4792 0 137 -1.4792 1
gene 1 18 43 1.33063 0 138 1.33063 1
gene 1 18 44 -2.06832 0 139 -2.06832 1
gene 1 18 45 3.28726 0 140 3.28726 1
gene 1 18 46 0.944353 0 141 0.944353 1
gene 1 18 47 -0.560918 0 142 -0.560918 1
gene 1 18 48 0.520532 0 143 0.520532 1
gene 1 18 49 -0.765217 0 144 -0.765217 1
gene 1 19 42 -2.24547 0 145 -2.24547 1
gene 1 19 43 -0.729985 0 146 -0.729985 1
gene 1 19 44 -2.04376 0 147 -2.04376 1
gene 1 19 45 -0.195112 0 148 -0.195112 1
gene 1 19 46 0.518351 0 149 0.518351 1
gene 1 19 47 4.48672 0 150 4.48672 1
gene 1 19 48 -0.556501 0 151 -0.556501 1
gene 1 19 49 1.66294 0 152 1.66294 1
gene 1 20 42 -2.74807 0 153 -2.74807 1
gene 1 20 43 0.62107 0 154 0.62107 1
gene 1 20 44 1.171 0 155 1.171 1
gene 1 20 45 -2.17226 0 156 -2.17226 1
gene 1 20 46 0.932743 0 157 0.932743 1
gene 1 20 47 1.42036 0 158 1.42036 1
gene 1 20 48 0.61992 0 159 0.61992 1
gene 1 20 49 1.12929 0 160 1.12929 1
gene 1 21 42 0.621529 0 161 0.621529 1
gene 1 21 43 0.168309 0 162 0.168309 1
gene 1 21 44 -1.48678 0 163 -1.48678 1
gene 1 21 45 -3.4882 0 164 -3.4882 1
gene 1 21 46 -0.397173 0 165 -0.397173 1
gene 1 21 47 -0.910248 0 166 -0.910248 1
gene 1 21 48 -2.05031 0 167 -2.05031 1
gene 1 21 49 3.93503 0 168 3.93503 1
gene 1 22 42 4.80656 0 169 4.80656 1
gene 1 22 43 3.71754 0 170 3.71754 1
gene 1 22 44 0.299271 0 171 0.299271 1
gene 1 22 45 -0.474093 0 172 -0.474093 1
gene 1 22 46 -1.07266 0 173 -1.07266 1
gene 1 22 47 0.594353 0 174 0.594353 1
gene 1 22 48 -3.95529 0 175 -3.95529 1
gene 1 22 49 0.777399 0 176 0.777399 1
gene 1 23 42 1.1065 0 177 1.1065 1
gene 1 23 43 -0.146501 0 178 -0.146501 1
gene 1 23 44 -0.923254 0 179 -0.923254 1
gene 1 23 45 2.55387 0 180 2.55387 1
gene 1 23 46 -1.67099 0 181 -1.67099 1
gene 1 23 47 0.324598 0 182 0.324598 1
gene 1 23 48 1.06234 0 183 1.06234 1
gene 1 23 49 2.69748 0 184 2.69748 1
gene 1 24 42 0.828222 0 185 0.828222 1
gene 1 24 43 0.757606 0 186 0.757606 1
gene 1 24 44 -1.82536 0 187 -1.82536 1
gene 1 24 45 -0.364937 0 188 -0.364937 1
gene 1 24 46 -0.412542 0 189 -0.412542 1
gene 1 24 47 -4.07779 0 190 -4.07779 1
gene 1 24 48 -1.72768 0 191 -1.72768 1
gene 1 24 49 -2.53139 0 192 -2.53139 1
gene 1 25 42 -0.132384 0 193 -0.132384 1
gene 1 25 43 1.02328 0 194 1.02328 1
gene 1 25 44 1.8365 0 195 1.8365 1
gene 1 25 45 -1.17717 0 196 -1.17717 1
gene 1 25 46 -0.343779 0 197 -0.343779 1
gene 1 25 47 2.9386 0 198 2.9386 1
gene 1 25 48 -2.27454 0 199 -2.27454 1
gene 1 25 49 -0.175598 0 200 -0.175598 1
gene 1 26 42 -0.987826 0 201 -0.987826 1
gene 1 26 43 0.697175 0 202 0.697175 1
gene 1 26 44 -0.151791 0 203 -0.151791 1
gene 1 26 45 -1.04026 0 204 -1.04026 1
gene 1 26 46 -2.23252 0 205 -2.23252 1
gene 1 26 47 1.36722 0 206 1.36722 1
gene 1 26 48 1.08988 0 207 1.08988 1
gene 1 26 49 -0.420237 0 208 -0.420237 1
gene 1 27 42 1.52577 0 209 1.52577 1
gene 1 27 43 -0.602295 0 210 -0.602295 1
gene 1 27 44 -2.0194 0 211 -2.0194 1
gene 1 27 45 -0.95509 0 212 -0.95509 1
gene 1 27 46 -0.0520978 0 213 -0.0520978 1
gene 1 27 47 -1.29958 0 214 -1.29958 1
gene 1 27 48 -2.13522 0 215 -2.13522 1
gene 1 27 49 -0.111795 0 216 -0.111795 1
gene 1 28 42 1.25356 0 217 1.25356 1
gene 1 28 43 0.141783 0 218 0.141783 1
gene 1 28 44 0.255128 0 219 0.255128 1
gene 1 28 45 1.91313 0 220 1.91313 1
gene 1 28 46 0.695093 0 221 0.695093 1
gene 1 28 47 0.0931209 0 222 0.0931209 1
gene 1 28 48 -0.108 0 223 -0.108 1
gene 1 28 49 0.363368 0 224 0.363368 1
gene 1 29 42 0.238954 0 225 0.238954 1
gene 1 29 43 -0.225038 0 226 -0.225038 1
gene 1 29 44 -3.56103 0 227 -3.56103 1
gene 1 29 45 -0.165767 0 228 -0.165767 1
gene 1 29 46 0.101005 0 229 0.101005 1
gene 1 29 47 -2.56287 0 230 -2.56287 1
gene 1 29 48 -1.13131 0 231 -1.13131 1
gene 1 29 49 0.739086 0 232 0.739086 1
gene 1 30 42 -1.2988 0 233 -1.2988 1
gene 1 30 43 0.290502 0 234 0.290502 1
gene 1 30 44 -0.569982 0 235 -0.569982 1
gene 1 30 45 0.281161 0 236 0.281161 1
gene 1 30 46 -2.73606 0 237 -2.73606 1
gene 1 30 47 0.428215 0 238 0.428215 1
gene 1 30 48 0.562514 0 239 0.562514 1
gene 1 30 49 -1.75647 0 240 -1.75647 1
gene 1 31 42 0.0786182 0 241 0.0786182 1
gene 1 31 43 1.31642 0 242 1.31642 1
gene 1 31 44 1.44167 0 243 1.44167 1
gene 1 31 45 0.536392 0 244 0.536392 1
gene 1 31 46 1.48137 0 245 1.48137 1
gene 1 31 47 -1.20646 0 246 -1.20646 1
gene 1 31 48 -1.29798 0 247 -1.29798 1
gene 1 31 49 -0.854433 0 248 -0.854433 1
gene 1 32 42 -3.74082 0 249 -3.74082 1
gene 1 32 43 -0.914983 0 250 -0.914983 1
gene 1 32 44 2.85013 0 251 2.85013 1
gene 1 32 45 -1.07906 0 252 -1.07906 1
gene 1 32 46 -0.420642 0 253 -0.420642 1
gene 1 32 47 1.13587 0 254 1.13587 1
gene 1 32 48 -0.494188 0 255 -0.494188 1
gene 1 32 49 1.94834 0 256 1.94834 1
gene 1 33 42 -0.814635 0 257 -0.814635 1
gene 1 33 43 0.15438 0 258 0.15438 1
gene 1 33 44 0.706625 0 259 0.706625 1
gene 1 33 45 3.89251 0 260 3.89251 1
gene 1 33 46 -1.61159 0 261 -1.61159 1
gene 1 33 47 -1.21622 0 262 -1.21622 1
gene 1 33 48 -0.103496 0 263 -0.103496 1
gene 1 33 49 -0.641576 0 264 -0.641576 1
gene 1 34 42 2.67169 0 265 2.67169 1
gene 1 34 43 0.241142 0 266 0.241142 1
gene 1 34 44 -0.135 0 267 -0.135 1
gene 1 34 45 0.325501 0 268 0.325501 1
gene 1 34 46 -2.84159 0 269 -2.84159 1
gene 1 34 47 1.58047 0 270 1.58047 1
gene 1 34 48 -0.328359 0 271 -0.328359 1
gene 1 34 49 -0.0138241 0 272 -0.0138241 1
gene 1 35 42 2.08783 0 273 2.08783 1
gene 1 35 43 1.07164 0 274 1.07164 1
gene 1 35 44 -0.970501 0 275 -0.970501 1
gene 1 35 45 -0.5673 0 276 -0.5673 1
gene 1 35 46 1.69066 0 277 1.69066 1
gene 1 35 47 -1.43076 0 278 -1.43076 1
gene 1 35 48 0.285198 0 279 0.285198 1
gene 1 35 49 -0.268911 0 280 -0.268911 1
gene 1 36 42 0.460964 0 281 0.460964 1
gene 1 36 43 1.05058 0 282 1.05058 1
gene 1 36 44 1.27744 0 283 1.27744 1
gene 1 36 45 2.84414 0 284 2.84414 1
gene 1 36 46 -2.48686 0 285 -2.48686 1
gene 1 36 47 -0.446001 0 286 -0.446001 1
gene 1 36 48 -0.0801099 0 287 -0.0801099 1
gene 1 36 49 0.026059 0 288 0.026059 1
gene 1 37 42 0.708641 0 289 0.708641 1
gene 1 37 43 -0.13991 0 290 -0.13991 1
gene 1 37 44 0.0895413 0 291 0.0895413 1
gene 1 37 45 0.472028 0 292 0.472028 1
gene 1 37 46 0.43573 0 293 0.43573 1
gene 1 37 47 -0.926562 0 294 -0.926562 1
gene 1 37 48 -0.941984 0 295 -0.941984 1
gene 1 37 49 -0.351499 0 296 -0.351499 1
gene 1 38 42 -0.503005 0 297 -0.503005 1
gene 1 38 43 1.03416 0 298 1.03416 1
gene 1 38 44 -0.99025 0 299 -0.99025 1
gene 1 38 45 0.0475577 0 300 0.0475577 1
gene 1 38 46 0.944928 0 301 0.944928 1
gene 1 38 47 -0.0674913 0 302 -0.0674913 1
gene 1 38 48 0.119132 0 303 0.119132 1
gene 1 38 49 0.390273 0 304 0.390273 1
gene 1 39 42 0.342256 0 305 0.342256 1
gene 1 39 43 1.73261 0 306 1.73261 1
gene 1 39 44 0.490936 0 307 0.490936 1
gene 1 39 45 -0.782854 0 308 -0.782854 1
gene 1 39 46 0.307553 0 309 0.307553 1
gene 1 39 47 -0.72341 0 310 -0.72341 1
gene 1 39 48 -0.943673 0 311 -0.943673 1
gene 1 39 49 -0.138224 0 312 -0.138224 1
gene 1 40 42 0.116895 0 313 0.116895 1
gene 1 40 43 -2.73036 0 314 -2.73036 1
gene 1 40 44 -0.322727 0 315 -0.322727 1
gene 1 40 45 0.196033 0 316 0.196033 1
gene 1 40 46 0.916001 0 317 0.916001 1
gene 1 40 47 -0.35271 0 318 -0.35271 1
gene 1 40 48 -2.22782 0 319 -2.22782 1
gene 1 40 49 1.67727 0 320 1.67727 1
gene 1 41 42 -1.32343 0 321 -1.32343 1
gene 1 41 43 4.83144 0 322 4.83144 1
gene 1 41 44 -3.67991 0 323 -3.67991 1
gene 1 41 45 0.99592 0 324 0.99592 1
gene 1 41 46 -0.0467613 0 325 -0.0467613 1
gene 1 41 47 -0.138249 0 326 -0.138249 1
gene 1 41 48 0.0496715 0 327 0.0496715 1
gene 1 41 49 2.32661 0 328 2.32661 1
genomeend 1


