/* Organism #3 Fitness: 26.450000 Time: 0 */
genomestart 3
trait 1 0.009650 0.772190 0.794408 0.239293 0.134720 0.000000 0.000000 1.000000 
node 1 1 1 1
node 2 1 1 1
node 3 1 1 1
node 4 1 1 1
node 5 1 1 1
node 6 1 1 1
node 7 1 1 1
node 8 1 1 1
node 9 1 1 1
node 10 1 1 1
node 11 1 1 1
node 12 1 1 1
node 13 1 1 1
node 14 1 1 1
node 15 1 1 1
node 16 1 1 1
node 17 1 1 1
node 18 1 1 1
node 19 1 1 1
node 20 1 1 1
node 21 1 1 1
node 22 1 1 1
node 23 1 1 1
node 24 1 1 1
node 25 1 1 1
node 26 1 1 1
node 27 1 1 1
node 28 1 1 1
node 29 1 1 1
node 30 1 1 1
node 31 1 1 1
node 32 1 1 1
node 33 1 1 1
node 34 1 1 1
node 35 1 1 1
node 36 1 1 1
node 37 1 1 1
node 38 1 1 1
node 39 1 1 1
node 40 1 1 1
node 41 1 1 3
node 42 1 0 2
node 43 1 0 2
node 44 1 0 2
node 45 1 0 2
node 46 1 0 2
node 47 1 0 2
node 48 1 0 2
node 49 1 0 2
gene 1 1 42 -1.72686 0 1 -1.72686 1
gene 1 1 43 -1.06139 0 2 -1.06139 1
gene 1 1 44 0.752634 0 3 0.752634 1
gene 1 1 45 -0.678776 0 4 -0.678776 1
gene 1 1 46 4.95569 0 5 4.95569 1
gene 1 1 47 -0.610071 0 6 -0.610071 1
gene 1 1 48 2.44111 0 7 2.44111 1
gene 1 1 49 -2.61387 0 8 -2.61387 1
gene 1 2 42 -4.80116 0 9 -4.80116 1
gene 1 2 43 2.56988 0 10 2.56988 1
gene 1 2 44 -1.56521 0 11 -1.56521 1
gene 1 2 45 3.90898 0 12 3.90898 1
gene 1 2 46 0.0307185 0 13 0.0307185 1
gene 1 2 47 -1.25894 0 14 -1.25894 1
gene 1 2 48 3.4403 0 15 3.4403 1
gene 1 2 49 -3.80032 0 16 -3.80032 1
gene 1 3 42 1.25331 0 17 1.25331 1
gene 1 3 43 2.66262 0 18 2.66262 1
gene 1 3 44 0.659332 0 19 0.659332 1
gene 1 3 45 2.68356 0 20 2.68356 1
gene 1 3 46 4.54676 0 21 4.54676 1
gene 1 3 47 5 0 22 5 1
gene 1 3 48 -4.27015 0 23 -4.27015 1
gene 1 3 49 -2.49575 0 24 -2.49575 1
gene 1 4 42 -1.02846 0 25 -1.02846 1
gene 1 4 43 4.41114 0 26 4.41114 1
gene 1 4 44 3.90462 0 27 3.90462 1
gene 1 4 45 0.279977 0 28 0.279977 1
gene 1 4 46 -2.29723 0 29 -2.29723 1
gene 1 4 47 1.85919 0 30 1.85919 1
gene 1 4 48 3.40634 0 31 3.40634 1
gene 1 4 49 -4.91713 0 32 -4.91713 1
gene 1 5 42 -2.29434 0 33 -2.29434 1
gene 1 5 43 2.43241 0 34 2.43241 1
gene 1 5 44 5 0 35 5 1
gene 1 5 45 0.274835 0 36 0.274835 1
gene 1 5 46 2.91585 0 37 2.91585 1
gene 1 5 47 -2.32402 0 38 -2.32402 1
gene 1 5 48 -3.53989 0 39 -3.53989 1
gene 1 5 49 -4.45772 0 40 -4.45772 1
gene 1 6 42 3.20806 0 41 3.20806 1
gene 1 6 43 -2.65919 0 42 -2.65919 1
gene 1 6 44 3.6692 0 43 3.6692 1
gene 1 6 45 0.172447 0 44 0.172447 1
gene 1 6 46 2.10295 0 45 2.10295 1
gene 1 6 47 -0.773519 0 46 -0.773519 1
gene 1 6 48 -3.55317 0 47 -3.55317 1
gene 1 6 49 2.32709 0 48 2.32709 1
gene 1 7 42 1.17848 0 49 1.17848 1
gene 1 7 43 -2.56801 0 50 -2.56801 1
gene 1 7 44 -1.79748 0 51 -1.79748 1
gene 1 7 45 -2.56292 0 52 -2.56292 1
gene 1 7 46 -4.35608 0 53 -4.35608 1
gene 1 7 47 -0.92174 0 54 -0.92174 1
gene 1 7 48 1.35069 0 55 1.35069 1
gene 1 7 49 1.51435 0 56 1.51435 1
gene 1 8 42 -1.23109 0 57 -1.23109 1
gene 1 8 43 -1.45506 0 58 -1.45506 1
gene 1 8 44 0.634957 0 59 0.634957 1
gene 1 8 45 3.19364 0 60 3.19364 1
gene 1 8 46 0.693204 0 61 0.693204 1
gene 1 8 47 3.17659 0 62 3.17659 1
gene 1 8 48 -2.22525 0 63 -2.22525 1
gene 1 8 49 -1.47235 0 64 -1.47235 1
gene 1 9 42 -4.27366 0 65 -4.27366 1
gene 1 9 43 5 0 66 5 1
gene 1 9 44 -3.82257 0 67 -3.82257 1
gene 1 9 45 4.18954 0 68 4.18954 1
gene 1 9 46 0.444171 0 69 0.444171 1
gene 1 9 47 0.891671 0 70 0.891671 1
gene 1 9 48 4.02949 0 71 4.02949 1
gene 1 9 49 0.307545 0 72 0.307545 1
gene 1 10 42 -0.381969 0 73 -0.381969 1
gene 1 10 43 -1.82457 0 74 -1.82457 1
gene 1 10 44 3.67529 0 75 3.67529 1
gene 1 10 45 5 0 76 5 1
gene 1 10 46 -4.52147 0 77 -4.52147 1
gene 1 10 47 -4.68378 0 78 -4.68378 1
gene 1 10 48 -0.422056 0 79 -0.422056 1
gene 1 10 49 -0.800517 0 80 -0.800517 1
gene 1 11 42 0.233824 0 81 0.233824 1
gene 1 11 43 -2.42809 0 82 -2.42809 1
gene 1 11 44 0.530279 0 83 0.530279 1
gene 1 11 45 -1.22177 0 84 -1.22177 1
gene 1 11 46 1.51572 0 85 1.51572 1
gene 1 11 47 -1.08546 0 86 -1.08546 1
gene 1 11 48 -2.04445 0 87 -2.04445 1
gene 1 11 49 1.56573 0 88 1.56573 1
gene 1 12 42 3.4112 0 89 3.4112 1
gene 1 12 43 1.00233 0 90 1.00233 1
gene 1 12 44 -5 0 91 -5 1
gene 1 12 45 3.63903 0 92 3.63903 1
gene 1 12 46 1.28969 0 93 1.28969 1
gene 1 12 47 -0.25928 0 94 -0.25928 1
gene 1 12 48 1.96704 0 95 1.96704 1
gene 1 12 49 -4.07305 0 96 -4.07305 1
gene 1 13 42 -0.035712 0 97 -0.035712 1
gene 1 13 43 1.47485 0 98 1.47485 1
gene 1 13 44 0.226007 0 99 0.226007 1
gene 1 13 45 0.798626 0 100 0.798626 1
gene 1 13 46 1.11515 0 101 1.11515 1
gene 1 13 47 0.301997 0 102 0.301997 1
gene 1 13 48 0.0547296 0 103 0.0547296 1
gene 1 13 49 1.21505 0 104 1.21505 1
gene 1 14 42 -3.18699 0 105 -3.18699 1
gene 1 14 43 -1.10076 0 106 -1.10076 1
gene 1 14 44 -0.593055 0 107 -0.593055 1
gene 1 14 45 0.2132 0 108 0.2132 1
gene 1 14 46 -3.95396 0 109 -3.95396 1
gene 1 14 47 -2.69504 0 110 -2.69504 1
gene 1 14 48 0.0565121 0 111 0.0565121 1
gene 1 14 49 -3.47049 0 112 -3.47049 1
gene 1 15 42 3.0729 0 113 3.0729 1
gene 1 15 43 0.303657 0 114 0.303657 1
gene 1 15 44 -2.53117 0 115 -2.53117 1
gene 1 15 45 3.92075 0 116 3.92075 1
gene 1 15 46 3.21554 0 117 3.21554 1
gene 1 15 47 -0.0444325 0 118 -0.0444325 1
gene 1 15 48 -1.18298 0 119 -1.18298 1
gene 1 15 49 -1.28427 0 120 -1.28427 1
gene 1 16 42 -2.17143 0 121 -2.17143 1
gene 1 16 43 -0.174216 0 122 -0.174216 1
gene 1 16 44 0.090936 0 123 0.090936 1
gene 1 16 45 4.32303 0 124 4.32303 1
gene 1 16 46 -2.19619 0 125 -2.19619 1
gene 1 16 47 2.20298 0 126 2.20298 1
gene 1 16 48 -0.923766 0 127 -0.923766 1
gene 1 16 49 -1.59966 0 128 -1.59966 1
gene 1 17 42 -1.71778 0 129 -1.71778 1
gene 1 17 43 -2.99583 0 130 -2.99583 1
gene 1 17 44 2.20259 0 131 2.20259 1
gene 1 17 45 1.36924 0 132 1.36924 1
gene 1 17 46 -2.24012 0 133 -2.24012 1
gene 1 17 47 1.20176 0 134 1.20176 1
gene 1 17 48 3.35781 0 135 3.35781 1
gene 1 17 49 -0.514467 0 136 -0.514467 1
gene 1 18 42 1.22344 0 137 1.22344 1
gene 1 18 43 -1.07962 0 138 -1.07962 1
gene 1 18 44 -1.7414 0 139 -1.7414 1
gene 1 18 45 2.0087 0 140 2.0087 1
gene 1 18 46 1.82608 0 141 1.82608 1
gene 1 18 47 -1.31 0 142 -1.31 1
gene 1 18 48 -1.62299 0 143 -1.62299 1
gene 1 18 49 -2.14861 0 144 -2.14861 1
gene 1 19 42 3.47073 0 145 3.47073 1
gene 1 19 43 0.896371 0 146 0.896371 1
gene 1 19 44 2.1888 0 147 2.1888 1
gene 1 19 45 0.088181 0 148 0.088181 1
gene 1 19 46 2.63553 0 149 2.63553 1
gene 1 19 47 2.87058 0 150 2.87058 1
gene 1 19 48 -1.25849 0 151 -1.25849 1
gene 1 19 49 -0.276122 0 152 -0.276122 1
gene 1 20 42 3.43364 0 153 3.43364 1
gene 1 20 43 1.83248 0 154 1.83248 1
gene 1 20 44 -1.41425 0 155 -1.41425 1
gene 1 20 45 0.789989 0 156 0.789989 1
gene 1 20 46 -2.05146 0 157 -2.05146 1
gene 1 20 47 1.45164 0 158 1.45164 1
gene 1 20 48 1.51149 0 159 1.51149 1
gene 1 20 49 -2.179 0 160 -2.179 1
gene 1 21 42 3.13968 0 161 3.13968 1
gene 1 21 43 -2.3924 0 162 -2.3924 1
gene 1 21 44 0.93362 0 163 0.93362 1
gene 1 21 45 0.867779 0 164 0.867779 1
gene 1 21 46 -1.36622 0 165 -1.36622 1
gene 1 21 47 2.13226 0 166 2.13226 1
gene 1 21 48 2.70278 0 167 2.70278 1
gene 1 21 49 -2.22676 0 168 -2.22676 1
gene 1 22 42 0.502901 0 169 0.502901 1
gene 1 22 43 2.46323 0 170 2.46323 1
gene 1 22 44 0.241824 0 171 0.241824 1
gene 1 22 45 -0.394812 0 172 -0.394812 1
gene 1 22 46 1.18006 0 173 1.18006 1
gene 1 22 47 1.18254 0 174 1.18254 1
gene 1 22 48 1.55254 0 175 1.55254 1
gene 1 22 49 -0.830192 0 176 -0.830192 1
gene 1 23 42 1.11041 0 177 1.11041 1
gene 1 23 43 5 0 178 5 1
gene 1 23 44 1.88865 0 179 1.88865 1
gene 1 23 45 -0.380049 0 180 -0.380049 1
gene 1 23 46 -1.21348 0 181 -1.21348 1
gene 1 23 47 -0.933482 0 182 -0.933482 1
gene 1 23 48 1.28961 0 183 1.28961 1
gene 1 23 49 0.383204 0 184 0.383204 1
gene 1 24 42 -1.39074 0 185 -1.39074 1
gene 1 24 43 -0.16594 0 186 -0.16594 1
gene 1 24 44 0.11976 0 187 0.11976 1
gene 1 24 45 1.26297 0 188 1.26297 1
gene 1 24 46 -1.24203 0 189 -1.24203 1
gene 1 24 47 -0.167204 0 190 -0.167204 1
gene 1 24 48 -3.05803 0 191 -3.05803 1
gene 1 24 49 1.29105 0 192 1.29105 1
gene 1 25 42 1.2558 0 193 1.2558 1
gene 1 25 43 -1.04116 0 194 -1.04116 1
gene 1 25 44 0.271223 0 195 0.271223 1
gene 1 25 45 4.86936 0 196 4.86936 1
gene 1 25 46 1.72342 0 197 1.72342 1
gene 1 25 47 -1.14082 0 198 -1.14082 1
gene 1 25 48 -4.25177 0 199 -4.25177 1
gene 1 25 49 2.42136 0 200 2.42136 1
gene 1 26 42 -0.961934 0 201 -0.961934 1
gene 1 26 43 0.650948 0 202 0.650948 1
gene 1 26 44 -1.6061 0 203 -1.6061 1
gene 1 26 45 -0.0686247 0 204 -0.0686247 1
gene 1 26 46 5 0 205 5 1
gene 1 26 47 -1.52918 0 206 -1.52918 1
gene 1 26 48 2.22908 0 207 2.22908 1
gene 1 26 49 -1.47845 0 208 -1.47845 1
gene 1 27 42 -2.04185 0 209 -2.04185 1
gene 1 27 43 2.86168 0 210 2.86168 1
gene 1 27 44 -1.14722 0 211 -1.14722 1
gene 1 27 45 -3.15826 0 212 -3.15826 1
gene 1 27 46 -4.3852 0 213 -4.3852 1
gene 1 27 47 2.4999 0 214 2.4999 1
gene 1 27 48 0.248423 0 215 0.248423 1
gene 1 27 49 1.63609 0 216 1.63609 1
gene 1 28 42 -0.884906 0 217 -0.884906 1
gene 1 28 43 -4.11268 0 218 -4.11268 1
gene 1 28 44 -0.998554 0 219 -0.998554 1
gene 1 28 45 -1.3683 0 220 -1.3683 1
gene 1 28 46 -3.65844 0 221 -3.65844 1
gene 1 28 47 -2.62461 0 222 -2.62461 1
gene 1 28 48 -3.94214 0 223 -3.94214 1
gene 1 28 49 1.20283 0 224 1.20283 1
gene 1 29 42 0.607254 0 225 0.607254 1
gene 1 29 43 0.693438 0 226 0.693438 1
gene 1 29 44 -3.06621 0 227 -3.06621 1
gene 1 29 45 2.16303 0 228 2.16303 1
gene 1 29 46 -2.30207 0 229 -2.30207 1
gene 1 29 47 1.00258 0 230 1.00258 1
gene 1 29 48 -0.275583 0 231 -0.275583 1
gene 1 29 49 2.03044 0 232 2.03044 1
gene 1 30 42 -4.22585 0 233 -4.22585 1
gene 1 30 43 0.302237 0 234 0.302237 1
gene 1 30 44 -0.403194 0 235 -0.403194 1
gene 1 30 45 3.68904 0 236 3.68904 1
gene 1 30 46 1.04674 0 237 1.04674 1
gene 1 30 47 0.610753 0 238 0.610753 1
gene 1 30 48 3.2079 0 239 3.2079 1
gene 1 30 49 1.71791 0 240 1.71791 1
gene 1 31 42 -1.60181 0 241 -1.60181 1
gene 1 31 43 0.708984 0 242 0.708984 1
gene 1 31 44 -2.21055 0 243 -2.21055 1
gene 1 31 45 0.514901 0 244 0.514901 1
gene 1 31 46 -1.24334 0 245 -1.24334 1
gene 1 31 47 1.33154 0 246 1.33154 1
gene 1 31 48 -1.00106 0 247 -1.00106 1
gene 1 31 49 -0.00309465 0 248 -0.00309465 1
gene 1 32 42 -2.38423 0 249 -2.38423 1
gene 1 32 43 -0.559836 0 250 -0.559836 1
gene 1 32 44 1.16064 0 251 1.16064 1
gene 1 32 45 1.80683 0 252 1.80683 1
gene 1 32 46 4.96468 0 253 4.96468 1
gene 1 32 47 0.816494 0 254 0.816494 1
gene 1 32 48 3.33817 0 255 3.33817 1
gene 1 32 49 -0.754834 0 256 -0.754834 1
gene 1 33 42 -1.66052 0 257 -1.66052 1
gene 1 33 43 -1.08761 0 258 -1.08761 1
gene 1 33 44 -3.89028 0 259 -3.89028 1
gene 1 33 45 -0.567128 0 260 -0.567128 1
gene 1 33 46 1.42803 0 261 1.42803 1
gene 1 33 47 1.27586 0 262 1.27586 1
gene 1 33 48 0.754005 0 263 0.754005 1
gene 1 33 49 0.0348448 0 264 0.0348448 1
gene 1 34 42 -1.31111 0 265 -1.31111 1
gene 1 34 43 0.991843 0 266 0.991843 1
gene 1 34 44 -0.514037 0 267 -0.514037 1
gene 1 34 45 0.832864 0 268 0.832864 1
gene 1 34 46 0.304621 0 269 0.304621 1
gene 1 34 47 0.215037 0 270 0.215037 1
gene 1 34 48 0.111179 0 271 0.111179 1
gene 1 34 49 -0.305226 0 272 -0.305226 1
gene 1 35 42 0.242109 0 273 0.242109 1
gene 1 35 43 0.284882 0 274 0.284882 1
gene 1 35 44 -0.446669 0 275 -0.446669 1
gene 1 35 45 -0.0641403 0 276 -0.0641403 1
gene 1 35 46 0.621085 0 277 0.621085 1
gene 1 35 47 1.00469 0 278 1.00469 1
gene 1 35 48 -1.96708 0 279 -1.96708 1
gene 1 35 49 0.70891 0 280 0.70891 1
gene 1 36 42 -0.569738 0 281 -0.569738 1
gene 1 36 43 -1.33736 0 282 -1.33736 1
gene 1 36 44 1.30116 0 283 1.30116 1
gene 1 36 45 1.37291 0 284 1.37291 1
gene 1 36 46 0.37998 0 285 0.37998 1
gene 1 36 47 -2.56367 0 286 -2.56367 1
gene 1 36 48 0.674352 0 287 0.674352 1
gene 1 36 49 -1.50484 0 288 -1.50484 1
gene 1 37 42 0.924794 0 289 0.924794 1
gene 1 37 43 -2.43032 0 290 -2.43032 1
gene 1 37 44 1.0847 0 291 1.0847 1
gene 1 37 45 0.0831787 0 292 0.0831787 1
gene 1 37 46 0.113733 0 293 0.113733 1
gene 1 37 47 -0.99414 0 294 -0.99414 1
gene 1 37 48 -1.75374 0 295 -1.75374 1
gene 1 37 49 0.801328 0 296 0.801328 1
gene 1 38 42 -0.97548 0 297 -0.97548 1
gene 1 38 43 -0.9105 0 298 -0.9105 1
gene 1 38 44 -0.318374 0 299 -0.318374 1
gene 1 38 45 0.257871 0 300 0.257871 1
gene 1 38 46 1.09878 0 301 1.09878 1
gene 1 38 47 -0.286457 0 302 -0.286457 1
gene 1 38 48 -0.460749 0 303 -0.460749 1
gene 1 38 49 -0.907408 0 304 -0.907408 1
gene 1 39 42 0.932244 0 305 0.932244 1
gene 1 39 43 0.937677 0 306 0.937677 1
gene 1 39 44 -3.14414 0 307 -3.14414 1
gene 1 39 45 0.687364 0 308 0.687364 1
gene 1 39 46 -2.24826 0 309 -2.24826 1
gene 1 39 47 0.481027 0 310 0.481027 1
gene 1 39 48 2.44077 0 311 2.44077 1
gene 1 39 49 0.783584 0 312 0.783584 1
gene 1 40 42 -0.147902 0 313 -0.147902 1
gene 1 40 43 1.49615 0 314 1.49615 1
gene 1 40 44 1.00182 0 315 1.00182 1
gene 1 40 45 -0.199302 0 316 -0.199302 1
gene 1 40 46 1.50892 0 317 1.50892 1
gene 1 40 47 0.322368 0 318 0.322368 1
gene 1 40 48 2.66531 0 319 2.66531 1
gene 1 40 49 -1.71197 0 320 -1.71197 1
gene 1 41 42 -2.10937 0 321 -2.10937 1
gene 1 41 43 0.100257 0 322 0.100257 1
gene 1 41 44 -2.6019 0 323 -2.6019 1
gene 1 41 45 -0.402374 0 324 -0.402374 1
gene 1 41 46 1.76814 0 325 1.76814 1
gene 1 41 47 0.39588 0 326 0.39588 1
gene 1 41 48 -0.471148 0 327 -0.471148 1
gene 1 41 49 0.16329 0 328 0.16329 1
genomeend 3


