/* Organism #0 Fitness: 26.450000 Time: 0 */
genomestart 0
trait 1 0.100000 0.000000 0.000000 0.683364 0.580228 0.000000 0.000000 0.000000 
node 1 1 1 1
node 2 1 1 1
node 3 1 1 1
node 4 1 1 1
node 5 1 1 1
node 6 1 1 1
node 7 1 1 1
node 8 1 1 1
node 9 1 1 1
node 10 1 1 1
node 11 1 1 1
node 12 1 1 1
node 13 1 1 1
node 14 1 1 1
node 15 1 1 1
node 16 1 1 1
node 17 1 1 1
node 18 1 1 1
node 19 1 1 1
node 20 1 1 1
node 21 1 1 1
node 22 1 1 1
node 23 1 1 1
node 24 1 1 1
node 25 1 1 1
node 26 1 1 1
node 27 1 1 1
node 28 1 1 1
node 29 1 1 1
node 30 1 1 1
node 31 1 1 1
node 32 1 1 1
node 33 1 1 1
node 34 1 1 1
node 35 1 1 1
node 36 1 1 1
node 37 1 1 1
node 38 1 1 1
node 39 1 1 1
node 40 1 1 1
node 41 1 1 3
node 42 1 0 2
node 43 1 0 2
node 44 1 0 2
node 45 1 0 2
node 46 1 0 2
node 47 1 0 2
node 48 1 0 2
node 49 1 0 2
gene 1 1 42 1.40323 0 1 1.40323 1
gene 1 1 43 0.675641 0 2 0.675641 1
gene 1 1 44 -1.11614 0 3 -1.11614 1
gene 1 1 45 -4.2248 0 4 -4.2248 1
gene 1 1 46 0.415703 0 5 0.415703 1
gene 1 1 47 0.00384024 0 6 0.00384024 1
gene 1 1 48 -0.533399 0 7 -0.533399 1
gene 1 1 49 -0.744616 0 8 -0.744616 1
gene 1 2 42 -0.625973 0 9 -0.625973 1
gene 1 2 43 2.68395 0 10 2.68395 1
gene 1 2 44 -0.932135 0 11 -0.932135 1
gene 1 2 45 4.42138 0 12 4.42138 1
gene 1 2 46 -0.352429 0 13 -0.352429 1
gene 1 2 47 -2.39417 0 14 -2.39417 1
gene 1 2 48 -0.443545 0 15 -0.443545 1
gene 1 2 49 -5 0 16 -5 1
gene 1 3 42 -1.78037 0 17 -1.78037 1
gene 1 3 43 2.43122 0 18 2.43122 1
gene 1 3 44 0.587988 0 19 0.587988 1
gene 1 3 45 1.90742 0 20 1.90742 1
gene 1 3 46 -3.0628 0 21 -3.0628 1
gene 1 3 47 -0.5361 0 22 -0.5361 1
gene 1 3 48 -0.0767137 0 23 -0.0767137 1
gene 1 3 49 3.39877 0 24 3.39877 1
gene 1 4 42 -2.59055 0 25 -2.59055 1
gene 1 4 43 3.14926 0 26 3.14926 1
gene 1 4 44 2.36703 0 27 2.36703 1
gene 1 4 45 -2.43492 0 28 -2.43492 1
gene 1 4 46 -0.925575 0 29 -0.925575 1
gene 1 4 47 0.131183 0 30 0.131183 1
gene 1 4 48 -0.413574 0 31 -0.413574 1
gene 1 4 49 2.45192 0 32 2.45192 1
gene 1 5 42 -1.09065 0 33 -1.09065 1
gene 1 5 43 -0.149992 0 34 -0.149992 1
gene 1 5 44 4.4697 0 35 4.4697 1
gene 1 5 45 -0.341028 0 36 -0.341028 1
gene 1 5 46 3.93413 0 37 3.93413 1
gene 1 5 47 -0.10501 0 38 -0.10501 1
gene 1 5 48 4.45989 0 39 4.45989 1
gene 1 5 49 -2.16288 0 40 -2.16288 1
gene 1 6 42 -0.340402 0 41 -0.340402 1
gene 1 6 43 3.13324 0 42 3.13324 1
gene 1 6 44 2.72952 0 43 2.72952 1
gene 1 6 45 -2.59892 0 44 -2.59892 1
gene 1 6 46 1.45478 0 45 1.45478 1
gene 1 6 47 -1.9595 0 46 -1.9595 1
gene 1 6 48 -4.17467 0 47 -4.17467 1
gene 1 6 49 0.30349 0 48 0.30349 1
gene 1 7 42 1.56878 0 49 1.56878 1
gene 1 7 43 -2.18231 0 50 -2.18231 1
gene 1 7 44 2.60253 0 51 2.60253 1
gene 1 7 45 1.14301 0 52 1.14301 1
gene 1 7 46 -1.25314 0 53 -1.25314 1
gene 1 7 47 0.318732 0 54 0.318732 1
gene 1 7 48 1.56253 0 55 1.56253 1
gene 1 7 49 -1.09363 0 56 -1.09363 1
gene 1 8 42 2.09998 0 57 2.09998 1
gene 1 8 43 0.0190774 0 58 0.0190774 1
gene 1 8 44 -1.30571 0 59 -1.30571 1
gene 1 8 45 -1.10465 0 60 -1.10465 1
gene 1 8 46 0.691298 0 61 0.691298 1
gene 1 8 47 1.31025 0 62 1.31025 1
gene 1 8 48 0.0505475 0 63 0.0505475 1
gene 1 8 49 -2.42108 0 64 -2.42108 1
gene 1 9 42 -1.27297 0 65 -1.27297 1
gene 1 9 43 1.40915 0 66 1.40915 1
gene 1 9 44 1.193 0 67 1.193 1
gene 1 9 45 -1.19215 0 68 -1.19215 1
gene 1 9 46 0.118994 0 69 0.118994 1
gene 1 9 47 0.21968 0 70 0.21968 1
gene 1 9 48 2.29418 0 71 2.29418 1
gene 1 9 49 -3.3881 0 72 -3.3881 1
gene 1 10 42 0.980271 0 73 0.980271 1
gene 1 10 43 -1.37956 0 74 -1.37956 1
gene 1 10 44 -0.549198 0 75 -0.549198 1
gene 1 10 45 -1.67407 0 76 -1.67407 1
gene 1 10 46 -3.52251 0 77 -3.52251 1
gene 1 10 47 0.549493 0 78 0.549493 1
gene 1 10 48 -0.360008 0 79 -0.360008 1
gene 1 10 49 -0.902835 0 80 -0.902835 1
gene 1 11 42 1.59263 0 81 1.59263 1
gene 1 11 43 1.52304 0 82 1.52304 1
gene 1 11 44 -1.98201 0 83 -1.98201 1
gene 1 11 45 3.13616 0 84 3.13616 1
gene 1 11 46 5 0 85 5 1
gene 1 11 47 -1.752 0 86 -1.752 1
gene 1 11 48 3.00619 0 87 3.00619 1
gene 1 11 49 -3.62403 0 88 -3.62403 1
gene 1 12 42 0.769254 0 89 0.769254 1
gene 1 12 43 -0.0960532 0 90 -0.0960532 1
gene 1 12 44 0.0819398 0 91 0.0819398 1
gene 1 12 45 3.29384 0 92 3.29384 1
gene 1 12 46 0.216119 0 93 0.216119 1
gene 1 12 47 -2.97059 0 94 -2.97059 1
gene 1 12 48 -0.889532 0 95 -0.889532 1
gene 1 12 49 0.95274 0 96 0.95274 1
gene 1 13 42 -2.03623 0 97 -2.03623 1
gene 1 13 43 0.186868 0 98 0.186868 1
gene 1 13 44 1.24838 0 99 1.24838 1
gene 1 13 45 2.73778 0 100 2.73778 1
gene 1 13 46 1.58469 0 101 1.58469 1
gene 1 13 47 0.667124 0 102 0.667124 1
gene 1 13 48 -1.10601 0 103 -1.10601 1
gene 1 13 49 5 0 104 5 1
gene 1 14 42 0.857534 0 105 0.857534 1
gene 1 14 43 -0.450802 0 106 -0.450802 1
gene 1 14 44 0.936044 0 107 0.936044 1
gene 1 14 45 -3.01734 0 108 -3.01734 1
gene 1 14 46 1.3021 0 109 1.3021 1
gene 1 14 47 -2.35361 0 110 -2.35361 1
gene 1 14 48 -1.06301 0 111 -1.06301 1
gene 1 14 49 2.92503 0 112 2.92503 1
gene 1 15 42 1.21563 0 113 1.21563 1
gene 1 15 43 1.73887 0 114 1.73887 1
gene 1 15 44 -2.25721 0 115 -2.25721 1
gene 1 15 45 2.09753 0 116 2.09753 1
gene 1 15 46 -1.15579 0 117 -1.15579 1
gene 1 15 47 -1.63147 0 118 -1.63147 1
gene 1 15 48 1.11006 0 119 1.11006 1
gene 1 15 49 1.84506 0 120 1.84506 1
gene 1 16 42 -0.172356 0 121 -0.172356 1
gene 1 16 43 -0.952411 0 122 -0.952411 1
gene 1 16 44 -0.907625 0 123 -0.907625 1
gene 1 16 45 0.129919 0 124 0.129919 1
gene 1 16 46 0.109934 0 125 0.109934 1
gene 1 16 47 4.23732 0 126 4.23732 1
gene 1 16 48 -4.06619 0 127 -4.06619 1
gene 1 16 49 1.27986 0 128 1.27986 1
gene 1 17 42 3.49374 0 129 3.49374 1
gene 1 17 43 0.11332 0 130 0.11332 1
gene 1 17 44 -2.8776 0 131 -2.8776 1
gene 1 17 45 -1.52912 0 132 -1.52912 1
gene 1 17 46 -1.14309 0 133 -1.14309 1
gene 1 17 47 0.689795 0 134 0.689795 1
gene 1 17 48 -2.5922 0 135 -2.5922 1
gene 1 17 49 -2.21234 0 136 -2.21234 1
gene 1 18 42 3.4582 0 137 3.4582 1
gene 1 18 43 -3.38491 0 138 -3.38491 1
gene 1 18 44 0.247305 0 139 0.247305 1
gene 1 18 45 -2.59608 0 140 -2.59608 1
gene 1 18 46 -3.57028 0 141 -3.57028 1
gene 1 18 47 -0.946555 0 142 -0.946555 1
gene 1 18 48 2.44573 0 143 2.44573 1
gene 1 18 49 -0.0711773 0 144 -0.0711773 1
gene 1 19 42 -1.40019 0 145 -1.40019 1
gene 1 19 43 -5 0 146 -5 1
gene 1 19 44 -1.11489 0 147 -1.11489 1
gene 1 19 45 -0.923486 0 148 -0.923486 1
gene 1 19 46 -0.653238 0 149 -0.653238 1
gene 1 19 47 -0.690178 0 150 -0.690178 1
gene 1 19 48 1.40948 0 151 1.40948 1
gene 1 19 49 -1.13641 0 152 -1.13641 1
gene 1 20 42 -1.3035 0 153 -1.3035 1
gene 1 20 43 -0.0333349 0 154 -0.0333349 1
gene 1 20 44 2.60131 0 155 2.60131 1
gene 1 20 45 -1.43111 0 156 -1.43111 1
gene 1 20 46 -0.618839 0 157 -0.618839 1
gene 1 20 47 0.674326 0 158 0.674326 1
gene 1 20 48 -1.22761 0 159 -1.22761 1
gene 1 20 49 -0.16992 0 160 -0.16992 1
gene 1 21 42 5 0 161 5 1
gene 1 21 43 0.876568 0 162 0.876568 1
gene 1 21 44 0.153792 0 163 0.153792 1
gene 1 21 45 3.76146 0 164 3.76146 1
gene 1 21 46 -0.539593 0 165 -0.539593 1
gene 1 21 47 -0.214163 0 166 -0.214163 1
gene 1 21 48 -4.63566 0 167 -4.63566 1
gene 1 21 49 -0.271937 0 168 -0.271937 1
gene 1 22 42 -2.56091 0 169 -2.56091 1
gene 1 22 43 -3.36114 0 170 -3.36114 1
gene 1 22 44 1.73455 0 171 1.73455 1
gene 1 22 45 0.016505 0 172 0.016505 1
gene 1 22 46 -0.542524 0 173 -0.542524 1
gene 1 22 47 -1.05107 0 174 -1.05107 1
gene 1 22 48 1.74267 0 175 1.74267 1
gene 1 22 49 2.94091 0 176 2.94091 1
gene 1 23 42 -3.83235 0 177 -3.83235 1
gene 1 23 43 1.10291 0 178 1.10291 1
gene 1 23 44 5 0 179 5 1
gene 1 23 45 -3.52403 0 180 -3.52403 1
gene 1 23 46 2.77502 0 181 2.77502 1
gene 1 23 47 3.84523 0 182 3.84523 1
gene 1 23 48 -0.742722 0 183 -0.742722 1
gene 1 23 49 0.348194 0 184 0.348194 1
gene 1 24 42 2.58329 0 185 2.58329 1
gene 1 24 43 -0.25326 0 186 -0.25326 1
gene 1 24 44 2.71654 0 187 2.71654 1
gene 1 24 45 1.18992 0 188 1.18992 1
gene 1 24 46 -1.72783 0 189 -1.72783 1
gene 1 24 47 5 0 190 5 1
gene 1 24 48 -0.0365619 0 191 -0.0365619 1
gene 1 24 49 2.50101 0 192 2.50101 1
gene 1 25 42 -1.1158 0 193 -1.1158 1
gene 1 25 43 0.178894 0 194 0.178894 1
gene 1 25 44 1.93599 0 195 1.93599 1
gene 1 25 45 0.818734 0 196 0.818734 1
gene 1 25 46 3.62809 0 197 3.62809 1
gene 1 25 47 -0.616131 0 198 -0.616131 1
gene 1 25 48 2.80968 0 199 2.80968 1
gene 1 25 49 -3.28327 0 200 -3.28327 1
gene 1 26 42 2.28322 0 201 2.28322 1
gene 1 26 43 -2.79908 0 202 -2.79908 1
gene 1 26 44 4.47116 0 203 4.47116 1
gene 1 26 45 2.66746 0 204 2.66746 1
gene 1 26 46 -2.08679 0 205 -2.08679 1
gene 1 26 47 3.41435 0 206 3.41435 1
gene 1 26 48 0.322375 0 207 0.322375 1
gene 1 26 49 1.53003 0 208 1.53003 1
gene 1 27 42 -1.21145 0 209 -1.21145 1
gene 1 27 43 2.61271 0 210 2.61271 1
gene 1 27 44 3.28028 0 211 3.28028 1
gene 1 27 45 -2.44533 0 212 -2.44533 1
gene 1 27 46 0.113797 0 213 0.113797 1
gene 1 27 47 3.06025 0 214 3.06025 1
gene 1 27 48 -3.14223 0 215 -3.14223 1
gene 1 27 49 -0.503363 0 216 -0.503363 1
gene 1 28 42 1.365 0 217 1.365 1
gene 1 28 43 1.2994 0 218 1.2994 1
gene 1 28 44 4.15393 0 219 4.15393 1
gene 1 28 45 -0.293183 0 220 -0.293183 1
gene 1 28 46 0.874279 0 221 0.874279 1
gene 1 28 47 -2.76113 0 222 -2.76113 1
gene 1 28 48 -0.534259 0 223 -0.534259 1
gene 1 28 49 -3.48586 0 224 -3.48586 1
gene 1 29 42 -3.56301 0 225 -3.56301 1
gene 1 29 43 -1.3793 0 226 -1.3793 1
gene 1 29 44 -5 0 227 -5 1
gene 1 29 45 0.181502 0 228 0.181502 1
gene 1 29 46 -0.948264 0 229 -0.948264 1
gene 1 29 47 1.51984 0 230 1.51984 1
gene 1 29 48 3.39151 0 231 3.39151 1
gene 1 29 49 -0.131193 0 232 -0.131193 1
gene 1 30 42 3.27623 0 233 3.27623 1
gene 1 30 43 2.16355 0 234 2.16355 1
gene 1 30 44 0.750902 0 235 0.750902 1
gene 1 30 45 -5 0 236 -5 1
gene 1 30 46 2.63635 0 237 2.63635 1
gene 1 30 47 0.563493 0 238 0.563493 1
gene 1 30 48 -2.787 0 239 -2.787 1
gene 1 30 49 -0.597431 0 240 -0.597431 1
gene 1 31 42 3.09601 0 241 3.09601 1
gene 1 31 43 1.15157 0 242 1.15157 1
gene 1 31 44 -0.62932 0 243 -0.62932 1
gene 1 31 45 4.03643 0 244 4.03643 1
gene 1 31 46 1.47828 0 245 1.47828 1
gene 1 31 47 3.55364 0 246 3.55364 1
gene 1 31 48 2.40019 0 247 2.40019 1
gene 1 31 49 2.10885 0 248 2.10885 1
gene 1 32 42 0.525662 0 249 0.525662 1
gene 1 32 43 -2.48858 0 250 -2.48858 1
gene 1 32 44 -0.0828376 0 251 -0.0828376 1
gene 1 32 45 -1.29494 0 252 -1.29494 1
gene 1 32 46 -3.21999 0 253 -3.21999 1
gene 1 32 47 -2.79689 0 254 -2.79689 1
gene 1 32 48 -0.242166 0 255 -0.242166 1
gene 1 32 49 -0.495494 0 256 -0.495494 1
gene 1 33 42 0.187893 0 257 0.187893 1
gene 1 33 43 -2.79614 0 258 -2.79614 1
gene 1 33 44 1.73275 0 259 1.73275 1
gene 1 33 45 -0.0407769 0 260 -0.0407769 1
gene 1 33 46 -4.10989 0 261 -4.10989 1
gene 1 33 47 -2.43721 0 262 -2.43721 1
gene 1 33 48 -0.548525 0 263 -0.548525 1
gene 1 33 49 0.208679 0 264 0.208679 1
gene 1 34 42 0.555917 0 265 0.555917 1
gene 1 34 43 0.535495 0 266 0.535495 1
gene 1 34 44 0.734723 0 267 0.734723 1
gene 1 34 45 -0.194858 0 268 -0.194858 1
gene 1 34 46 -0.0656214 0 269 -0.0656214 1
gene 1 34 47 -0.914809 0 270 -0.914809 1
gene 1 34 48 -0.198211 0 271 -0.198211 1
gene 1 34 49 0.507321 0 272 0.507321 1
gene 1 35 42 -0.604971 0 273 -0.604971 1
gene 1 35 43 0.859757 0 274 0.859757 1
gene 1 35 44 -0.0435382 0 275 -0.0435382 1
gene 1 35 45 0.775023 0 276 0.775023 1
gene 1 35 46 0.0674878 0 277 0.0674878 1
gene 1 35 47 -0.555517 0 278 -0.555517 1
gene 1 35 48 -0.665121 0 279 -0.665121 1
gene 1 35 49 0.645651 0 280 0.645651 1
gene 1 36 42 0.405754 0 281 0.405754 1
gene 1 36 43 0.25154 0 282 0.25154 1
gene 1 36 44 -0.783282 0 283 -0.783282 1
gene 1 36 45 -1.03355 0 284 -1.03355 1
gene 1 36 46 -0.0942835 0 285 -0.0942835 1
gene 1 36 47 -1.53285 0 286 -1.53285 1
gene 1 36 48 -0.939549 0 287 -0.939549 1
gene 1 36 49 -0.894182 0 288 -0.894182 1
gene 1 37 42 -0.793172 0 289 -0.793172 1
gene 1 37 43 1.52808 0 290 1.52808 1
gene 1 37 44 -1.0463 0 291 -1.0463 1
gene 1 37 45 -2.39366 0 292 -2.39366 1
gene 1 37 46 -1.55333 0 293 -1.55333 1
gene 1 37 47 0.091708 0 294 0.091708 1
gene 1 37 48 -1.5132 0 295 -1.5132 1
gene 1 37 49 -0.759063 0 296 -0.759063 1
gene 1 38 42 0.442732 0 297 0.442732 1
gene 1 38 43 -0.658376 0 298 -0.658376 1
gene 1 38 44 1.04298 0 299 1.04298 1
gene 1 38 45 -0.0577121 0 300 -0.0577121 1
gene 1 38 46 -0.595741 0 301 -0.595741 1
gene 1 38 47 1.6049 0 302 1.6049 1
gene 1 38 48 0.604701 0 303 0.604701 1
gene 1 38 49 -1.30736 0 304 -1.30736 1
gene 1 39 42 0.786207 0 305 0.786207 1
gene 1 39 43 -0.686236 0 306 -0.686236 1
gene 1 39 44 0.0324378 0 307 0.0324378 1
gene 1 39 45 0.382887 0 308 0.382887 1
gene 1 39 46 -0.0429184 0 309 -0.0429184 1
gene 1 39 47 1.58819 0 310 1.58819 1
gene 1 39 48 -0.390653 0 311 -0.390653 1
gene 1 39 49 0.23465 0 312 0.23465 1
gene 1 40 42 -1.2988 0 313 -1.2988 1
gene 1 40 43 1.46608 0 314 1.46608 1
gene 1 40 44 -3.25888 0 315 -3.25888 1
gene 1 40 45 -0.994264 0 316 -0.994264 1
gene 1 40 46 0.140824 0 317 0.140824 1
gene 1 40 47 -0.599929 0 318 -0.599929 1
gene 1 40 48 -0.398616 0 319 -0.398616 1
gene 1 40 49 1.87046 0 320 1.87046 1
gene 1 41 42 -0.934354 0 321 -0.934354 1
gene 1 41 43 1.2735 0 322 1.2735 1
gene 1 41 44 -1.88405 0 323 -1.88405 1
gene 1 41 45 0.542129 0 324 0.542129 1
gene 1 41 46 -0.36105 0 325 -0.36105 1
gene 1 41 47 0.238763 0 326 0.238763 1
gene 1 41 48 0.00235569 0 327 0.00235569 1
gene 1 41 49 0.981543 0 328 0.981543 1
genomeend 0


