/* Organism #1 Fitness: 28.420000 Time: 0 */
genomestart 1
trait 1 0.062078 0.716772 0.000000 0.000000 0.384244 0.350201 0.132776 0.271510 
node 1 1 1 1
node 2 1 1 1
node 3 1 1 1
node 4 1 1 1
node 5 1 1 1
node 6 1 1 1
node 7 1 1 1
node 8 1 1 1
node 9 1 1 1
node 10 1 1 1
node 11 1 1 1
node 12 1 1 1
node 13 1 1 1
node 14 1 1 1
node 15 1 1 1
node 16 1 1 1
node 17 1 1 1
node 18 1 1 1
node 19 1 1 1
node 20 1 1 1
node 21 1 1 1
node 22 1 1 1
node 23 1 1 1
node 24 1 1 1
node 25 1 1 1
node 26 1 1 1
node 27 1 1 1
node 28 1 1 1
node 29 1 1 1
node 30 1 1 1
node 31 1 1 1
node 32 1 1 1
node 33 1 1 1
node 34 1 1 1
node 35 1 1 1
node 36 1 1 1
node 37 1 1 1
node 38 1 1 1
node 39 1 1 1
node 40 1 1 1
node 41 1 1 3
node 42 1 0 2
node 43 1 0 2
node 44 1 0 2
node 45 1 0 2
node 46 1 0 2
node 47 1 0 2
node 48 1 0 2
node 49 1 0 2
gene 1 1 42 -3.90708 0 1 -3.90708 1
gene 1 1 43 1.3935 0 2 1.3935 1
gene 1 1 44 1.84639 0 3 1.84639 1
gene 1 1 45 -2.41039 0 4 -2.41039 1
gene 1 1 46 1.19087 0 5 1.19087 1
gene 1 1 47 -0.729665 0 6 -0.729665 1
gene 1 1 48 -4.87595 0 7 -4.87595 1
gene 1 1 49 2.57543 0 8 2.57543 1
gene 1 2 42 -0.0671742 0 9 -0.0671742 1
gene 1 2 43 1.65833 0 10 1.65833 1
gene 1 2 44 1.85047 0 11 1.85047 1
gene 1 2 45 3.06552 0 12 3.06552 1
gene 1 2 46 1.18812 0 13 1.18812 1
gene 1 2 47 -0.439418 0 14 -0.439418 1
gene 1 2 48 -0.47616 0 15 -0.47616 1
gene 1 2 49 -1.28817 0 16 -1.28817 1
gene 1 3 42 1.34227 0 17 1.34227 1
gene 1 3 43 0.378229 0 18 0.378229 1
gene 1 3 44 -0.088032 0 19 -0.088032 1
gene 1 3 45 -0.498529 0 20 -0.498529 1
gene 1 3 46 -0.546097 0 21 -0.546097 1
gene 1 3 47 1.65209 0 22 1.65209 1
gene 1 3 48 3.01909 0 23 3.01909 1
gene 1 3 49 -0.323877 0 24 -0.323877 1
gene 1 4 42 -4.0397 0 25 -4.0397 1
gene 1 4 43 2.94894 0 26 2.94894 1
gene 1 4 44 -0.197895 0 27 -0.197895 1
gene 1 4 45 -4.11666 0 28 -4.11666 1
gene 1 4 46 -0.617438 0 29 -0.617438 1
gene 1 4 47 3.85752 0 30 3.85752 1
gene 1 4 48 0.875494 0 31 0.875494 1
gene 1 4 49 2.99493 0 32 2.99493 1
gene 1 5 42 -4.17685 0 33 -4.17685 1
gene 1 5 43 3.14746 0 34 3.14746 1
gene 1 5 44 -4.60037 0 35 -4.60037 1
gene 1 5 45 -4.72337 0 36 -4.72337 1
gene 1 5 46 -1.00089 0 37 -1.00089 1
gene 1 5 47 -0.678039 0 38 -0.678039 1
gene 1 5 48 -4.02789 0 39 -4.02789 1
gene 1 5 49 -1.0679 0 40 -1.0679 1
gene 1 6 42 -2.27263 0 41 -2.27263 1
gene 1 6 43 0.0184384 0 42 0.0184384 1
gene 1 6 44 1.74272 0 43 1.74272 1
gene 1 6 45 -1.93371 0 44 -1.93371 1
gene 1 6 46 -0.154555 0 45 -0.154555 1
gene 1 6 47 -1.78268 0 46 -1.78268 1
gene 1 6 48 -1.878 0 47 -1.878 1
gene 1 6 49 0.0779937 0 48 0.0779937 1
gene 1 7 42 0.0380409 0 49 0.0380409 1
gene 1 7 43 1.89847 0 50 1.89847 1
gene 1 7 44 0.562661 0 51 0.562661 1
gene 1 7 45 -0.850204 0 52 -0.850204 1
gene 1 7 46 -1.03977 0 53 -1.03977 1
gene 1 7 47 -2.23286 0 54 -2.23286 1
gene 1 7 48 -0.0329405 0 55 -0.0329405 1
gene 1 7 49 2.13005 0 56 2.13005 1
gene 1 8 42 -0.255372 0 57 -0.255372 1
gene 1 8 43 0.0855971 0 58 0.0855971 1
gene 1 8 44 0.400338 0 59 0.400338 1
gene 1 8 45 -1.38195 0 60 -1.38195 1
gene 1 8 46 2.07052 0 61 2.07052 1
gene 1 8 47 0.0190377 0 62 0.0190377 1
gene 1 8 48 1.4749 0 63 1.4749 1
gene 1 8 49 -0.307379 0 64 -0.307379 1
gene 1 9 42 -2.39969 0 65 -2.39969 1
gene 1 9 43 4.00705 0 66 4.00705 1
gene 1 9 44 -0.383018 0 67 -0.383018 1
gene 1 9 45 -1.21557 0 68 -1.21557 1
gene 1 9 46 0.554095 0 69 0.554095 1
gene 1 9 47 2.00634 0 70 2.00634 1
gene 1 9 48 -2.39723 0 71 -2.39723 1
gene 1 9 49 -1.62137 0 72 -1.62137 1
gene 1 10 42 1.98705 0 73 1.98705 1
gene 1 10 43 2.57869 0 74 2.57869 1
gene 1 10 44 -1.775 0 75 -1.775 1
gene 1 10 45 1.91695 0 76 1.91695 1
gene 1 10 46 1.07419 0 77 1.07419 1
gene 1 10 47 -0.708914 0 78 -0.708914 1
gene 1 10 48 1.57316 0 79 1.57316 1
gene 1 10 49 0.754797 0 80 0.754797 1
gene 1 11 42 -1.05688 0 81 -1.05688 1
gene 1 11 43 -3.58442 0 82 -3.58442 1
gene 1 11 44 0.872982 0 83 0.872982 1
gene 1 11 45 0.148232 0 84 0.148232 1
gene 1 11 46 0.389552 0 85 0.389552 1
gene 1 11 47 -1.19675 0 86 -1.19675 1
gene 1 11 48 1.9146 0 87 1.9146 1
gene 1 11 49 -2.85056 0 88 -2.85056 1
gene 1 12 42 1.22977 0 89 1.22977 1
gene 1 12 43 0.476985 0 90 0.476985 1
gene 1 12 44 0.443286 0 91 0.443286 1
gene 1 12 45 -0.389806 0 92 -0.389806 1
gene 1 12 46 5 0 93 5 1
gene 1 12 47 0.112536 0 94 0.112536 1
gene 1 12 48 1.35441 0 95 1.35441 1
gene 1 12 49 -0.00834727 0 96 -0.00834727 1
gene 1 13 42 -3.20419 0 97 -3.20419 1
gene 1 13 43 2.11246 0 98 2.11246 1
gene 1 13 44 -2.88733 0 99 -2.88733 1
gene 1 13 45 1.83858 0 100 1.83858 1
gene 1 13 46 1.76647 0 101 1.76647 1
gene 1 13 47 -0.246701 0 102 -0.246701 1
gene 1 13 48 -2.72323 0 103 -2.72323 1
gene 1 13 49 0.594838 0 104 0.594838 1
gene 1 14 42 -0.433424 0 105 -0.433424 1
gene 1 14 43 -2.97707 0 106 -2.97707 1
gene 1 14 44 2.0197 0 107 2.0197 1
gene 1 14 45 -0.278338 0 108 -0.278338 1
gene 1 14 46 -0.0545776 0 109 -0.0545776 1
gene 1 14 47 -0.565126 0 110 -0.565126 1
gene 1 14 48 -3.48 0 111 -3.48 1
gene 1 14 49 -0.822345 0 112 -0.822345 1
gene 1 15 42 -1.50155 0 113 -1.50155 1
gene 1 15 43 -1.48227 0 114 -1.48227 1
gene 1 15 44 -0.1245 0 115 -0.1245 1
gene 1 15 45 1.50179 0 116 1.50179 1
gene 1 15 46 -5 0 117 -5 1
gene 1 15 47 -1.9436 0 118 -1.9436 1
gene 1 15 48 0.924977 0 119 0.924977 1
gene 1 15 49 -0.580398 0 120 -0.580398 1
gene 1 16 42 0.0964053 0 121 0.0964053 1
gene 1 16 43 0.876713 0 122 0.876713 1
gene 1 16 44 -0.854772 0 123 -0.854772 1
gene 1 16 45 1.03736 0 124 1.03736 1
gene 1 16 46 -2.81086 0 125 -2.81086 1
gene 1 16 47 -2.66316 0 126 -2.66316 1
gene 1 16 48 0.395645 0 127 0.395645 1
gene 1 16 49 -1.21296 0 128 -1.21296 1
gene 1 17 42 -0.861924 0 129 -0.861924 1
gene 1 17 43 3.77122 0 130 3.77122 1
gene 1 17 44 2.71034 0 131 2.71034 1
gene 1 17 45 -1.69893 0 132 -1.69893 1
gene 1 17 46 -4.03147 0 133 -4.03147 1
gene 1 17 47 -0.826602 0 134 -0.826602 1
gene 1 17 48 1.10328 0 135 1.10328 1
gene 1 17 49 1.05737 0 136 1.05737 1
gene 1 18 42 -0.64521 0 137 -0.64521 1
gene 1 18 43 1.34288 0 138 1.34288 1
gene 1 18 44 -0.02005 0 139 -0.02005 1
gene 1 18 45 0.865122 0 140 0.865122 1
gene 1 18 46 0.512475 0 141 0.512475 1
gene 1 18 47 1.70628 0 142 1.70628 1
gene 1 18 48 1.9118 0 143 1.9118 1
gene 1 18 49 -1.35497 0 144 -1.35497 1
gene 1 19 42 1.33779 0 145 1.33779 1
gene 1 19 43 -1.07692 0 146 -1.07692 1
gene 1 19 44 -3.65406 0 147 -3.65406 1
gene 1 19 45 0.370387 0 148 0.370387 1
gene 1 19 46 -0.724694 0 149 -0.724694 1
gene 1 19 47 -0.631894 0 150 -0.631894 1
gene 1 19 48 1.53661 0 151 1.53661 1
gene 1 19 49 0.194193 0 152 0.194193 1
gene 1 20 42 4.6508 0 153 4.6508 1
gene 1 20 43 -4.63161 0 154 -4.63161 1
gene 1 20 44 1.27285 0 155 1.27285 1
gene 1 20 45 -0.764319 0 156 -0.764319 1
gene 1 20 46 0.19159 0 157 0.19159 1
gene 1 20 47 1.60844 0 158 1.60844 1
gene 1 20 48 4.64385 0 159 4.64385 1
gene 1 20 49 0.822356 0 160 0.822356 1
gene 1 21 42 1.93304 0 161 1.93304 1
gene 1 21 43 -0.719263 0 162 -0.719263 1
gene 1 21 44 -0.0201896 0 163 -0.0201896 1
gene 1 21 45 0.195574 0 164 0.195574 1
gene 1 21 46 0.290891 0 165 0.290891 1
gene 1 21 47 1.11288 0 166 1.11288 1
gene 1 21 48 1.95202 0 167 1.95202 1
gene 1 21 49 -2.74482 0 168 -2.74482 1
gene 1 22 42 2.61309 0 169 2.61309 1
gene 1 22 43 -0.416813 0 170 -0.416813 1
gene 1 22 44 -2.42156 0 171 -2.42156 1
gene 1 22 45 -2.30259 0 172 -2.30259 1
gene 1 22 46 3.8511 0 173 3.8511 1
gene 1 22 47 -2.66363 0 174 -2.66363 1
gene 1 22 48 -3.55848 0 175 -3.55848 1
gene 1 22 49 0.535691 0 176 0.535691 1
gene 1 23 42 -3.3919 0 177 -3.3919 1
gene 1 23 43 3.31221 0 178 3.31221 1
gene 1 23 44 -5 0 179 -5 1
gene 1 23 45 -0.538038 0 180 -0.538038 1
gene 1 23 46 3.29033 0 181 3.29033 1
gene 1 23 47 -0.459311 0 182 -0.459311 1
gene 1 23 48 -4.09407 0 183 -4.09407 1
gene 1 23 49 -0.222986 0 184 -0.222986 1
gene 1 24 42 1.94124 0 185 1.94124 1
gene 1 24 43 0.818349 0 186 0.818349 1
gene 1 24 44 -1.07694 0 187 -1.07694 1
gene 1 24 45 0.700615 0 188 0.700615 1
gene 1 24 46 -1.23389 0 189 -1.23389 1
gene 1 24 47 -1.17429 0 190 -1.17429 1
gene 1 24 48 -1.11691 0 191 -1.11691 1
gene 1 24 49 -2.48062 0 192 -2.48062 1
gene 1 25 42 0.263488 0 193 0.263488 1
gene 1 25 43 2.88385 0 194 2.88385 1
gene 1 25 44 4.10123 0 195 4.10123 1
gene 1 25 45 -0.812802 0 196 -0.812802 1
gene 1 25 46 -0.463482 0 197 -0.463482 1
gene 1 25 47 -3.70141 0 198 -3.70141 1
gene 1 25 48 2.25555 0 199 2.25555 1
gene 1 25 49 -3.14171 0 200 -3.14171 1
gene 1 26 42 2.475 0 201 2.475 1
gene 1 26 43 -3.89871 0 202 -3.89871 1
gene 1 26 44 -0.489879 0 203 -0.489879 1
gene 1 26 45 3.90011 0 204 3.90011 1
gene 1 26 46 -0.449401 0 205 -0.449401 1
gene 1 26 47 0.528291 0 206 0.528291 1
gene 1 26 48 3.80102 0 207 3.80102 1
gene 1 26 49 1.75247 0 208 1.75247 1
gene 1 27 42 0.894358 0 209 0.894358 1
gene 1 27 43 -1.28809 0 210 -1.28809 1
gene 1 27 44 -0.850965 0 211 -0.850965 1
gene 1 27 45 -1.54529 0 212 -1.54529 1
gene 1 27 46 1.34074 0 213 1.34074 1
gene 1 27 47 -1.40685 0 214 -1.40685 1
gene 1 27 48 -0.85916 0 215 -0.85916 1
gene 1 27 49 -0.53333 0 216 -0.53333 1
gene 1 28 42 1.90176 0 217 1.90176 1
gene 1 28 43 1.69913 0 218 1.69913 1
gene 1 28 44 -2.68022 0 219 -2.68022 1
gene 1 28 45 -0.48062 0 220 -0.48062 1
gene 1 28 46 2.54748 0 221 2.54748 1
gene 1 28 47 1.59168 0 222 1.59168 1
gene 1 28 48 -0.880644 0 223 -0.880644 1
gene 1 28 49 -0.785513 0 224 -0.785513 1
gene 1 29 42 1.51452 0 225 1.51452 1
gene 1 29 43 0.806263 0 226 0.806263 1
gene 1 29 44 -3.41271 0 227 -3.41271 1
gene 1 29 45 -1.87814 0 228 -1.87814 1
gene 1 29 46 -0.837933 0 229 -0.837933 1
gene 1 29 47 -2.3301 0 230 -2.3301 1
gene 1 29 48 0.284215 0 231 0.284215 1
gene 1 29 49 1.15528 0 232 1.15528 1
gene 1 30 42 -1.8234 0 233 -1.8234 1
gene 1 30 43 -2.89208 0 234 -2.89208 1
gene 1 30 44 1.18 0 235 1.18 1
gene 1 30 45 2.28602 0 236 2.28602 1
gene 1 30 46 -1.45312 0 237 -1.45312 1
gene 1 30 47 2.49785 0 238 2.49785 1
gene 1 30 48 0.85836 0 239 0.85836 1
gene 1 30 49 2.78668 0 240 2.78668 1
gene 1 31 42 -0.729507 0 241 -0.729507 1
gene 1 31 43 0.691161 0 242 0.691161 1
gene 1 31 44 0.40729 0 243 0.40729 1
gene 1 31 45 1.32296 0 244 1.32296 1
gene 1 31 46 -0.916241 0 245 -0.916241 1
gene 1 31 47 1.16779 0 246 1.16779 1
gene 1 31 48 -1.97531 0 247 -1.97531 1
gene 1 31 49 1.07467 0 248 1.07467 1
gene 1 32 42 -0.633752 0 249 -0.633752 1
gene 1 32 43 -0.857205 0 250 -0.857205 1
gene 1 32 44 -2.63846 0 251 -2.63846 1
gene 1 32 45 -1.05288 0 252 -1.05288 1
gene 1 32 46 -3.06833 0 253 -3.06833 1
gene 1 32 47 -1.15007 0 254 -1.15007 1
gene 1 32 48 5 0 255 5 1
gene 1 32 49 -3.50073 0 256 -3.50073 1
gene 1 33 42 -1.72903 0 257 -1.72903 1
gene 1 33 43 -4.28747 0 258 -4.28747 1
gene 1 33 44 3.80812 0 259 3.80812 1
gene 1 33 45 1.62465 0 260 1.62465 1
gene 1 33 46 1.80233 0 261 1.80233 1
gene 1 33 47 1.89168 0 262 1.89168 1
gene 1 33 48 -2.43713 0 263 -2.43713 1
gene 1 33 49 -0.673921 0 264 -0.673921 1
gene 1 34 42 0.747194 0 265 0.747194 1
gene 1 34 43 0.848761 0 266 0.848761 1
gene 1 34 44 1.18871 0 267 1.18871 1
gene 1 34 45 -3.14523 0 268 -3.14523 1
gene 1 34 46 -0.350013 0 269 -0.350013 1
gene 1 34 47 0.406862 0 270 0.406862 1
gene 1 34 48 2.05361 0 271 2.05361 1
gene 1 34 49 -0.737943 0 272 -0.737943 1
gene 1 35 42 -0.32077 0 273 -0.32077 1
gene 1 35 43 -0.487234 0 274 -0.487234 1
gene 1 35 44 -0.243336 0 275 -0.243336 1
gene 1 35 45 -0.886019 0 276 -0.886019 1
gene 1 35 46 -0.734573 0 277 -0.734573 1
gene 1 35 47 1.40853 0 278 1.40853 1
gene 1 35 48 0.341137 0 279 0.341137 1
gene 1 35 49 0.143038 0 280 0.143038 1
gene 1 36 42 1.2584 0 281 1.2584 1
gene 1 36 43 0.70482 0 282 0.70482 1
gene 1 36 44 -0.47896 0 283 -0.47896 1
gene 1 36 45 0.292934 0 284 0.292934 1
gene 1 36 46 -0.013379 0 285 -0.013379 1
gene 1 36 47 -0.938772 0 286 -0.938772 1
gene 1 36 48 -0.112837 0 287 -0.112837 1
gene 1 36 49 0.279095 0 288 0.279095 1
gene 1 37 42 -0.795433 0 289 -0.795433 1
gene 1 37 43 0.294895 0 290 0.294895 1
gene 1 37 44 -1.8795 0 291 -1.8795 1
gene 1 37 45 0.908601 0 292 0.908601 1
gene 1 37 46 0.685421 0 293 0.685421 1
gene 1 37 47 -0.417793 0 294 -0.417793 1
gene 1 37 48 1.82202 0 295 1.82202 1
gene 1 37 49 2.05776 0 296 2.05776 1
gene 1 38 42 0.296366 0 297 0.296366 1
gene 1 38 43 0.200855 0 298 0.200855 1
gene 1 38 44 -0.465454 0 299 -0.465454 1
gene 1 38 45 0.149461 0 300 0.149461 1
gene 1 38 46 -0.00235858 0 301 -0.00235858 1
gene 1 38 47 0.220236 0 302 0.220236 1
gene 1 38 48 -0.562285 0 303 -0.562285 1
gene 1 38 49 -0.4813 0 304 -0.4813 1
gene 1 39 42 -2.15079 0 305 -2.15079 1
gene 1 39 43 -0.124805 0 306 -0.124805 1
gene 1 39 44 -0.291895 0 307 -0.291895 1
gene 1 39 45 0.749382 0 308 0.749382 1
gene 1 39 46 -1.05153 0 309 -1.05153 1
gene 1 39 47 -0.341361 0 310 -0.341361 1
gene 1 39 48 0.99611 0 311 0.99611 1
gene 1 39 49 -2.28143 0 312 -2.28143 1
gene 1 40 42 -0.919112 0 313 -0.919112 1
gene 1 40 43 -0.552318 0 314 -0.552318 1
gene 1 40 44 1.27892 0 315 1.27892 1
gene 1 40 45 -0.361151 0 316 -0.361151 1
gene 1 40 46 -0.793769 0 317 -0.793769 1
gene 1 40 47 -1.5312 0 318 -1.5312 1
gene 1 40 48 0.0324682 0 319 0.0324682 1
gene 1 40 49 -0.551907 0 320 -0.551907 1
gene 1 41 42 0.315057 0 321 0.315057 1
gene 1 41 43 1.34414 0 322 1.34414 1
gene 1 41 44 -4.45464 0 323 -4.45464 1
gene 1 41 45 0.948991 0 324 0.948991 1
gene 1 41 46 0.371542 0 325 0.371542 1
gene 1 41 47 -0.511329 0 326 -0.511329 1
gene 1 41 48 -0.456369 0 327 -0.456369 1
gene 1 41 49 0.561418 0 328 0.561418 1
genomeend 1


